/*******************************************************************************
 * This file was automatically generated by bnn-hep package
 * https://github.com/andrey-popov/bnn-hep
 * 
 * Thu Jul 18 02:19:29 2013
 * 
 * 
 * The list of input variables:
 *  var #0: abs(EtaHiggs)
 *  var #1: abs(EtaLJet)
 *  var #2: DeltaEtaLepTop
 *  var #3: DeltaRBJetsHiggs
 *  var #4: log(MassHiggs)
 *  var #5: log(MassTop)
 *  var #6: log(MinPtBJet)
 *  var #7: NPassBTagHiggs
 *  var #8: PassBTagTop
 *  var #9: RelHt
 * 
 * From the code below, the user is expected to only use the class BNN.
 ******************************************************************************/


#ifndef THQ_RECO_3T_HPP
#define THQ_RECO_3T_HPP

#include <Rtypes.h>
#include <TMath.h>

#include <algorithm>
#include <list>
#include <string>


#ifdef USE_INTERNAL_BINARY_DISCRIMINATOR_ABSTRACT_BASE
#ifndef BINARY_DISCRIMINATOR_ABSTRACT_BASE
#define BINARY_DISCRIMINATOR_ABSTRACT_BASE

class BinaryDiscriminator
{
	public:
		virtual Double_t operator()(Double_t const *) const = 0;
};
#endif

#else
#include "BinaryDiscriminator.hpp"
#endif


namespace thq_reco_3t{

std::string const taskName("thq_reco_3t");
std::list<std::string> inputVarNames;
std::list<std::string> sgnFileNames;
std::list<std::string> bkgFileNames;

void Initialize()
{
	inputVarNames.push_back("abs(EtaHiggs)");
	inputVarNames.push_back("abs(EtaLJet)");
	inputVarNames.push_back("DeltaEtaLepTop");
	inputVarNames.push_back("DeltaRBJetsHiggs");
	inputVarNames.push_back("log(MassHiggs)");
	inputVarNames.push_back("log(MassTop)");
	inputVarNames.push_back("log(MinPtBJet)");
	inputVarNames.push_back("NPassBTagHiggs");
	inputVarNames.push_back("PassBTagTop");
	inputVarNames.push_back("RelHt");

	sgnFileNames.push_back("../tuples/thq-nc_mu.root");
	sgnFileNames.push_back("../tuples/thq-nc_e.root");
	bkgFileNames.push_back("../tuples/thq-nc_mu.root");
	bkgFileNames.push_back("../tuples/thq-nc_e.root");
}

class Transform0
{
	public:
		Transform0();
		void operator()(Double_t *vars) const;

	private:
		Double_t mean[10], sigma[10];
};

Transform0::Transform0()
{
	mean[0] = 1.31811; sigma[0] = 1.01027;
	mean[1] = 1.88082; sigma[1] = 1.2101;
	mean[2] = 0.783415; sigma[2] = 0.809194;
	mean[3] = 2.28438; sigma[3] = 1.13427;
	mean[4] = 4.93586; sigma[4] = 0.605424;
	mean[5] = 5.28753; sigma[5] = 0.379277;
	mean[6] = 3.69979; sigma[6] = 0.405183;
	mean[7] = 1.41853; sigma[7] = 0.614563;
	mean[8] = 0.694021; sigma[8] = 0.460821;
	mean[9] = 0.443929; sigma[9] = 0.165282;
}

void Transform0::operator()(Double_t *vars) const
{
	for (unsigned iVar = 0; iVar < 10; ++iVar)
		vars[iVar] = (vars[iVar] - mean[iVar]) / sigma[iVar];
}


class NN
{
	public:
		NN();
	
	public:
		void SetWeightsL1(Double_t const [15][10]);
		void SetBiasesL1(Double_t const [15]);
		void SetWeightsL2(Double_t const [1][15]);
		void SetBiasesL2(Double_t const [1]);
		Double_t const * Apply(Double_t const *) const;
	
	private:
		Double_t weightsL1[15][10];
		Double_t biasesL1[15];
		Double_t weightsL2[1][15];
		Double_t biasesL2[1];
		mutable Double_t bufferIn[15];
		mutable Double_t bufferOut[15];
};


NN::NN()
{}


void NN::SetWeightsL1(Double_t const weights[15][10])
{
	for (unsigned n = 0; n < 15; ++n)
		for (unsigned np = 0; np < 10; ++np)
			weightsL1[n][np] = weights[n][np];
}


void NN::SetBiasesL1(Double_t const biases[15])
{
	std::copy(biases, biases + 15, biasesL1);
}


void NN::SetWeightsL2(Double_t const weights[1][15])
{
	for (unsigned n = 0; n < 1; ++n)
		for (unsigned np = 0; np < 15; ++np)
			weightsL2[n][np] = weights[n][np];
}


void NN::SetBiasesL2(Double_t const biases[1])
{
	std::copy(biases, biases + 1, biasesL2);
}


Double_t const * NN::Apply(Double_t const *vars) const
{
	std::copy(vars, vars + 10, bufferIn);
	
	for (unsigned n = 0; n < 15; ++n)
	{
		bufferOut[n] = biasesL1[n];
	
		for (unsigned np = 0; np < 10; ++np)
			bufferOut[n] += weightsL1[n][np] * bufferIn[np];
	}
	
	for (unsigned n = 0; n < 15; ++n)
		bufferIn[n] = TMath::TanH(bufferOut[n]);
	
	for (unsigned n = 0; n < 1; ++n)
	{
		bufferOut[n] = biasesL2[n];
	
		for (unsigned np = 0; np < 15; ++np)
			bufferOut[n] += weightsL2[n][np] * bufferIn[np];
	}
	
	for (unsigned n = 0; n < 1; ++n)
		bufferIn[n] = 1. / (1 + TMath::Exp(-bufferOut[n]));
	
	return bufferIn;
}


class BNN: public BinaryDiscriminator
{	 public:
		BNN(UInt_t netBegin_ = 0, UInt_t netEnd_ = 50);
	
	public:
		void SetNetRange(UInt_t netBegin_, UInt_t netEnd_);
		Double_t operator()(Double_t const *vars) const;
		Double_t operator()(Double_t var0, Double_t var1, Double_t var2, Double_t var3, Double_t var4, Double_t var5, Double_t var6, Double_t var7, Double_t var8, Double_t var9) const;
	
	private:
		Double_t Apply(Double_t const *vars) const;
	
	private:
		NN nets[50];
		UInt_t netBegin, netEnd;
		Transform0 trans0;
};


BNN::BNN(UInt_t netBegin_, UInt_t netEnd_)
{
	SetNetRange(netBegin_, netEnd_);
	
	Double_t weightsL1_0[15][10] = {{0.16967, 0.10698, 0.70258, -0.20105, -1.1051, 0.29923, 0.10176, -0.31884, 0.34523, 0.31055}, {-0.83968, 0.65108, -1.46864, -0.9772, 0.65826, 0.44786, -0.22377, -0.24666, -0.17495, 0.49773}, {-0.21188, 2.03532, -0.16579, -0.39711, 0.34582, 0.14006, -0.11436, 0.53481, 0.48337, -0.70135}, {-0.50058, 0.0124, 0.5037, -0.84623, -0.32201, -0.89127, -0.08056, 1.10553, 0.43908, 0.75189}, {-0.51101, 0.22276, 0.26581, -0.09406, 0.37861, 1.29434, -0.60914, 0.47312, -0.4464, -0.19755}, {-1.13463, 0.68518, 0.21288, -0.67011, -0.48594, -0.40488, -0.28857, 1.42273, -0.05536, -0.82566}, {-0.02608, -0.9109, 0.5147, 0.00049, -0.48975, -0.02403, 1.39522, 0.82704, 1.25708, 1.03225}, {0.23501, 0.12738, 0.11348, -0.44505, 2.17953, 0.16662, -0.27646, 0.19461, 0.25694, -0.36694}, {-0.39433, -1.05308, -0.78377, -1.61703, 0.1707, 0.07148, 0.18608, -1.34013, 0.8541, 0.39789}, {0.03791, -0.11233, 0.00749, -0.58897, 0.59317, -2.07423, -0.5473, -0.1407, -0.11349, -0.81476}, {0.85533, -0.7969, 0.26273, -0.89006, -0.01805, -0.89274, 0.79991, -0.54766, 0.14779, 0.35014}, {-1.2171, 0.20512, -1.48621, 0.49295, -0.24347, -1.63411, -0.7761, 0.18483, 0.82637, -0.42004}, {0.95355, -0.06286, -0.32796, -0.89341, 0.00911, -0.54217, -0.53032, -0.407, 0.41485, -0.14218}, {0.00874, -0.05518, -0.22237, 0.43271, 2.37231, -0.16533, 0.00766, -0.22823, -0.02805, 0.1087}, {-0.48012, 0.17523, 0.09145, 0.18662, -0.97727, -1.15157, 0.93981, 1.38354, -0.6211, 0.68305}};
	Double_t biasesL1_0[15] = {-0.20419, -2.65177, 1.42182, 0.52654, -1.0196, -0.98128, -3.5848, 1.40341, -4.32335, -3.39434, 1.17801, -5.08561, 3.87367, -0.16355, 3.25406};
	nets[0].SetWeightsL1(weightsL1_0);
	nets[0].SetBiasesL1(biasesL1_0);
	
	Double_t weightsL2_0[1][15] = {{-1.19093, 0.60764, 1.66226, 1.18027, -1.55854, -0.58088, 0.87112, 1.23183, 0.47243, -1.57203, -0.78752, -1.11302, 1.96247, -2.46408, 0.71211}};
	Double_t biasesL2_0[1] = {-6.44692};
	nets[0].SetWeightsL2(weightsL2_0);
	nets[0].SetBiasesL2(biasesL2_0);
	
	Double_t weightsL1_1[15][10] = {{-0.65581, -0.33792, 0.1994, -0.17089, -1.72939, 0.30375, 0.25651, -0.6511, 0.81495, 0.26307}, {-0.55044, -0.21403, -0.51624, -0.56991, 0.2566, 0.13013, 0.03668, 0.0509, -0.08606, 0.5136}, {-0.05571, 1.63815, 0.04216, -0.35423, 0.12739, -0.2427, 0.26829, 0.33601, 0.1765, -0.4699}, {-0.56497, 0.12787, -0.19957, -0.55999, -0.41684, -0.42916, -0.11708, 0.95366, -0.293, 0.48555}, {0.26277, 0.19255, 0.38511, 0.62875, -0.54645, 1.71282, 0.3537, 0.4015, 0.30607, 0.21539}, {-0.91158, 0.86095, 0.13042, -0.58779, 0.14078, 0.53961, -0.46273, 0.26526, -0.89892, -0.25967}, {-0.11201, -0.45102, 0.28748, 0.45289, -0.24755, -0.21617, 0.22372, 0.19549, 0.84392, 0.06393}, {0.31632, 0.52805, -0.14935, -0.56427, 2.09788, 0.30785, -0.26149, 0.26611, 0.54826, -0.32188}, {0.02039, 0.78598, 0.48763, -0.8508, 0.0376, -0.44505, -0.09891, 0.03713, -0.35807, 0.3699}, {0.80094, -0.27389, 0.23259, -0.76886, 0.12223, 1.2261, -0.58386, -0.21139, -0.51262, -0.31706}, {-0.49492, -0.35753, -0.13208, -0.36355, -0.05502, -0.48129, 0.27815, -0.11835, -0.54277, -1.06356}, {-0.34045, -0.17167, -1.04857, 0.32002, -0.39743, -1.48678, -0.03536, 0.15506, 0.60777, -0.10432}, {-0.61764, -0.13515, -0.59654, 0.05789, -0.59436, 0.9648, 0.08837, 0.77694, 0.37091, -0.31571}, {0.10925, -0.19841, -0.00963, 0.05206, 2.39409, -0.15419, 0.01955, -0.13751, 0.06499, -0.11951}, {0.49421, -0.63735, -0.10489, -0.00187, 0.18309, -1.9614, 0.06755, 0.6629, -0.11195, 0.97645}};
	Double_t biasesL1_1[15] = {-0.15278, -1.40662, 0.82774, 0.74278, -0.90185, -0.37427, -1.05342, 1.36943, 1.42702, -0.85577, 1.88899, -3.44408, 1.18945, -0.25077, -0.8128};
	nets[1].SetWeightsL1(weightsL1_1);
	nets[1].SetBiasesL1(biasesL1_1);
	
	Double_t weightsL2_1[1][15] = {{-0.86503, 1.18159, 1.49128, 0.84388, -0.93223, -0.94184, 1.0484, 1.27589, 0.08415, -0.36129, -0.75871, -1.93913, 0.70713, -2.50648, -0.35199}};
	Double_t biasesL2_1[1] = {-3.41064};
	nets[1].SetWeightsL2(weightsL2_1);
	nets[1].SetBiasesL2(biasesL2_1);
	
	Double_t weightsL1_2[15][10] = {{-1.05033, -0.09414, 0.38275, -0.52208, -0.57617, 0.5671, 0.35342, -0.43057, 0.77668, 0.63594}, {-0.13994, -0.51555, -0.02605, -0.8885, -0.06713, -0.24766, -0.00245, 0.10032, -0.43422, 0.53406}, {-0.12867, 1.43152, 0.01712, -0.07528, 0.06653, -0.07863, 0.08183, 0.28347, 0.21765, -0.42375}, {-0.63008, -0.2119, -0.36487, -0.10098, -0.22129, 0.11087, -0.17506, 0.82016, 0.31416, -0.04876}, {-0.45564, 0.35621, 0.2989, 0.0502, 0.48988, 0.56467, 0.06452, -0.0052, -0.19771, -0.38347}, {-0.48013, 0.61726, 0.46313, 0.02663, -0.23344, 0.54561, 0.02385, 0.66723, -0.52502, -0.02534}, {-0.61774, -1.09037, 0.2842, -0.33096, -0.03685, -0.25839, -0.13121, 0.31677, 0.92176, 0.39667}, {0.02116, 0.35574, -0.15892, -0.19918, 2.01486, 0.06291, -0.18782, 0.22743, 0.12918, -0.21625}, {0.21629, 0.20174, -0.45163, 0.94831, -0.62219, -0.2644, 0.15392, 0.39198, 0.43951, 1.09123}, {0.33513, -0.45071, 0.35577, 0.01155, 0.78398, 1.68779, -0.53238, -0.23211, -0.8133, 0.26505}, {0.77773, -0.56094, 0.97736, 0.55431, -0.44653, -0.8429, 0.16662, 0.47533, 0.27918, -1.01267}, {-0.11079, -0.20233, -0.09069, -0.17604, 0.12741, -1.63288, -0.12609, 0.0472, 0.32171, -0.24398}, {-0.19829, -0.20531, 0.58908, -0.30876, -0.40212, -0.28429, 0.06539, 0.68848, -0.11698, 0.65766}, {0.14065, -0.18505, 0.05562, 0.34258, 2.46307, -0.11483, -0.09467, -0.43802, -0.01995, 0.10592}, {-0.40194, 0.53724, 0.56945, 0.33278, 0.28026, -0.53876, 0.05316, 0.31315, 0.57938, 0.18741}};
	Double_t biasesL1_2[15] = {-0.30619, -1.11402, 0.76303, 1.01584, -1.22661, -0.19631, -2.03677, 1.61675, -1.47101, 0.45523, 2.4407, -2.22822, 0.69245, 0.04951, -0.52102};
	nets[2].SetWeightsL1(weightsL1_2);
	nets[2].SetBiasesL1(biasesL1_2);
	
	Double_t weightsL2_2[1][15] = {{-0.65306, 0.31836, 1.86578, 0.67924, -0.63297, -1.4172, 0.75135, 1.7373, -0.22834, -0.80843, -0.89408, -2.70947, 1.12017, -1.86018, 0.20684}};
	Double_t biasesL2_2[1] = {-4.59468};
	nets[2].SetWeightsL2(weightsL2_2);
	nets[2].SetBiasesL2(biasesL2_2);
	
	Double_t weightsL1_3[15][10] = {{-0.10555, 0.09879, -0.01581, -0.73442, -1.14564, 0.65629, -0.16492, -0.26632, 0.75333, 0.07582}, {-0.03559, -0.16177, -0.08254, -0.12708, 0.46881, -0.28695, -0.91427, 0.65362, 0.05502, -1.04745}, {0.17304, 1.12388, 0.07463, -0.12011, -0.05998, -0.17005, 0.13449, 0.15917, 0.26019, -0.24226}, {-0.07591, -0.42404, -0.21999, 0.17177, 0.0402, -0.99177, -0.07334, -0.00351, 0.35494, 0.28678}, {-0.14897, -0.07026, -0.81694, 0.02155, -0.04168, -1.51457, -0.35956, -0.05777, 0.45515, -0.33537}, {-0.04205, 0.07843, 0.0305, 0.15111, -0.01618, 1.57883, 0.02903, 0.5321, -0.11976, -0.04346}, {0.44386, 0.14151, 0.5747, -0.3433, -0.35907, -0.02648, -0.25177, 0.5291, -0.09432, 0.26824}, {-0.15087, 0.21518, -0.19823, -0.10243, 1.58787, 0.18411, -0.09205, 0.2942, 0.20908, -0.27238}, {-0.45599, -0.23323, -0.27249, 0.07938, 0.01904, 0.24146, -0.502, 0.03047, 0.39088, 0.82421}, {-1.05929, 0.42862, -0.03827, -0.05629, -0.67644, 0.17308, -0.12441, 0.60357, -0.54396, -0.01831}, {0.40775, 0.47263, 0.32679, 1.29862, -0.63872, -0.28756, 0.39902, -0.47246, 0.18021, -0.07747}, {0.37198, -0.37067, 0.01428, -0.44747, 0.47662, -0.88638, 0.0087, 0.05743, -0.03459, -0.01771}, {-0.1402, -0.1223, 0.12653, -0.38362, -0.2552, -0.32048, -0.05159, 0.81527, 0.02351, 0.55378}, {0.03428, -0.08956, 0.22, 0.19399, 2.16703, -0.28139, -0.01212, -0.20125, 0.14396, -0.03741}, {-0.64902, -0.62223, 0.58747, -0.23039, -0.1121, -0.64539, 0.61109, -0.29217, 0.84424, -0.90496}};
	Double_t biasesL1_3[15] = {-0.57939, 3.7764, 0.66439, -0.0754, -3.52525, -1.36225, -0.86556, 1.01417, -2.54048, -0.86991, 1.08035, -0.62671, 0.49728, -0.06626, -1.86007};
	nets[3].SetWeightsL1(weightsL1_3);
	nets[3].SetBiasesL1(biasesL1_3);
	
	Double_t weightsL2_3[1][15] = {{-1.0123, -1.37886, 2.53645, 0.55572, -2.3485, -0.87547, -0.43189, 1.4323, 1.80561, -1.18782, -1.0085, -1.02615, 1.41125, -2.75704, 0.77469}};
	Double_t biasesL2_3[1] = {-2.55703};
	nets[3].SetWeightsL2(weightsL2_3);
	nets[3].SetBiasesL2(biasesL2_3);
	
	Double_t weightsL1_4[15][10] = {{-0.44613, -0.13592, 0.35492, -0.11948, -0.86186, 0.45497, 0.28292, -0.55723, 0.34573, 0.19648}, {0.1941, 0.72617, -0.54255, 0.40567, -0.1717, -0.07121, -0.47072, -0.06632, -1.36035, -0.22825}, {-0.02207, 1.22179, -0.16837, -0.11534, 0.2054, -0.05216, 0.08697, 0.47947, 0.22927, -0.37748}, {-0.38841, 0.92486, -0.49029, -0.44351, -1.2857, -1.07189, 0.45156, 0.13393, 0.1981, 0.23024}, {-0.10449, -0.00751, -0.31406, -0.5568, 0.33509, -1.0639, -0.19421, 0.00519, 0.04511, -0.15656}, {0.17827, 0.26382, 1.8976, 0.23812, 0.62158, -0.72205, -0.35418, 0.0301, -0.57152, 0.07758}, {0.24301, -0.26337, -0.01606, 0.09972, -0.08363, 0.98869, 0.48141, 0.25273, -0.16345, 0.67303}, {0.06688, 0.03341, 0.43247, 0.31153, 2.16069, 0.13498, 0.30071, 0.01798, -0.052, -0.03928}, {0.20134, -0.1433, -0.37158, 0.35818, -0.60161, 0.72505, -0.53239, 0.31859, 0.58278, 1.2184}, {-1.53218, 0.75338, 0.48399, -0.37959, -0.67981, 1.04939, 0.08217, 1.22085, -0.53742, -0.40952}, {0.37157, 0.16945, 0.38128, 1.37862, -0.59787, 0.02615, 0.25152, 0.2094, 0.1048, -0.07984}, {-0.06969, -1.13453, -0.56648, -0.49308, 0.4186, -0.67611, -0.19784, 0.49731, -0.15966, -0.04736}, {-0.39511, -0.00841, 0.13267, 0.04582, -0.59704, -0.09886, 0.1209, 0.92526, 0.19003, 0.60564}, {0.02736, -0.1269, -0.05169, 0.34135, 2.08901, -0.10091, -0.02799, -0.1724, -0.03579, 0.10004}, {-0.24485, -0.21997, -0.18428, 0.62445, 0.19651, -1.13811, 0.09884, -0.59223, 0.14051, 0.01907}};
	Double_t biasesL1_4[15] = {-0.439, 1.54706, 0.84039, -0.99419, -1.19641, -0.59754, 0.45911, 1.87763, -1.9918, -0.72411, 0.89775, -0.88103, 0.89618, -0.02705, 0.92086};
	nets[4].SetWeightsL1(weightsL1_4);
	nets[4].SetBiasesL1(biasesL1_4);
	
	Double_t weightsL2_4[1][15] = {{-1.42552, -1.19942, 2.01821, 0.59136, -2.4946, -0.38191, -0.99757, 1.32808, 0.73323, -0.68124, -1.44465, 0.04808, 1.45493, -2.24538, 0.75956}};
	Double_t biasesL2_4[1] = {-3.03474};
	nets[4].SetWeightsL2(weightsL2_4);
	nets[4].SetBiasesL2(biasesL2_4);
	
	Double_t weightsL1_5[15][10] = {{-0.16664, -0.34243, 0.4134, -0.1317, -1.33038, 0.29728, 0.33523, -0.68614, 0.33136, 0.35459}, {-0.04246, 0.80295, -0.68616, 0.26103, -0.58072, -0.08265, -0.48723, 0.03446, -0.92667, -0.50242}, {-1.08806, 0.87058, -0.57983, 0.42614, -0.33987, -0.19665, 0.15061, 0.57371, 0.24649, -0.64604}, {-0.40595, 0.44353, -0.59452, -0.57634, -0.85882, -0.72225, 0.49866, -0.11104, 0.39297, -0.26514}, {0.03443, 0.11005, -0.02242, -0.37826, 0.21529, -1.20025, -0.21907, -0.08383, -0.06307, -0.3136}, {-0.27695, 0.93819, -0.5396, -0.14197, -0.02402, 0.30363, -0.10556, 0.20995, 0.75886, -0.55534}, {0.21286, -0.32482, -0.08186, -0.2559, -0.16381, 1.06757, 0.48043, 0.53076, 0.02818, 0.67824}, {0.15811, -0.01381, 0.22309, -0.06892, 2.02943, 0.32919, -0.00841, 0.03022, 0.0771, -0.06338}, {-0.31736, -0.1228, 0.04576, -0.59562, 0.55262, -0.01358, -1.54897, 0.63604, 0.42215, -0.53298}, {0.2997, -0.07685, -0.25232, 0.16479, 0.12685, 0.40814, -0.32811, 0.02183, 0.24499, 0.61654}, {-0.09652, -0.50416, 1.15353, 1.49993, 0.79439, -0.19996, -0.42119, 0.51681, 0.21879, -0.71449}, {-0.00207, -1.35349, 0.15825, 0.43711, -0.25378, 0.18105, 0.07384, -0.55269, -0.34717, 0.28559}, {-0.28079, -0.3367, 0.60593, -0.07034, -1.04655, -0.13077, 0.28916, 1.19545, -0.21927, 0.80817}, {-0.25399, 0.01538, -0.02091, 0.59552, 2.28486, -0.17184, 0.11564, -0.19168, -0.04843, -0.00121}, {0.11785, -0.69243, -0.29488, 0.19628, -0.20087, -1.72182, 0.04308, -0.24771, 0.93611, 0.11346}};
	Double_t biasesL1_5[15] = {-0.26897, 1.63972, 1.82951, -0.54326, -1.43997, -0.81118, 1.00243, 1.76567, -0.95078, -1.12677, 3.60523, -0.59864, 1.82158, -0.25738, 0.7859};
	nets[5].SetWeightsL1(weightsL1_5);
	nets[5].SetBiasesL1(biasesL1_5);
	
	Double_t weightsL2_5[1][15] = {{-1.06144, -0.83181, 1.10006, 1.25985, -2.23427, -0.50074, -1.11362, 1.33831, -0.04828, 1.20006, -0.62303, -1.59326, 1.10845, -1.91065, 0.76658}};
	Double_t biasesL2_5[1] = {-3.13494};
	nets[5].SetWeightsL2(weightsL2_5);
	nets[5].SetBiasesL2(biasesL2_5);
	
	Double_t weightsL1_6[15][10] = {{-0.71575, -0.60315, 0.79714, -0.15659, -0.71306, 0.30738, -0.29542, -0.54726, 0.51735, 0.23281}, {0.50525, 0.56019, 0.24452, 1.45651, -0.48514, -0.1202, -0.67169, -0.26285, -0.33053, 0.25864}, {0.0012, -0.6296, -0.68807, 0.40685, -0.18955, 0.07166, 0.48558, 0.42755, -0.17769, 0.3394}, {1.53516, -0.23604, -0.54354, -0.00452, 0.59083, 0.77053, 0.3612, -1.18487, -0.26656, 0.90337}, {0.05195, -0.2333, -0.29407, -0.04259, -0.09947, -1.62398, 0.04324, -0.09222, 0.5778, -0.07347}, {-0.06412, -0.24638, -0.22699, 0.01625, -0.10048, 0.68271, 0.35193, -0.12796, 0.26008, -0.15754}, {0.81941, 0.12094, -0.39048, 0.22626, -0.11059, -0.18154, -0.24944, 0.04398, -0.05377, -0.11528}, {0.40029, 0.36454, -0.31549, -0.42419, 2.21632, 0.1985, -0.05423, 0.2854, 0.33355, -0.32629}, {-0.18504, 0.06498, 0.14042, 0.15089, 0.18435, -1.27449, -0.18884, 0.21605, -0.53678, -0.48316}, {0.07137, -0.06676, 0.09975, -0.91659, -0.36509, 0.12935, 1.18435, 0.29593, -0.08968, 0.02151}, {0.90254, -0.28906, 0.27903, 0.00551, -0.26965, -0.60327, 0.7658, -0.71091, -0.95413, -0.95049}, {0.08955, -1.25064, 0.04452, -0.26127, 0.22355, 0.2465, -0.34575, -0.13114, 0.0015, 0.23947}, {-0.51296, 0.02897, -0.22658, -0.32043, -0.34159, -0.21018, -0.13301, 0.82286, -0.14472, 0.20977}, {-0.09531, -0.20895, 0.12, 0.33153, 2.43367, -0.1489, 0.09293, -0.24512, 0.06215, 0.10568}, {0.5445, -0.57416, 0.24328, 0.2919, -0.2189, -0.40596, 0.46455, -0.5801, 1.61645, -0.11021}};
	Double_t biasesL1_6[15] = {0.23554, 1.92875, 2.38664, 0.52589, -2.0753, -0.22751, -0.65615, 1.68323, 0.30236, -0.94563, 2.54068, -0.76324, 0.52243, -0.28122, -0.38578};
	nets[6].SetWeightsL1(weightsL1_6);
	nets[6].SetBiasesL1(biasesL1_6);
	
	Double_t weightsL2_6[1][15] = {{-0.43229, -1.29354, 0.44223, 0.79502, -1.82764, -1.05767, -0.71361, 1.05906, 0.70781, -0.70666, -1.51264, -1.6811, 2.21489, -1.86772, 2.11344}};
	Double_t biasesL2_6[1] = {-3.25076};
	nets[6].SetWeightsL2(weightsL2_6);
	nets[6].SetBiasesL2(biasesL2_6);
	
	Double_t weightsL1_7[15][10] = {{-0.40826, -0.8847, 0.55236, -1.3516, -0.4851, 0.07107, -0.38916, -0.73531, 1.60357, 0.18555}, {0.38815, 0.935, -0.03985, 0.52245, -0.32804, 0.16257, -1.42297, -0.1259, -0.29891, -0.05696}, {1.46944, -0.12505, 0.01331, -0.78874, 1.31998, 0.41037, -0.4329, -0.16655, 0.25897, 0.20545}, {-0.24055, -0.28918, -1.14017, -0.20872, 0.13893, -0.91553, -0.31621, -0.39246, 0.16371, 0.62128}, {-0.09847, 0.10146, -0.31314, -0.10659, 0.11412, -1.10477, -0.19949, 0.09633, 0.18019, -0.21652}, {0.09104, -0.574, 0.54427, 0.08698, 0.38176, -0.40999, 0.58357, -0.40554, -1.38143, 0.11789}, {0.69178, 1.31365, -0.73342, -0.50371, 0.57057, 0.77201, 0.15391, -0.44916, 1.20695, -0.37524}, {0.10044, 0.03968, -0.15152, -0.22485, 1.71032, 0.02602, -0.08996, 0.0425, 0.07804, -0.39271}, {0.45487, 0.2148, -0.11034, -0.91969, 0.16696, -2.17199, -0.61744, -0.85055, -1.4971, -1.25905}, {0.71572, -0.04209, -0.29174, 1.81957, -0.20121, 0.36339, 0.06098, 0.56562, 0.52345, -0.84847}, {0.7842, 0.06076, 0.14273, 0.37246, -0.38646, -0.51144, 0.80904, -0.37038, -1.13748, -1.66411}, {0.22895, -1.4359, -0.09434, 0.11818, -0.12728, 0.10922, -0.13949, -0.49177, -0.41185, 0.44819}, {-0.32226, -0.00144, 0.06855, -0.35668, -0.2405, -0.35287, -0.1032, 0.55631, -0.01434, 0.66806}, {0.04704, -0.19191, -0.09796, 0.49554, 2.36477, -0.0769, -0.05965, -0.23845, 0.1392, 0.09412}, {0.33689, -0.22662, -0.41433, 0.10624, -0.09347, -0.68701, 0.50788, -0.08565, 0.44187, 0.04788}};
	Double_t biasesL1_7[15] = {0.48451, 3.27578, -3.98301, 0.6479, -1.95947, -2.17966, -3.26963, 1.32448, 1.46155, -1.3953, 3.47168, -0.81939, 0.55729, -0.15629, 0.64266};
	nets[7].SetWeightsL1(weightsL1_7);
	nets[7].SetBiasesL1(biasesL1_7);
	
	Double_t weightsL2_7[1][15] = {{-0.37234, -0.86641, -1.63908, 0.42687, -2.74629, -1.35677, -0.20442, 1.72359, 0.6185, 0.6522, -1.06682, -1.5144, 1.78155, -1.92486, 0.97191}};
	Double_t biasesL2_7[1] = {-6.73132};
	nets[7].SetWeightsL2(weightsL2_7);
	nets[7].SetBiasesL2(biasesL2_7);
	
	Double_t weightsL1_8[15][10] = {{0.78489, -0.80806, 0.23587, 0.24608, 0.03862, 0.58313, 0.21778, 0.82526, -0.57198, 0.90581}, {0.40159, 0.14485, -0.16043, 1.19564, 0.02756, 0.26783, -0.08822, 0.33288, 0.06335, 0.08316}, {0.39463, -0.02197, -0.15333, -0.13654, 0.43634, 0.08317, 0.05048, -1.138, -0.02332, -0.34591}, {0.20977, -0.65116, -0.59151, 0.38203, 0.23915, 0.22673, -0.12068, 0.44424, -1.00681, 0.03588}, {-0.24899, -0.05138, -0.4151, -0.03798, -0.15004, -1.38505, -0.08662, -0.10232, 0.31605, -0.06566}, {0.12441, -0.05289, -0.24898, -0.63924, 0.14948, 0.29091, -0.69564, 0.51203, 0.18292, 0.76523}, {-0.50695, -0.67993, 1.17045, -0.21315, -0.05682, -0.11052, -0.33181, -0.32038, -1.14557, 0.61959}, {0.11727, 0.18903, 0.19963, 0.04038, 1.49703, -0.20156, 0.04151, 0.20325, 0.15454, -0.10075}, {0.14368, -1.02823, -0.34542, -0.66861, 0.29016, -0.05846, -0.92442, -0.21279, -1.38573, 0.31025}, {0.05409, 0.0969, 0.25681, -0.08546, -0.59817, 0.2824, -0.17273, 0.30601, 0.5446, 0.24289}, {0.34194, 0.12435, 0.0136, -0.4135, 0.14647, -0.54671, 0.69553, 0.12811, -0.08684, -1.3437}, {0.11252, -1.34756, 0.25325, 0.27641, -0.22751, -0.15826, -0.06317, -0.2331, -0.36851, 0.52307}, {-0.62965, 0.06664, -0.19131, -0.54666, -0.70164, -0.60589, 0.11821, 0.79475, -0.07824, 0.62856}, {0.05488, -0.14694, -0.01452, 0.298, 2.48459, -0.16888, 0.09451, -0.23422, 0.0142, -0.00356}, {0.37266, -0.36749, -0.27564, 0.36084, -0.09522, -0.82432, 0.39244, -0.09266, 0.79077, 0.29378}};
	Double_t biasesL1_8[15] = {1.50622, 2.69364, -1.49215, 2.39239, -2.71184, -1.5045, -3.3272, 1.40996, -1.6454, -0.32573, 4.19902, -1.00539, -0.04461, -0.18528, -0.1338};
	nets[8].SetWeightsL1(weightsL1_8);
	nets[8].SetBiasesL1(biasesL1_8);
	
	Double_t weightsL2_8[1][15] = {{-0.54389, -3.74203, -1.42419, 0.79708, -3.69578, 0.50202, -1.46407, 1.86404, 0.46893, -0.24643, -3.43096, -1.74401, 0.73307, -1.88194, 1.30697}};
	Double_t biasesL2_8[1] = {-1.23218};
	nets[8].SetWeightsL2(weightsL2_8);
	nets[8].SetBiasesL2(biasesL2_8);
	
	Double_t weightsL1_9[15][10] = {{-0.19817, -0.70101, 0.46155, 0.22453, 0.38664, 0.29871, -0.15033, 0.34436, -0.47054, -0.0978}, {0.742, -0.17834, 0.95636, -0.07162, 0.16519, -1.30115, 0.22095, 0.52512, -0.04231, -1.45745}, {0.41932, -0.04578, -0.02706, 0.23508, 0.35618, 0.43105, 0.10315, -0.7439, -0.18369, -0.24209}, {0.58692, -0.78938, 0.62441, 0.22352, -0.35499, 0.33468, 0.02007, -0.24963, 0.22833, 0.48968}, {0.25814, -0.12607, -0.0856, -0.16857, -0.21897, -1.3624, -0.12792, 0.04371, -0.31969, -0.26672}, {-0.33393, -0.37305, 0.36491, 0.15727, -0.36502, 0.34298, 0.4246, -0.11009, -0.73492, 0.4426}, {-0.24706, 0.33806, 0.28912, 0.52435, -0.29508, 0.51184, -0.59915, 0.44637, -0.16488, 0.65325}, {0.02266, -0.16602, 0.28042, -0.08528, 1.21474, -0.09098, 0.23931, 0.14256, -0.09526, -0.30624}, {0.53183, 0.89611, 0.25083, 0.03278, 0.65243, -0.08448, 0.37603, -0.64217, 0.1231, 0.72057}, {-0.34044, -0.33355, 0.18156, -0.03962, -1.04877, 0.26876, 0.31753, -0.45694, 0.19286, 0.11548}, {0.07735, -0.03838, 0.07597, 0.19361, -0.09825, -0.12106, 1.05155, -0.51826, -0.11856, 0.26092}, {0.24053, -1.78787, -0.15766, 0.34646, -0.31943, 0.03953, -0.13374, -0.6698, -0.60131, 0.59942}, {-0.0036, 0.03357, -0.22314, -0.04822, 0.09099, -0.69234, 0.1633, -0.25773, 0.31083, -0.07882}, {-0.01921, -0.0448, -0.04281, 0.18429, 2.09924, -0.14793, -0.15189, -0.02749, 0.05864, 0.06792}, {0.96231, -0.33875, -0.26676, -0.12053, 0.40712, 0.45877, 0.34187, -1.01126, 0.11626, 0.58183}};
	Double_t biasesL1_9[15] = {1.91634, 3.45975, -0.402, 3.4358, -1.50256, 0.32771, -2.86424, 1.12009, -0.31026, -0.17571, 0.97953, -1.20424, 0.55055, -0.257, 0.56188};
	nets[9].SetWeightsL1(weightsL1_9);
	nets[9].SetBiasesL1(biasesL1_9);
	
	Double_t weightsL2_9[1][15] = {{0.03556, -1.20251, -1.95052, 1.0912, -1.43013, 0.70917, -0.02502, 0.79433, -0.26625, -1.82, -0.54335, -1.52895, 2.5322, -2.66191, 0.99643}};
	Double_t biasesL2_9[1] = {-4.78213};
	nets[9].SetWeightsL2(weightsL2_9);
	nets[9].SetBiasesL2(biasesL2_9);
	
	Double_t weightsL1_10[15][10] = {{-0.90093, -0.19928, 0.47533, 0.25929, -0.35873, -0.47627, 0.14869, -0.2821, -0.15207, -0.15742}, {0.41457, 0.48672, 0.20875, 0.23328, -0.34335, -0.73786, 0.34036, 0.05234, -0.83316, -1.23868}, {0.54683, -0.02013, -0.11906, 0.24641, 0.26258, 0.73581, 0.04616, -0.84683, -0.02928, -0.48111}, {0.17435, 0.45188, -0.54364, 0.14691, -0.41779, 0.44292, -0.48683, 0.1927, -0.228, 1.10666}, {0.12058, -0.04833, -0.11719, -0.27139, 0.22082, -0.87631, -0.07833, -0.17238, -0.08951, -0.20358}, {-0.39382, -0.83118, 0.64259, -0.5503, -0.13843, 0.29953, 0.21964, -0.29245, -0.8029, 0.55537}, {0.38342, -0.53216, 0.65193, 0.6089, -1.42081, 0.09592, 0.47126, 0.63854, -0.35602, -0.00148}, {-0.15394, 0.20005, -0.09847, -0.64075, 0.56757, -0.61656, -1.17039, 0.8391, 0.47272, -0.92926}, {0.48595, -0.42237, 0.11553, 1.4732, -0.14435, 0.07073, 0.01906, 0.16601, 0.21976, -0.52852}, {-0.22897, -0.17401, -0.02363, -0.20873, -1.05909, 0.17496, -0.01855, -0.40678, 0.05881, 0.21388}, {-0.33665, 0.36033, -0.70444, -0.84813, -0.68011, -0.80146, -0.06145, 0.27081, 0.78634, 0.26125}, {0.04951, -0.82472, 0.00458, 0.22745, -0.08477, 0.1127, -0.14997, -0.20332, -0.20297, 0.28064}, {0.16245, -0.24652, -0.22978, 0.13833, 0.04571, -1.11652, 0.14538, -0.18097, 0.49227, 0.14709}, {-0.0202, -0.13221, 0.12716, 0.12952, 2.53107, -0.13904, -0.00877, -0.13465, 0.03116, 0.07059}, {0.61492, -0.4448, -0.19072, -0.3033, 0.52478, 0.50743, 0.25661, -0.90643, -0.17489, 0.28039}};
	Double_t biasesL1_10[15] = {2.68375, 4.35236, -0.62986, 0.39133, -1.42311, 0.36068, -1.41192, -0.28964, -1.09248, -0.60416, 0.20494, -0.57409, 0.57538, -0.19786, 0.57381};
	nets[10].SetWeightsL1(weightsL1_10);
	nets[10].SetBiasesL1(biasesL1_10);
	
	Double_t weightsL2_10[1][15] = {{1.29635, -3.88546, -1.70527, 0.10801, -3.16094, 0.96717, -0.7692, 0.82304, 0.89455, -2.07435, 0.66688, -2.938, 1.05869, -2.47511, 1.75288}};
	Double_t biasesL2_10[1] = {-4.02063};
	nets[10].SetWeightsL2(weightsL2_10);
	nets[10].SetBiasesL2(biasesL2_10);
	
	Double_t weightsL1_11[15][10] = {{-0.38986, 0.26609, -0.28772, 0.47251, -0.51568, 1.14807, 0.16626, -0.34233, -0.77249, -0.0946}, {0.32189, 0.23072, 0.10915, 0.19395, 0.06604, -0.43056, -0.22137, 0.19061, -0.59167, -0.57555}, {0.374, 0.16334, -0.28594, 0.08197, 0.37813, 0.41332, -0.0754, -0.40229, 0.12162, -0.54482}, {-0.33015, 0.27314, -0.05066, -0.44044, -0.47162, -0.81505, 0.23286, -0.0155, 0.61209, 0.01806}, {0.0617, -0.15191, -0.23872, 0.01235, -0.02853, -1.07992, -0.29202, 0.08634, 0.18012, -0.22939}, {-0.39961, 0.22367, -0.1499, 0.48318, -0.3005, 0.01098, -0.49515, 0.45498, -0.53457, 0.68454}, {-0.08043, 0.219, 0.21677, 0.61218, -0.09123, 0.03235, 0.55547, -0.72166, -0.68716, -0.01154}, {-0.22842, -0.09373, -0.46292, 0.90509, -0.36551, -0.30525, -0.13506, -0.56261, 0.37488, -0.04111}, {-0.18636, -0.78031, 0.43729, 0.14609, 0.38436, -0.07763, 0.06136, -0.04314, 0.75644, 0.1046}, {-0.13413, -0.00898, 0.1668, -0.08149, -0.92934, 0.09995, 0.10144, -0.20203, 0.14312, 0.15718}, {0.62096, 0.12814, -0.23467, 0.38121, -0.19355, -0.38116, -0.59563, 0.50729, 0.45505, -0.37918}, {0.04938, -1.08399, 0.19056, 0.33173, -0.02333, 0.17349, 0.03734, -0.43751, -0.24399, 0.41856}, {-0.38832, -0.19289, -0.52736, 0.29459, 0.07692, -0.70616, 0.11894, 0.11442, 0.60659, -0.04922}, {-0.00671, -0.04935, -0.0887, 0.17188, 2.21074, -0.09018, 0.01283, -0.17414, 0.04523, 0.03155}, {0.62407, -0.29302, -0.32027, -0.59441, 0.80531, 0.50064, 0.25838, -1.25483, -0.07586, 0.26001}};
	Double_t biasesL1_11[15] = {2.24166, 2.43511, -0.63311, -0.42139, -1.91836, -0.9094, -1.87882, -3.02849, -1.21689, -0.3996, -1.60994, -0.71743, 0.17327, -0.30796, 0.54898};
	nets[11].SetWeightsL1(weightsL1_11);
	nets[11].SetBiasesL1(biasesL1_11);
	
	Double_t weightsL2_11[1][15] = {{0.03703, -1.94439, -1.4309, 0.8167, -3.27913, 0.45772, -0.51887, 0.29473, 1.32883, -2.85321, 1.06699, -2.66202, 0.7451, -2.92322, 1.15791}};
	Double_t biasesL2_11[1] = {-2.88249};
	nets[11].SetWeightsL2(weightsL2_11);
	nets[11].SetBiasesL2(biasesL2_11);
	
	Double_t weightsL1_12[15][10] = {{0.17116, -0.05818, 0.13667, 0.21475, -0.5147, 0.81146, 0.33413, 0.36277, 0.55292, 0.697}, {0.43533, 0.25905, -0.08867, 0.3346, -0.28143, -0.05951, 0.3728, -0.08746, -0.47358, -0.38121}, {0.07247, -0.02248, -0.03732, 0.08443, 0.29162, 0.13094, 0.13975, -0.81875, 0.01127, -0.52873}, {-0.3836, 0.43897, 0.38734, -1.04708, 0.15638, -1.06515, -0.10417, 0.11916, -0.648, -0.04076}, {0.08357, -0.25395, -0.69146, -0.03937, -0.15429, -1.62327, -0.06776, 0.07918, 0.43235, -0.12955}, {0.48512, -0.19744, -0.7608, -0.197, -0.05362, 0.05594, 0.51243, 0.17909, 0.18981, 0.49023}, {0.39631, -0.14209, 0.1937, 0.10411, -0.01245, -0.25101, 0.41107, -0.15472, -0.54075, 0.20295}, {-0.50764, -0.34347, 0.33361, 0.22381, 0.43107, -0.4452, -0.26572, -0.06346, -0.41465, -0.00519}, {-0.44978, -0.45158, 0.03951, -0.31973, 0.32223, -0.49462, 0.69818, -0.43003, 0.1863, -0.76939}, {-0.16357, -0.23359, 0.33175, 0.25325, -1.42184, -0.10679, -0.0577, -0.19567, 0.07723, 0.20084}, {-0.09207, -0.40998, 0.19821, 0.87072, -0.12826, -0.42916, 0.0781, 0.25016, 0.35404, -0.14019}, {0.0671, -1.30594, 0.0376, 0.43451, -0.38293, 0.02062, 0.0217, -0.26244, -0.26113, 0.50471}, {-0.22653, -0.09143, -0.45748, -0.27173, 0.41738, -1.13188, 0.03624, -0.20645, 0.49312, 0.19007}, {0.09636, -0.14351, -0.06799, -0.11254, 2.1439, -0.06544, -0.14934, -0.05909, 0.13682, -0.02741}, {0.87029, -0.57823, -0.02073, -0.20004, 0.4713, 0.01876, 0.15565, -1.01825, 0.30867, 0.37358}};
	Double_t biasesL1_12[15] = {-0.92281, 2.02035, -0.3885, 1.14777, -2.38285, -2.62809, -1.59609, -1.67379, -1.73749, -0.78158, -0.64382, -0.69613, 0.76793, -0.31818, 0.88561};
	nets[12].SetWeightsL1(weightsL1_12);
	nets[12].SetBiasesL1(biasesL1_12);
	
	Double_t weightsL2_12[1][15] = {{-0.77216, -2.89964, -2.04945, 0.10228, -1.45847, 2.40461, -1.53343, -0.75921, 0.66905, -1.44255, 1.02769, -1.84665, 0.91741, -2.58775, 0.98342}};
	Double_t biasesL2_12[1] = {-1.07874};
	nets[12].SetWeightsL2(weightsL2_12);
	nets[12].SetBiasesL2(biasesL2_12);
	
	Double_t weightsL1_13[15][10] = {{0.84269, 0.3879, 0.31849, -0.56186, 0.59705, -0.53992, 0.70531, 0.48352, 0.10426, 0.12981}, {0.24709, 0.11599, 0.26328, 0.50531, -0.6898, -0.46105, 0.95286, 0.0185, -0.30676, -0.61849}, {0.43616, 0.24929, 0.16616, 0.07196, 0.69077, 0.39596, -0.01951, -0.93634, 0.22518, -0.49069}, {0.39767, 0.51934, -0.57478, 0.85464, -0.29601, -0.13666, -0.50039, 0.16984, -0.84443, -0.19551}, {-0.0622, -0.01274, -0.39685, 0.0498, -0.1021, -1.09987, -0.11411, -0.077, 0.31334, -0.15418}, {0.63501, -0.2863, -0.21916, 0.01406, 0.11061, 0.65361, -0.82435, -0.34574, 1.1053, -0.18672}, {-0.17156, 0.21254, 0.21885, -0.23712, 0.6231, 0.37836, 0.22565, -0.67311, -0.29964, -0.01062}, {-0.21313, 0.1007, -0.73617, -0.89228, -0.18229, 0.01197, 0.32703, -0.10642, -0.74222, 0.13538}, {-1.33082, 0.28653, 0.66035, -1.0312, 0.36244, -0.52673, 0.16962, -0.69913, -0.53523, -0.44187}, {-0.15972, -0.16761, 0.03615, -0.0444, -1.34743, -0.01265, 0.06753, 0.06173, -0.12732, 0.07194}, {0.28433, 0.09203, -0.17732, -0.05453, 1.28719, -0.31489, -0.50991, 0.47065, -0.27274, -0.25991}, {0.05877, -1.10353, 0.1791, 0.03636, -0.00279, -0.01928, -0.04434, -0.27279, -0.27633, 0.29393}, {0.4349, -0.15394, 0.00849, -0.18509, 0.94262, 0.43004, -0.38825, -0.27594, -1.11995, -0.39343}, {-0.01702, -0.11144, -0.03381, 0.24816, 2.05186, -0.0572, -0.07551, -0.07778, 0.20422, 0.08915}, {0.31188, -0.26491, -0.42107, -0.03268, 0.23094, -0.90721, 0.15846, -0.37255, 1.15613, -0.07685}};
	Double_t biasesL1_13[15] = {-0.08701, 2.98592, -0.11991, 1.6904, -2.01278, -2.03171, -2.85687, -3.01274, -3.94204, -0.94847, 0.31912, -0.83279, -0.4906, -0.28003, -0.04304};
	nets[13].SetWeightsL1(weightsL1_13);
	nets[13].SetBiasesL1(biasesL1_13);
	
	Double_t weightsL2_13[1][15] = {{-0.29558, -1.71922, -1.2197, -1.076, -2.5666, -0.71762, -2.93752, 1.92456, 0.36889, -1.47651, 1.3042, -2.20164, -0.33529, -2.61086, 1.61695}};
	Double_t biasesL2_13[1] = {-4.28834};
	nets[13].SetWeightsL2(weightsL2_13);
	nets[13].SetBiasesL2(biasesL2_13);
	
	Double_t weightsL1_14[15][10] = {{0.0328, -0.1202, 0.29569, 0.18269, -0.40612, -1.03227, -0.03437, 0.43269, 0.12249, 0.5315}, {0.35326, -0.16217, -0.20271, 0.15287, -0.17443, -0.26865, 0.73004, 0.21604, -0.30122, -0.97317}, {0.25487, 0.07298, -0.34823, 0.11456, 0.26606, -0.4361, -0.03983, -0.18972, 0.10245, -0.22809}, {0.8035, 0.62524, -0.38483, 1.04771, 0.09089, -0.10534, 0.12911, 0.24532, -0.44541, -0.25454}, {-0.49476, -0.03128, -0.04111, -0.22597, 0.08874, -1.88242, -0.4208, -0.36615, -0.63439, -0.56096}, {0.6592, -0.24275, -0.01802, 0.15386, 0.21199, -0.29045, -0.19344, -0.78859, 0.28252, 0.50873}, {-0.55009, 0.02271, -0.31994, 0.46831, 0.16369, 0.5873, -0.83012, 0.1445, 0.47258, -0.3572}, {0.01757, 0.07165, -0.16364, -0.59859, 0.24361, 0.00394, 0.61821, -0.31616, -0.2116, 1.10339}, {-0.22533, -0.67008, 0.64794, 0.45904, -0.24805, 0.34116, 0.18692, -0.41958, -1.24039, 0.66594}, {-0.22513, -0.28812, -0.57072, 0.15156, -2.4698, -0.01848, -0.11241, -0.17327, -0.19978, 0.11235}, {0.37986, -0.02756, -0.21323, -0.06203, 0.51481, -0.28317, -0.10866, 0.43754, -0.42141, 0.06058}, {0.17024, -1.05155, -0.04699, 0.02949, 0.00971, -0.05173, -0.01141, -0.41819, -0.3192, 0.24792}, {-0.1513, -0.23683, 0.26784, 0.8159, -0.45253, -0.11937, 0.44356, 0.02423, 0.88733, -0.03424}, {0.04631, -0.09471, -0.27262, 0.32631, 2.74587, -0.17945, 0.01219, -0.39212, 0.02613, 0.02335}, {-0.22502, -0.16141, -0.57081, 0.29065, -0.24924, -0.95452, 0.14856, -0.15832, 0.38239, 0.17198}};
	Double_t biasesL1_14[15] = {-1.90294, 2.58369, -1.09954, 2.28912, -2.66145, -2.42116, -3.20836, -3.61363, -3.22094, -2.13478, 0.67436, -0.81597, 2.45465, -0.19295, 0.17177};
	nets[14].SetWeightsL1(weightsL1_14);
	nets[14].SetBiasesL1(biasesL1_14);
	
	Double_t weightsL2_14[1][15] = {{-1.63544, -1.33589, -0.5239, -1.07086, -0.93785, -1.07122, -2.20181, 1.21274, -2.85224, -1.18372, 1.32217, -1.93301, -0.77684, -1.8925, 1.79802}};
	Double_t biasesL2_14[1] = {-7.42488};
	nets[14].SetWeightsL2(weightsL2_14);
	nets[14].SetBiasesL2(biasesL2_14);
	
	Double_t weightsL1_15[15][10] = {{-0.47516, 0.65705, -0.2372, -0.21198, -0.69455, -0.34881, 0.17593, 0.43083, 0.69301, 0.35929}, {0.43163, 0.41819, -0.07875, 0.28052, -0.65451, -0.79863, 0.88631, -0.0405, -0.728, -0.88792}, {0.49782, 0.25815, 0.07192, 0.23508, 0.7875, 0.2428, -0.28301, -1.2864, 0.14934, -0.7619}, {0.44318, 0.51433, -0.32924, 0.22203, -0.17951, 0.26041, -0.31404, 0.18472, -0.41768, 0.16532}, {0.02291, -0.12399, -0.11797, -0.31557, -0.11537, -1.51788, -0.14102, 0.08395, 0.07916, -0.32863}, {-0.24261, -0.36025, -0.16348, -0.05672, 0.02327, 0.37074, -0.2242, -0.01522, 0.08638, -0.39163}, {-0.5504, 0.04077, -0.04146, -0.36824, -0.32545, 0.6564, 0.39936, 0.12379, 0.12078, -0.13737}, {-0.13053, 0.05613, 0.15392, -0.41947, 0.82469, -0.10165, -0.28274, -0.22026, 0.05326, 0.60631}, {-0.87529, -0.28038, 1.0904, -0.24095, 0.8669, 0.03762, 0.29539, -0.52857, -0.72953, 0.43298}, {0.40994, -0.41444, 0.21496, -0.73694, -0.79502, -1.15841, -0.1998, -0.11939, -0.29481, -0.01946}, {0.43152, 0.14692, -0.00606, -0.1757, 1.47425, -0.50435, -0.27882, 0.47853, -0.25841, -0.27764}, {0.11281, -1.16906, 0.00694, 0.24247, -0.25099, 0.1825, -0.07045, -0.34921, -0.26106, 0.31844}, {0.02869, -0.02576, 0.33415, 0.72781, -0.06543, -0.00448, -0.27617, 0.01816, 0.02037, -0.29461}, {-0.07636, -0.06762, -0.00092, 0.3077, 2.27115, -0.14977, 0.09848, -0.09546, -0.03401, 0.09382}, {0.16322, -0.25087, -0.24371, -0.21599, 0.24011, -0.94804, 0.02318, -0.40622, 0.34863, 0.13265}};
	Double_t biasesL1_15[15] = {-3.01369, 3.96036, -0.7945, 1.51171, -2.31013, -2.80341, -5.99813, -3.52504, -2.76218, -0.73691, 0.58547, -0.59351, 2.02318, -0.3548, 0.48874};
	nets[15].SetWeightsL1(weightsL1_15);
	nets[15].SetBiasesL1(biasesL1_15);
	
	Double_t weightsL2_15[1][15] = {{-0.99388, -3.07635, -1.20181, -1.02297, -1.9463, 0.71605, 0.29026, -0.46888, -1.156, -0.8087, 1.46282, -1.92642, -2.25279, -2.68296, 1.63525}};
	Double_t biasesL2_15[1] = {-0.30996};
	nets[15].SetWeightsL2(weightsL2_15);
	nets[15].SetBiasesL2(biasesL2_15);
	
	Double_t weightsL1_16[15][10] = {{-0.06836, 0.52653, -0.2953, 0.01008, -0.16109, -1.20868, -0.03077, -0.0325, 0.29011, -0.12806}, {0.15976, 0.50732, -0.10271, -0.26703, 0.07547, -0.4415, -0.10785, -0.30714, -0.71753, -0.82902}, {0.3098, 0.01507, -0.04049, 0.36864, 0.27672, 0.39456, 0.08187, -0.78212, -0.0441, -0.42684}, {0.29613, 0.18129, 0.1099, 0.01776, -0.02031, -0.25871, 0.02126, -0.53398, 0.04815, 0.00297}, {0.08198, -0.02638, -0.1742, -0.62288, 0.61631, -1.03082, -0.46808, 0.0883, -0.19464, -0.45461}, {-0.01362, -0.33808, -0.02241, 0.24232, 0.08825, -0.13238, -0.65792, -0.2853, -0.74007, 0.11511}, {-0.11561, -0.19325, 0.34314, 0.21192, -0.31717, 0.17856, 0.428, -0.34215, -1.22169, 0.14784}, {0.08055, -0.41118, -0.54273, 0.40978, 0.36374, -0.01768, -0.61129, -0.25112, 0.75961, -0.36927}, {0.17019, -0.5153, 0.59996, -0.13428, 0.06885, 0.42077, 0.27653, 0.31527, -0.25929, 0.69123}, {0.3593, 0.40784, 0.08473, -0.48662, -0.42385, 0.24014, 0.05233, -0.25901, -0.61419, -0.421}, {0.17401, 0.06917, -0.0646, 0.18096, 1.09482, 0.04, 0.02193, 0.14596, -0.0087, -0.10581}, {0.18068, -1.22053, -0.18784, 0.32061, -0.18307, -0.12231, -0.10727, -0.43358, -0.19321, 0.48163}, {0.12884, 0.06983, 0.17425, 0.90795, -0.15579, -0.16959, 0.15972, 0.19103, 0.14945, -0.07826}, {0.00613, -0.02954, -0.04292, 0.20247, 1.98151, -0.08248, 0.00396, -0.02964, 0.08632, 0.0148}, {0.01886, -0.12593, -0.25647, 0.12713, 0.02255, -0.71761, 0.10895, -0.20766, 0.29139, -0.01756}};
	Double_t biasesL1_16[15] = {-2.68483, 3.05237, -0.40288, 3.86294, -2.16836, -4.88342, -2.68961, -7.43611, -3.12047, -4.57382, 0.74686, -0.76493, 1.47093, -0.094, 0.33788};
	nets[16].SetWeightsL1(weightsL1_16);
	nets[16].SetBiasesL1(biasesL1_16);
	
	Double_t weightsL2_16[1][15] = {{-1.65197, -4.23439, -1.45862, 2.53574, -1.45133, 1.61978, -1.72359, 2.79677, -1.55871, 1.68684, 3.03047, -1.89074, -2.47501, -2.74895, 1.94798}};
	Double_t biasesL2_16[1] = {0.27575};
	nets[16].SetWeightsL2(weightsL2_16);
	nets[16].SetBiasesL2(biasesL2_16);
	
	Double_t weightsL1_17[15][10] = {{0.02487, -0.0778, -0.68594, -0.24347, -0.22542, -1.19797, -0.32906, 0.17592, 0.70021, -0.08509}, {0.35187, 0.22075, 0.19255, -0.03829, -0.12146, -0.58506, 0.26298, 0.01103, -0.62413, -1.06061}, {0.31025, -0.03086, -0.14374, 0.15959, 0.52695, 0.45443, -0.15497, -0.83647, 0.06052, -0.66977}, {0.60843, 0.41749, 0.03563, -0.05787, 0.14858, -0.38563, -0.00023, -0.28592, 0.29325, 0.22108}, {-0.06413, 0.13789, 0.19599, -0.05135, -0.01879, -1.17351, 0.08629, -0.05879, -0.37975, -0.15943}, {-0.12807, -0.27036, -0.51484, -0.62287, 0.18209, -0.05459, 0.39281, -0.31873, -0.1396, 0.02019}, {-0.17608, 0.16947, 0.25565, -0.24445, -0.15549, 0.1816, -0.44978, 0.77037, 0.39625, 0.19896}, {-0.35782, -0.45762, -0.02615, -0.10102, 0.04587, 0.43241, -0.42745, -0.37528, -0.01814, -0.60368}, {0.24973, 0.02818, 0.5691, -0.15975, -0.08638, 1.0146, -0.01938, -0.10768, 0.12498, 0.34592}, {0.32916, 0.34071, -0.00323, -0.57112, -0.04434, -0.705, -0.05867, -0.02689, -0.2206, -0.08418}, {0.2197, 0.06447, -0.19675, -0.08229, 1.20808, -0.28872, -0.04123, 0.21852, -0.09915, -0.19254}, {0.23326, -0.96486, 0.0795, 0.13616, -0.20224, -0.03828, 0.03701, -0.44264, -0.48286, 0.43118}, {0.05115, 0.22104, -0.45518, 0.99803, -0.16322, 0.65516, -0.35659, 0.36056, -0.11057, 0.02569}, {0.03467, -0.03818, -0.08102, 0.11867, 1.7782, -0.08374, 0.01869, -0.11338, 0.0511, -0.08031}, {-0.05754, -0.20828, -0.46745, 0.07153, 0.15395, -1.21638, 0.23482, -0.51434, 0.27282, 0.3437}};
	Double_t biasesL1_17[15] = {-2.87325, 2.67194, -0.97752, 3.95812, -1.8047, -3.0716, -4.54245, -7.15469, -7.55976, -5.22398, 0.71533, -0.8435, 2.00526, -0.11373, 0.80829};
	nets[17].SetWeightsL1(weightsL1_17);
	nets[17].SetBiasesL1(biasesL1_17);
	
	Double_t weightsL2_17[1][15] = {{-1.92812, -1.82469, -1.07292, 3.13696, -1.61433, 3.31293, -1.98156, -0.13136, -0.28853, 0.71749, 2.11005, -2.44645, -1.08268, -2.80253, 1.17715}};
	Double_t biasesL2_17[1] = {-5.7163};
	nets[17].SetWeightsL2(weightsL2_17);
	nets[17].SetBiasesL2(biasesL2_17);
	
	Double_t weightsL1_18[15][10] = {{-0.13713, 0.37983, -0.16554, -0.15844, -0.4339, -0.5324, 0.04418, 0.37364, 0.40295, 0.01922}, {0.66928, 0.1394, -0.11518, -0.2012, -0.14815, -0.48692, 0.39967, 0.05046, -0.58939, -0.77379}, {0.13383, 0.10123, -0.10928, 0.05317, 0.30419, 0.30374, -0.04025, -0.56642, 0.29704, -0.17316}, {-0.10173, 0.11653, 0.7131, -0.08702, -0.17416, 0.20154, -0.01758, -0.14082, 0.2233, 0.01211}, {0.13416, -0.1516, 0.02965, -0.0459, 0.09842, -1.30355, 0.04092, -0.05653, -0.19154, -0.33881}, {-0.55608, 0.41682, -0.71815, -0.59562, -0.12813, 0.37719, 0.02848, -0.15383, -0.25104, 0.58517}, {0.23493, 0.47429, -0.28797, 0.26763, 0.34161, -0.305, -0.89865, 0.27358, 0.87452, 0.13066}, {-0.48084, -0.4733, 0.15447, -0.59614, -0.0398, 0.49305, 0.02559, -0.02911, -0.14118, -0.6143}, {0.40261, -0.28828, 0.25726, -0.56791, -0.05301, -0.05579, -0.10152, 0.10455, 0.42041, 0.92373}, {-0.86065, 0.39845, 0.43836, 0.18658, 0.88528, 0.66814, 0.04448, -0.1353, 0.08298, 0.00715}, {0.25479, 0.22319, -0.00876, -0.23757, 1.40258, -0.17614, -0.21485, 0.42076, 0.06141, -0.17854}, {0.08423, -1.41801, -0.01311, 0.24012, -0.23634, 0.12347, 0.02016, -0.34429, -0.28195, 0.59579}, {0.32946, 0.18808, -0.19723, 0.90711, -0.42972, -0.12064, -0.49596, 0.23636, -0.55613, 0.18196}, {0.21633, -0.04623, 0.15619, 0.34992, 2.35472, -0.15551, 0.14135, -0.25543, -0.04623, 0.24214}, {0.14841, -0.13351, -0.26543, 0.31406, -0.24478, -0.77475, 0.24619, -0.20824, 0.44466, 0.12739}};
	Double_t biasesL1_18[15] = {-2.21617, 3.07647, -0.67102, 4.11023, -1.81524, -1.65173, -4.90194, -4.02818, -9.71598, -4.11369, 0.64367, -0.74612, 2.09971, -0.11634, 0.37566};
	nets[18].SetWeightsL1(weightsL1_18);
	nets[18].SetBiasesL1(biasesL1_18);
	
	Double_t weightsL2_18[1][15] = {{-3.30681, -3.63847, -1.93403, -1.80585, -2.30478, 1.08224, 2.03036, -3.50253, -0.88741, -6.30966, 2.10632, -1.41181, -1.48984, -2.35397, 2.33428}};
	Double_t biasesL2_18[1] = {-9.51007};
	nets[18].SetWeightsL2(weightsL2_18);
	nets[18].SetBiasesL2(biasesL2_18);
	
	Double_t weightsL1_19[15][10] = {{-0.39161, 0.46448, -0.47867, 0.07404, -1.25072, -0.55753, 0.26274, 0.94216, 0.40569, 0.36594}, {0.35322, 0.36992, -0.05524, -0.01697, -0.13473, -0.52342, 0.26121, 0.18425, -0.67035, -0.90612}, {0.39635, 0.35467, -0.61214, 0.22756, 0.35801, 0.47442, -0.0271, -0.93344, 0.32697, -0.57694}, {0.15152, 0.56228, 0.99989, -0.14974, 0.23527, -0.10354, 0.24801, 0.13288, -0.13558, 0.44261}, {0.06191, 0.04227, 0.01713, -0.35667, 0.14491, -1.39781, -0.19438, -0.10839, -0.11273, -0.46184}, {0.13602, 0.5041, -0.84303, -0.47944, 0.22672, 1.06295, 0.18144, 0.20502, -0.21176, 0.66537}, {-0.15928, -0.38728, -0.13674, 0.14114, 0.38678, -0.33792, -0.64517, 0.10564, -0.10628, -0.13623}, {-0.58024, 0.01125, 0.80221, 0.35157, 0.10897, 1.19323, 0.47831, -0.63526, -0.21047, 0.24781}, {0.75105, 0.54231, 0.67404, 0.00792, -0.20836, 0.24483, -0.02862, 0.19553, 0.56481, 0.50958}, {-0.30481, -0.08675, -0.16616, 0.17871, -0.2368, 0.16072, 0.7239, 0.65224, 0.24449, 0.29613}, {0.17576, 0.13407, -0.04081, -0.20906, 1.64934, -0.30345, 0.07075, 0.11849, 0.01248, -0.109}, {0.0858, -0.96944, 0.05419, 0.20891, -0.20262, -0.01401, 0.09226, -0.42874, -0.30748, 0.31472}, {0.19782, 0.54195, -0.42256, 0.219, 0.19529, -0.04299, -0.95514, 0.27031, -0.38629, 0.30398}, {-0.02771, -0.04187, 0.10179, 0.27559, 2.04004, -0.02552, -0.00263, -0.15181, 0.08539, 0.14115}, {0.01845, -0.20438, -0.37279, 0.39856, -0.18983, -1.05387, -0.1441, -0.03839, 0.43979, 0.29659}};
	Double_t biasesL1_19[15] = {-3.3868, 3.14946, -1.08215, 3.70702, -2.11184, -1.90137, -3.71605, -3.40195, -5.25851, -4.38567, 0.96326, -0.80621, 1.78099, -0.03682, 0.38117};
	nets[19].SetWeightsL1(weightsL1_19);
	nets[19].SetBiasesL1(biasesL1_19);
	
	Double_t weightsL2_19[1][15] = {{-1.22865, -3.35425, -0.96938, 2.00105, -2.22976, 0.68543, 1.60269, -1.61881, -0.21441, 0.23263, 1.66072, -2.67691, -0.9927, -2.3808, 1.53437}};
	Double_t biasesL2_19[1] = {-3.83859};
	nets[19].SetWeightsL2(weightsL2_19);
	nets[19].SetBiasesL2(biasesL2_19);
	
	Double_t weightsL1_20[15][10] = {{-0.17859, 0.3035, -0.13399, -0.49277, 0.35402, -1.81914, -0.20911, -0.2832, -0.12064, -0.56697}, {0.64504, 0.20845, 0.07947, -0.03191, -0.18029, -0.56296, 0.26996, 0.03412, -0.31371, -0.7946}, {0.27466, -0.0374, -0.03652, 0.48679, 0.20179, 0.41711, 0.02652, -0.66451, 0.13471, -0.33329}, {0.07426, 0.31719, 0.6146, 1.04388, 0.15603, 0.17942, -0.37881, -0.28825, -0.34542, -0.19044}, {0.3215, -0.41526, -0.03302, -0.22805, 0.05625, -1.53894, 0.31134, -0.05139, -0.09847, 0.30128}, {-0.18383, 0.22316, -0.65621, -1.52685, 0.05549, -0.15959, -0.06649, 0.44053, -0.95189, -0.37978}, {0.21605, 0.40728, 0.46062, 0.33904, -0.16442, 0.22048, -0.99514, 0.01558, -0.20514, 0.63121}, {-0.78057, 0.26521, 0.36344, 0.1017, 0.17281, 0.60046, 0.17951, -0.27158, -0.43419, 0.44875}, {-0.02667, -0.01028, -1.10286, 0.6024, -0.14015, 0.18398, -0.03804, -0.73973, -0.36889, -0.4386}, {0.20666, 0.06188, -0.01541, 1.04584, -0.02341, -0.79871, 0.29883, 0.0542, -1.48843, -0.41688}, {0.16317, 0.18523, -0.1284, 0.02832, 2.3187, 0.00698, 0.03089, -0.11689, -0.02558, -0.20393}, {0.0809, -1.4724, -0.11063, 0.17162, -0.22561, 0.09875, -0.07887, -0.45671, -0.47904, 0.358}, {0.25485, 0.65973, 0.24151, 1.3134, 0.00916, -0.15502, -0.39973, 0.38313, -0.79631, 0.20193}, {-0.03183, -0.22097, 0.17185, 0.17105, 2.7275, -0.13482, -0.11666, -0.23425, 0.11526, 0.21561}, {0.50853, -0.33856, -0.28133, 0.44291, -0.76929, -1.64367, 0.31215, -0.23571, 0.99807, 0.30978}};
	Double_t biasesL1_20[15] = {-2.95726, 2.9306, -0.60354, 3.27187, -1.26103, -3.2213, -2.25058, -3.16658, -2.56611, -5.52934, 2.20871, -0.98495, 2.748, -0.11543, 0.65476};
	nets[20].SetWeightsL1(weightsL1_20);
	nets[20].SetBiasesL1(biasesL1_20);
	
	Double_t weightsL2_20[1][15] = {{-1.58296, -2.99556, -1.51174, -0.44702, -0.32958, 1.16185, 0.34389, -1.56674, 0.10332, -0.97592, 1.73191, -1.7369, -1.24154, -1.29633, 1.18064}};
	Double_t biasesL2_20[1] = {-1.63487};
	nets[20].SetWeightsL2(weightsL2_20);
	nets[20].SetBiasesL2(biasesL2_20);
	
	Double_t weightsL1_21[15][10] = {{-0.07412, -0.06349, -1.0954, -0.0629, -0.05768, -1.70653, 0.0687, 0.07801, 0.34253, -0.14793}, {-0.13634, 0.57253, -0.04375, 0.52995, -0.59509, -0.40522, 0.89972, -0.35101, -0.5787, -0.65592}, {0.28903, 0.07848, 0.02217, 0.04295, 0.46096, 0.12534, -0.0338, -0.41274, -0.24728, -0.5348}, {-0.14733, 0.09715, 0.66779, 1.0474, -0.11249, -0.4224, 0.50951, 0.23836, 0.67819, -0.8956}, {-0.10484, 0.20459, 0.10569, 0.38917, -0.32623, 1.35138, 0.02877, 0.04446, 0.03565, -0.04894}, {-0.07532, 0.63522, 0.13741, -0.45909, -0.48937, 0.75509, -0.9614, -0.30052, -0.62622, -0.0457}, {-0.78335, -0.4232, 0.52188, -0.92484, 0.09013, -0.12458, 0.01612, -0.58846, 0.77899, 0.24983}, {-0.20185, -0.58049, 0.55676, -0.26673, -0.53447, 0.28913, -0.30784, -0.01517, -0.29953, 0.19842}, {0.32077, -0.45496, 0.33695, 0.26778, 0.12886, 0.14738, 1.10547, -0.07411, -1.03625, -1.24529}, {-0.34661, 0.53884, -1.26575, -0.6146, 0.09903, -0.30721, -0.55274, 0.54396, 0.85714, 0.44211}, {0.16385, 0.29338, -0.07489, 0.3619, 1.52276, -0.04849, 0.18696, 0.03825, 0.09792, -0.15853}, {0.1612, -1.13754, 0.1649, 0.01864, -0.02535, -0.1442, 0.06876, -0.5441, -0.39572, 0.25588}, {0.32329, 0.36874, 0.17255, 0.13499, 0.37282, 0.16795, -0.56766, 0.07451, -0.29349, -0.06513}, {-0.06436, -0.18357, 0.13169, 0.12471, 2.51447, -0.00821, 0.13341, -0.27767, 0.00458, 0.03747}, {1.17704, -0.53332, -0.22245, 0.20333, 0.57526, -0.38143, 0.46861, -0.44496, 0.46512, -0.18636}};
	Double_t biasesL1_21[15] = {-3.16398, 2.90466, -0.3455, 2.28168, -1.12929, -3.61817, -2.44594, -3.36175, 0.29863, -1.253, 1.82158, -0.84276, 0.71467, -0.08204, 0.85559};
	nets[21].SetWeightsL1(weightsL1_21);
	nets[21].SetBiasesL1(biasesL1_21);
	
	Double_t weightsL2_21[1][15] = {{-2.14911, -1.02568, -1.65926, -0.72525, -1.17175, 0.8085, 1.10832, -1.09812, 0.71805, 0.54999, 1.74172, -2.19171, -0.22128, -1.69186, 0.78904}};
	Double_t biasesL2_21[1] = {-3.52544};
	nets[21].SetWeightsL2(weightsL2_21);
	nets[21].SetBiasesL2(biasesL2_21);
	
	Double_t weightsL1_22[15][10] = {{0.09286, -0.01081, -0.34133, -0.25847, -0.08295, -1.16382, -0.0935, 0.1139, 0.45223, -0.22558}, {-0.37603, 0.28913, 0.05342, -0.9628, 0.3929, -0.79263, -0.71634, 0.09257, -0.13557, -0.57533}, {0.1786, 0.09606, 0.00074, 0.03411, 0.60196, 0.58179, -0.18849, -0.66229, 0.08542, -0.61549}, {-0.00436, -0.06079, 0.49282, 0.55687, -0.12236, 0.20225, 0.02966, 0.18799, 0.74631, -0.15615}, {0.16283, -0.18909, 0.03826, 0.39191, -0.71459, 1.00355, 0.27656, 0.29945, 0.28087, -0.06203}, {-0.03154, 0.10116, -0.13106, -0.5274, 0.18203, 0.41395, -0.48838, -0.18526, 0.33078, 0.68831}, {-0.76534, -0.5437, 0.29402, -1.07679, 0.18392, -0.25968, 0.07658, -0.26054, 0.35005, -0.3246}, {0.82238, -0.06542, -0.08495, 0.13591, 0.04215, 0.11931, 0.11903, -0.68927, 0.32717, 0.28613}, {0.08269, 0.35969, -0.67235, 0.01251, -0.39113, -0.00858, 0.349, 0.13493, 0.44975, -0.01536}, {0.14133, -0.20454, 0.60667, -0.09081, 0.04621, 0.62586, 0.32513, -0.88175, -0.58826, 0.41902}, {0.5215, 0.29416, -0.48139, 0.07572, 2.03082, 0.17891, 0.08968, 0.21706, 0.1433, -0.23422}, {-0.02796, -1.04373, 0.00892, -0.13812, 0.05963, -0.0601, 0.02081, -0.48008, -0.1879, 0.11992}, {-0.23747, -0.30372, 0.93602, -0.39407, 0.18968, 0.2278, 0.01463, -0.06452, -0.16912, 0.53245}, {-0.10107, -0.14764, 0.13688, 0.32823, 2.46187, -0.1244, -0.0714, -0.3344, 0.08636, 0.09429}, {0.31404, -0.5073, -0.21839, 0.32085, 0.07268, -0.67558, 0.022, -0.13143, 1.45376, 0.05197}};
	Double_t biasesL1_22[15] = {-2.11559, 3.43633, -0.5583, 2.1423, -1.08652, -2.32466, -1.74045, -2.08658, -2.37652, 3.05052, 1.82618, -0.90728, -2.56584, -0.02301, -0.17911};
	nets[22].SetWeightsL1(weightsL1_22);
	nets[22].SetBiasesL1(biasesL1_22);
	
	Double_t weightsL2_22[1][15] = {{-2.52917, -0.95084, -1.02647, -1.37181, -0.82598, 1.79555, 1.24747, -1.0383, 0.75389, -1.26253, 1.56245, -2.13634, -0.4433, -1.8703, 1.10545}};
	Double_t biasesL2_22[1] = {-0.24737};
	nets[22].SetWeightsL2(weightsL2_22);
	nets[22].SetBiasesL2(biasesL2_22);
	
	Double_t weightsL1_23[15][10] = {{-0.1271, 0.00149, -0.2005, -0.07294, -0.14824, -1.17147, 0.05454, -0.16784, 0.37039, -0.05701}, {0.49081, -0.33066, 0.75253, -0.1319, 0.27532, -0.08689, 0.20738, 0.29006, 0.37812, -0.23867}, {0.14462, 0.17052, 0.15689, 0.21331, 0.44305, 0.16507, -0.22785, -0.51108, 0.27318, -0.22687}, {-0.1452, -1.24257, 0.12807, -0.21834, -0.32588, 0.14754, 0.67882, 0.08459, 0.59449, -0.2527}, {-0.05107, -0.01577, -0.10851, 0.44116, -0.65362, 1.23035, 0.41288, -0.23012, -0.01575, 0.19003}, {-0.68033, -0.97753, -0.20464, 0.30888, 0.13563, 0.72179, -0.77846, -0.23475, 0.33088, 1.18523}, {-0.30502, -0.2169, 0.15113, -0.89722, -0.07143, 0.08207, 0.31789, -0.71096, 0.47893, 0.31312}, {0.16588, -0.09551, 0.02285, -0.19747, 0.49478, 0.01456, -0.07793, -0.16269, -0.15624, -0.01929}, {0.25612, -0.24402, 0.19981, -0.65572, 0.2246, 0.53868, -0.32807, 0.86707, -0.35243, -0.12603}, {-0.42987, 0.5105, 0.06412, 0.27244, -0.59255, -0.09253, -0.36378, -1.63682, 0.42354, -0.64895}, {0.12228, 0.13047, -0.04079, -0.21618, 1.96823, 0.20988, 0.00949, 0.2575, 0.07832, -0.24435}, {-0.04019, -1.57249, -0.05378, 0.53038, -0.38446, 0.05743, 0.11321, -0.52327, -0.36872, 0.44308}, {-0.21492, -0.63314, 0.77365, -0.14973, 0.25519, 0.07667, -0.05895, 0.08893, -0.24127, 0.39866}, {0.29747, -0.15069, -0.00053, -0.07402, 2.92413, -0.2364, -0.13637, -0.29268, -0.02328, -0.0357}, {0.34555, -0.55406, -0.22243, 0.54069, -0.09785, -0.36764, 0.50995, -0.50323, 1.27086, 0.48579}};
	Double_t biasesL1_23[15] = {-2.60486, 2.08282, -0.8752, 1.27421, -0.89656, -4.43557, -2.29333, -0.85167, -3.07658, 2.48602, 1.57003, -0.91635, -2.24664, -0.1072, 0.67676};
	nets[23].SetWeightsL1(weightsL1_23);
	nets[23].SetBiasesL1(biasesL1_23);
	
	Double_t weightsL2_23[1][15] = {{-4.20098, -1.11533, -1.33985, -0.38928, -1.50558, 1.88486, 1.3038, -0.74795, 0.65138, -0.65043, 1.5448, -1.47417, -1.70783, -2.02474, 1.30735}};
	Double_t biasesL2_23[1] = {-4.83564};
	nets[23].SetWeightsL2(weightsL2_23);
	nets[23].SetBiasesL2(biasesL2_23);
	
	Double_t weightsL1_24[15][10] = {{0.00704, -0.9692, 0.74019, -0.70461, -0.32537, 0.01812, -0.23183, 0.25888, -0.87862, 1.00887}, {0.3006, 0.15545, 0.45979, 1.12659, -0.01198, -0.30891, -0.37832, -0.06701, 1.43866, -0.13489}, {0.44954, 0.06853, -0.27695, 0.52302, 0.63046, -0.74306, -0.09924, -1.50948, 0.14826, -0.52097}, {0.00391, -1.16804, 0.21133, 1.48489, 0.1736, -0.13278, 0.35747, 0.81757, 0.69939, 0.42234}, {-0.26187, 0.70913, 0.5909, -1.27974, 0.11565, 0.34796, -0.62833, 0.33198, -0.97283, -0.75611}, {-0.65766, 0.79777, 0.06763, -0.47295, 0.00295, 0.44878, -0.6615, -0.21852, -0.35313, 0.84575}, {-0.89542, -0.55049, 0.25668, -1.35772, 0.39508, 0.27123, 0.26697, 0.17565, 1.12595, 0.31517}, {0.09351, -0.24681, -0.54974, 0.42361, -0.61692, -1.75886, 0.05537, 0.41276, 0.33247, 0.2402}, {0.4017, -0.35976, 0.20552, 0.51203, 0.02955, 1.19975, 0.24344, -0.27266, -0.07342, 0.17492}, {-0.49052, 0.45483, 0.07557, 1.84299, -0.34138, -0.49875, -0.41578, 0.30615, -0.0773, -1.58693}, {0.21854, 0.16592, -0.09567, 0.10155, 1.08367, -0.22341, -0.10337, 0.38146, -0.12972, -0.12636}, {0.06084, -1.55368, 0.1268, 0.09344, 0.09872, -0.04533, -0.00299, -0.2876, -0.25296, 0.34631}, {-0.17488, 0.76106, 0.67754, -0.20109, 0.0081, -0.1926, -0.34409, -0.30852, -1.16249, 0.17574}, {0.1461, -0.16572, -0.00506, 0.16062, 2.47499, -0.16694, -0.05746, -0.19906, 0.15067, -0.06336}, {0.65669, -0.55141, 0.05941, -0.38316, 0.06287, -0.74844, -0.10884, -0.58528, 2.0654, -0.02816}};
	Double_t biasesL1_24[15] = {-5.05879, 2.49307, -2.23624, -2.02018, -0.70653, -3.15094, -2.02242, -2.92882, -0.69073, 6.0545, 0.69126, -0.91488, -3.51569, -0.27234, -0.11437};
	nets[24].SetWeightsL1(weightsL1_24);
	nets[24].SetBiasesL1(biasesL1_24);
	
	Double_t weightsL2_24[1][15] = {{-1.32026, -0.62996, -0.76375, 0.65162, -0.7288, 0.94806, 0.84887, -1.45032, -1.1394, -1.5731, 2.08846, -1.6726, -0.72577, -2.29292, 0.83657}};
	Double_t biasesL2_24[1] = {-2.94225};
	nets[24].SetWeightsL2(weightsL2_24);
	nets[24].SetBiasesL2(biasesL2_24);
	
	Double_t weightsL1_25[15][10] = {{-0.48181, 0.04064, 0.29146, 0.46357, -0.60582, 0.52904, 0.42896, -0.48844, -0.13998, -0.00352}, {-0.4732, 0.03043, 0.33193, -0.49141, -0.30027, -0.45831, -0.0366, 1.16351, 0.00194, 0.73353}, {0.2297, -0.33242, -0.41054, 0.08154, -0.00354, -1.36008, 0.01654, -0.28443, 0.03371, -0.08436}, {-0.72358, -0.29794, -0.14708, -0.04568, 0.0366, 1.01228, -0.64953, -0.1169, 0.88413, 1.21666}, {-0.56287, -0.08333, 0.53736, -0.55146, 0.40225, -0.95132, 1.12096, 0.34958, -0.2832, 0.32048}, {-0.11423, 0.71112, -1.10967, 0.08135, -0.30083, 0.16719, 0.35225, 0.32427, -0.50465, 0.30383}, {-0.28396, -0.38948, 0.17549, -0.86093, 0.03495, -0.39957, 0.42436, -0.27641, 0.36264, -0.21747}, {-0.14067, 0.24148, -0.89509, -0.39688, -0.11168, -0.99251, 0.07146, 0.01761, 0.72115, -0.30599}, {0.22073, -0.10925, 0.05155, 1.01846, 0.14975, 1.38697, 0.41506, -0.58542, -0.28521, 0.28027}, {0.15207, 0.81968, 0.68332, -1.25161, -0.12687, 0.10945, -0.61935, 0.41395, 0.2462, -0.01234}, {0.0096, 0.22372, -0.00695, 0.10984, 2.01897, -0.0842, 0.08679, 0.01874, -0.06705, -0.24498}, {0.23113, -1.14774, 0.14512, 0.05011, -0.1014, 0.04852, 0.02565, -0.41623, -0.14877, 0.27099}, {-1.37133, 0.40601, 0.30556, -0.19068, -0.73808, -0.22416, -0.20046, 1.2358, -0.15882, -0.55179}, {-0.04662, -0.05667, 0.02493, 0.23806, 1.82913, 0.00392, -0.0159, -0.23837, 0.05813, 0.07635}, {-0.11336, -0.72299, -0.37041, 0.94538, -0.3876, -0.97518, 0.35075, -0.08881, 1.79072, 0.30122}};
	Double_t biasesL1_25[15] = {-1.8013, 0.42182, -2.23998, -4.09521, -0.53306, -1.64739, -2.17522, -3.1333, -1.11772, 2.86701, 1.5959, -0.81568, -0.94239, 0.12125, 0.07588};
	nets[25].SetWeightsL1(weightsL1_25);
	nets[25].SetBiasesL1(biasesL1_25);
	
	Double_t weightsL2_25[1][15] = {{-0.3548, 0.73924, -1.42206, 1.86824, -0.18462, 0.91734, 1.43074, -2.51516, -0.86244, -0.28419, 1.82562, -1.75066, -0.66741, -2.36316, 1.06644}};
	Double_t biasesL2_25[1] = {-3.21603};
	nets[25].SetWeightsL2(weightsL2_25);
	nets[25].SetBiasesL2(biasesL2_25);
	
	Double_t weightsL1_26[15][10] = {{-0.29873, -0.15436, 0.81098, -0.18339, 0.53824, -0.21459, -0.04616, -0.29114, 0.14003, 0.09468}, {-0.11316, -0.2327, 0.67494, -0.12891, -0.76742, -0.21446, 0.66928, 0.31167, 0.02073, 1.28564}, {0.01914, -0.246, -0.46612, 0.0006, 0.07722, -1.7027, -0.1052, -0.01854, 0.40326, -0.08749}, {-0.37663, 0.05541, -0.32205, -0.27765, 0.13828, 0.31615, -0.56413, -0.02953, 0.54489, 1.37533}, {-0.11505, -0.59044, -0.70869, 0.26989, -0.06616, 0.29231, -0.45226, -0.62977, 0.06411, 1.05795}, {-0.11253, -0.03747, -0.22262, -0.09463, -0.39096, -0.36679, 0.7576, -0.27615, -0.3638, 0.40749}, {0.02386, -0.54772, 0.32173, -0.78033, 0.49426, 0.01767, 0.28038, 0.02164, 0.71438, 0.29205}, {0.26893, -0.39088, 0.07356, 0.00141, 0.08881, 1.01324, 0.59111, 0.59834, 0.927, 0.66932}, {0.53657, -0.21335, -0.29276, -0.81326, 0.5007, 0.28157, 0.14541, -0.98915, 0.27778, -0.26619}, {0.57143, -0.16282, 0.23753, -0.14177, 0.71391, 0.11372, -0.00583, -0.79871, 0.50635, -0.41502}, {0.21116, 0.08885, -0.31675, -0.3276, 1.55748, 0.01672, -0.05637, 0.20165, 0.07724, -0.25867}, {0.19998, -1.10393, 0.16074, 0.00641, 0.10543, 0.20327, -0.03999, -0.31972, -0.27228, 0.30132}, {-0.58802, 0.49904, -0.03452, -0.17054, -0.03965, 0.40101, 0.05574, 1.2439, -0.84459, -0.16804}, {-0.09742, -0.03487, 0.14017, 0.28966, 2.00946, -0.07688, 0.1389, -0.04633, 0.16886, 0.00138}, {-0.01106, -0.20324, -0.17824, 0.58818, 0.16433, -0.49966, -0.00959, 0.76741, 0.89901, -0.15178}};
	Double_t biasesL1_26[15] = {1.40617, 1.67621, -2.46485, -2.82914, 0.25784, -2.15371, -1.26218, -0.51599, -1.01479, -0.78091, 1.06448, -0.72112, 0.22893, -0.06988, -1.20276};
	nets[26].SetWeightsL1(weightsL1_26);
	nets[26].SetBiasesL1(biasesL1_26);
	
	Double_t weightsL2_26[1][15] = {{-0.36952, 0.99828, -2.59721, 0.96757, -0.1115, 0.99563, 1.57432, -0.81765, -0.4826, -0.95376, 2.36938, -2.116, -1.09128, -2.27146, 1.38788}};
	Double_t biasesL2_26[1] = {-2.48292};
	nets[26].SetWeightsL2(weightsL2_26);
	nets[26].SetBiasesL2(biasesL2_26);
	
	Double_t weightsL1_27[15][10] = {{0.74723, -0.25158, -0.22526, 1.13845, 0.226, -0.20618, 0.32052, -0.7934, -0.94867, 0.97603}, {-0.40911, -0.39693, 0.30673, -0.24383, -0.55375, -0.32179, 0.01751, 0.72064, 0.02133, 0.52257}, {0.00544, -0.35167, -0.5544, 0.25904, -0.07269, -1.86328, 0.02867, 0.30265, 0.58203, 0.08507}, {-0.82715, -0.38561, 0.31276, 0.07825, 0.05717, 0.39387, -0.52218, -0.00316, 0.82304, 1.01331}, {0.25318, -0.64412, -0.48615, 0.36928, 1.21663, 0.21153, -0.1678, -0.91464, -0.49485, -0.62663}, {-0.92808, -1.3419, 0.15532, -0.83376, 0.59248, -0.04989, 0.64167, 0.24404, 0.47743, 0.55353}, {-0.23088, -0.27881, 0.06974, -0.62959, -0.36245, -0.07929, 0.08627, -0.63091, -0.36739, 0.48275}, {0.26967, -0.14798, -0.21315, 0.78648, -0.25419, 1.53726, 0.6095, 0.38094, 0.5555, 0.93108}, {0.39324, 0.6056, 0.16344, -0.53922, 0.39728, -0.28905, -0.00568, -0.40907, -0.53281, -0.69048}, {-0.11608, -0.55839, 1.34817, 0.10375, -0.33479, -1.31638, -0.13561, -0.01986, 0.16916, -0.79271}, {0.16461, 0.02393, -0.1563, -0.16664, 1.54571, -0.11261, 0.07098, 0.06105, 0.14691, -0.28215}, {0.06154, -1.04627, 0.16693, 0.0648, -0.05526, 0.00201, 0.1641, -0.40074, -0.27559, 0.18668}, {-0.87462, 0.68516, 0.09903, -0.97551, 0.14803, 0.93995, -0.59998, 0.31167, -0.59702, -0.12582}, {-0.11007, -0.18123, 0.39511, 0.19545, 2.23694, -0.18898, 0.09457, -0.25817, -0.00747, 0.09484}, {0.4543, -0.97978, 0.14137, 1.43792, -0.27236, -0.44355, 0.95766, 0.08686, 1.12732, 0.61177}};
	Double_t biasesL1_27[15] = {-2.40315, 0.87868, -2.85942, -3.8027, 0.8669, -2.04822, -2.23765, -0.84235, -2.32549, 1.58146, 1.24419, -0.83308, -0.75111, -0.07462, -2.63382};
	nets[27].SetWeightsL1(weightsL1_27);
	nets[27].SetBiasesL1(biasesL1_27);
	
	Double_t weightsL2_27[1][15] = {{-0.18738, 1.5228, -2.21914, 3.09365, -0.4263, 0.94286, 0.62098, -1.30203, -0.75631, -0.94479, 1.8809, -2.99895, -0.9839, -1.77564, 1.31934}};
	Double_t biasesL2_27[1] = {-1.35642};
	nets[27].SetWeightsL2(weightsL2_27);
	nets[27].SetBiasesL2(biasesL2_27);
	
	Double_t weightsL1_28[15][10] = {{0.25307, 0.02447, -0.28614, 0.22522, 0.45978, -0.02579, 0.19008, -0.67523, 0.3139, -0.29628}, {-0.31186, 0.18746, -0.58184, 0.04093, -1.12404, -1.08701, 0.58176, 0.08637, 0.63382, 0.08907}, {0.19855, -0.33366, -0.43624, -0.18493, 0.04824, -1.55155, -0.11949, -0.0697, 0.54201, 0.12624}, {-0.69696, 0.31823, 0.33222, 0.30195, -0.26146, 0.42672, -1.16944, 0.19852, 0.77437, 1.71863}, {0.49385, -0.74222, -0.4475, 0.6017, 0.77549, -0.32662, -0.48889, 0.93408, -0.17483, 0.17937}, {0.9615, -0.08231, 0.09978, 0.32869, -0.0073, 0.25145, -1.55058, 0.41074, -0.13055, -0.79618}, {-0.96232, -0.68266, 0.41505, -0.97231, 0.08882, 0.13192, 0.24973, -0.38409, 1.04928, 0.35294}, {0.42624, -0.16559, -0.18802, 0.57073, -0.08754, 0.79161, 0.77907, -0.40748, 0.38317, 0.03286}, {1.26331, -0.02772, -0.52038, 0.03884, 0.01833, 0.23557, -0.51951, -0.07219, -0.37189, -1.12442}, {-0.20511, 0.03637, 0.84595, 1.21673, -0.16573, -0.24567, 0.06642, 0.05943, 0.35813, -0.48155}, {0.15921, -0.05224, -0.07378, -0.16871, 1.00125, -0.26264, -0.07494, 0.24688, -0.07673, -0.25511}, {0.0244, -1.34133, 0.2206, -0.00286, -0.08649, 0.17466, -0.05468, -0.52575, -0.41221, 0.3043}, {-0.25745, 0.18378, 0.00662, -0.24508, -0.20392, 0.55813, -0.10045, 0.44463, -1.28558, 0.01051}, {-0.02645, -0.08634, 0.12339, 0.14855, 2.53377, -0.23745, 0.02421, -0.09369, 0.07162, -0.1487}, {1.01692, 0.36034, -1.28322, -0.45691, 0.54932, 0.23755, 0.73414, -0.52685, -0.17388, -0.14704}};
	Double_t biasesL1_28[15] = {-0.65318, -0.55294, -2.26672, -3.72042, 1.29368, -0.62463, -2.62413, -1.52861, -1.65819, 2.99898, 0.64877, -1.06084, 0.37733, -0.32689, 0.54781};
	nets[28].SetWeightsL1(weightsL1_28);
	nets[28].SetBiasesL1(biasesL1_28);
	
	Double_t weightsL2_28[1][15] = {{-1.39848, 0.6481, -2.12274, 1.21876, 0.13373, 0.19437, 1.19731, -0.24419, -0.6071, -1.07405, 2.25302, -1.89622, -1.1919, -1.97047, 0.76519}};
	Double_t biasesL2_28[1] = {-2.3353};
	nets[28].SetWeightsL2(weightsL2_28);
	nets[28].SetBiasesL2(biasesL2_28);
	
	Double_t weightsL1_29[15][10] = {{0.2974, 0.1683, -0.24697, 0.22622, 0.30576, 0.26817, -0.17818, -0.66039, -0.11124, -0.47762}, {-0.31653, -0.06175, 0.0168, -0.525, 0.36163, -0.87956, -0.77815, -0.12663, -0.27047, -0.74081}, {0.09743, -0.13938, -0.61474, 0.01976, -0.00563, -1.30675, -0.06287, 0.04013, 0.50156, 0.07896}, {-0.49203, 0.00067, -0.45355, 0.12637, 0.02786, 0.48876, -0.29535, -0.28257, -0.14915, 0.57298}, {-0.67527, -0.6596, 0.46234, 0.34392, 0.71851, -0.27333, 0.0066, -0.29208, -0.58142, 0.41573}, {-0.37592, 0.04168, 0.79419, -0.00183, 0.56093, 0.54349, -0.01252, 0.13426, -0.32838, -0.0039}, {-0.33765, -0.59247, -0.06006, -0.95382, 0.27325, -0.21879, 0.26349, 0.23692, 0.44949, 0.31365}, {0.01296, -0.18998, -0.03474, 1.16883, 0.50626, -0.11497, 0.11954, 0.69797, 0.56521, 0.24415}, {0.33831, -0.29758, 0.79376, -0.25822, 0.55916, 0.01758, 0.21571, 0.10747, 0.80445, 1.01866}, {0.17719, -0.00183, 0.83958, -0.76092, 0.36234, 0.05924, -0.29935, 0.41374, 0.56521, -0.36438}, {0.16004, 0.29706, -0.16097, -0.2639, 1.25946, 0.30225, 0.00425, 0.1809, 0.10661, -0.19183}, {0.11632, -1.10741, 0.17104, -0.04945, 0.01717, 0.17556, 0.00989, -0.42651, -0.30394, 0.36053}, {-0.24453, 0.33667, -0.07746, -0.29475, 0.0937, 0.51309, -0.14857, 0.24513, -0.95057, -0.05779}, {-0.10498, -0.24221, 0.22837, 0.40567, 2.65036, -0.20676, 0.04498, -0.09442, 0.05581, 0.10204}, {0.77309, 0.45377, -0.66197, 0.39991, -0.35397, 0.05858, 0.5139, -0.46433, -0.21662, 0.48197}};
	Double_t biasesL1_29[15] = {-0.69755, -0.02875, -2.32379, -1.91346, -0.0915, -1.66246, -1.90457, -0.56309, 0.42595, -0.10688, 1.10956, -0.82268, 0.08658, -0.34727, -0.04595};
	nets[29].SetWeightsL1(weightsL1_29);
	nets[29].SetBiasesL1(biasesL1_29);
	
	Double_t weightsL2_29[1][15] = {{-2.07031, 1.25004, -2.89046, 1.2904, 0.50377, 0.00808, 1.7062, 0.79652, -0.06238, -0.2131, 1.8169, -2.1809, -1.18171, -2.33958, 1.12975}};
	Double_t biasesL2_29[1] = {-3.48977};
	nets[29].SetWeightsL2(weightsL2_29);
	nets[29].SetBiasesL2(biasesL2_29);
	
	Double_t weightsL1_30[15][10] = {{0.12781, 0.2283, -0.01665, 0.22494, 0.23183, 0.20685, 0.06259, -0.3838, -0.39, -0.18999}, {-0.04923, 0.22912, 0.1434, -0.1495, 0.09412, -1.00539, -0.16358, -0.83759, -0.28336, -0.79013}, {0.08375, -0.0034, -0.20554, -0.05576, 0.04643, -1.062, 0.00798, 0.07345, -0.02906, -0.22925}, {-0.31665, 0.05534, 0.03026, -0.06958, 0.21459, 0.25927, -0.84676, -0.11409, -0.13261, 0.96862}, {-0.38523, 0.0802, 0.33653, -0.4398, 0.28167, 0.07941, 0.12266, -0.52743, -0.34879, -0.06725}, {-0.23978, 0.24493, 0.86738, 0.14573, -0.28676, 0.68448, -0.5772, 0.11579, -0.65398, -0.0904}, {-0.16913, -0.52414, -0.27653, -0.58487, 0.36227, 0.10494, 0.10229, 0.2011, 0.2726, 0.21437}, {0.15885, -0.07889, 0.08758, 0.52243, 0.32436, -0.246, -0.03465, 0.6767, 0.42046, -0.22824}, {0.25953, 0.69072, -0.52669, -0.19383, 0.50143, 0.07077, 0.02194, 0.08811, -0.50644, -0.00226}, {-0.16547, 0.16822, 0.08298, -0.33414, 0.46767, 0.00404, 0.60042, 1.06248, 0.16285, -0.30855}, {0.18001, 0.23442, 0.11663, 0.16432, 1.37893, -0.09026, 0.11064, 0.09726, 0.06034, 0.07266}, {0.08293, -1.21147, -0.03429, 0.19552, -0.00205, -0.01615, -0.05245, -0.3218, -0.26084, 0.40776}, {-0.10626, 0.01255, 0.13939, -0.53674, 0.25667, 1.06925, -0.11239, 0.34619, -0.83098, -0.27228}, {-0.07753, -0.22415, -0.13399, 0.38131, 2.12927, -0.223, -0.00926, -0.18964, 0.14429, 0.00451}, {-0.11395, -0.39002, 0.50768, -0.21536, -0.14099, -0.11916, 0.08271, 0.18458, 1.26007, 0.45886}};
	Double_t biasesL1_30[15] = {-0.521, -0.00312, -1.89571, -2.82054, 0.08205, -0.24502, -1.24632, -1.08276, -0.83366, -0.60184, 1.23224, -0.7229, -0.42526, -0.22669, 1.11216};
	nets[30].SetWeightsL1(weightsL1_30);
	nets[30].SetBiasesL1(biasesL1_30);
	
	Double_t weightsL2_30[1][15] = {{-3.43061, 0.51766, -3.99493, 1.29901, 0.34033, -0.96665, 1.71843, 1.28861, 0.06967, -0.42552, 1.95002, -2.06879, -0.76186, -2.15469, -2.04065}};
	Double_t biasesL2_30[1] = {-3.75842};
	nets[30].SetWeightsL2(weightsL2_30);
	nets[30].SetBiasesL2(biasesL2_30);
	
	Double_t weightsL1_31[15][10] = {{0.43216, -0.12049, -0.11015, 0.54673, 0.07012, 0.47875, 0.16926, -0.73853, -0.03671, -0.50217}, {-0.05148, -0.14656, -0.40542, 0.06254, 0.36795, -1.06438, -0.0323, -0.38356, 0.29507, -0.01492}, {0.0314, -0.09414, 0.06047, -0.06382, -0.0721, -1.46702, -0.09912, 0.00307, 0.02408, -0.20828}, {-0.24702, -0.04688, -0.08806, 0.0218, -0.03387, 0.30301, -0.30857, -0.03946, 0.10329, 0.52071}, {0.52996, 0.60073, -0.74455, 0.43787, 0.03728, -0.08047, -0.21645, 0.28393, 1.17626, -0.35001}, {-0.51264, 0.39555, 0.52635, 0.28932, 0.12951, 0.06605, 0.30315, -0.48963, -0.47895, 0.29322}, {-0.22192, 0.01842, -0.21961, -0.43787, 0.3787, 0.12882, 0.41209, -0.10578, -0.15199, 0.03964}, {0.31179, -0.20909, -0.25197, 0.74803, 0.11672, -0.05467, -0.08223, 0.15377, 0.55613, -0.08886}, {-0.15781, -0.6027, -0.22118, -0.4128, -0.10557, -0.64313, 0.29412, -0.80971, -0.17137, -0.08627}, {0.40879, -0.18003, -0.21971, 0.24858, 0.5247, 0.19069, -0.62106, 0.04799, -0.26439, 0.22572}, {0.07936, 0.03967, 0.17681, 0.13543, 1.75245, -0.02974, -0.03023, 0.26102, 0.00067, -0.20776}, {0.07835, -1.19733, 0.08395, 0.16169, -0.06122, 0.1552, -0.10464, -0.36526, -0.44087, 0.4549}, {-1.10955, -0.09353, 0.53798, 0.08327, -0.77826, -0.49275, -0.03457, 0.33228, 0.12329, -0.39492}, {0.1369, -0.11047, -0.17383, 0.2384, 1.66168, 0.00365, 0.02676, -0.14502, -0.02753, 0.03044}, {-0.67133, -0.05964, 0.42606, -0.31791, -0.11619, 0.24303, 0.88086, 0.24815, -0.02726, 0.72917}};
	Double_t biasesL1_31[15] = {-0.60229, 0.52722, -1.99011, -1.90527, -0.03484, -1.78443, -0.94474, -0.39847, -0.77581, 0.65684, 1.40138, -0.88628, -0.6805, 0.0022, -0.6554};
	nets[31].SetWeightsL1(weightsL1_31);
	nets[31].SetBiasesL1(biasesL1_31);
	
	Double_t weightsL2_31[1][15] = {{-1.63391, 1.46763, -1.72091, 3.05826, -1.23447, -1.92773, 0.72731, 1.32604, -0.3971, -1.1282, 1.56387, -2.23382, -1.08081, -2.72323, -0.52961}};
	Double_t biasesL2_31[1] = {-3.11819};
	nets[31].SetWeightsL2(weightsL2_31);
	nets[31].SetBiasesL2(biasesL2_31);
	
	Double_t weightsL1_32[15][10] = {{0.1312, -0.00134, 0.19179, 0.05778, 0.41902, 0.2348, -0.03956, -0.59472, -0.22071, -0.2315}, {-0.09263, -0.08021, -0.4412, 0.27769, -0.15913, -0.84845, 0.32195, -0.28001, 0.3189, 0.019}, {0.08198, -0.17353, -0.1469, 0.03874, -0.02116, -1.31544, -0.02313, -0.01824, -0.21701, -0.01426}, {-0.11961, 0.0778, -0.30771, -0.47817, 0.38715, 0.23157, -0.36676, -0.00296, 0.03447, 0.37386}, {0.40004, 0.68038, -0.45467, 0.18711, 0.05661, -0.04256, -0.15418, 0.11403, 0.89211, -0.21477}, {-0.05625, 0.09996, 0.29682, 0.22277, 0.20831, 0.01318, 0.18074, -0.0356, -0.34764, 0.21317}, {0.29597, -0.1279, 0.24688, -0.66468, 0.46581, 0.14935, 0.09009, 0.09139, -0.47439, -0.18719}, {-0.03115, -0.03308, -0.06329, 0.81767, 0.23688, -0.01315, -0.16604, 0.50417, 0.45693, -0.12474}, {-0.21474, -0.00442, 0.80339, -0.70786, 0.45169, 0.26163, 0.36939, -0.35208, -0.93091, 0.3356}, {0.44818, -0.1419, -0.05086, 0.72567, -0.12853, -0.05401, 0.38514, -0.27467, -0.37607, 0.25155}, {0.12465, 0.06392, -0.0029, -0.64385, 1.55697, -0.46997, -0.15815, 0.19351, -0.0265, -0.31838}, {0.16863, -1.42558, -0.01285, 0.2266, -0.02999, 0.15358, -0.10094, -0.27656, -0.40015, 0.40521}, {-0.91371, 0.45606, 0.12347, 0.45888, -0.36902, -0.10606, 0.05038, 0.65326, -0.14484, -0.32567}, {0.01181, -0.02525, -0.14409, 0.08923, 1.91555, -0.08943, -0.03717, 0.07671, 0.11015, -0.15366}, {0.14501, 0.23781, 0.01659, 0.12933, 0.71604, 0.29425, -0.0555, 0.06908, 0.01062, -0.11434}};
	Double_t biasesL1_32[15] = {-0.37196, 0.40647, -1.58936, -1.82068, -0.31614, -0.37504, -1.59451, -0.62177, 0.5776, 0.61396, 0.26367, -0.59848, -0.73787, -0.3677, 0.49486};
	nets[32].SetWeightsL1(weightsL1_32);
	nets[32].SetBiasesL1(biasesL1_32);
	
	Double_t weightsL2_32[1][15] = {{-2.06454, 2.03565, -1.97575, 2.03604, -1.18889, -0.07449, -0.19709, 1.69818, 0.44392, -0.07011, 1.48133, -1.72572, -0.75433, -3.70617, 1.84562}};
	Double_t biasesL2_32[1] = {-3.31625};
	nets[32].SetWeightsL2(weightsL2_32);
	nets[32].SetBiasesL2(biasesL2_32);
	
	Double_t weightsL1_33[15][10] = {{0.3588, 0.12387, 0.13378, 0.05628, 0.66422, 0.44914, 0.0035, -1.28985, -0.08944, -0.65581}, {-0.45674, 0.19398, 0.40801, 0.12525, -0.22504, -1.36982, 0.08791, -0.72918, -0.27615, 0.25121}, {0.12933, -0.13015, -0.65419, -0.28691, 0.29358, -1.23717, -0.20362, -0.1796, 0.42669, -0.08952}, {-0.20513, 0.15251, -0.52085, 0.03575, -0.04454, -0.18501, -0.51551, 0.6274, -0.10068, 0.78415}, {0.23546, 0.47745, 0.16452, 0.81699, -0.19981, -0.08633, -0.03342, -0.01384, -0.58065, -0.26896}, {0.70723, -0.71892, -0.32618, 0.03838, 0.36624, 0.22793, 0.02321, -1.16783, 0.26757, 0.38737}, {0.15473, -0.65134, -0.17545, -0.11832, -0.68302, -0.4338, -0.38996, 0.22621, 0.04249, -0.06097}, {0.53511, -0.23168, 0.28831, 0.5699, -0.83679, 0.32928, -0.40608, 0.26321, 0.22394, -0.67205}, {-0.21417, -0.05816, -0.30641, 0.31723, -0.31593, -0.46523, 0.51008, -0.37074, -0.20258, -0.30264}, {-0.43766, -0.18024, 0.04455, -0.24246, 0.42094, -1.2753, -0.5164, -0.39349, -0.49093, -0.97631}, {0.23475, 0.03928, -0.0365, -0.01821, 1.20711, -0.29292, -0.11971, 0.61376, -0.10225, -0.26403}, {0.01773, -1.51016, -0.07279, -0.01496, 0.06595, 0.35708, -0.30119, -0.36683, -0.0946, 0.36982}, {-0.70972, 0.40385, 0.29966, 0.37563, -0.67897, 0.27302, -0.01801, 0.80305, -0.29119, 0.05573}, {0.0054, -0.08662, 0.06118, 0.27868, 2.39136, -0.18018, 0.07142, -0.16522, -0.01709, 0.05613}, {-0.25764, 0.74519, -0.25716, -0.40352, 0.20864, 0.57694, -0.20673, 0.23615, 1.38401, 0.14912}};
	Double_t biasesL1_33[15] = {-0.96545, 1.20095, -2.12714, -0.73379, 1.30821, 1.44951, -0.59376, -0.40809, -0.03977, -0.65422, 0.47809, -1.02641, -0.36307, -0.30734, 1.27829};
	nets[33].SetWeightsL1(weightsL1_33);
	nets[33].SetBiasesL1(biasesL1_33);
	
	Double_t weightsL2_33[1][15] = {{-1.30472, 0.73362, -2.52061, 0.77335, -1.25013, 0.80802, -1.07186, 0.11766, 0.37641, 0.49282, 1.92878, -1.30753, -0.63254, -2.4591, 1.06602}};
	Double_t biasesL2_33[1] = {-5.00409};
	nets[33].SetWeightsL2(weightsL2_33);
	nets[33].SetBiasesL2(biasesL2_33);
	
	Double_t weightsL1_34[15][10] = {{0.33987, 0.02157, -0.13046, 0.12679, 0.40449, 0.3562, -0.04496, -0.79714, -0.09255, -0.45085}, {0.13082, 0.15126, 0.00316, -0.39872, 0.55792, -1.40258, -0.07833, -0.51692, -0.13932, -0.20864}, {-0.02324, -0.19408, -0.48793, -0.12753, -0.20562, -1.22743, -0.25062, 0.08175, 0.32177, -0.00562}, {-0.43738, 0.41241, -0.58735, -0.78447, 0.16163, 0.45847, -0.1548, -0.02218, -0.41663, 0.6277}, {0.35463, 0.70175, -0.25353, 0.41816, -0.10381, 0.09297, -0.45062, 0.17969, -0.60139, -0.30806}, {0.64674, -0.41517, -0.04263, 0.37996, 0.19965, -0.28245, 0.21602, -0.28145, 0.51664, 0.11999}, {0.08397, -0.70145, 0.15178, -0.22178, -1.26696, -0.13817, -1.04478, 0.21037, 0.31662, -0.01705}, {-0.66302, 0.19935, -0.18953, -0.35081, 0.10765, -0.81096, -0.05364, 0.26532, 0.46174, -1.25155}, {0.13779, 0.14625, 1.05322, -0.1231, -0.29724, 0.17039, -0.44829, 0.17823, -0.65991, -0.06356}, {-0.18972, 0.06842, 0.39478, -0.0671, 1.21564, 0.27408, 0.46276, -0.00321, -0.06891, 0.3332}, {0.34507, 0.07295, -0.13934, 0.16793, 1.26833, -0.32471, -0.46868, 0.43961, -0.14111, -0.71215}, {0.14075, -1.28392, 0.12604, 0.06337, 0.00535, -0.16237, 0.15379, -0.42623, -0.14328, 0.30408}, {0.19217, -0.08054, -0.61009, 0.35388, -0.12604, 1.18627, -0.11719, -0.27695, 0.12984, -0.19703}, {-0.04455, -0.10078, 0.14163, 0.22677, 2.30396, -0.12849, 0.01401, -0.14869, 0.21957, -0.00444}, {-0.0413, -0.07571, 0.1552, 0.43964, -0.09934, 0.78312, -0.85485, 0.23001, 1.26999, -0.20267}};
	Double_t biasesL1_34[15] = {-0.37688, 1.10807, -2.1062, -1.87528, 1.38747, 0.25521, -1.30864, -1.68903, -0.79801, 0.97868, 0.89299, -0.96823, 1.1231, -0.35585, -0.30034};
	nets[34].SetWeightsL1(weightsL1_34);
	nets[34].SetBiasesL1(biasesL1_34);
	
	Double_t weightsL2_34[1][15] = {{-1.82974, 1.55741, -1.03084, 1.36149, -2.08186, 1.11254, -0.4828, -0.00624, -0.40549, 0.41099, 1.36779, -2.4834, 0.59403, -2.50733, 0.53091}};
	Double_t biasesL2_34[1] = {-3.4797};
	nets[34].SetWeightsL2(weightsL2_34);
	nets[34].SetBiasesL2(biasesL2_34);
	
	Double_t weightsL1_35[15][10] = {{0.58908, -0.04853, -0.41503, 0.18017, 0.27816, 0.42953, 0.08616, -0.80335, -0.27775, -0.61408}, {-0.17376, -0.00511, 0.00179, -0.31293, 0.40906, -0.98203, -0.25512, -0.15109, -0.15195, -0.42042}, {0.02308, -0.30817, -0.66234, 0.16015, -0.28994, -1.161, 0.0333, -0.15548, 0.40461, 0.18276}, {0.11513, -0.07883, -0.56437, -0.11959, -0.75626, 0.06191, 0.84339, -0.49919, 0.08154, -0.08774}, {0.15469, 0.38366, -0.01863, 0.02214, -0.00573, -0.02341, 0.08458, -0.09831, -0.42458, -0.70891}, {0.48755, -0.27069, 0.47929, 0.32995, -0.17873, -0.08672, 0.093, 0.33179, 0.87899, -0.00179}, {0.49983, -0.55354, 0.20358, -0.57102, 0.33686, 0.41236, 0.43824, -0.23539, 0.01279, -0.24427}, {-0.27112, 0.60823, -0.12591, -0.11848, -0.22753, 0.42981, -0.16908, 0.21993, 0.87852, -0.52343}, {0.15634, 0.55126, -0.11469, -0.24059, 0.20547, -0.16949, -0.07181, -0.12492, 0.01984, -0.18183}, {0.25516, -0.03759, 0.02607, 0.00176, 1.64474, -0.19757, -0.13268, 0.29446, 0.03791, -0.08393}, {0.51554, 0.56647, -0.26948, 0.61539, 0.00884, 0.74043, 0.0569, 0.34802, -0.36198, -0.03931}, {0.27943, -1.55824, 0.52089, -0.04981, -0.07812, -0.0819, -0.33157, -0.53521, -0.28935, 0.62126}, {-0.28632, 0.7782, -0.75264, -0.06132, -0.61212, -0.03276, 0.09871, -0.23616, 0.04488, 0.12307}, {-0.07426, -0.00576, 0.14497, 0.31258, 2.01731, 0.0825, -0.03111, -0.13686, 0.02714, 0.02438}, {-0.82544, 0.20771, 0.53662, 0.25099, -0.4729, -0.33497, -0.34886, 0.83728, 0.04321, -0.33856}};
	Double_t biasesL1_35[15] = {-0.62444, 0.46498, -2.00277, -3.04913, 1.62441, -1.13354, -1.16207, 0.48679, -1.32402, 1.09351, -0.69372, -0.93541, -1.061, -0.16031, -0.51898};
	nets[35].SetWeightsL1(weightsL1_35);
	nets[35].SetBiasesL1(biasesL1_35);
	
	Double_t weightsL2_35[1][15] = {{-1.77246, 2.10123, -2.34522, 2.18597, -2.77315, 0.45871, 0.13681, 1.10095, -2.26909, 1.82962, 0.82462, -1.39952, 0.67469, -2.5171, -1.39757}};
	Double_t biasesL2_35[1] = {-2.33945};
	nets[35].SetWeightsL2(weightsL2_35);
	nets[35].SetBiasesL2(biasesL2_35);
	
	Double_t weightsL1_36[15][10] = {{0.1126, 0.4067, -0.56433, 0.10672, 0.81091, 0.66932, -0.26873, -1.19232, 0.06192, -0.82074}, {-0.53198, 0.1396, 0.18763, -0.43854, 0.4503, -1.11491, -0.84401, -0.01419, -0.59299, -0.94077}, {-0.29575, 0.14244, -1.40667, -0.37826, -0.35098, -1.33059, -0.49736, 0.05057, 1.48515, -0.22325}, {-0.86996, -0.0602, -0.7686, -0.94121, -0.80496, -0.10359, 0.33279, -0.69753, -0.14158, 0.04425}, {0.5623, 0.01377, 0.20172, -0.00087, -0.48801, -0.62788, 1.06399, -0.03713, -0.14271, -0.61269}, {-0.12848, -0.4253, 0.75863, -1.0354, 0.53889, -0.0746, 0.50554, 0.06275, 0.86221, 0.52575}, {-0.29806, -0.06998, 0.33191, -0.06843, 0.30346, 0.69809, 0.09735, -0.29357, -0.1916, 0.08191}, {-0.2721, 0.23077, 0.03675, 0.07314, -0.11604, 0.64576, -0.12621, 0.34653, 0.38611, -0.06002}, {0.43867, -0.14179, 0.1031, -0.08516, 0.20983, 0.3711, 0.1381, 0.10139, 1.2581, 0.22133}, {-0.10026, 0.06365, -0.18174, -0.17521, 1.70102, -0.02768, -0.20782, 0.19216, 0.05997, -0.14793}, {-0.23769, 0.12211, 0.18574, -0.42225, 0.35366, 1.36297, -0.47203, 0.07156, -0.419, -0.46478}, {0.05035, -1.68267, -0.15096, 0.1076, -0.16705, 0.18091, -0.33371, -0.44658, -0.43192, 0.3153}, {-0.6902, 0.17172, 0.1704, -0.96788, 0.37704, 0.68492, -0.38223, -0.20384, -0.04703, 0.12154}, {0.18384, -0.07914, 0.0656, 0.32858, 2.1241, -0.0539, -0.0337, -0.21316, 0.0435, 0.10053}, {-0.70296, -0.01886, 0.49147, 0.20241, -0.729, -0.47944, -0.07991, 0.38761, 0.07818, -0.13991}};
	Double_t biasesL1_36[15] = {-1.43837, -0.16172, -5.00974, -3.90625, 3.45747, -1.95893, -1.98615, 0.86319, -0.44682, 1.31535, -0.73796, -1.30355, 5.68583, 0.04949, -0.32682};
	nets[36].SetWeightsL1(weightsL1_36);
	nets[36].SetBiasesL1(biasesL1_36);
	
	Double_t weightsL2_36[1][15] = {{-1.19725, 0.76668, -2.69522, 1.28796, -2.37291, 0.87292, -1.71234, 2.07238, 0.01549, 1.77416, -1.16102, -1.43351, 0.96639, -2.30814, -1.24028}};
	Double_t biasesL2_36[1] = {-5.65479};
	nets[36].SetWeightsL2(weightsL2_36);
	nets[36].SetBiasesL2(biasesL2_36);
	
	Double_t weightsL1_37[15][10] = {{0.29419, -0.03297, -0.14075, 0.60067, 0.53098, 0.31144, -0.1934, -0.81709, 0.39714, -0.13259}, {0.60192, 0.14906, -0.25757, 1.05015, 0.70088, -0.46932, -0.3154, 0.60846, -0.69887, -0.09396}, {-0.03616, 0.0192, -0.68651, 0.04993, -0.33141, -1.36531, -0.1864, -0.13312, 0.46439, -0.05748}, {-0.506, -0.0578, 0.02464, -1.22341, 0.03268, 0.00916, -0.29296, -0.59702, -0.1391, 0.21536}, {0.31238, 0.14913, 0.16307, -0.06454, -0.05342, -0.38448, 0.12314, -0.04285, -0.25509, -0.45609}, {-0.1665, -0.64488, 0.36056, -0.1841, -0.09276, -0.41074, 0.84277, -0.07982, 0.3902, 0.21752}, {-0.3093, 0.45526, 0.38641, -0.31561, 0.1358, 0.15707, 0.40874, -0.71519, -0.0696, 0.12715}, {-0.35764, 0.29193, -0.23204, -0.02084, -0.36247, 0.45884, 0.07101, 0.63358, 1.04914, -0.15983}, {-0.07828, -0.08619, 0.21882, -0.33869, 0.74635, -1.58998, 0.26717, -0.20225, 0.01534, 0.14446}, {0.20013, 0.36373, -0.35867, -0.15728, 1.63457, 0.14464, -0.2101, 0.24402, 0.31054, -0.3444}, {-0.59917, 0.03719, -0.86309, -0.05874, 0.20511, -0.36852, -0.11924, -1.05283, -0.66336, 0.78383}, {0.11858, -1.18879, 0.07145, 0.20425, -0.30136, 0.23042, -0.02181, -0.3225, -0.17174, 0.47284}, {-0.08219, 0.46358, 0.74257, -0.155, -0.11085, 0.04752, -0.45779, -0.52945, -0.2256, 0.66053}, {0.09624, -0.22422, -0.022, -0.01799, 2.33311, -0.2505, -0.07408, -0.19497, -0.05286, -0.08424}, {-0.57622, 0.61405, 0.13288, 0.46599, -0.79155, 0.38315, -0.05119, 1.105, -0.10557, -0.61837}};
	Double_t biasesL1_37[15] = {-0.69577, 0.19857, -3.13853, -2.83784, 2.22167, -2.40862, -1.43611, 0.94469, 1.42964, 1.47374, -2.54719, -0.94279, 1.85611, -0.22759, -0.3729};
	nets[37].SetWeightsL1(weightsL1_37);
	nets[37].SetBiasesL1(biasesL1_37);
	
	Double_t weightsL2_37[1][15] = {{-1.23008, 0.69435, -3.07304, 1.33142, -3.43555, 1.11731, -0.811, 1.44396, 1.15489, 1.39301, 0.3825, -1.78483, 0.38884, -2.16038, -0.90974}};
	Double_t biasesL2_37[1] = {-2.38503};
	nets[37].SetWeightsL2(weightsL2_37);
	nets[37].SetBiasesL2(biasesL2_37);
	
	Double_t weightsL1_38[15][10] = {{0.2838, 0.17965, -0.24318, 0.28935, 0.58742, 0.69053, -0.09358, -1.34363, -0.06664, -0.91117}, {0.39512, 0.11827, -0.86845, -0.25652, 2.66317, 0.34587, -0.40041, 0.2475, 0.14432, -0.11016}, {-0.48745, -0.07597, -1.13986, 0.08752, -0.11956, -1.74679, -0.38124, -0.18828, 0.41711, -0.48057}, {0.03735, -0.79571, 0.38915, 0.21835, -0.58225, -0.60665, 0.43023, 0.33149, -0.52802, -0.07443}, {-0.00466, 0.35752, -0.33802, -0.86614, 0.01128, -0.02936, 0.06904, -0.44568, -0.69656, -0.8722}, {-0.07991, -0.66262, 0.0868, -0.4983, -0.10257, -0.12167, 0.69769, 0.00179, -0.03342, 0.07942}, {0.01694, 0.37035, 0.44371, -0.06999, 0.87846, -0.31575, -0.42136, 0.10461, 0.39706, 0.30935}, {-0.67262, 0.48059, 0.08538, -0.24589, 0.3716, 0.95898, -0.25264, -0.32402, 1.38687, -0.4027}, {0.08724, -0.07574, 0.03086, -0.67104, 0.71049, -1.62051, 0.07543, -0.74401, -0.36491, -0.04256}, {0.51972, 0.14555, 0.01593, -0.19916, 0.9553, -0.70968, -0.2919, 0.60445, -0.25346, -0.54002}, {-1.12128, -0.389, 0.11907, -0.94856, -0.07322, -0.32938, -0.02491, -0.74296, 0.27438, -0.06446}, {0.1393, -1.46301, -0.05251, 0.02756, -0.08508, 0.06037, -0.08086, -0.46596, -0.47628, 0.32791}, {1.07955, 0.26186, -0.64587, 0.16689, 0.41843, -0.49077, -0.00456, -0.0182, -0.46922, 0.17929}, {0.02076, -0.19199, 0.18255, -0.12569, 2.32517, -0.08083, 0.14488, -0.13892, -0.00143, -0.06037}, {0.38307, -0.29148, 1.01685, 0.246, -0.18185, -0.55067, 0.42058, 0.11646, 0.16935, -1.27958}};
	Double_t biasesL1_38[15] = {-1.13246, 2.7859, -3.9645, -2.75043, 1.51873, -1.65248, -0.22946, 0.32946, 1.30621, 0.48406, -2.80624, -0.85658, -4.30641, -0.32099, 2.33223};
	nets[38].SetWeightsL1(weightsL1_38);
	nets[38].SetBiasesL1(biasesL1_38);
	
	Double_t weightsL2_38[1][15] = {{-1.16589, 1.3812, -2.76512, -0.85065, -1.02165, 0.93956, -0.99378, 0.90334, 1.16185, 1.19472, 1.46402, -1.94689, -1.92747, -1.76762, -1.01101}};
	Double_t biasesL2_38[1] = {-6.15764};
	nets[38].SetWeightsL2(weightsL2_38);
	nets[38].SetBiasesL2(biasesL2_38);
	
	Double_t weightsL1_39[15][10] = {{0.06645, 0.00303, -0.24749, 0.5039, 0.29348, 0.40604, -0.09974, -0.73681, -0.06949, -0.34191}, {0.21229, 0.13137, -0.16052, 0.40193, 1.43754, -0.11693, 0.10258, -0.0283, -0.0526, -0.03924}, {-0.17725, 0.19901, -0.58883, -0.08122, -0.22863, -0.97661, -0.2514, 0.11803, 0.30502, -0.13087}, {0.39796, -0.30944, 0.19145, -0.36868, 0.46489, -0.99871, -0.40723, 0.19894, 0.03384, -0.13778}, {-0.20386, -0.07113, 0.01708, 1.06041, -0.77114, -0.29284, -0.74974, 0.05546, -0.1668, 0.08471}, {0.0317, -0.93728, 0.03086, -0.3754, 0.41198, 0.04001, 0.39464, 0.45931, 0.57445, 0.46012}, {0.51058, -0.2178, 0.15792, -0.24444, -0.36789, -0.94338, 0.26391, -0.11572, -0.50124, 0.18659}, {-0.25941, 0.12197, 0.02096, 0.01733, -0.44457, 0.05578, 0.05052, 0.57705, -0.32562, -0.49823}, {0.20976, -0.14107, 0.132, -0.34271, 0.46609, -1.35327, -0.03854, -0.1633, -0.26933, -0.06466}, {0.75502, -1.00029, -0.23006, 1.18705, -0.21269, -1.08079, 0.24576, -0.36069, 0.82779, 0.47334}, {0.05975, 0.30231, -0.33718, -0.39324, 0.07063, 0.05138, -0.06016, -0.00473, 0.00472, -0.04834}, {0.077, -1.36376, 0.06583, 0.17515, -0.2251, 0.10765, 0.05043, -0.5079, -0.56317, 0.49872}, {-0.43734, 0.03891, -0.05057, 0.53958, -0.48063, 0.60418, -0.12198, -0.26835, 0.84133, 1.08145}, {-0.07727, -0.12438, 0.0655, 0.06088, 1.78005, -0.03527, 0.03961, -0.12752, 0.11321, -0.05015}, {0.43451, 0.1676, 0.22005, 1.31337, -0.10777, -0.02451, 0.01755, 0.06896, 0.17265, 0.26609}};
	Double_t biasesL1_39[15] = {-0.45809, 1.39234, -2.43574, -2.53307, 2.98888, -2.4931, 0.14619, 1.44972, 1.15669, 0.91944, -1.05129, -0.91355, -2.71598, -0.02396, 1.70208};
	nets[39].SetWeightsL1(weightsL1_39);
	nets[39].SetBiasesL1(biasesL1_39);
	
	Double_t weightsL2_39[1][15] = {{-1.58052, 2.07358, -2.11698, -1.23011, -0.25613, 0.94819, -1.27751, 0.04641, 1.60769, 0.74629, 1.41886, -1.652, 1.83409, -2.45847, -1.34264}};
	Double_t biasesL2_39[1] = {-2.23943};
	nets[39].SetWeightsL2(weightsL2_39);
	nets[39].SetBiasesL2(biasesL2_39);
	
	Double_t weightsL1_40[15][10] = {{0.20547, -0.0055, 0.00069, 0.16188, 0.53544, 0.35191, -0.09907, -0.56613, -0.04903, -0.30368}, {0.21059, 0.0952, -0.14158, -0.04311, 0.89912, -0.07076, 0.01587, 0.19361, -0.06571, -0.11061}, {-0.15771, -0.05951, -0.45427, 0.02876, -0.11396, -1.37793, 0.0916, -0.18821, 0.20251, -0.11896}, {0.42146, -0.30784, -0.2716, 0.52971, -0.40495, 0.39948, -0.00252, -1.22168, -0.39783, 0.08862}, {0.3396, 0.66999, -0.17665, 0.61329, -0.26418, -0.12276, -0.99935, 0.15728, 0.01234, 0.19872}, {0.15349, -0.27804, 0.04786, 0.29186, -0.02934, -0.35631, 0.13334, -0.51895, 0.67743, 0.20333}, {0.233, 0.35698, -0.15465, 0.12047, -0.00171, -0.79914, -0.25042, 0.50366, -0.10087, -0.60733}, {0.39437, -0.08909, -0.24977, -0.18097, -0.95789, -0.61055, 0.15769, -0.10969, 0.10906, -0.34911}, {-0.27144, -0.12927, -0.34439, -0.16489, 0.37766, -0.64957, -0.44297, -0.04327, 0.04459, -0.27969}, {0.29843, -0.66014, -0.27428, 0.24677, -0.40965, 0.05401, 0.14862, -0.0661, -0.13868, 0.01654}, {-0.52873, -0.49684, 0.364, 0.00389, 0.12453, 0.15994, -0.42885, 0.21034, 0.502, 0.36559}, {0.20499, -1.13859, 0.01959, 0.06891, -0.00285, -0.01429, -0.02258, -0.07919, -0.28914, 0.26514}, {-0.25341, 0.45089, -0.14852, 0.06058, -0.13215, 0.52479, -0.39503, -0.54267, -0.64676, 0.71576}, {0.06965, 0.00156, 0.09202, 0.02166, 2.11043, -0.08161, -0.119, -0.04461, 0.14145, 0.00606}, {0.32599, 0.22259, 0.16051, 0.90715, 0.14702, 0.37912, -0.40195, 0.26916, -0.04849, -0.0892}};
	Double_t biasesL1_40[15] = {-0.50809, 0.61371, -2.39023, -1.7424, 2.3979, 0.2737, -2.96358, 3.47437, -0.17717, -0.52812, -2.40877, -0.76297, -2.80216, -0.0877, 2.46423};
	nets[40].SetWeightsL1(weightsL1_40);
	nets[40].SetBiasesL1(biasesL1_40);
	
	Double_t weightsL2_40[1][15] = {{-2.14241, 3.69841, -3.19515, -0.23111, -0.17544, 1.38928, -0.78106, 0.51524, 0.64282, 0.11689, 2.42543, -2.16673, 1.22571, -2.64385, -2.01503}};
	Double_t biasesL2_40[1] = {-2.69386};
	nets[40].SetWeightsL2(weightsL2_40);
	nets[40].SetBiasesL2(biasesL2_40);
	
	Double_t weightsL1_41[15][10] = {{0.30201, 0.24851, -0.30054, -0.0589, 0.65321, -0.01618, -0.06661, -0.92929, 0.25422, -0.76326}, {0.24237, 0.14248, -0.11421, -0.17285, 1.00145, -0.13265, -0.08785, 0.2672, -0.01431, -0.10049}, {0.29919, -0.25586, -0.91792, 0.12071, -0.25053, -1.56452, -0.02981, 0.33536, 0.62797, 0.12327}, {-0.03518, 0.60623, 0.4954, -0.12104, 0.10119, -0.87125, -0.56079, 0.6015, -0.40063, 0.67969}, {0.19452, -0.31826, 0.01378, -0.17667, 0.39278, -0.27463, 0.51962, -0.45963, 0.83356, -1.08461}, {0.75325, -0.39151, 0.5633, 0.31585, 0.3062, -0.64438, 0.43006, -0.78942, 1.60727, -0.17883}, {0.60716, -0.26924, 0.15838, 0.13144, 0.10713, 1.05268, -0.27308, 0.95275, -0.34236, 0.20412}, {0.00498, -0.17852, 0.11861, 0.2503, -0.32183, -0.48893, 0.25866, 0.83573, 0.54938, 0.10557}, {-0.21056, 0.13046, 0.05017, 0.04035, -0.01958, -1.03652, -0.40843, -0.21031, -0.61664, -0.41403}, {-0.37244, -0.21367, -0.11589, 0.48845, 0.46745, -1.19195, 0.07075, 1.68461, 0.72828, -0.3463}, {0.15629, -0.66027, -0.11236, -0.8749, 0.71941, 0.26512, -0.15955, 1.14674, 0.44709, 0.52374}, {0.15423, -1.17017, 0.02824, -0.04677, 0.00619, -0.05338, -0.05967, -0.35152, -0.37232, 0.36782}, {0.12802, -0.16342, -0.69431, 0.53056, -0.19729, 0.2828, 0.22458, -0.07234, 0.67651, 0.54263}, {0.02244, -0.04806, 0.14966, 0.0322, 2.46351, -0.12442, -0.13089, 0.01027, 0.14001, 0.05864}, {0.39329, 0.2299, 0.09136, 1.09565, -0.09279, -0.0109, -0.11666, 0.34068, -0.35481, -0.03842}};
	Double_t biasesL1_41[15] = {-1.16129, 0.5982, -2.63631, -1.68862, 0.83598, 0.19236, -1.00231, 1.68364, 0.38135, -2.19184, -2.10227, -0.87988, 0.41268, -0.25007, 2.15191};
	nets[41].SetWeightsL1(weightsL1_41);
	nets[41].SetBiasesL1(biasesL1_41);
	
	Double_t weightsL2_41[1][15] = {{-1.41628, 2.95667, -1.5705, -1.11065, -1.39146, 1.03548, -0.95702, 0.53668, 0.93415, 0.28933, 1.16671, -2.03828, 0.69323, -2.49118, -1.92054}};
	Double_t biasesL2_41[1] = {-3.73449};
	nets[41].SetWeightsL2(weightsL2_41);
	nets[41].SetBiasesL2(biasesL2_41);
	
	Double_t weightsL1_42[15][10] = {{0.57604, 0.12427, -0.15232, 0.07091, 0.30144, -0.08303, -0.14756, -0.44919, 0.02549, -0.51307}, {0.06337, 0.22191, -0.29839, -0.07009, 1.62089, 0.08654, -0.02242, 0.13644, -0.00401, -0.17025}, {0.09717, -0.08748, -0.34592, -0.05164, -0.19751, -1.09747, 0.04572, 0.07008, 0.57213, -0.17381}, {-0.17624, 0.31228, -0.00546, 0.60065, 0.1454, 0.45777, -0.02907, 0.39984, -0.2188, 0.06364}, {0.19678, -0.0336, 0.21907, 0.66181, -0.40796, 0.45808, 1.05505, -0.65134, 0.71578, 0.38126}, {1.04404, -0.37901, -0.22411, -0.14294, 0.47196, -0.05139, 0.35447, -0.79053, 0.1385, 0.10118}, {0.33712, -0.66182, 0.14271, -0.15768, 0.08305, -0.79276, 0.21553, -0.48575, -0.74614, -0.01594}, {0.48211, -0.46463, -0.31731, 0.13463, 0.06982, -0.71699, -0.09143, -0.74036, 0.06517, -0.54297}, {-0.23018, -0.09344, -0.26058, -0.64436, 0.57158, -1.29985, -0.15895, 0.08278, 0.10288, 0.10364}, {0.16791, -0.08338, 0.18688, 0.13987, 0.00921, 0.07272, 0.24823, -0.503, 0.24218, 0.46229}, {0.3401, -0.1896, -0.00383, 0.89938, -0.45055, -0.43669, 0.31672, 0.10072, 0.40565, -0.31614}, {0.02808, -1.09472, -0.08138, 0.20917, -0.00745, 0.10964, -0.06848, -0.34406, -0.25511, 0.42541}, {-0.44016, 0.45243, -0.45368, -0.03942, -0.19091, 0.18708, -0.64242, 0.46926, -0.42882, 0.48267}, {-0.0152, -0.15166, 0.13626, 0.12194, 1.70645, -0.06057, -0.01715, -0.19686, 0.01819, 0.032}, {0.52712, 0.61932, -0.12218, 0.49491, -0.29835, 0.05238, -0.07522, -0.17633, -0.332, -0.7422}};
	Double_t biasesL1_42[15] = {-0.67836, 1.29585, -1.93145, 1.44977, 0.03323, 0.47822, -0.74655, -0.16899, 0.85379, -0.3522, -0.98925, -0.83708, 0.54328, -0.01715, 1.97729};
	nets[42].SetWeightsL1(weightsL1_42);
	nets[42].SetBiasesL1(biasesL1_42);
	
	Double_t weightsL2_42[1][15] = {{-1.96321, 2.05462, -2.60878, -1.52151, -0.66929, 0.61874, -0.86704, 0.21188, 1.17167, 0.72831, 1.91293, -2.28717, 0.09326, -2.40196, -1.58362}};
	Double_t biasesL2_42[1] = {-3.04};
	nets[42].SetWeightsL2(weightsL2_42);
	nets[42].SetBiasesL2(biasesL2_42);
	
	Double_t weightsL1_43[15][10] = {{0.33692, 0.05555, -0.12688, 0.26905, 0.28217, 0.2979, 0.07217, -0.64808, -0.09395, -0.43925}, {0.13193, 0.05377, -0.27524, -0.13981, 1.02029, -0.21606, -0.13607, 0.32937, -0.14443, -0.26531}, {0.05172, -0.01635, -0.29982, 0.04898, -0.04815, -1.00623, -0.14508, 0.09456, 0.41782, 0.06931}, {0.46796, 0.27307, 0.07419, 0.53567, -0.08734, 0.13678, -0.21038, 0.07741, -0.1515, -0.08813}, {0.41108, -0.50949, -0.35683, 0.44865, 0.21704, -0.26296, -0.03377, -0.34154, 0.01755, -0.39624}, {0.49953, 0.33075, -0.00621, 0.84947, 0.10753, 0.15683, 0.18766, -0.31198, 0.43686, 0.42883}, {0.38466, -0.36317, 0.55319, 0.20215, 0.19221, -0.64285, 0.22786, -0.55626, -0.74874, 0.24154}, {-0.28884, -0.08719, -0.30414, -0.10678, 0.8303, 0.34236, 0.18533, -0.09785, 1.04499, 0.41383}, {-0.08862, -0.08939, -0.14593, 0.18756, -0.17188, -0.47, 0.30514, -0.63008, 0.24091, 0.14632}, {1.06171, -0.20343, -0.09785, -0.09704, 0.52349, 0.52348, 0.33233, -0.84922, -0.21387, 0.32387}, {-0.0408, -0.42046, 0.20949, 0.86776, -0.09635, -0.52321, 0.10979, -0.06857, 0.16836, -0.34418}, {-0.00339, -0.88068, -0.0477, 0.22953, -0.20261, -0.18267, 0.09159, -0.22069, -0.35484, 0.07176}, {-0.18307, 0.34803, 0.15636, -0.5604, 0.01914, -1.51567, -0.21214, -0.0723, -0.48888, -0.9074}, {0.07731, -0.00827, -0.04289, 0.02002, 2.00544, -0.13046, -0.04091, -0.08188, 0.07116, -0.05379}, {0.09634, -0.16862, 0.14267, -0.48191, 0.05993, 0.07917, 0.44216, -0.35897, -0.55667, -0.85324}};
	Double_t biasesL1_43[15] = {-0.58898, 0.30987, -2.02464, 1.48397, 0.85532, 0.11634, -0.4764, 0.24309, 0.35723, 0.33669, -0.996, -0.85794, 0.23989, -0.29823, 1.44859};
	nets[43].SetWeightsL1(weightsL1_43);
	nets[43].SetBiasesL1(biasesL1_43);
	
	Double_t weightsL2_43[1][15] = {{-2.45025, 2.81379, -4.14416, -2.57219, 0.34592, 0.52258, -0.47053, 0.30795, 0.79487, 1.08232, 1.4364, -2.98436, 0.92434, -3.32506, -1.30736}};
	Double_t biasesL2_43[1] = {-4.6466};
	nets[43].SetWeightsL2(weightsL2_43);
	nets[43].SetBiasesL2(biasesL2_43);
	
	Double_t weightsL1_44[15][10] = {{0.2246, 0.07009, -0.03292, 0.00174, 0.26132, 0.2985, 0.1099, -0.57894, -0.0667, -0.55092}, {0.06965, 0.11866, -0.1485, -0.03513, 1.28314, -0.0568, -0.05541, 0.04243, -0.01383, -0.08003}, {-0.05134, -0.19225, -0.24525, 0.05387, -0.03603, -0.95777, -0.03244, -0.05496, 0.35587, -0.18638}, {0.2847, 0.36032, -0.07752, 0.05733, 0.39593, 0.21895, 0.02214, 0.13761, -0.09105, -0.04864}, {-0.10991, 0.22789, 0.22569, -0.11081, -0.26191, -0.12792, 0.29059, -0.15609, -0.14497, -0.40828}, {-0.94811, -0.38934, -0.06068, -0.20851, 0.38907, -0.04853, -0.01708, 0.33015, 0.65696, -0.86957}, {0.00586, -0.01592, 0.09497, -0.13126, 0.59136, -0.07655, -0.05789, 0.83032, 0.26865, 0.37282}, {-0.31763, 0.08258, -0.14635, 0.39395, -0.26265, -0.38372, 0.21107, 0.42378, -0.6308, 0.12393}, {-0.10226, -0.49782, -0.44214, 0.2108, -1.05817, -0.78789, -0.17371, -0.16592, 0.43733, 0.48588}, {0.82098, -0.08548, -0.2379, -0.27303, 0.43392, 0.28052, 0.28772, -0.47147, -0.18118, 0.31069}, {0.06296, -0.28777, -0.02224, 0.33124, -0.06354, -0.47765, 0.25106, 0.25989, 0.65093, -0.73698}, {0.17696, -1.05532, 0.04631, -0.0565, 0.01628, -0.06142, -0.10323, -0.31531, -0.30236, 0.24504}, {-0.13079, 0.74751, 0.52062, -0.20096, -0.46849, -1.16251, 0.09612, 0.22557, -0.17718, -0.22067}, {0.14726, -0.02617, -0.12233, 0.23181, 1.78411, -0.03139, 0.08303, -0.23741, 0.01731, 0.08543}, {0.15342, 0.51531, -0.11551, 0.82594, -0.43201, 0.04714, -0.09588, 0.17562, -0.43672, 0.08187}};
	Double_t biasesL1_44[15] = {-0.41134, 1.05085, -1.9864, 1.77322, 0.93267, 1.84157, 0.33474, 0.32753, 0.84183, 0.2608, -0.98225, -0.67053, 0.5637, -0.00058, 1.15373};
	nets[44].SetWeightsL1(weightsL1_44);
	nets[44].SetBiasesL1(biasesL1_44);
	
	Double_t weightsL2_44[1][15] = {{-2.11347, 2.74384, -4.06919, -2.86851, -2.15226, 0.82002, -0.86388, 0.2121, 0.42181, 1.56604, 1.33008, -2.72494, 0.95216, -2.44094, -1.40736}};
	Double_t biasesL2_44[1] = {-2.79955};
	nets[44].SetWeightsL2(weightsL2_44);
	nets[44].SetBiasesL2(biasesL2_44);
	
	Double_t weightsL1_45[15][10] = {{0.31472, 0.00658, -0.14941, 0.35867, 0.00222, 0.37014, 0.16689, -0.39566, 0.18111, -0.525}, {0.22603, 0.12959, -0.04868, 0.09993, 1.1756, -0.20143, -0.02148, 0.15213, -0.05521, -0.09363}, {0.07391, -0.1917, -0.54442, 0.16341, -0.01297, -1.29215, -0.05692, -0.16127, 0.33305, 0.02067}, {-0.09634, -0.00831, 0.34171, 1.22609, -0.18867, -0.14975, -0.50079, 0.18447, 0.37812, 0.6669}, {0.15802, 0.18529, -0.10485, 0.19861, 0.29855, -0.35311, 0.125, 0.33464, -0.44168, -0.65904}, {-0.11152, -0.12198, -0.4606, 0.01297, -0.45303, -0.01906, 0.21526, -0.52691, -0.41157, -0.07811}, {0.26454, -0.38113, 0.47093, -0.30926, -0.16072, 0.13605, 0.009, -0.24073, -0.01018, 0.45479}, {0.35351, 0.01523, 0.68165, 0.32757, -0.08209, -0.03822, 0.24922, -0.08574, 0.43338, -0.90021}, {-0.04919, -0.69655, -0.52282, -0.04204, -0.20661, 0.49081, -0.06475, 0.3651, -0.42036, -0.19697}, {0.37505, -0.07687, 0.00855, -0.05413, 0.23638, 0.08363, -0.2587, -0.28913, 0.34166, 0.12838}, {0.00178, -0.22793, 0.06734, 0.3303, -0.06555, -0.43117, 0.26267, -0.12988, 0.84365, 0.01829}, {0.21611, -0.90051, 0.3045, 0.01032, -0.00881, -0.06898, 0.02418, -0.43105, -0.23801, 0.36619}, {-0.28793, 0.71832, -0.36689, -0.38787, -0.00981, -0.54847, -0.00688, 0.45379, -0.24601, -0.35036}, {0.09983, -0.06168, -0.02829, -0.01564, 2.01552, 0.01937, -0.22402, -0.17725, 0.06553, -0.02385}, {0.39712, 0.34054, -0.13962, 0.8818, 0.06072, -0.10151, -0.53578, 0.2245, -0.40037, -0.07556}};
	Double_t biasesL1_45[15] = {-0.66877, 0.98613, -2.16844, 1.85879, 2.2174, 0.85197, 1.21345, 1.73049, 1.37739, 0.19563, -0.76873, -0.80765, 0.37992, -0.10176, 1.52436};
	nets[45].SetWeightsL1(weightsL1_45);
	nets[45].SetBiasesL1(biasesL1_45);
	
	Double_t weightsL2_45[1][15] = {{-1.5664, 2.41652, -3.18111, -0.88092, -1.21506, -0.04822, -0.63176, -0.99503, 0.63467, 1.88508, 2.31935, -2.11808, 0.79369, -2.66837, -0.39301}};
	Double_t biasesL2_45[1] = {-3.05423};
	nets[45].SetWeightsL2(weightsL2_45);
	nets[45].SetBiasesL2(biasesL2_45);
	
	Double_t weightsL1_46[15][10] = {{0.49124, 0.2079, -0.16365, 0.01628, 0.62149, 0.18968, -0.15223, -0.40056, 0.11841, -0.60038}, {0.30449, 0.06252, -0.20553, -0.20818, 1.69058, -0.04366, -0.00256, 0.04225, 0.04694, -0.21487}, {0.00668, 0.05778, -0.17021, -0.28441, 0.1648, -1.03788, -0.09789, 0.03611, 0.01073, -0.19009}, {0.30987, 0.23323, 0.2832, -0.28337, -0.00384, 0.34729, -0.00211, 0.65722, 0.42102, 0.11875}, {0.18171, 0.1709, 0.00472, -0.08038, -0.11955, -0.41736, 0.3806, 0.06582, -0.30998, -0.7712}, {-0.05006, -0.2005, 0.01904, -0.36271, 0.04689, -0.12624, 0.28806, -0.00337, 0.58914, -0.05263}, {0.65374, 0.18452, 0.14877, 1.23947, -0.01549, -0.43895, 0.71486, -0.43764, 0.25068, -0.73327}, {0.11776, 0.02619, 0.51633, 0.45762, -0.05812, 0.00273, -0.10885, 0.01433, 0.72641, 0.16342}, {0.00811, 0.12326, 0.0054, -0.01731, 0.58482, -0.40328, -0.26244, 0.15201, -0.22238, -0.29956}, {0.86186, -0.29745, -0.16012, 0.01758, 0.24813, 0.05583, 0.10944, -1.03534, 0.03445, 0.82792}, {0.32896, -0.47535, -0.13193, 0.37086, -0.41877, -1.17871, 0.24746, -0.15549, 0.69045, 0.29453}, {0.24287, -1.03161, 0.04562, 0.08279, -0.08255, 0.05499, 0.03256, -0.26262, -0.33758, 0.42258}, {-0.40307, 0.23484, -0.15684, -0.30701, -0.43851, 0.27305, 0.38298, 0.43831, 0.60538, -0.1787}, {-0.09665, -0.09718, -0.02476, 0.01707, 1.41114, 0.00993, 0.01675, -0.17413, 0.0641, -0.07345}, {0.66983, 0.39218, -0.1291, 0.25099, -0.00369, 0.09104, 0.32084, 0.78473, -0.47204, -0.14726}};
	Double_t biasesL1_46[15] = {-0.95709, 1.28537, -1.43197, 1.84127, 2.58922, -1.46759, 1.25957, 1.71756, 0.02521, 0.40859, 0.38477, -0.61562, -0.17266, -0.11185, 1.66863};
	nets[46].SetWeightsL1(weightsL1_46);
	nets[46].SetBiasesL1(biasesL1_46);
	
	Double_t weightsL2_46[1][15] = {{-1.61345, 2.17617, -2.59084, 0.73961, -4.19535, 2.81834, -0.4675, -1.68166, 2.38603, 0.81539, 1.18561, -2.35852, 0.85139, -2.88641, -0.27041}};
	Double_t biasesL2_46[1] = {1.45828};
	nets[46].SetWeightsL2(weightsL2_46);
	nets[46].SetBiasesL2(biasesL2_46);
	
