#include <bnn_thq_reco_CSVM_3t.hpp>

namespace thq_reco_CSVM_3t{

std::string const taskName("thq_reco_3t");
std::list<std::string> inputVarNames;
std::list<std::string> sgnFileNames;
std::list<std::string> bkgFileNames;

void Initialize()
{
	inputVarNames.push_back("abs(EtaHiggs)");
	inputVarNames.push_back("abs(EtaLJet)");
	inputVarNames.push_back("DeltaEtaLepTop");
	inputVarNames.push_back("DeltaRBJetsHiggs");
	inputVarNames.push_back("log(MassHiggs)");
	inputVarNames.push_back("log(MassTop)");
	inputVarNames.push_back("log(MinPtBJet)");
	inputVarNames.push_back("NPassBTagHiggs");
	inputVarNames.push_back("PassBTagTop");
	inputVarNames.push_back("RelHt");

	sgnFileNames.push_back("../tuples/thq-nc_mu.root");
	sgnFileNames.push_back("../tuples/thq-nc_e.root");
	bkgFileNames.push_back("../tuples/thq-nc_mu.root");
	bkgFileNames.push_back("../tuples/thq-nc_e.root");
}


Transform0::Transform0()
{
	mean[0] = 1.32939; sigma[0] = 1.01819;
	mean[1] = 1.87698; sigma[1] = 1.20257;
	mean[2] = 0.779492; sigma[2] = 0.80474;
	mean[3] = 2.29719; sigma[3] = 1.13201;
	mean[4] = 4.94838; sigma[4] = 0.609217;
	mean[5] = 5.31114; sigma[5] = 0.400453;
	mean[6] = 3.69507; sigma[6] = 0.413905;
	mean[7] = 1.43751; sigma[7] = 0.617603;
	mean[8] = 0.708108; sigma[8] = 0.454633;
	mean[9] = 0.450252; sigma[9] = 0.168885;
}

void Transform0::operator()(Double_t *vars) const
{
	for (unsigned iVar = 0; iVar < 10; ++iVar)
		vars[iVar] = (vars[iVar] - mean[iVar]) / sigma[iVar];
}


NN::NN()
{}


void NN::SetWeightsL1(Double_t const weights[15][10])
{
	for (unsigned n = 0; n < 15; ++n)
		for (unsigned np = 0; np < 10; ++np)
			weightsL1[n][np] = weights[n][np];
}


void NN::SetBiasesL1(Double_t const biases[15])
{
	std::copy(biases, biases + 15, biasesL1);
}


void NN::SetWeightsL2(Double_t const weights[1][15])
{
	for (unsigned n = 0; n < 1; ++n)
		for (unsigned np = 0; np < 15; ++np)
			weightsL2[n][np] = weights[n][np];
}


void NN::SetBiasesL2(Double_t const biases[1])
{
	std::copy(biases, biases + 1, biasesL2);
}


Double_t const * NN::Apply(Double_t const *vars) const
{
	std::copy(vars, vars + 10, bufferIn);
	
	for (unsigned n = 0; n < 15; ++n)
	{
		bufferOut[n] = biasesL1[n];
	
		for (unsigned np = 0; np < 10; ++np)
			bufferOut[n] += weightsL1[n][np] * bufferIn[np];
	}
	
	for (unsigned n = 0; n < 15; ++n)
		bufferIn[n] = TMath::TanH(bufferOut[n]);
	
	for (unsigned n = 0; n < 1; ++n)
	{
		bufferOut[n] = biasesL2[n];
	
		for (unsigned np = 0; np < 15; ++np)
			bufferOut[n] += weightsL2[n][np] * bufferIn[np];
	}
	
	for (unsigned n = 0; n < 1; ++n)
		bufferIn[n] = 1. / (1 + TMath::Exp(-bufferOut[n]));
	
	return bufferIn;
}


BNN::BNN(UInt_t netBegin_, UInt_t netEnd_)
{
	SetNetRange(netBegin_, netEnd_);
	
	Double_t weightsL1_0[15][10] = {{0.08464, 0.06383, 0.42385, -0.56921, 0.42196, 1.55004, 0.14648, 0.08404, -0.69804, -0.04724}, {-0.38647, -0.01553, -0.71457, 0.33303, 0.82881, 0.38709, -0.42457, 0.03637, 0.23113, 0.58383}, {0.16814, 0.79152, -0.13779, -0.9738, -0.15692, -0.20428, -0.31275, 2.08172, 0.32711, 0.03531}, {0.04483, -1.65978, 0.0175, -0.07379, -0.05129, -0.10146, -0.11009, -0.1878, -0.1622, 0.16804}, {0.22796, -0.01848, 0.62777, 0.48393, 0.02083, 0.55584, -1.29312, -1.089, -0.30534, -0.97064}, {0.09977, -0.01992, -0.03091, 0.25672, 3.18108, 0.02308, 0.02441, -0.08982, 0.05449, 0.03714}, {-0.01265, -0.04906, -0.10689, 0.03258, 1.09709, 0.13826, 0.05024, 0.19324, -0.6223, -0.1247}, {-0.3169, 0.32871, -0.7072, -0.78207, 1.35798, -0.2079, -0.43536, -0.05209, 1.23551, -1.12822}, {0.23601, -0.35289, 0.75468, 0.81148, -0.05399, -0.19075, 0.38254, -0.88152, 0.51, -0.1979}, {-0.35459, -0.17097, -0.13547, 1.0394, -0.90222, 1.14832, -0.1501, 0.65749, -0.69041, 0.00215}, {-0.00818, -0.30725, -0.08559, 0.83302, 1.51958, -0.10064, -0.10273, 1.4093, 0.27973, -0.44398}, {-0.11376, -0.07947, -0.24579, -0.98008, 0.32137, -0.19046, 0.50722, -0.15852, 0.09299, 0.27487}, {-0.07873, -0.36031, 0.39969, -0.09036, -0.35613, -0.09418, 1.16691, -0.71189, -0.41961, 1.02031}, {0.23049, -0.04082, 0.28051, 0.36416, -0.11059, 1.61306, 0.21619, -0.23096, 0.15276, 0.26071}, {-0.82977, 0.11346, 0.88867, 0.4006, -1.1959, -0.15612, 0.26554, 0.2553, -0.14865, 0.1175}};
	Double_t biasesL1_0[15] = {-0.25175, -1.83036, 0.98241, -0.74933, 2.33269, -0.05263, 1.17986, 3.07858, 2.45785, -1.30554, 1.03998, -1.47084, 2.98848, 2.35081, 2.13481};
	nets[0].SetWeightsL1(weightsL1_0);
	nets[0].SetBiasesL1(biasesL1_0);
	
	Double_t weightsL2_0[1][15] = {{-1.12704, 1.12569, 1.24591, -1.15927, 0.76306, -1.94085, 1.33224, 1.105, -0.65343, -0.87767, 0.58047, 1.86736, 0.84951, 1.60764, 1.11645}};
	Double_t biasesL2_0[1] = {-4.85756};
	nets[0].SetWeightsL2(weightsL2_0);
	nets[0].SetBiasesL2(biasesL2_0);
	
	Double_t weightsL1_1[15][10] = {{0.04018, -0.05944, 0.1476, -0.04574, 0.21409, 1.03392, -0.15206, 0.02223, -0.36429, -0.03422}, {-0.27144, -0.28241, -0.0191, 0.74284, 0.2661, 0.12317, -0.30441, 0.05728, 0.29657, 0.66692}, {0.13777, 0.54283, 0.034, -0.49169, -0.19079, 0.16863, -0.05849, 1.7851, -0.13498, 0.09323}, {-0.02541, -1.00189, 0.01752, 0.33164, -0.20865, -0.12441, 0.01439, -0.09431, -0.17514, 0.20903}, {-0.24247, 0.31979, 0.34001, 0.02087, 0.37679, 0.9498, -0.99241, -0.55407, -0.41578, -1.02826}, {0.07256, 0.00141, -0.07778, 0.12227, 2.48882, 0.12567, -0.02806, 0.00478, 0.03, 0.03218}, {-0.12985, -0.28701, -0.06562, 0.28664, 0.76382, -0.02787, -0.36862, 0.48833, 0.16275, -0.63287}, {-0.19819, -0.02269, -0.32216, -0.30714, 0.79306, -0.45198, 0.61594, -0.37059, -0.14186, -0.2331}, {-0.47102, -0.22987, 1.14868, 0.18698, -0.07275, -0.59853, 0.61704, -0.31966, 0.42462, -0.1686}, {-0.08556, 0.3615, -0.01805, 0.31745, -0.35262, 0.50227, 0.14348, 0.46804, -0.28494, -0.05295}, {0.22431, -0.02875, -0.25223, -0.13834, 1.52405, 0.04242, -0.0585, 0.54047, -0.03264, -0.16236}, {-0.23556, -0.05781, -0.48939, -0.96178, 0.31995, -0.03607, 0.51504, -0.29144, 0.03903, 0.34972}, {0.07733, -0.14542, 0.37401, -0.51409, 0.47554, -0.25041, 0.43145, -0.66915, -0.27992, 0.42964}, {0.06623, -0.05299, 0.21563, 0.14551, -0.21682, 1.02768, 0.43457, -0.14476, -0.05047, 0.24131}, {-1.07244, 0.0782, 0.7903, 1.01625, -1.43147, -0.28634, 0.44357, 0.92073, 0.0841, 0.23364}};
	Double_t biasesL1_1[15] = {-0.26211, -1.19398, 1.28771, -0.57609, 1.131, -0.0401, 0.31634, 1.9767, 1.96963, 0.09703, 0.67472, -1.62362, 2.44772, 1.96166, 2.12377};
	nets[1].SetWeightsL1(weightsL1_1);
	nets[1].SetBiasesL1(biasesL1_1);
	
	Double_t weightsL2_1[1][15] = {{-1.66352, 1.43706, 1.30421, -2.16946, 0.52792, -2.56505, 0.86056, 0.57229, -0.95004, -1.16976, 1.53609, 1.51015, 1.44065, 2.38728, 1.29319}};
	Double_t biasesL2_1[1] = {-5.21757};
	nets[1].SetWeightsL2(weightsL2_1);
	nets[1].SetBiasesL2(biasesL2_1);
	
	Double_t weightsL1_2[15][10] = {{0.00815, -0.00844, 0.27312, -0.04402, 0.31849, 1.50855, -0.21251, 0.19385, -0.41843, 0.13203}, {-0.16427, 0.01783, -0.23497, 0.28857, 0.42762, 0.18779, -0.27641, -0.13372, 0.21043, 0.44992}, {0.14403, 0.47199, 0.35382, -0.61782, -0.01775, -0.02156, -0.24132, 1.11543, 0.03403, 0.12261}, {0.11965, -1.46357, 0.11689, -0.02776, -0.11526, -0.19494, -0.08484, -0.16132, -0.21195, 0.11686}, {-0.39252, -0.00364, 0.16942, 0.15518, -0.20696, 0.72143, -0.74871, -0.61629, -0.17887, -1.27628}, {-0.02468, 0.04133, 0.05969, 0.36692, 2.6145, 0.0673, 0.08244, -0.23517, 0.0008, 0.19232}, {-0.08969, 0.20743, -0.62281, -0.11984, 0.16933, -0.13511, -0.11196, 0.45721, 0.02931, -0.89214}, {0.08294, -0.51819, -0.12878, 0.19053, -0.32786, -0.29782, -0.03443, -0.89267, 0.07974, -0.08639}, {0.04796, 0.04122, 0.59978, 0.11538, -0.40701, -0.02613, 0.75326, 0.028, 0.60047, -0.38728}, {0.23813, 0.51632, -0.49474, -0.23473, -0.01931, 0.35806, -0.48158, 0.42246, -1.11296, -0.45407}, {0.17175, 0.14356, -0.10386, 0.12564, 2.15692, -0.13369, 0.20451, 0.46394, -0.05453, -0.18378}, {-0.1388, -0.23675, -0.18958, -0.84211, 0.47498, -0.17069, 0.34767, -0.17226, -0.09979, 0.40012}, {0.15023, -0.09825, -0.14079, -1.1902, 0.89353, -1.08302, -0.34608, -0.33196, 0.03362, -0.13054}, {0.21702, -0.10956, 0.19205, 0.0824, 0.00939, 1.04764, 0.22248, -0.26849, -0.11271, 0.30158}, {-0.61195, 0.19222, 0.57664, 0.13975, -0.86154, 0.08541, 0.38757, 1.09709, 0.03361, 0.03656}};
	Double_t biasesL1_2[15] = {-0.06951, -0.81798, 0.51325, -0.69654, 1.21798, 0.12452, 0.15988, 1.67138, 1.05619, 0.02073, 1.29479, -1.52443, 1.38532, 1.94047, 2.17052};
	nets[2].SetWeightsL1(weightsL1_2);
	nets[2].SetBiasesL1(biasesL1_2);
	
	Double_t weightsL2_2[1][15] = {{-1.1657, 1.52904, 0.99507, -1.34982, 0.56992, -2.25615, 0.69051, -0.50947, -0.52627, -0.80386, 1.21185, 1.3276, 0.80694, 2.50358, 1.34393}};
	Double_t biasesL2_2[1] = {-3.64471};
	nets[2].SetWeightsL2(weightsL2_2);
	nets[2].SetBiasesL2(biasesL2_2);
	
	Double_t weightsL1_3[15][10] = {{0.02806, -0.09681, 0.10659, 0.09373, 0.35569, 1.07231, -0.16106, -0.00395, -0.24051, -0.01872}, {0.01188, -0.08099, 0.22301, -0.59532, 0.0945, 0.03664, 0.10848, 0.13736, 0.46611, -0.22799}, {0.02673, 0.46805, 0.09009, -0.69463, 0.04268, 0.07127, -0.15858, 0.8974, 0.31726, -0.06834}, {0.10892, -1.23858, 0.13574, 0.13365, -0.25044, -0.07266, 0.06223, -0.01916, -0.07773, 0.25067}, {-0.05318, 0.48317, -0.25033, -0.10972, 0.24236, -0.67443, 0.49116, -0.54319, -0.34472, -0.01162}, {-0.00627, -0.06413, -0.02203, 0.23426, 2.56192, 0.01098, 0.02993, -0.12987, -0.00817, 0.0539}, {-0.13299, -0.39592, -0.43664, 0.20597, -0.31745, 0.82288, -0.33733, 0.3884, 0.0811, -0.73916}, {-0.50957, 0.13698, 0.65264, 0.30569, -0.10958, -0.53464, 0.24802, 0.2753, 0.41744, -0.10254}, {0.00644, 0.14314, 0.10503, -0.04848, -0.48444, -0.17199, 0.14189, 0.14052, -0.09319, -0.22212}, {-0.16421, 0.20998, -0.15424, 0.07835, -0.20708, 0.58074, -0.03948, 0.34876, -0.20101, -0.21302}, {-0.06767, -0.01375, -0.12502, 0.31268, 1.1581, -0.07984, 0.0331, 0.44042, 0.02282, -0.29429}, {-0.14248, 0.06402, -0.32536, -0.70334, 0.1998, -0.10276, -0.09759, -0.18873, -0.07651, 0.13312}, {-0.09794, -0.25227, -0.10903, 0.08133, 0.02482, -0.77568, -0.00679, 0.14872, -0.58394, 0.62687}, {0.09269, -0.02889, 0.25556, 0.32477, -0.11138, 0.89058, 0.26019, -0.1784, -0.18719, 0.29076}, {-0.62781, 0.13318, 0.44149, 0.6779, -1.03036, -0.00843, 0.33564, 0.54962, 0.04317, 0.16382}};
	Double_t biasesL1_3[15] = {-0.00188, -1.26624, 0.36269, -0.51012, 0.527, -0.03902, 0.02924, 1.00607, 0.72263, -0.17693, 0.68774, -1.64057, 2.26477, 1.73452, 1.73598};
	nets[3].SetWeightsL1(weightsL1_3);
	nets[3].SetBiasesL1(biasesL1_3);
	
	Double_t weightsL2_3[1][15] = {{-1.49416, 1.17433, 1.65835, -1.59069, 0.35375, -2.28765, 0.93707, -0.59628, -2.87236, -1.63214, 1.92351, 3.15599, 1.56242, 3.35649, 2.2708}};
	Double_t biasesL2_3[1] = {-3.03434};
	nets[3].SetWeightsL2(weightsL2_3);
	nets[3].SetBiasesL2(biasesL2_3);
	
	Double_t weightsL1_4[15][10] = {{0.15445, -0.03089, 0.38518, 0.0127, 0.24085, 1.03657, -0.20682, 0.05321, 0.07126, 0.12612}, {0.2709, -1.15727, 0.40213, -0.3714, -0.01998, 0.1417, 0.09775, 0.66824, 0.31864, -0.11611}, {0.19683, 0.71423, 0.09694, -0.79687, 0.27055, 0.10585, -0.14096, 0.51074, 0.24255, -0.04869}, {0.27149, -1.57113, 0.06142, -0.34366, -0.04357, -0.01241, -0.11764, 0.12933, 0.05373, 0.22092}, {0.20748, -0.28357, 0.71713, -0.7536, -0.57996, 0.35046, -0.37657, -0.17222, -0.74765, 0.41794}, {-0.056, -0.00114, 0.11261, 0.39743, 2.15235, 0.1197, 0.05269, -0.11024, 0.00037, 0.18031}, {-0.29923, -0.12231, -0.52279, 0.09245, 0.12853, 0.31198, -0.80846, 0.40429, 0.07607, -1.37424}, {0.10299, -0.10884, 0.69533, 0.15827, -0.17835, -0.36458, 0.19245, -0.044, 0.08488, -0.40879}, {-0.04051, 0.3277, -0.12962, -0.39575, -0.7218, -0.23033, 0.27688, -0.23984, -0.33225, -0.49019}, {-0.02055, 0.29951, -0.03073, -0.20028, 0.0535, 0.92462, -0.19469, 0.25815, -0.32303, -0.12023}, {0.15927, 0.03975, -0.22423, -0.00335, 1.40874, 0.10837, -0.05521, 0.46121, 0.23421, -0.24247}, {-0.40733, -0.12141, 0.12759, -1.12066, 0.46989, -0.19013, 0.62116, -0.67526, 0.18954, 0.65054}, {-0.52343, -0.08767, -0.01752, 0.01339, -0.06689, -1.25355, 0.58449, -0.58374, -0.64425, 0.63602}, {0.05301, -0.19998, 0.32027, 0.21175, 0.01349, 1.31094, 0.26936, -0.37483, -0.30922, 0.40479}, {-0.474, 0.12858, 0.26826, 0.15253, -0.59836, 0.04917, 0.13637, 0.62272, 0.20737, 0.15909}};
	Double_t biasesL1_4[15] = {0.35139, -2.55078, 0.21824, -0.84302, -0.67378, -0.1144, 0.12409, 1.354, 1.03675, -0.34768, 0.90903, -1.8753, 2.93263, 2.13709, 1.36994};
	nets[4].SetWeightsL1(weightsL1_4);
	nets[4].SetBiasesL1(biasesL1_4);
	
	Double_t weightsL2_4[1][15] = {{-0.97306, 0.71902, 1.72361, -1.17699, 0.32199, -2.43554, 0.79873, -1.50097, -1.32062, -1.6698, 1.85208, 0.8014, 1.34306, 2.36638, 1.7183}};
	Double_t biasesL2_4[1] = {-3.78131};
	nets[4].SetWeightsL2(weightsL2_4);
	nets[4].SetBiasesL2(biasesL2_4);
	
	Double_t weightsL1_5[15][10] = {{0.39489, -0.18733, 0.28335, 0.12856, 0.31943, 1.67659, -0.24032, 0.02491, -0.3911, 0.22472}, {0.24546, -0.67732, 0.37772, -0.87535, 0.11958, 0.14684, 0.33262, 0.09721, 0.39672, -0.62711}, {0.24485, 0.49912, 0.21644, -0.36299, -0.35793, 0.12644, -0.22131, 0.936, -0.29481, 0.18429}, {0.24241, -1.39072, 0.17041, -0.28406, -0.02439, -0.01918, -0.01633, -0.17295, -0.04649, 0.23608}, {-0.79091, 0.37448, 0.18577, 0.57745, 0.47651, 0.70196, -0.17562, -0.52005, 0.61959, 0.13048}, {0.01024, -0.04554, 0.0623, 0.36122, 2.53959, 0.06613, 0.05522, -0.08909, 0.00024, 0.15015}, {-0.06051, -0.17545, -0.50829, 0.13691, 0.2982, -0.00656, -0.68929, 0.60725, -0.20184, -1.4046}, {-0.38134, -0.52255, 0.94737, 0.36109, -0.20437, -0.27685, 1.04482, -0.82177, 0.81144, -0.23489}, {0.17641, 0.15179, -0.13606, -0.17272, -0.49658, -0.40551, 0.21758, -0.0935, -0.84566, -0.3735}, {-0.18376, 0.35108, 0.41787, 0.29669, -0.48462, 0.70223, 0.04698, 0.46082, -0.14589, 0.11233}, {0.20247, 0.28255, -0.13364, -0.1938, 1.80888, -0.06755, -0.04908, 0.57049, 0.03112, -0.20326}, {-0.42847, -0.16967, -0.55383, -1.40009, 0.4317, -0.11417, 0.37585, -0.63314, 0.12981, 0.56675}, {0.07299, 0.07796, -0.01823, -0.46731, 0.05958, -0.88364, 0.25114, -0.20495, -0.42698, 0.59578}, {0.00847, -0.07004, 0.41455, 0.2139, -0.11214, 0.75424, 0.31992, -0.25167, -0.00349, 0.31939}, {-0.25884, 0.16701, 0.08002, -0.03551, -0.59197, 0.08688, 0.0078, 1.00848, 0.61441, 0.10518}};
	Double_t biasesL1_5[15] = {-0.00081, -2.69131, 0.55839, -0.80532, 2.03809, 0.05876, 0.29568, 3.12371, 0.8905, -0.43552, 1.12178, -1.99477, 2.33839, 1.57194, 1.26995};
	nets[5].SetWeightsL1(weightsL1_5);
	nets[5].SetBiasesL1(biasesL1_5);
	
	Double_t weightsL2_5[1][15] = {{-1.13374, 1.72805, 1.10836, -1.52057, 0.15838, -2.04663, 0.62729, -0.92258, -1.49511, -1.34681, 1.34512, 1.04392, 1.36844, 3.0801, 1.01819}};
	Double_t biasesL2_5[1] = {-3.25583};
	nets[5].SetWeightsL2(weightsL2_5);
	nets[5].SetBiasesL2(biasesL2_5);
	
	Double_t weightsL1_6[15][10] = {{-0.11622, 0.01843, 0.35831, 0.01705, 0.29664, 1.18554, -0.14925, -0.14022, -0.22986, -0.06202}, {0.11397, -0.53641, 0.48043, 0.00575, -0.51753, -0.04809, 0.52358, 0.14746, 0.30788, -0.315}, {0.05376, 0.68482, -0.05513, -0.66649, -0.03213, -0.01602, -0.2517, 1.0633, 0.20752, -0.157}, {0.27772, -1.57638, 0.07457, -0.073, -0.08493, -0.27651, 0.10009, 0.02511, -0.08054, 0.27488}, {-0.6232, 0.45003, 0.40664, -0.11921, 0.25568, 0.70961, 1.2703, -1.34986, -0.6978, 0.26534}, {0.09305, -0.01575, -0.05962, 0.32971, 2.14735, 0.14163, -0.00632, -0.0467, 0.03943, 0.20988}, {-0.24131, -0.05195, -0.51123, 0.04434, 0.32245, 0.42657, -0.56689, 0.31665, 0.03911, -0.91056}, {0.09628, -0.00348, 1.12321, 0.25661, -0.17017, -0.61378, 0.35492, 0.14662, 0.27644, -0.28433}, {0.28149, 0.22751, -0.15786, -0.24982, -0.7234, -0.49331, 0.32706, -0.10017, -0.85129, -0.47393}, {-0.32042, 0.50655, -0.11173, 0.09423, -0.34943, 0.46441, 0.05219, 0.74167, -0.2781, -0.15429}, {0.21949, 0.00143, -0.01428, -0.00814, 1.4738, 0.06182, -0.02292, 0.29974, 0.10101, 0.02883}, {-0.2038, -0.07915, -0.11654, -1.5088, 0.498, -0.23868, 0.83913, -0.79331, 0.30331, 1.13832}, {-0.1513, 0.14268, -0.32255, 0.01188, 0.23986, -1.2401, 0.27231, -0.52745, -0.56718, 0.55574}, {0.03707, -0.03015, 0.24292, 0.2221, -0.18813, 1.01371, 0.31689, -0.1749, -0.17714, 0.50239}, {-0.53981, 0.12892, 0.57736, 0.44737, -0.96614, -0.51534, 0.34223, 0.74641, 0.11109, 0.20536}};
	Double_t biasesL1_6[15] = {-0.03064, -2.81434, 0.19616, -0.85374, 1.07817, 0.13832, 0.49665, 2.36485, 1.00389, -0.24496, 0.81977, -2.95956, 3.001, 1.76336, 1.80799};
	nets[6].SetWeightsL1(weightsL1_6);
	nets[6].SetBiasesL1(biasesL1_6);
	
	Double_t weightsL2_6[1][15] = {{-1.68675, 2.55085, 1.65341, -1.18265, 0.51559, -2.76642, 1.17764, -1.79819, -1.18126, -1.04164, 2.07233, 1.08768, 1.93355, 1.93969, 1.28457}};
	Double_t biasesL2_6[1] = {-1.65481};
	nets[6].SetWeightsL2(weightsL2_6);
	nets[6].SetBiasesL2(biasesL2_6);
	
	Double_t weightsL1_7[15][10] = {{-0.06336, -0.18759, 0.21589, 0.07181, 0.27185, 1.218, -0.1563, -0.15552, -0.32176, 0.02518}, {-0.05826, -0.55997, 0.43309, 0.11483, -0.33784, -0.03601, 0.37207, 0.3453, 0.63344, -0.58667}, {0.14929, 0.66442, 0.01412, -0.46222, -0.18713, -0.00585, 0.00808, 1.25763, -0.02619, 0.1979}, {0.14512, -1.55446, 0.32695, 0.18292, -0.29273, -0.10157, 0.22777, -0.1539, 0.00457, 0.49243}, {-0.92748, 0.15825, 0.26598, -0.35844, 0.43074, 0.55672, 1.1157, -0.97306, -0.11577, 0.45892}, {0.03532, -0.03872, 0.07094, 0.45131, 2.84606, 0.06108, 0.10632, -0.13057, -0.04188, 0.23013}, {0.07275, -0.29264, -0.5679, -0.05268, 0.31524, -0.12536, -0.64934, 0.78222, -0.04306, -1.64268}, {-0.36371, -0.25994, 1.48378, 0.25897, -0.36164, -0.4496, 0.80258, 0.09585, 0.73421, -0.09499}, {0.17345, 0.08536, 0.0216, -0.41479, -0.36823, -0.39436, 0.31304, -0.11805, -0.53457, -0.39363}, {-0.77383, 0.70313, 0.12994, 0.38323, -0.45157, 1.00883, 0.00942, 1.03574, -0.77282, -0.18904}, {0.21713, 0.1791, 0.09881, -0.08024, 2.17412, -0.08545, 0.23196, 0.4747, 0.09628, -0.05568}, {-0.53325, -0.06081, -0.2971, -1.25338, 0.67942, -0.11284, 0.50558, -0.55897, 0.2161, 0.6843}, {0.17303, 0.06675, -0.01903, -0.65288, 0.48584, -1.35933, 0.17933, -0.3057, -0.41976, 0.37875}, {0.21283, -0.01844, 0.40843, 0.19743, -0.09818, 1.3473, 0.27133, -0.08045, -0.23349, 0.30261}, {-0.85731, -0.01022, 1.36976, 0.7798, -1.18655, -0.08286, 0.44252, 0.53116, 0.3749, 0.46133}};
	Double_t biasesL1_7[15] = {0.09726, -2.78741, 0.48714, -0.94601, 1.14205, 0.05844, 0.38826, 2.36343, 0.51885, -0.19876, 0.97563, -2.03028, 2.35289, 2.24768, 2.4562};
	nets[7].SetWeightsL1(weightsL1_7);
	nets[7].SetBiasesL1(biasesL1_7);
	
	Double_t weightsL2_7[1][15] = {{-1.21055, 1.11561, 0.97063, -1.45179, 0.55969, -2.45963, 0.84368, -1.19934, -1.5732, -0.7652, 1.27131, 1.3063, 1.18216, 1.82505, 1.61552}};
	Double_t biasesL2_7[1] = {-2.78655};
	nets[7].SetWeightsL2(weightsL2_7);
	nets[7].SetBiasesL2(biasesL2_7);
	
	Double_t weightsL1_8[15][10] = {{-0.34437, 0.08797, -0.25402, 0.14142, 0.24639, 1.67404, -0.51639, 0.11137, -0.15485, 0.19174}, {0.21098, -0.39693, 0.34056, -0.25942, -0.08308, -0.21844, 0.27713, -0.02583, 0.34501, -0.35056}, {0.38772, 0.45683, 0.15821, -0.93833, 0.11046, -0.16651, -0.20047, 1.06502, 0.13811, 0.13835}, {0.29256, -1.67922, 0.11459, 0.20662, -0.33316, -0.06864, 0.02044, 0.01317, -0.12593, 0.49919}, {-0.06831, -0.46904, 0.46063, 0.31068, 0.32267, 0.39745, 0.20169, -0.96877, -0.28236, 0.33621}, {0.09182, -0.03898, 0.04853, 0.31614, 2.62891, 0.04297, 0.06891, -0.06118, 0.02782, 0.08514}, {-0.15392, -0.0628, -0.38132, 0.42168, 1.39802, 0.228, -0.41741, 0.73462, 0.04365, -0.58275}, {-0.17651, -0.21918, 1.28113, 0.46187, -0.28843, -0.58421, 0.61678, 0.02141, 0.35764, -0.17352}, {0.48631, 0.22402, -0.18385, -0.45976, -0.68937, -0.39361, 0.45025, -0.06651, -0.70363, -0.66105}, {0.0875, -0.0445, 0.49741, 0.32113, 0.1786, 1.72013, 0.2451, -0.25374, -0.66094, 0.23042}, {0.13608, 0.21077, -0.01311, -0.32444, 2.05587, -0.06395, 0.19416, 0.43528, 0.32047, -0.06649}, {0.00815, 0.01404, -0.65016, -1.3269, 0.32134, 0.19819, 0.30873, -0.03966, 0.23726, 0.11577}, {0.46653, -0.07936, -0.3215, -0.86546, 0.52991, -1.60769, 0.06708, 0.14234, -0.01947, 0.32945}, {0.1625, 0.19321, 0.14702, 0.1571, -0.54404, 1.4809, 0.32995, 0.11744, -0.083, 0.51432}, {-1.41828, 0.10552, 0.74485, 1.27497, -1.30472, -0.44533, 0.65285, 0.5707, 0.15388, 0.02641}};
	Double_t biasesL1_8[15] = {-0.26425, -2.50688, 0.58256, -0.73156, 1.87253, 0.01352, 0.88715, 1.50267, 1.50261, -0.11947, 0.88269, -2.23014, 2.55657, 1.84169, 2.13495};
	nets[8].SetWeightsL1(weightsL1_8);
	nets[8].SetBiasesL1(biasesL1_8);
	
	Double_t weightsL2_8[1][15] = {{-0.82196, 0.77619, 0.7503, -1.21376, 1.15278, -2.35663, 0.93811, -1.01827, -1.25745, -1.01548, 1.1918, 1.46881, 0.62316, 1.29028, 0.97241}};
	Double_t biasesL2_8[1] = {-1.86908};
	nets[8].SetWeightsL2(weightsL2_8);
	nets[8].SetBiasesL2(biasesL2_8);
	
	Double_t weightsL1_9[15][10] = {{0.15446, -0.34887, -0.00776, -0.05663, -0.16406, -0.61338, 0.11146, -0.17584, 1.08944, 0.09288}, {0.19712, -0.0274, -0.81759, -0.24042, -0.3186, 0.78004, -0.06894, 0.0831, 1.19429, -1.30022}, {0.16945, 0.6029, 0.11517, -0.56661, -0.01167, -0.04982, -0.02655, 0.93141, 0.13567, -0.0667}, {0.19792, -1.53832, 0.23748, 0.29507, -0.35508, -0.03523, 0.11165, 0.03902, 0.03421, 0.4155}, {0.82598, 0.65135, -0.12227, 0.0312, 0.84713, 0.11314, -0.34959, 0.05532, -0.27748, -0.20128}, {0.14515, 0.01891, 0.08033, 0.39504, 2.98936, 0.16012, 0.08383, 0.04245, 0.05158, 0.14275}, {-0.00228, -0.32909, -0.3428, 0.59571, 0.37655, -0.00962, -1.20258, 0.90891, -0.27375, -1.03187}, {0.18874, -0.27562, 1.06238, 0.14669, -0.29479, -0.88563, 0.38547, -0.12598, 0.00531, -0.34679}, {0.38942, 0.14172, -0.34801, -0.81624, -0.48787, -0.41409, 0.24423, -0.13866, -0.78306, -0.71605}, {-0.12587, 0.07907, 0.31211, -0.08468, 0.26555, 1.12074, -0.17622, 0.26326, -0.33078, -0.02996}, {0.23207, 0.10898, -0.09547, -0.28798, 1.81454, -0.01664, -0.01161, 0.75871, 0.13201, -0.21293}, {-1.00728, -0.19948, -0.28359, -1.56525, 0.49927, -0.58168, 0.43686, -0.615, 0.26079, 0.52558}, {-0.18033, -0.25917, -0.06831, -0.37945, 0.35654, -0.6883, 0.38575, -0.41064, -0.34847, -0.27888}, {0.12438, -0.00263, 0.21056, 0.1657, 0.09642, 1.09334, 0.09506, -0.34491, -0.29659, 0.3128}, {-0.76039, 0.20934, 0.38866, 0.4853, -1.1743, 0.12937, 0.54222, 1.00336, -0.15968, 0.42831}};
	Double_t biasesL1_9[15] = {0.22233, -4.28784, 0.42334, -0.6197, 1.80782, -0.09757, 0.23992, 1.72339, 1.59906, -0.2874, 0.69195, -2.41564, 0.82756, 1.8942, 2.4498};
	nets[9].SetWeightsL1(weightsL1_9);
	nets[9].SetBiasesL1(biasesL1_9);
	
	Double_t weightsL2_9[1][15] = {{0.88074, -2.02432, 1.50992, -1.08521, 0.02682, -2.12, 0.54278, -1.30352, -0.95452, -1.40245, 1.28307, 0.69923, 0.96407, 2.72357, 1.3659}};
	Double_t biasesL2_9[1] = {-6.10943};
	nets[9].SetWeightsL2(weightsL2_9);
	nets[9].SetBiasesL2(biasesL2_9);
	
	Double_t weightsL1_10[15][10] = {{0.41614, -0.39284, -0.20747, 0.39062, 0.0409, -1.35562, -0.0176, -0.93383, 0.61389, 0.21931}, {-0.01031, 0.05227, -0.08751, 0.42057, -0.25296, 1.12271, -0.37959, 0.23808, 0.35427, -0.41441}, {0.28837, 0.75768, 0.23928, -0.99978, 0.28997, 0.23032, -0.35782, 0.70373, 0.35495, 0.13616}, {0.23837, -1.1739, 0.09541, -0.08881, -0.09364, -0.11382, -0.15111, -0.15954, -0.09027, 0.39661}, {0.0553, -0.31365, 0.80456, -0.60164, 0.72135, 0.24982, -0.09522, -0.63584, -0.39731, -0.42019}, {0.02925, 0.00568, -0.01839, 0.26305, 2.70143, 0.06886, 0.0617, -0.11256, 0.09686, 0.09513}, {0.09609, -0.26831, -0.93797, 0.36629, 0.06703, 0.25132, -0.76068, 0.45064, -0.1759, -1.4656}, {-0.10407, -0.11361, 1.56276, 0.13039, -0.21585, -0.48844, 0.09017, -0.01627, 0.39189, -0.50428}, {0.23466, 0.05452, -0.01014, -0.31192, -0.84928, -0.43874, 0.38985, -0.05666, -0.65706, -0.41961}, {0.12686, -0.09809, 0.13, -0.1024, 0.68085, 1.20448, -0.42149, -0.25721, -0.38386, 0.07076}, {-0.02698, 0.05014, -0.21526, -0.19499, 1.67523, 0.08985, -0.1279, 0.53844, 0.12621, -0.25685}, {-0.36011, -0.02147, 0.05831, -1.19472, 0.5308, -0.41042, 0.22821, -0.33438, 0.14027, 0.37285}, {0.13064, 0.30551, -0.1791, 0.25921, -0.50867, 0.23508, 0.25448, -0.0326, -0.08852, 1.01779}, {0.03848, -0.03082, 0.1925, 0.33404, -0.12747, 1.02546, 0.3032, -0.26382, -0.23955, 0.29523}, {-0.74717, -0.0666, 0.44394, 0.36958, -1.06639, -0.35585, 0.20929, 0.87798, 0.1563, 0.09593}};
	Double_t biasesL1_10[15] = {0.65075, -2.04406, 0.34593, -0.82129, 3.3135, -0.07867, 0.70078, 1.82526, 1.08076, 0.23037, 0.66291, -1.59741, 2.56637, 2.0173, 2.23375};
	nets[10].SetWeightsL1(weightsL1_10);
	nets[10].SetBiasesL1(biasesL1_10);
	
	Double_t weightsL2_10[1][15] = {{0.85634, -1.27714, 1.0827, -1.19124, 1.08769, -2.51336, 0.59094, -0.97862, -1.28638, -1.13648, 1.68281, 1.11588, 0.12315, 3.17469, 1.47681}};
	Double_t biasesL2_10[1] = {-6.3585};
	nets[10].SetWeightsL2(weightsL2_10);
	nets[10].SetBiasesL2(biasesL2_10);
	
	Double_t weightsL1_11[15][10] = {{0.23779, -0.4428, -1.03027, 0.0087, -0.37381, -0.35573, 0.11013, -0.64579, -0.32785, 0.08128}, {-0.08492, -0.09853, -0.38775, 0.06947, 0.02193, 0.32739, -0.60643, 0.19251, 0.33654, -0.76351}, {0.32953, 0.75766, -0.14319, -0.98482, 0.27282, 0.13724, -0.06532, 0.38666, 0.22561, -0.26376}, {0.11239, -1.45536, 0.18865, -0.28748, -0.07855, -0.04749, -0.04632, -0.1749, 0.03084, 0.09192}, {0.51874, -0.00322, -0.51891, -0.63596, 0.49544, -0.90813, -0.72971, 0.24429, -0.4572, -0.60536}, {0.04975, 0.04035, 0.00861, 0.18423, 2.3326, 0.11851, 0.00495, 0.00219, 0.00024, 0.10702}, {-0.02726, -0.27775, 0.25473, -0.01896, 0.69204, 0.01803, -1.19272, -0.07755, 0.02144, -0.84351}, {0.03751, -0.18029, 0.66043, 0.56896, -0.36961, -0.32563, 0.05667, -0.03367, 0.31114, -0.10978}, {0.55333, 0.46389, -0.34351, -0.57312, -0.52379, -0.27711, 0.2459, -0.13843, -0.57943, -0.49143}, {0.04737, 0.27691, 0.12833, -0.0509, -0.07997, 0.90103, -0.04755, 0.43202, -0.33831, -0.06377}, {0.04547, 0.09385, -0.21592, -0.12685, 1.44635, -0.12909, -0.00177, 0.64136, 0.05083, -0.25837}, {-0.55612, -0.03543, -0.29893, -1.2106, 0.30594, -0.48457, 0.63664, -0.32537, 0.50458, 0.60891}, {0.8156, 0.19727, 0.22338, 0.92485, -0.87539, -0.78588, -0.77351, 0.24267, -0.06467, 0.02046}, {0.15416, -0.17753, 0.21745, 0.42092, -0.09355, 1.29955, 0.13715, -0.26089, -0.17504, 0.21845}, {-0.67067, 0.08376, 0.39059, 0.56038, -0.84366, -0.0962, 0.13694, 0.9288, 0.13073, 0.18878}};
	Double_t biasesL1_11[15] = {1.39207, -1.87076, 0.4204, -0.74185, 0.70041, -0.06849, 1.06068, 1.76666, 0.96787, -0.50726, 0.39742, -2.55218, 5.51465, 2.16986, 1.62416};
	nets[11].SetWeightsL1(weightsL1_11);
	nets[11].SetBiasesL1(biasesL1_11);
	
	Double_t weightsL2_11[1][15] = {{-0.04261, -1.1274, 1.54482, -1.18889, 0.32707, -2.70177, 0.50059, -1.98509, -1.042, -1.88472, 1.86929, 1.20027, 1.26158, 2.52278, 1.61539}};
	Double_t biasesL2_11[1] = {-5.21469};
	nets[11].SetWeightsL2(weightsL2_11);
	nets[11].SetBiasesL2(biasesL2_11);
	
	Double_t weightsL1_12[15][10] = {{0.14694, -0.86331, 0.48837, -0.11362, 0.75549, 0.00438, 0.73813, -0.01032, 0.24174, 0.24618}, {-0.36396, 0.10983, -0.3763, 0.27594, -0.28409, 0.04125, -0.57646, 0.34923, 0.61446, -0.9013}, {0.52062, 1.05519, 0.21907, -0.80795, -0.38171, -0.18233, -0.17675, 0.9264, 0.08266, 0.15127}, {0.16977, -1.36347, 0.02175, -0.12786, -0.07989, -0.10814, 0.01371, -0.12782, -0.16685, 0.28931}, {-1.1521, 0.41102, -0.91964, -0.63649, 0.77243, -0.78281, -0.21247, 0.96835, 0.2192, -0.97401}, {-0.00474, 0.09596, 0.04208, 0.46832, 2.94179, 0.13918, 0.05589, -0.05004, -0.0164, 0.13427}, {0.75124, -0.21223, 0.16544, 0.72796, 0.66985, 0.81101, -0.86512, -0.68139, -0.31547, -0.58012}, {0.30599, -0.06674, 1.01742, 0.70348, -0.49643, -0.30606, 0.23935, 0.01053, 0.15262, -0.3044}, {0.59959, 0.19669, -0.21247, -0.54397, -0.73629, -0.09098, 0.41656, 0.06092, -0.73383, -0.16186}, {-0.00485, 0.16752, 0.29649, -0.05461, 0.20471, 1.06985, -0.0992, 0.08267, -0.33818, 0.04809}, {0.16984, 0.08183, -0.18387, -0.1384, 1.89223, -0.02669, -0.09576, 1.0488, 0.2561, -0.38529}, {-0.28216, -0.22544, 0.25897, -1.27711, 0.48676, -0.43482, 0.50574, -0.17809, 0.28065, 0.34456}, {0.13452, -0.35247, 0.47598, -0.2507, 0.29545, -0.03772, -0.1665, 1.52903, -0.13885, -0.32296}, {0.09201, -0.06296, 0.1547, 0.27012, -0.05701, 1.26074, 0.40845, -0.41504, -0.06097, 0.28143}, {-0.25184, 0.154, 0.33528, 0.06574, -0.706, 0.40074, -0.00316, 1.31881, -0.01443, 0.13894}};
	Double_t biasesL1_12[15] = {1.29707, -2.33332, 0.32714, -0.74869, 1.46371, -0.06953, 2.38083, 1.99694, 0.95627, -0.41464, 0.63349, -1.66295, 1.59744, 2.16644, 1.78944};
	nets[12].SetWeightsL1(weightsL1_12);
	nets[12].SetBiasesL1(biasesL1_12);
	
	Double_t weightsL2_12[1][15] = {{-0.14842, -1.13455, 0.56958, -1.48954, 0.38108, -2.06372, 0.67042, -1.61891, -0.76322, -1.82992, 1.39479, 1.31438, -0.16566, 1.81985, 1.3424}};
	Double_t biasesL2_12[1] = {-3.51465};
	nets[12].SetWeightsL2(weightsL2_12);
	nets[12].SetBiasesL2(biasesL2_12);
	
	Double_t weightsL1_13[15][10] = {{-0.38393, -0.22337, -0.4495, -0.41556, 0.43201, -0.61978, 0.00164, 0.28299, -0.1235, -0.14343}, {-0.17392, -0.29819, -0.42679, 1.00065, -0.99005, 0.61777, -0.49011, -0.04366, 0.36507, -0.67527}, {0.14588, 0.53761, 0.04993, -0.33095, -0.21929, 0.02051, -0.09436, 0.61041, 0.13871, 0.06465}, {0.33221, -1.34797, 0.11449, -0.29162, 0.07047, -0.08576, -0.07591, -0.07039, -0.23923, 0.19936}, {-0.10728, 0.74777, 1.02225, 0.16529, 0.09771, 0.60843, 0.01525, -0.04017, 0.53595, 0.46325}, {0.04165, 0.01998, 0.04482, 0.14138, 1.96673, 0.04554, -0.03334, -0.02927, 0.06215, 0.07565}, {0.58032, 0.3497, 0.83205, -0.98135, -0.29589, -1.29121, -0.63421, -0.42456, 0.01935, 0.4987}, {-0.07085, -0.12134, 1.09441, -0.32909, -0.04496, -0.46665, 0.1354, 0.11449, 0.49069, -0.37295}, {0.37255, 0.29419, -0.23325, -0.67077, -0.85033, -0.39275, 0.47008, -0.21354, -0.64639, -0.52264}, {-0.01194, 0.11043, 0.07096, 0.0943, -0.07579, 0.7417, -0.01426, 0.21338, -0.23726, 0.17675}, {0.11868, 0.08497, -0.06053, -0.13692, 1.8008, -0.08816, -0.24837, 0.58104, 0.18326, -0.18426}, {0.04626, -0.02489, -0.20492, -1.32726, 0.94778, -0.00032, 0.03205, -0.12969, 0.08024, 0.23954}, {-0.27251, 0.38459, -0.06036, -0.52573, 0.0489, 0.39767, 0.0057, 0.3202, -0.77403, 0.24311}, {0.10925, -0.13973, 0.28815, 0.17359, 0.14452, 1.25038, 0.18386, -0.43826, -0.17018, 0.3913}, {-0.84631, -0.01106, 0.7816, 0.59576, -1.31925, -0.17611, 0.15557, 0.80723, 0.27103, 0.02425}};
	Double_t biasesL1_13[15] = {2.44419, -2.31834, 0.38903, -0.89265, 2.94198, 0.00698, -0.79197, 1.81868, 1.3133, -0.24631, 0.72133, -1.4797, 0.99062, 2.16833, 2.22794};
	nets[13].SetWeightsL1(weightsL1_13);
	nets[13].SetBiasesL1(biasesL1_13);
	
	Double_t weightsL2_13[1][15] = {{0.16328, -0.90906, 1.7831, -1.32402, -0.2431, -2.86442, -0.51729, -1.51958, -1.03148, -2.68027, 1.65494, 1.78462, -0.05727, 2.11616, 1.68978}};
	Double_t biasesL2_13[1] = {-3.55091};
	nets[13].SetWeightsL2(weightsL2_13);
	nets[13].SetBiasesL2(biasesL2_13);
	
	Double_t weightsL1_14[15][10] = {{0.14316, -0.1338, 0.29435, 0.05048, -0.15571, 0.48814, -0.67365, 0.93969, -0.1486, 0.46932}, {0.09132, 0.00993, -0.48179, 0.21484, -0.40302, 0.5628, -0.49541, 0.36302, 0.54644, -0.83248}, {0.30706, 0.65153, 0.14244, -0.50596, -0.14005, 0.12189, -0.34784, 0.88717, 0.18333, 0.30826}, {0.28379, -1.18889, 0.18609, -0.06566, -0.07769, -0.13166, -0.07624, -0.07953, -0.17074, 0.46289}, {0.59396, -0.3065, -0.41705, -0.58241, 0.14461, -0.38671, -0.7985, 0.96259, 0.28197, -0.50562}, {0.11132, 0.00745, 0.0836, 0.22978, 2.35536, 0.0819, 0.09069, 0.01284, 0.05258, 0.04478}, {0.60549, -0.19937, 0.20641, -1.15908, -0.76808, -0.43335, 0.6633, -0.39674, 0.63184, 0.86523}, {0.17524, -0.22665, 0.82709, -0.10119, -0.18291, -0.4416, 0.28152, 0.32184, 0.47483, -0.32283}, {0.37494, 0.27125, -0.1408, -0.73912, -0.65295, -0.57872, 0.38119, -0.21804, -0.84495, -0.82123}, {-0.10853, 0.22155, 0.15728, 0.19117, 0.00422, 1.12033, -0.22188, 0.24326, -0.32065, 0.19586}, {0.11257, 0.07133, -0.12584, -0.15249, 1.60827, -0.02299, -0.01914, 0.639, 0.29153, -0.3163}, {-0.38479, -0.05903, 0.19319, -1.44451, 0.72819, -0.02783, 0.2689, -0.32553, 0.26399, 0.45142}, {0.75165, -0.31056, 0.55744, 0.03967, 0.0923, -0.29536, 0.20459, -0.17725, -0.19623, -0.74761}, {0.26231, -0.14058, 0.2848, 0.20709, 0.06667, 1.33745, 0.20581, -0.45296, -0.13242, 0.40029}, {-0.47724, -0.15414, 0.34186, 0.53057, -0.90562, 0.04628, 0.33364, 0.94251, 0.13059, 0.39452}};
	Double_t biasesL1_14[15] = {1.84197, -2.64182, 0.47591, -0.62095, 1.97935, -0.14653, -0.63284, 1.56545, 1.6449, -0.42941, 0.56724, -2.03906, 1.08595, 2.44864, 1.78856};
	nets[14].SetWeightsL1(weightsL1_14);
	nets[14].SetBiasesL1(biasesL1_14);
	
	Double_t weightsL2_14[1][15] = {{-0.93563, -1.46666, 1.40507, -1.29119, 0.80558, -2.38056, -0.38839, -1.08579, -0.81877, -1.89918, 1.54314, 1.34676, -0.21659, 1.99628, 1.46525}};
	Double_t biasesL2_14[1] = {-4.23118};
	nets[14].SetWeightsL2(weightsL2_14);
	nets[14].SetBiasesL2(biasesL2_14);
	
	Double_t weightsL1_15[15][10] = {{0.17289, -0.27843, 0.35271, -0.28296, 0.75422, -0.04672, 0.15015, 0.75027, 0.09006, 0.02025}, {0.06089, 0.11087, -0.75118, 0.44448, -0.18458, 0.75063, -0.84202, 0.22877, 0.81556, -0.955}, {0.22557, 1.17979, -0.36033, -1.15632, -0.00952, -0.48754, -0.13177, 0.83758, -0.08062, -0.22552}, {0.12163, -1.45044, -0.00426, 0.22613, -0.2623, -0.07995, 0.05017, -0.09378, -0.14438, 0.23721}, {0.59016, 0.39516, -0.19467, 0.28979, 0.7014, -0.82161, 0.13773, 0.89241, 0.45818, 0.04493}, {-0.03759, 0.01815, 0.10217, 0.46933, 2.95512, 0.12208, 0.03746, -0.08375, 0.05861, 0.16331}, {0.58857, 0.15297, 0.56605, 0.1517, -0.66242, -0.06255, 0.67286, -0.47442, 0.24647, 1.47316}, {0.17721, -0.00313, 0.65545, 0.11628, -0.20278, -0.24958, 0.12527, 0.1447, 0.1363, -0.39845}, {0.12884, 0.55232, -0.13016, -0.3521, -0.94155, -0.34908, 0.58535, -0.54939, -0.59935, -0.20288}, {-0.14162, 0.21699, 0.11858, -0.1507, 0.17497, 1.31911, -0.1263, 0.14982, -0.38787, -0.09363}, {0.16957, -0.06737, -0.00867, -0.2092, 1.29656, -0.04408, 0.00965, 0.57649, 0.08381, -0.16064}, {-0.38605, -0.01127, 0.32278, -0.76187, 0.22819, -0.23449, 0.49604, -0.23378, 0.22803, 0.45454}, {0.15833, -0.25499, 0.43088, 0.13463, 0.19171, -0.33314, 0.15074, -0.82239, -1.26303, 0.46199}, {0.19587, -0.09531, 0.23444, 0.20013, -0.07123, 1.30738, 0.40858, -0.23558, -0.0926, 0.26252}, {-0.40592, 0.41732, 0.51361, 0.23328, -1.05519, 0.05626, 0.32078, 1.0878, 0.15181, 0.47929}};
	Double_t biasesL1_15[15] = {0.90588, -2.44636, -0.32299, -0.70966, 3.40057, -0.02007, -0.19993, 1.54703, 0.94164, -0.3949, 0.74384, -1.4079, -1.13939, 2.08962, 1.78926};
	nets[15].SetWeightsL1(weightsL1_15);
	nets[15].SetBiasesL1(biasesL1_15);
	
	Double_t weightsL2_15[1][15] = {{-1.35559, -0.75231, 0.56892, -1.41426, 0.36822, -2.12037, -0.64324, -2.0722, -0.88883, -1.55091, 2.20809, 1.14614, -0.37732, 1.84776, 1.24145}};
	Double_t biasesL2_15[1] = {-2.398};
	nets[15].SetWeightsL2(weightsL2_15);
	nets[15].SetBiasesL2(biasesL2_15);
	
	Double_t weightsL1_16[15][10] = {{0.66915, -0.46741, 0.12849, -0.98114, -0.31169, -0.19578, -0.08495, 0.36469, 0.09309, -0.79278}, {0.09026, -0.03981, -0.66115, -0.05097, -0.0088, 0.62801, -0.59396, 0.59611, 0.45837, -1.18916}, {0.23254, 0.76365, 0.09565, -0.68398, -0.0728, 0.17214, -0.13355, 0.65421, 0.37349, 0.36089}, {0.10967, -1.38512, -0.02914, -0.38973, 0.07218, -0.2754, -0.09973, 0.06985, 0.20032, 0.25465}, {0.61627, 0.01673, -0.07942, -0.06935, -0.34435, -0.34969, -0.36924, 0.58564, 0.67782, -0.023}, {0.03974, 0.00407, 0.04279, 0.39104, 2.4363, 0.13593, 0.09087, -0.07595, 0.03447, 0.1148}, {0.09418, 0.26654, 0.06719, -0.09826, -0.93907, 0.32277, 0.51174, -0.3059, 0.15674, 0.44885}, {0.03057, -0.11633, 0.8207, 0.61776, -0.05906, -0.60821, 0.33737, -0.20453, 0.33607, -0.18218}, {0.20558, 0.61696, -0.02316, 0.25274, -0.33546, -0.29808, 0.0355, -0.30007, -0.22399, -0.06787}, {-0.12372, 0.12067, 0.10733, -0.12771, 0.16215, 1.10419, -0.07051, 0.0729, -0.43373, 0.02998}, {0.14413, 0.24221, -0.24329, 0.07935, 1.34565, -0.04138, 0.31942, 0.35381, 0.02713, -0.06406}, {-0.21048, -0.0068, -0.32004, -0.8752, 0.53234, -0.18377, 0.09839, -0.26344, 0.10886, 0.07722}, {0.39177, -0.38625, 0.44533, 0.22983, -0.85747, 0.56901, -0.23488, 0.07244, -0.68499, 0.78317}, {0.18846, -0.22162, 0.29771, 0.23542, -0.09975, 1.3202, 0.17686, -0.2628, -0.14223, 0.21854}, {-0.62183, 0.00526, 0.35004, 0.50785, -0.9641, 0.05328, 0.17234, 0.94715, 0.23854, 0.04023}};
	Double_t biasesL1_16[15] = {1.72502, -3.62059, 0.40527, -0.99986, 3.07292, -0.03037, -0.06463, 2.24064, 0.7847, -0.15441, 0.80541, -1.21589, -2.33385, 2.23176, 1.73602};
	nets[16].SetWeightsL1(weightsL1_16);
	nets[16].SetBiasesL1(biasesL1_16);
	
	Double_t weightsL2_16[1][15] = {{-0.67149, -2.8928, 1.32796, -1.45303, 3.11552, -2.32196, -1.09096, -1.15165, -0.87491, -1.47284, 1.17787, 1.82364, -1.08821, 2.52015, 1.35242}};
	Double_t biasesL2_16[1] = {-9.09126};
	nets[16].SetWeightsL2(weightsL2_16);
	nets[16].SetBiasesL2(biasesL2_16);
	
	Double_t weightsL1_17[15][10] = {{0.69154, 0.53131, -0.06089, -0.725, -0.60705, -0.50423, 0.72775, -0.30987, -0.57186, -0.53898}, {-0.25522, 0.07517, -0.42509, 0.29213, -0.31047, 0.18385, -1.06101, 0.61743, 0.71681, -1.29659}, {0.22078, 0.85562, 0.19447, -0.98634, 0.10775, -0.0721, -0.00539, 0.79809, 0.23374, -0.24901}, {0.07167, -1.38376, 0.39902, 0.14187, -0.162, -0.09459, 0.02062, -0.22352, -0.16864, 0.40517}, {0.11569, -0.82719, -0.28329, -0.26691, 0.04055, -0.40307, -0.19084, 0.83503, 0.26561, -0.04966}, {0.05184, -0.0626, 0.04058, 0.53636, 2.39756, 0.06762, 0.16003, 0.02522, -0.01159, 0.17532}, {0.54393, 0.36004, -0.1191, -0.15052, -1.58685, 0.97489, 1.09708, -0.23549, 0.42995, 0.83115}, {0.14598, -0.25956, 0.77088, 0.37966, -0.29069, -0.29668, 0.20943, 0.15082, 0.20277, -0.23486}, {-0.80807, 0.63387, 0.30731, 1.5884, -0.9229, -0.559, -0.49066, -0.65229, -0.07989, -0.45307}, {-0.04603, 0.12115, 0.18225, -0.20413, 0.15856, 0.86518, -0.04156, 0.15609, -0.385, -0.06013}, {0.09005, 0.24564, 0.17222, 0.26462, 1.59486, -0.17195, 0.23996, 0.95723, 0.06257, -0.08012}, {-0.21845, 0.02542, 0.34309, -1.07469, 0.37993, -0.23354, 0.81655, -0.70222, 0.34507, 1.11105}, {0.01963, 0.40497, 0.42031, 0.35115, -1.0582, 0.37323, 0.01618, 1.61509, -0.11522, 0.92054}, {0.03946, -0.12164, 0.25321, 0.47541, -0.13559, 1.69007, 0.16376, -0.13637, -0.1144, 0.39427}, {-1.04931, 0.03965, 0.56544, 0.20157, -0.81382, -0.38038, 0.10963, 0.68517, 0.13767, -0.18392}};
	Double_t biasesL1_17[15] = {1.41715, -2.72901, 0.2003, -0.56293, 3.11537, -0.08279, -0.43335, 1.83253, 1.2366, -0.17774, 0.67379, -2.83011, -3.10605, 2.30711, 2.36384};
	nets[17].SetWeightsL1(weightsL1_17);
	nets[17].SetBiasesL1(biasesL1_17);
	
	Double_t weightsL2_17[1][15] = {{-0.66066, -0.7766, 1.15003, -1.23, 2.21418, -2.24203, -0.44696, -2.01046, -0.45316, -1.83492, 1.12449, 0.89165, -0.96877, 1.74622, 1.5346}};
	Double_t biasesL2_17[1] = {-5.15858};
	nets[17].SetWeightsL2(weightsL2_17);
	nets[17].SetBiasesL2(biasesL2_17);
	
	Double_t weightsL1_18[15][10] = {{0.31999, 0.416, -0.26303, -0.63271, -0.68697, -0.20609, 0.50143, -0.19616, -1.38941, -0.81316}, {-0.01909, 0.07721, -0.57718, 0.79106, -1.13086, 0.87453, 0.34271, 0.11949, 0.34949, -0.71047}, {0.34262, 0.62807, 0.03395, -1.06942, 0.11814, 0.3018, -0.21538, 0.98526, 0.33517, 0.0113}, {0.26106, -1.69589, 0.01984, -0.49082, 0.03603, -0.12728, -0.11053, -0.08313, -0.16074, 0.3144}, {0.01531, -1.29378, -0.22441, -0.36746, 0.37215, -0.04922, -0.17547, 0.74023, 0.05987, -0.29104}, {-0.01343, 0.04655, -0.04099, 0.18262, 2.68133, 0.08977, 0.04046, -0.19181, -0.03118, 0.0165}, {0.71554, 0.14279, -0.39205, -0.96157, -1.07132, 0.10486, 0.9219, -0.38732, -0.13188, 0.87904}, {-0.05346, -0.08418, 0.60505, 0.20386, -0.31415, -0.31955, 0.27899, -0.09014, 0.33764, -0.24059}, {-0.08279, 0.44479, 0.21207, 1.43529, -0.48908, -0.24179, -0.09594, -0.33864, -0.01632, 0.08845}, {0.07385, 0.06705, 0.33463, -0.17555, 0.22343, 1.14739, -0.17428, 0.26438, -0.2969, 0.10949}, {0.17165, 0.22578, -0.04551, -0.34019, 2.11832, -0.15587, 0.07958, 0.46067, 0.11275, -0.24395}, {-0.41471, 0.17538, -0.70563, -1.01313, 0.11469, -0.25502, 0.35304, -0.4821, 0.27812, 0.49542}, {0.8381, -0.1346, 0.70493, 0.54562, -0.92194, 1.11026, 0.24019, -0.2728, -0.83729, 1.56185}, {0.04218, -0.19492, 0.39694, 0.42042, 0.11229, 1.38429, 0.30024, -0.54348, -0.1373, 0.23816}, {-0.65316, 0.17316, 0.53002, 0.57316, -1.14687, 0.08812, 0.55145, 0.63085, 0.10861, 0.0682}};
	Double_t biasesL1_18[15] = {1.68915, -3.45439, 0.58283, -1.01862, 4.16811, 0.10732, -1.24583, 1.46401, 1.40866, -0.1446, 0.98335, -2.02668, -3.33283, 2.49502, 2.04337};
	nets[18].SetWeightsL1(weightsL1_18);
	nets[18].SetBiasesL1(biasesL1_18);
	
	Double_t weightsL2_18[1][15] = {{-0.87162, -1.60028, 1.23291, -1.24312, 1.67859, -2.1081, -0.35308, -1.92313, -0.79671, -1.83074, 1.31739, 0.63353, -0.96839, 1.85119, 1.50158}};
	Double_t biasesL2_18[1] = {-6.19968};
	nets[18].SetWeightsL2(weightsL2_18);
	nets[18].SetBiasesL2(biasesL2_18);
	
	Double_t weightsL1_19[15][10] = {{0.16497, 0.12985, -0.14651, -0.45509, -0.40222, -0.08454, 0.20622, -0.14512, -0.22436, -0.33131}, {-0.04198, 0.19995, -0.06287, 0.07969, -0.2899, -0.43068, -1.01486, 0.84676, 0.10625, 0.46448}, {0.07549, 0.65529, 0.05796, -1.23536, 0.42847, -0.09755, -0.34474, 1.0461, 0.55265, -0.21822}, {0.16025, -1.6987, 0.15889, 0.08169, -0.35591, -0.09753, -0.08615, -0.08417, -0.09747, 0.42338}, {-0.06459, -0.24882, -0.10739, -0.14182, 0.82791, -1.08679, 0.43708, -0.24778, -1.15534, 0.45223}, {0.00408, 0.04316, 0.08714, 0.30622, 2.5015, 0.03476, 0.13062, -0.11462, 0.02973, 0.10108}, {0.38092, -0.2502, 0.76208, -0.51464, 0.78178, -0.5214, -0.25004, 0.82159, 0.17422, -0.56891}, {0.15636, 0.19381, 1.50531, -0.05414, -0.37449, 0.10345, 0.91397, -0.16357, 0.31082, -0.10283}, {0.49839, -0.08968, -0.12356, 0.67502, -0.35958, -0.02539, 0.1962, -0.26698, -0.58107, -0.67065}, {-0.16216, -0.01525, 0.05125, 0.15031, 0.11946, 0.87515, -0.13428, 0.10919, -0.21195, -0.00457}, {0.06395, -0.08656, -0.19354, -0.02122, 1.36493, -0.00463, -0.07432, 0.7626, 0.15518, -0.3632}, {-0.18019, -0.0111, 0.08975, -1.16847, 0.77351, -0.0305, 0.30267, -0.21266, 0.08904, 0.63073}, {0.05294, 0.60733, 0.70755, -0.69416, 0.08147, -0.41389, 0.73291, 0.21488, 0.26212, 1.45474}, {0.14272, 0.01276, 0.36979, 0.0231, 0.03181, 1.32322, 0.14438, -0.18206, -0.21647, 0.32374}, {-0.61342, 0.09095, 0.21302, 0.56837, -1.10498, -0.02635, 0.21249, 0.97967, 0.13892, 0.02034}};
	Double_t biasesL1_19[15] = {0.67823, -1.57631, 0.34698, -0.89464, 3.0362, -0.11722, 0.53288, 1.66309, 0.82601, -0.13417, 0.57758, -1.6857, -1.70938, 2.01325, 1.90904};
	nets[19].SetWeightsL1(weightsL1_19);
	nets[19].SetBiasesL1(biasesL1_19);
	
	Double_t weightsL2_19[1][15] = {{-1.31805, -0.47021, 1.03769, -1.33417, 0.8532, -2.25476, -0.51295, -0.47192, -0.31062, -2.23781, 1.44595, 1.35985, -0.6681, 2.08981, 1.57114}};
	Double_t biasesL2_19[1] = {-4.3629};
	nets[19].SetWeightsL2(weightsL2_19);
	nets[19].SetBiasesL2(biasesL2_19);
	
	Double_t weightsL1_20[15][10] = {{0.46403, 0.11443, -0.20354, -0.73402, -0.76958, -0.75366, 0.81185, -0.43704, -0.598, -0.68166}, {-2e-05, -0.07973, -0.04487, -0.02746, 0.60806, -0.48036, -1.20158, 0.49851, 0.27095, -0.60828}, {0.07953, 0.56852, -0.03991, -0.55393, -0.05018, -0.04514, -0.22831, 0.97476, 0.1368, -0.16466}, {0.29656, -2.02417, -0.0003, 0.21114, -0.17887, -0.131, 0.02244, -0.25025, -0.30846, 0.20523}, {0.02241, 0.00393, 0.20993, -0.13053, 0.25804, -1.1218, 0.14226, -0.03409, -0.64308, 0.95989}, {0.05529, -0.01075, 0.07938, 0.32087, 3.02042, 0.0977, 0.11533, -0.06263, 0.05827, 0.09337}, {-0.07317, -0.92332, 0.00413, -0.36631, 0.14864, -0.03922, -0.85336, 0.41949, -0.44822, -0.65763}, {-0.15722, -0.16475, 1.22247, 0.64277, -0.4031, -0.4135, 0.6079, 0.00335, 0.36527, 0.01933}, {0.02362, 0.40821, -0.06385, 0.29161, -0.575, 0.30561, -0.29942, 0.50601, -1.15559, -0.16708}, {-0.04014, 0.13026, 0.02217, -0.26455, 0.25878, 1.16997, -0.14557, 0.23539, -0.28352, -0.00853}, {0.04015, 0.07026, -0.2297, -0.17373, 1.62157, -0.02371, 0.03406, 0.5723, 0.19244, -0.41595}, {-0.32066, 0.08182, -0.41097, -1.09031, 0.57524, -0.28087, 0.17876, -0.42618, 0.12645, 0.45428}, {-0.06228, -0.61938, 0.90489, 0.26324, -0.29695, 0.18527, -0.12359, 0.14428, 0.51173, 0.57757}, {0.30181, -0.00535, 0.4503, 0.29772, 0.19116, 1.35907, -0.01984, -0.13389, -0.27768, 0.31188}, {-0.70008, 0.29348, 0.90667, 0.76344, -1.19142, 0.02075, 0.39262, 0.81213, 0.0302, 0.21529}};
	Double_t biasesL1_20[15] = {1.54797, -1.98792, 0.22587, -1.01586, 3.06685, 0.01895, 1.72187, 2.60962, -0.19028, -0.21737, 0.70111, -2.09283, -0.28893, 2.49517, 2.14741};
	nets[20].SetWeightsL1(weightsL1_20);
	nets[20].SetBiasesL1(biasesL1_20);
	
	Double_t weightsL2_20[1][15] = {{-0.90066, -0.63277, 1.37797, -0.71963, 1.43415, -1.89438, 0.42953, -1.47607, -0.85344, -1.16912, 1.23554, 1.7529, -0.58694, 2.12241, 1.15111}};
	Double_t biasesL2_20[1] = {-3.40147};
	nets[20].SetWeightsL2(weightsL2_20);
	nets[20].SetBiasesL2(biasesL2_20);
	
	Double_t weightsL1_21[15][10] = {{0.40018, 0.23497, 0.06996, -0.31507, -0.72498, -0.18288, 0.33511, 0.28919, -0.28644, -0.4019}, {0.5598, 0.59186, 0.28888, 0.00627, -0.26202, 0.5931, 0.62086, -0.18499, -0.54397, 0.26706}, {0.06207, 0.29999, -0.0257, -0.28779, -0.25484, 0.03857, 0.0427, 0.80827, 0.15603, -0.03417}, {0.06445, -1.44169, 0.08049, 0.15701, -0.21615, -0.08372, 0.04689, -0.06289, -0.2239, 0.25512}, {0.38435, 0.01312, 0.38195, -0.22964, 0.0203, -0.14737, 0.34467, -0.16478, -0.38338, 0.70145}, {0.04921, 0.10601, -0.13686, 0.06913, 2.67187, 0.09835, -0.0306, -0.11239, 0.08648, 0.00269}, {-0.21409, -0.96229, -0.75814, -0.34332, -0.45358, -0.36153, -1.03523, 0.19012, 0.0352, -0.02109}, {-0.24543, -0.3541, 1.35972, -0.35451, 0.05287, -0.36465, 0.30213, -0.05295, 0.52705, -0.26403}, {0.4432, 0.6049, 0.34969, 1.33775, -0.48776, -0.14426, 0.14876, -0.66795, -0.25648, 1.07544}, {0.03763, 0.18981, 0.0537, -0.0184, 0.01247, 0.84154, -0.05943, 0.31817, -0.55496, 0.05711}, {0.06818, -0.01311, -0.24019, -0.19668, 1.60268, -0.08808, -0.16199, 0.42849, 0.11025, -0.29334}, {-0.17004, 0.12605, -0.50537, -1.05923, 0.36823, -0.00085, 0.24008, -0.22402, -0.11305, 0.4184}, {0.26457, -0.37559, 0.8725, -0.39364, -0.71534, 0.45678, 0.52586, 0.83367, 0.80532, 0.61438}, {-0.03203, -0.13889, 0.27228, 0.25805, -0.04299, 1.59316, 0.14708, -0.35046, -0.09486, 0.35072}, {-1.04283, 0.18307, 0.95316, 0.79875, -1.36482, -0.05858, 0.41384, 0.85834, -0.279, 0.17123}};
	Double_t biasesL1_21[15] = {1.01053, -4.12056, 0.42394, -0.78221, 2.30417, -0.04874, -1.63291, 1.97557, 0.73407, -0.2794, 0.76185, -1.59287, 0.06653, 2.52429, 2.64535};
	nets[21].SetWeightsL1(weightsL1_21);
	nets[21].SetBiasesL1(biasesL1_21);
	
	Double_t weightsL2_21[1][15] = {{-1.11388, -1.42621, 2.2174, -1.27517, 2.73313, -2.32512, -0.24344, -0.76091, -0.1685, -1.91678, 1.8258, 1.26884, -0.62337, 2.17768, 1.07725}};
	Double_t biasesL2_21[1] = {-7.50265};
	nets[21].SetWeightsL2(weightsL2_21);
	nets[21].SetBiasesL2(biasesL2_21);
	
	Double_t weightsL1_22[15][10] = {{-0.03169, 0.77551, -0.50749, -0.28842, -0.91885, -0.24553, 0.68007, -0.44234, -1.0644, -0.66577}, {-0.30345, 0.07785, 0.10137, -0.63908, -0.4777, 1.03972, 0.17788, -0.08661, -0.59108, 0.05589}, {0.12945, 0.45746, -0.02953, -0.47284, -0.37505, 0.20021, 0.06532, 1.35877, 0.20082, 0.21734}, {0.1759, -1.39012, 0.14317, 0.02922, 0.04325, -0.02025, -0.09702, -0.08235, -0.13315, 0.27244}, {0.32739, 0.15775, 0.61176, 0.01838, -0.17674, -0.0997, 0.77727, -0.95788, -0.42379, 1.33758}, {0.0142, 0.04024, 0.00891, 0.29605, 2.90194, 0.12007, 0.04651, -0.06227, -0.02175, 0.15098}, {1.28019, -0.77635, 0.30894, 0.51759, -1.10966, -0.68268, -0.58433, 1.82892, -0.07551, -0.20457}, {0.01913, -0.04499, 1.00918, 0.40049, -0.29325, -0.87376, 0.51274, -0.17523, 0.54047, -0.15032}, {-0.46518, 0.12699, -0.42141, 1.99258, -0.69174, 0.50621, -0.07027, -0.39562, -0.09776, 0.46024}, {-0.13381, 0.20273, 0.29903, -0.2349, 0.18902, 1.09889, -0.07177, 0.18062, -0.49532, -0.07885}, {0.01383, 0.01395, -0.24746, -0.16263, 1.72438, -0.14397, -0.035, 0.73678, 0.07373, -0.5906}, {-0.28556, 0.15039, -0.74679, -0.41186, 0.38006, 0.0592, 0.12502, -0.29417, 0.05098, 0.55231}, {0.17145, -0.10223, 0.36607, -0.61863, -0.61304, 1.03432, 0.48445, 0.5899, 0.23459, 0.72156}, {0.09962, -0.10069, 0.1555, 0.72517, -0.02975, 1.93634, 0.03912, -0.31188, -0.22089, 0.40673}, {-1.47366, 0.33767, 0.98981, 0.63038, -1.18267, -0.58704, 0.2042, 1.13311, -0.21024, -0.32233}};
	Double_t biasesL1_22[15] = {0.81323, -4.17766, 0.71135, -0.76334, 2.57102, -0.08052, -0.99429, 2.26586, 1.6086, -0.39136, 0.70279, -2.21518, -0.10804, 2.78614, 2.48762};
	nets[22].SetWeightsL1(weightsL1_22);
	nets[22].SetBiasesL1(biasesL1_22);
	
	Double_t weightsL2_22[1][15] = {{-0.71659, -1.27161, 1.33946, -1.53246, 0.97009, -2.14013, -0.43991, -0.91933, -0.74079, -1.57075, 1.27643, 2.22554, -0.33912, 1.6613, 0.78912}};
	Double_t biasesL2_22[1] = {-3.1622};
	nets[22].SetWeightsL2(weightsL2_22);
	nets[22].SetBiasesL2(biasesL2_22);
	
	Double_t weightsL1_23[15][10] = {{0.31944, 0.60471, -0.09408, -0.27237, -1.049, -0.41609, 0.59536, -0.50413, -0.55812, -0.16237}, {-0.76496, 0.39208, -0.23232, 0.85552, 0.0383, -0.36249, -0.41233, -0.25588, 0.30575, 0.48252}, {0.16465, 0.39244, -0.11498, -0.58289, -0.26341, -0.03337, -0.12869, 1.36918, 0.1991, -0.23709}, {0.06853, -1.60326, 0.01239, 0.04596, -0.03096, -0.02431, -0.09413, -0.24951, -0.22455, 0.17781}, {0.32794, 0.1288, 0.49072, -0.48393, 0.27948, -0.34324, 0.49768, -0.10953, -0.43359, 1.10184}, {-0.09946, -0.14187, 0.09877, 0.44204, 3.04929, 0.07885, -0.04582, -0.12148, 0.04501, 0.17465}, {0.04427, 0.89794, 0.8757, 0.96099, -0.71669, 0.60814, -0.21659, -0.34483, -0.32733, 0.5213}, {-0.03465, -0.31476, 0.88815, 0.25148, -0.40079, -0.74336, 0.54656, 0.18314, 0.46086, -0.32227}, {0.05949, -0.21928, 0.17363, 1.06554, 0.62764, 0.89171, -0.51205, -1.10803, 0.29824, 0.56107}, {-0.11624, 0.22145, 0.1583, -0.11233, 0.07235, 0.87357, -0.16441, 0.31109, -0.31972, 0.00351}, {0.08954, 0.13046, -0.16588, -0.29187, 1.76744, -0.18273, -0.12458, 0.48784, 0.13431, -0.56221}, {-0.0987, -0.07195, -0.22498, -1.31011, 0.58282, -0.15107, 0.53353, -0.47382, 0.38474, 0.7346}, {-1.13284, 0.20445, 0.83112, 0.03532, 0.85725, -0.51245, 0.2777, 1.19804, -0.07815, 0.23669}, {0.19011, -0.10515, 0.21568, 0.1034, 0.33205, 1.64024, 0.05459, -0.40502, -0.162, 0.19123}, {-0.92815, 0.16898, 0.71347, 0.48859, -1.646, -0.236, 0.2857, 1.39139, 0.44487, 0.19897}};
	Double_t biasesL1_23[15] = {0.40125, -0.29472, 0.60422, -0.77279, 2.88772, 0.00791, 0.32616, 2.00518, 1.91093, -0.40354, 0.84607, -2.24343, 1.38603, 2.39193, 2.89206};
	nets[23].SetWeightsL1(weightsL1_23);
	nets[23].SetBiasesL1(biasesL1_23);
	
	Double_t weightsL2_23[1][15] = {{-0.8464, 0.7685, 0.97369, -1.3481, 1.68673, -2.09473, 0.0797, -1.3655, -0.79244, -1.80037, 1.14387, 1.08682, -0.01704, 2.19252, 1.1287}};
	Double_t biasesL2_23[1] = {-3.88966};
	nets[23].SetWeightsL2(weightsL2_23);
	nets[23].SetBiasesL2(biasesL2_23);
	
	Double_t weightsL1_24[15][10] = {{0.28264, 0.37029, -0.14411, -0.17446, -0.58362, -0.32787, 0.44725, -0.26593, -1.30603, -0.53681}, {-0.62884, -0.2863, 0.15182, 0.50329, 0.28508, -1.04052, -0.99598, -0.18844, 0.56767, -0.53011}, {-0.07418, 0.4442, 0.12845, -0.45764, -0.16648, 0.47122, 0.01486, 2.04895, 0.15434, 0.08675}, {0.16396, -1.54934, 0.00955, 0.41497, -0.37784, 0.06187, 0.20274, -0.34578, -0.18871, 0.31726}, {0.31021, 0.11291, 0.85608, -0.27602, 0.46367, -0.34421, 0.8237, -0.37871, -0.41765, 1.14802}, {-0.04255, -0.04718, -0.11759, 0.35555, 2.73283, 0.09664, 0.15666, -0.12496, 0.03881, -0.02924}, {-0.52594, 0.56953, -0.75906, 0.85381, -0.5545, 0.25701, -0.96502, 0.13158, -0.37133, 0.60217}, {0.0458, -0.46696, 1.26876, 0.31756, -0.42903, -0.94433, 0.80317, -0.55478, 1.02861, -0.24645}, {0.1099, -0.18877, 0.39459, 1.01081, 0.08863, 0.56353, -0.46535, -0.82107, 0.08407, 0.76454}, {-0.0492, 0.05628, 0.15321, -0.01769, 0.00796, 0.8318, 0.02259, 0.35987, -0.30892, -0.10855}, {0.02489, -0.00597, -0.196, 0.05748, 1.06865, -0.20568, -0.00631, 0.55413, -0.01216, -0.41777}, {-0.0631, 0.07566, -0.22321, -1.36402, 0.81767, 0.09407, 0.29271, -0.37523, 0.0529, 0.61211}, {-0.34913, 0.33982, 1.07415, -0.20376, 0.70595, -0.40759, 0.03263, 0.84569, -0.23937, -0.05952}, {0.03756, 0.0285, 0.22585, 0.28706, 0.02118, 1.22335, 0.14348, -0.48781, -0.12741, 0.23505}, {-0.89085, 0.19065, 0.52873, 0.50509, -1.14417, -0.48566, 0.22843, 0.57271, -0.05734, 0.05704}};
	Double_t biasesL1_24[15] = {1.0853, 0.73564, 1.54907, -0.59556, 2.68638, -0.13203, 4.5823, 3.62753, 1.42857, -0.10755, 0.54919, -2.07957, 0.36145, 2.09837, 1.91352};
	nets[24].SetWeightsL1(weightsL1_24);
	nets[24].SetBiasesL1(biasesL1_24);
	
	Double_t weightsL2_24[1][15] = {{-0.87209, 0.20259, 1.27076, -1.33368, 0.90006, -2.07155, -0.978, -0.91219, -0.77026, -1.90256, 1.95702, 1.30942, -0.65953, 2.71059, 1.34328}};
	Double_t biasesL2_24[1] = {-2.89658};
	nets[24].SetWeightsL2(weightsL2_24);
	nets[24].SetBiasesL2(biasesL2_24);
	
	Double_t weightsL1_25[15][10] = {{0.35028, 0.00324, -0.01395, -0.2859, -0.57781, -0.18981, 0.344, -0.08892, -0.4962, -0.41113}, {0.07098, -0.15647, -0.16889, -0.10745, 0.065, -0.82803, 0.00508, -0.24522, 0.25068, -0.05495}, {0.24331, 0.56056, 0.03419, -0.26489, -0.48402, -0.06421, -0.15156, 1.31499, 0.1455, 0.24158}, {0.31371, -1.40034, 0.1418, -0.15661, -0.12867, -0.10617, 0.00412, 0.01628, -0.15599, 0.32734}, {0.11989, 0.13141, 0.55287, -0.19023, 0.35406, -0.81484, 0.37432, 0.01281, -0.50515, 0.31398}, {-0.00929, 0.0065, -0.01007, 0.52992, 2.51994, 0.07461, 0.03418, -0.02503, 0.05822, 0.29699}, {0.18107, -0.03862, 0.37745, -0.72117, -0.60339, 0.64641, -0.00269, 0.8544, 1.06653, 0.78704}, {-0.19453, 0.03769, 0.44078, -0.03599, -0.08597, -1.01425, 0.24034, 0.00494, -0.07312, -0.50189}, {-0.11319, 0.258, -0.1292, 1.22965, -0.34516, 0.0817, -0.11505, -0.00974, -0.37981, 0.23605}, {-0.47662, 0.45292, -0.91709, -0.61711, -0.34641, -0.19806, 0.52243, 1.10559, -0.24573, 0.49731}, {0.03672, -0.01403, -0.14167, -0.00351, 1.20562, -0.07834, 0.05867, 0.44357, 0.02586, -0.27174}, {-0.05062, 0.03818, -0.55483, -0.95978, 0.7509, -0.24053, 0.04603, -0.22143, 0.01584, 0.82139}, {0.08349, -0.03418, 1.4257, 0.50923, -0.03768, -0.71629, 0.31278, 0.35692, 0.15638, 0.01475}, {0.08714, -0.03663, 0.24725, 0.18425, 0.00442, 0.92549, 0.21069, -0.22782, -0.18332, 0.23894}, {-0.69959, -0.00636, 0.43848, 0.69653, -1.12856, -0.17083, 0.12829, 0.75787, 0.17058, 0.00953}};
	Double_t biasesL1_25[15] = {0.6182, 0.35861, 0.52661, -0.75916, 2.19596, -0.01684, 2.69451, 2.52417, 1.72011, 1.26016, 0.67334, -2.72262, 1.4104, 2.06777, 1.73127};
	nets[25].SetWeightsL1(weightsL1_25);
	nets[25].SetBiasesL1(biasesL1_25);
	
	Double_t weightsL2_25[1][15] = {{-1.12823, 2.07906, 1.08128, -1.61069, 1.89058, -2.18396, 0.56085, -1.27295, -1.62576, 0.17984, 1.68032, 1.13074, -0.73673, 3.48661, 1.02521}};
	Double_t biasesL2_25[1] = {-4.33783};
	nets[25].SetWeightsL2(weightsL2_25);
	nets[25].SetBiasesL2(biasesL2_25);
	
	Double_t weightsL1_26[15][10] = {{0.30859, 0.33267, -0.16799, -0.32755, -0.78674, -0.22209, 0.45315, -0.09232, -0.5138, -0.14795}, {0.03527, -0.17836, -0.3493, -0.16709, 0.17157, -0.96767, -0.08383, -0.25254, 0.286, -0.15599}, {0.14839, 0.62729, 0.04081, -0.72519, -0.10803, -0.29561, -0.22964, 1.14755, 0.28662, 0.15749}, {0.18774, -1.46186, 0.15824, 0.0745, -0.16999, -0.00454, -0.056, 0.03938, 0.00498, 0.34683}, {-0.29609, 0.16055, 0.18669, 0.37725, -0.23785, -0.72593, 0.59144, -0.47358, -0.80539, 1.19807}, {-0.00315, 0.00739, 0.05245, 0.34788, 2.38823, 0.05473, 0.01945, -0.19555, 0.07053, 0.16524}, {0.40108, 0.26449, 0.68661, -0.01945, -0.64357, 0.0246, 1.02589, -0.31654, -0.10982, 1.01564}, {-0.04216, -0.91122, -0.57432, -0.07986, 0.57664, -0.88927, -0.36517, -0.60813, 0.33456, -0.50121}, {-0.35607, 0.61249, -0.29244, 0.55476, 0.39291, -0.08072, -0.27936, -0.61933, -0.8191, 1.03102}, {0.35492, -0.69674, -0.35159, -0.24384, 0.61871, -0.1548, 0.09323, -0.51812, 0.43579, -0.35441}, {-0.04721, 0.12248, -0.08149, 0.00038, 1.47924, 0.02575, -0.012, 0.40384, 0.19762, -0.16666}, {-0.29208, -0.10336, -0.28697, -1.75183, 0.77766, -0.22222, 0.84559, -0.66615, 0.2794, 0.81268}, {0.27828, -0.21516, 1.03702, 0.48901, -0.2782, -0.55563, 0.26761, -0.40161, 0.14102, 0.01745}, {0.17928, -0.10112, 0.18255, 0.12758, 0.1557, 1.55131, 0.00429, -0.19677, -0.28597, 0.30737}, {-0.711, 0.0817, 0.31386, 0.32652, -1.01687, 0.11371, -0.03469, 0.9754, 0.18722, 0.00882}};
	Double_t biasesL1_26[15] = {0.93295, 0.51536, 0.36077, -0.55706, 2.82075, -0.01455, 2.10222, 4.79513, 3.53696, 1.12852, 0.79882, -2.84391, 2.6425, 2.40568, 2.06557};
	nets[26].SetWeightsL1(weightsL1_26);
	nets[26].SetBiasesL1(biasesL1_26);
	
	Double_t weightsL2_26[1][15] = {{-1.31678, 1.85399, 1.05984, -1.40961, 1.5742, -2.36028, 0.88511, 0.63377, -2.03855, 0.30036, 1.53501, 0.93402, -2.50584, 1.90883, 1.31792}};
	Double_t biasesL2_26[1] = {-2.31853};
	nets[26].SetWeightsL2(weightsL2_26);
	nets[26].SetBiasesL2(biasesL2_26);
	
	Double_t weightsL1_27[15][10] = {{0.49626, 0.34386, -0.18166, -0.71802, -0.40323, -0.27884, 0.53695, -0.10666, -0.62832, -0.46271}, {0.18535, -0.004, -0.47558, -0.17349, 0.08954, -1.20846, 0.15556, -0.43852, 0.12183, -0.17873}, {0.07211, 0.47661, 0.10565, -0.36399, -0.06506, 0.06219, -0.15919, 0.79864, 0.09602, 0.05819}, {0.14866, -1.38717, 0.08402, 0.04435, -0.10733, -0.07655, -0.04824, 0.0378, -0.02825, 0.12373}, {-0.08204, 0.00911, -0.32257, -0.50195, 0.48959, -1.26234, 0.46779, -0.36699, -0.71351, 0.54352}, {0.01171, 0.0035, -0.00438, 0.39161, 2.54283, 0.06777, 0.03646, -0.03049, 0.0129, 0.16201}, {0.56656, 0.18476, 0.10844, -0.02879, -0.91482, 0.32093, 1.49226, 0.07685, -0.56958, 0.77113}, {0.45708, -0.16456, 0.12343, -0.22028, 0.62794, 0.15795, 0.62548, 0.30141, -0.35731, -0.08789}, {-0.01359, 0.37141, -0.31183, 0.40855, 0.21242, 0.10094, -0.23799, -0.34697, -1.04478, 0.37071}, {0.14417, -0.37025, 0.24353, -0.26221, 0.36885, -0.67623, -0.03905, -0.72835, 0.62194, 0.37475}, {-0.01992, -0.05525, -0.20583, -0.04028, 1.06529, -0.0005, -0.10272, 0.54816, 0.0375, -0.31041}, {-0.059, 0.04502, -0.60004, -0.97867, 0.49552, -0.13452, 0.15539, -0.14092, 0.34697, 0.2928}, {0.86483, -0.1783, 0.7227, -0.00099, -0.16241, -0.51125, 0.27412, -0.25246, 0.70678, -0.08487}, {0.06289, -0.09521, 0.05675, 0.38735, 0.14175, 1.56053, 0.22269, -0.44366, -0.35476, 0.34253}, {-0.69835, -0.07008, 0.40933, 0.52288, -1.06941, -0.06181, 0.17126, 0.93975, 0.03756, -0.08821}};
	Double_t biasesL1_27[15] = {1.19076, 0.57898, 0.53462, -0.68586, 3.0259, -0.16362, 2.75745, 3.641, 2.47814, 0.09478, 0.44092, -2.2062, 3.90107, 3.04453, 2.19476};
	nets[27].SetWeightsL1(weightsL1_27);
	nets[27].SetBiasesL1(biasesL1_27);
	
	Double_t weightsL2_27[1][15] = {{-1.16651, 1.1647, 1.45995, -1.56524, 1.03777, -2.21816, 0.65634, 0.55053, -1.78873, 0.80048, 1.71543, 2.04098, -2.23883, 2.58533, 1.18769}};
	Double_t biasesL2_27[1] = {-1.72174};
	nets[27].SetWeightsL2(weightsL2_27);
	nets[27].SetBiasesL2(biasesL2_27);
	
	Double_t weightsL1_28[15][10] = {{0.23459, 0.09993, -0.12726, -0.48166, -0.46484, -0.65306, 0.32931, -0.19653, -0.56991, -0.25508}, {0.00515, -0.14611, -0.39478, -0.90956, 0.76263, -0.86754, -0.06694, -0.3678, 0.10431, -0.59999}, {0.10486, 0.55235, 0.08453, -0.68467, -0.34865, 0.06393, 0.08825, 1.15686, 0.33983, 0.0477}, {0.09714, -1.24564, 0.08302, 0.10083, -0.316, 0.068, 0.07714, -0.20696, -0.091, 0.19516}, {0.58475, -0.32893, -0.02983, 0.1996, -0.42601, -1.40707, 0.16598, 0.44741, 0.02674, 0.82871}, {0.05701, -0.03861, 0.03072, 0.40047, 2.42205, 0.0769, 0.10522, -0.11586, -0.00921, 0.20392}, {0.25729, -0.05386, 0.54252, 0.18726, -0.27116, -0.03338, 0.90425, -0.73575, -0.19461, 1.49747}, {1.79654, 1.02431, 0.40539, 0.99899, 0.76035, -0.12444, 0.40186, 0.34885, 0.23665, -0.76154}, {-0.34384, 0.3914, -0.30147, 0.6705, 0.34338, -0.04293, -0.29329, -0.6921, 0.1229, 0.52154}, {-0.168, 0.03169, -0.22725, 0.74501, -0.82675, -1.80985, 0.04365, -0.18854, 0.67689, 0.2118}, {0.11926, 0.05764, -0.12409, 0.1205, 1.51446, 0.06177, 0.02381, 0.42776, 0.08264, -0.11812}, {-0.17133, -0.05237, -0.46789, -1.02465, 0.61346, 0.14084, 0.17263, -0.34564, 0.08487, 0.67039}, {-0.45534, -0.62098, 1.21342, 0.27856, -0.07747, -0.66335, 1.61678, -1.25394, 0.84098, 0.01304}, {-0.01139, -0.06511, 0.2631, 0.29173, 0.15737, 1.09807, 0.33808, -0.47848, 0.11985, 0.17524}, {-1.16088, 0.14313, 0.85839, -0.00493, -1.2378, -0.27703, 0.31463, 0.89127, -0.04821, -0.35095}};
	Double_t biasesL1_28[15] = {1.31061, 1.16194, 0.74409, -0.77492, 2.48863, 0.15257, 3.00215, 0.37996, 2.55433, 0.44457, 0.8414, -2.03108, 3.82345, 1.98897, 3.22876};
	nets[28].SetWeightsL1(weightsL1_28);
	nets[28].SetBiasesL1(biasesL1_28);
	
	Double_t weightsL2_28[1][15] = {{-1.26167, 1.42595, 1.14842, -1.51614, 0.55769, -2.23818, 1.26371, -0.26589, -1.07982, 1.02836, 1.7784, 1.23643, -0.86931, 1.48816, 0.93275}};
	Double_t biasesL2_28[1] = {-3.38158};
	nets[28].SetWeightsL2(weightsL2_28);
	nets[28].SetBiasesL2(biasesL2_28);
	
	Double_t weightsL1_29[15][10] = {{0.36943, 0.17032, -0.50062, 0.13692, -0.83898, -0.35862, 0.65875, -0.15295, -0.60805, -0.36139}, {0.00536, -0.34069, -0.34661, 0.02553, 0.64195, -0.49226, 0.26981, -0.40014, -0.13093, -0.51221}, {0.08753, 0.48683, -0.03734, -0.40238, -0.19911, -0.30237, -0.02259, 1.00302, 0.04675, 0.08495}, {0.21016, -1.46733, 0.20338, -0.23289, 0.04064, -0.11571, -0.16897, -0.06266, -0.20883, 0.21721}, {-0.60691, 0.08096, 0.4637, 0.44451, -0.96482, -0.07722, 0.17329, 0.69985, -0.10924, 0.23662}, {0.03457, 0.10054, 0.02643, 0.47607, 2.79125, -0.02628, 0.21412, 0.03392, 0.00384, 0.14875}, {0.2199, 0.02475, 0.22948, -0.17161, -0.07995, -0.118, 0.98219, -0.45641, -0.8901, 0.957}, {0.34289, 0.24078, 0.57113, -0.14733, -0.36213, 0.30503, 0.65167, -0.64949, -0.53537, 0.18604}, {-0.48206, 0.42219, 0.31246, 1.27531, 0.06346, -0.36335, -0.0292, -0.26534, 0.5993, 0.27704}, {0.0745, -0.08443, -0.15997, 0.1883, -0.21096, -1.04785, 0.06573, -0.38122, 0.48885, 0.16592}, {0.10134, 0.15132, -0.008, -0.39994, 1.52612, -0.14833, -0.09505, 0.64101, 0.14058, -0.33028}, {-0.16713, -0.05942, -0.24222, -1.29825, 0.57511, -0.32394, 0.69589, -0.49565, 0.37826, 0.65645}, {0.35823, -0.39118, 0.93902, 0.50296, -0.43148, -0.32599, 0.25984, -0.16478, 0.25806, -0.12455}, {0.02521, -0.21364, 0.57953, 0.7773, -0.16568, 1.55809, 0.14485, -0.50678, 0.08144, 0.59299}, {-0.33267, 0.51192, 0.94477, 0.33564, -0.02607, -1.07154, 0.42433, 0.69868, 0.14758, 1.5331}};
	Double_t biasesL1_29[15] = {0.81009, 1.47009, 0.23824, -0.76001, 2.01171, -0.13647, 2.59514, -0.60438, 1.58358, 0.65005, 0.45098, -2.34481, 2.33241, 2.56671, -0.34433};
	nets[29].SetWeightsL1(weightsL1_29);
	nets[29].SetBiasesL1(biasesL1_29);
	
	Double_t weightsL2_29[1][15] = {{-0.9016, 0.94921, 1.32723, -1.57214, 1.23789, -2.17603, 1.10337, -0.21251, -0.5395, 1.7776, 1.58655, 1.08993, -1.88711, 1.65628, -0.38481}};
	Double_t biasesL2_29[1] = {-3.34002};
	nets[29].SetWeightsL2(weightsL2_29);
	nets[29].SetBiasesL2(biasesL2_29);
	
	Double_t weightsL1_30[15][10] = {{0.24059, 0.15544, -0.13121, -0.33169, -0.70718, -0.31721, 0.32098, -0.11447, -0.36693, -0.3687}, {-0.14648, -0.48741, 0.16691, 0.22645, 0.34276, -1.00189, 0.41553, -0.57053, 0.19801, -0.26885}, {0.05189, 0.63909, -0.05542, -0.6885, -0.10526, 0.04556, -0.07156, 0.99685, 0.32, -0.15947}, {0.06821, -1.25735, 0.04474, -0.02981, -0.05015, -0.23185, -0.06765, 0.04888, -0.03129, 0.2019}, {-0.64698, 0.05888, 0.24327, 0.44753, -0.99724, -0.40737, 0.24098, 0.50898, -0.04267, 0.05286}, {-0.02475, 0.02526, 0.06728, 0.54599, 2.38608, 0.11402, 0.10281, -0.10446, -0.03068, 0.24293}, {0.54507, -0.20852, 0.11341, -0.12833, -0.36155, -0.22288, 1.06289, -0.26632, -0.02023, 0.52627}, {1.12854, -0.34135, 0.33341, 0.62365, 0.68833, 0.43077, -0.13922, -0.19261, 0.42284, 0.82834}, {-0.28076, -0.29001, -0.3623, 0.59739, 0.21452, 0.54746, -0.44455, -0.77769, 0.21673, 0.11534}, {0.0102, -0.12861, -0.11485, -0.06855, 0.11915, -0.77303, -0.0338, -0.13374, 0.08487, -0.04902}, {0.08927, 0.11801, -0.06484, 0.02292, 1.76965, -0.04587, 0.02366, 0.56391, 0.20445, -0.06682}, {-0.21339, -0.06247, -0.51103, -1.47588, 0.69094, -0.18317, 0.34948, -0.27218, 0.37793, 0.25645}, {-0.00301, -0.19927, 0.54318, 0.16025, -0.17814, -0.60895, 0.41575, -0.00072, 0.34614, -0.22812}, {0.15275, -0.17663, 0.33667, 0.35648, 0.1474, 1.4498, 0.08845, -0.26802, -0.23823, 0.365}, {0.35834, 0.41834, 0.64651, -0.07208, 0.20911, -0.77557, 0.20197, 0.41848, -0.46776, 0.88881}};
	Double_t biasesL1_30[15] = {0.8388, 3.40033, 0.5801, -0.6585, 1.45826, -0.01897, 1.98568, -1.67903, 0.61624, 0.44611, 0.92298, -1.90863, 1.9523, 2.49585, -0.30484};
	nets[30].SetWeightsL1(weightsL1_30);
	nets[30].SetBiasesL1(biasesL1_30);
	
	Double_t weightsL2_30[1][15] = {{-1.5576, 0.8951, 1.20714, -1.72522, 2.30471, -2.32558, 0.70367, 0.82607, -0.44286, 2.74368, 1.325, 1.32104, -2.85401, 1.93648, -0.6388}};
	Double_t biasesL2_30[1] = {-3.00637};
	nets[30].SetWeightsL2(weightsL2_30);
	nets[30].SetBiasesL2(biasesL2_30);
	
	Double_t weightsL1_31[15][10] = {{0.28452, 0.26607, 0.03536, -0.48026, -0.84324, -0.31236, 0.42332, -0.20913, -0.34843, -0.45752}, {-0.17396, 0.01103, -0.78272, -0.29907, 0.25427, -0.86109, -0.53221, 0.86606, -0.18024, -0.42125}, {0.19688, 0.39007, 0.02401, -0.55101, -0.05556, 0.1015, -0.03182, 0.80471, 0.26903, 0.04753}, {0.16737, -1.25153, 0.1738, -0.21983, 0.01308, -0.00616, -0.00947, -0.22376, -0.15176, 0.28988}, {-0.59999, 0.19723, 0.2505, 0.45624, -0.95498, 0.02651, 0.31673, 0.37314, -0.0072, 0.14299}, {0.01126, -0.01823, -0.02541, 0.27416, 2.20758, 0.11292, 0.02763, -0.04469, 0.06108, 0.08602}, {0.15382, 0.14317, 0.34504, -0.14593, 0.05075, -0.14105, 0.68046, -0.25172, -0.83317, 0.77834}, {0.12205, -0.59232, -0.15405, -0.12076, -0.16248, 0.3626, 0.28879, 0.12033, 0.92633, -0.06669}, {0.1445, 1.13289, -0.00975, 0.18116, 0.92743, -0.49608, 0.36177, 0.43244, 0.62737, 0.91442}, {0.07183, -0.22559, -0.0835, 0.13672, -0.0114, -0.75395, 0.10202, -0.37111, 0.35304, 0.04985}, {0.09146, 0.07654, -0.00308, -0.15758, 1.51885, -0.07116, -0.0285, 0.37073, 0.19889, -0.24776}, {-0.06301, -0.29312, 0.37735, -0.98602, 0.31144, -0.07679, 0.68369, -0.4421, 0.16464, 0.43409}, {0.02967, -0.17115, 0.96732, 0.77846, -0.43606, -0.30234, 0.14532, 0.03023, 0.20486, -0.14917}, {0.12971, -0.09495, 0.09217, -0.09293, 0.29454, 1.36469, 0.00197, -0.2499, -0.16939, 0.11137}, {0.53394, -0.23729, -0.13714, -0.83275, -0.66852, 0.3754, 0.37985, 0.63252, 1.29712, 0.63455}};
	Double_t biasesL1_31[15] = {0.7651, 1.21536, 0.20656, -0.69382, 1.52454, 0.03508, 2.40207, 0.23807, 1.00776, 0.33621, 0.68399, -1.90257, 1.87874, 2.13873, -0.38191};
	nets[31].SetWeightsL1(weightsL1_31);
	nets[31].SetBiasesL1(biasesL1_31);
	
	Double_t weightsL2_31[1][15] = {{-1.17592, 0.81577, 1.63539, -1.67578, 1.54523, -2.78118, 1.71754, 0.15851, -0.25527, 2.24756, 1.73686, 1.28845, -1.78243, 2.10068, -0.47986}};
	Double_t biasesL2_31[1] = {-4.48928};
	nets[31].SetWeightsL2(weightsL2_31);
	nets[31].SetBiasesL2(biasesL2_31);
	
	Double_t weightsL1_32[15][10] = {{0.29817, 0.20649, -0.23439, 0.20363, -0.87395, -0.1686, 0.49135, -0.08599, -0.70116, -0.16021}, {-0.26646, -0.21308, 0.26029, -0.65047, 0.61542, -0.30954, -0.50113, -0.35923, 0.184, -0.75155}, {0.14566, 0.46967, 0.10704, -0.30554, -0.52944, 0.20861, 0.01199, 0.76868, 0.10512, 0.4028}, {0.05616, -1.18882, 0.13401, -0.02837, -0.08998, -0.10413, -0.09736, -0.04048, -0.04349, 0.32894}, {-0.89328, 0.00124, 0.42242, 0.49555, -1.04764, -0.57884, 0.32861, 0.7681, -0.06782, -0.00632}, {0.07514, 0.0535, 0.14299, 0.17274, 2.66058, -0.01782, -0.00706, -0.08914, 0.05618, 0.16361}, {0.31504, -0.13771, 0.50515, -0.48608, 0.24483, -0.45418, 0.67074, -0.37069, -0.57394, 0.60222}, {-0.03833, -0.13761, 0.01542, 0.03323, 0.03509, -0.83011, 0.20407, -0.10741, -0.11926, -0.12338}, {0.45, 0.11183, 0.01747, -0.11723, 0.44932, -0.44759, -0.40969, -0.29771, 0.00897, 0.3591}, {-0.03974, -0.12638, -0.23504, -0.01731, -0.02217, -0.93335, -0.08017, -0.15292, 0.44754, -0.0324}, {0.11003, 0.01441, -0.04689, -0.22447, 1.67249, -0.15823, -0.04478, 0.57966, 0.19814, -0.40454}, {0.01908, -0.01097, -0.4352, -1.06876, 0.5454, -0.19445, 0.49794, -0.31545, 0.11462, 0.32885}, {-0.03838, -0.14042, 0.74629, 0.08836, -0.10239, -0.6926, 0.2836, 0.01678, 0.17871, -0.33233}, {0.08725, -0.10221, 0.18836, 0.29577, -0.04175, 1.35408, 0.2282, -0.33347, -0.15849, 0.36647}, {-0.1978, -0.27256, 0.78462, -1.04355, -0.19697, 0.149, 0.2924, -0.49308, 0.76177, 0.3961}};
	Double_t biasesL1_32[15] = {1.02101, 0.10346, 0.46727, -0.64442, 2.28192, -0.08885, 2.69869, 0.56056, 1.53074, 0.34501, 0.8955, -1.79629, 1.47192, 2.16078, 0.92211};
	nets[32].SetWeightsL1(weightsL1_32);
	nets[32].SetBiasesL1(biasesL1_32);
	
	Double_t weightsL2_32[1][15] = {{-1.29345, 0.11077, 1.56507, -1.66587, 1.68359, -2.10191, 1.44591, 1.0498, -0.07798, 1.78369, 1.4056, 0.96086, -1.8817, 2.15193, -0.25426}};
	Double_t biasesL2_32[1] = {-4.67446};
	nets[32].SetWeightsL2(weightsL2_32);
	nets[32].SetBiasesL2(biasesL2_32);
	
	Double_t weightsL1_33[15][10] = {{0.40335, 0.14228, -0.21925, -0.37262, -0.38462, -0.06722, 0.23192, -0.17723, -0.31248, -0.32715}, {0.46336, 0.87054, 0.37269, -0.73314, -0.27968, 0.01941, -0.52512, 1.06224, 0.32387, 0.248}, {-0.20747, 0.48137, -0.12786, -0.44223, -0.0392, 0.2782, -0.1566, 1.22056, 0.46219, -0.32599}, {0.1435, -1.8508, 0.02929, 0.15435, -0.23323, 0.05055, -0.07485, -0.18343, -0.14003, 0.12422}, {-0.78043, 0.34046, 0.711, 0.47255, -1.24807, -0.24388, 0.2238, 1.02975, 0.08707, 0.2471}, {-0.00939, -0.03038, 0.04206, 0.42354, 2.45001, 0.07388, 0.07071, -0.08507, -0.01494, 0.16989}, {0.12856, -0.09863, 0.1444, -0.3351, 0.27274, -0.54023, 0.11207, -0.07677, -0.35763, 0.62915}, {0.41951, -0.41868, -0.74669, -0.26058, -0.05892, -0.67396, 0.69046, -0.31392, 0.24938, 0.14702}, {-0.43811, 0.714, 0.05693, 0.63951, -0.47673, -0.12248, -0.15945, -0.13127, -0.16086, 1.02245}, {-0.0638, -0.07637, -0.10764, 0.19234, -0.25147, -0.97458, 0.0414, -0.17102, 0.38244, 0.00508}, {0.15986, 0.13407, -0.22884, -0.19272, 1.77178, 0.00449, 0.09617, 0.34885, 0.03532, -0.39332}, {-0.09574, -0.05637, -0.1986, -0.82065, 0.29423, -0.11499, 0.46166, -0.55434, 0.27548, 0.64472}, {0.0924, -0.17868, 0.71674, 0.07102, -0.14689, -0.26722, 0.22195, 0.07247, 0.2116, -0.14185}, {0.02451, -0.02307, 0.40454, 0.30513, -0.10819, 1.07655, 0.24916, -0.39815, -0.1677, 0.36817}, {-0.06836, 0.42876, 0.38892, 0.19178, -0.18572, 0.04327, 0.49041, -0.34474, 0.06949, 1.23815}};
	Double_t biasesL1_33[15] = {0.48097, -0.19056, 0.74806, -0.8747, 2.19062, 0.17195, 1.75258, 0.4222, 1.76544, 0.37651, 0.90252, -2.00545, 1.51871, 1.79117, -0.26565};
	nets[33].SetWeightsL1(weightsL1_33);
	nets[33].SetBiasesL1(biasesL1_33);
	
	Double_t weightsL2_33[1][15] = {{-1.4622, 0.55694, 0.91737, -1.30398, 1.05297, -2.39256, 1.42348, 0.62402, -0.39542, 1.51024, 1.59685, 1.42725, -2.31498, 2.37084, -0.68931}};
	Double_t biasesL2_33[1] = {-2.60389};
	nets[33].SetWeightsL2(weightsL2_33);
	nets[33].SetBiasesL2(biasesL2_33);
	
	Double_t weightsL1_34[15][10] = {{0.27182, 0.18432, -0.10073, -0.21734, -0.69086, -0.27076, 0.16891, -0.06183, -0.68172, -0.24584}, {0.19582, -0.03443, -0.81578, 0.32878, 0.42694, 0.26038, -0.56715, 1.12187, 0.66158, -0.87152}, {0.13875, 0.87596, -0.11295, -1.2434, 0.19953, -0.09565, -0.10616, 1.11286, 0.55592, -0.26345}, {0.3375, -2.52382, -0.1052, 0.2659, -0.48061, -0.16705, 0.15771, -0.19053, -0.25357, 0.35068}, {-0.34745, 0.44851, 0.22262, 0.11451, -0.64605, -0.15746, 0.17989, 0.99425, 0.16338, 0.40379}, {0.00523, -0.01045, 0.07777, 0.42264, 2.37719, 0.07253, 0.10822, -0.14845, -0.00073, 0.18972}, {-0.02133, -0.23423, -0.00598, 0.05384, 0.07701, -0.95658, -0.05085, -0.12335, -0.75444, 0.72831}, {0.41294, -0.47135, -0.27379, -0.37776, 0.18189, -0.99362, 0.26781, -0.83152, 0.12076, 0.165}, {-0.1298, 0.19548, -0.41739, 0.00365, 0.89894, -0.21103, -0.75348, -0.15402, -0.90428, 0.52589}, {-0.16131, 0.08166, -0.19061, -0.10464, -0.47891, -1.50953, 0.34916, -0.0124, 0.15949, -0.23538}, {0.2211, 0.18061, -0.19169, -0.2203, 1.83567, -0.0276, 0.10873, 0.4963, 0.14325, -0.24525}, {-0.01565, -0.10446, -0.08354, -1.14154, 0.00322, -0.64754, 0.52684, -0.68003, 0.20396, 0.79081}, {0.41941, -0.19017, 1.3392, 0.35038, -0.20004, -0.74641, 0.01028, 0.26935, 0.36517, -0.57171}, {-0.05337, -0.05515, 0.3771, 0.37073, -0.15102, 1.41123, 0.39635, -0.37692, -0.27865, 0.52329}, {0.21116, 0.00498, 0.09843, -0.3877, -0.55827, -0.6446, 0.90814, -0.03644, 0.25771, 0.49328}};
	Double_t biasesL1_34[15] = {0.67056, 0.72502, -0.1908, -1.12481, 1.52593, 0.09162, 2.63126, 0.94637, 3.57774, -0.30005, 1.00607, -2.23501, 2.50031, 2.13291, -1.026};
	nets[34].SetWeightsL1(weightsL1_34);
	nets[34].SetBiasesL1(biasesL1_34);
	
	Double_t weightsL2_34[1][15] = {{-0.97576, 0.65405, 0.59738, -0.94453, 1.33223, -2.36389, 2.01269, 0.7565, -2.19349, 0.98461, 1.53039, 1.35689, -0.95254, 1.79059, -0.92892}};
	Double_t biasesL2_34[1] = {-2.26499};
	nets[34].SetWeightsL2(weightsL2_34);
	nets[34].SetBiasesL2(biasesL2_34);
	
	Double_t weightsL1_35[15][10] = {{0.24871, 0.32104, -0.131, -0.44869, -0.56393, -0.17591, 0.12131, -0.14306, -0.65098, -0.36572}, {-0.28601, 0.26992, 0.11205, -0.57243, -0.1483, 0.5743, -0.55791, -0.08135, -0.21538, 0.05044}, {-0.0538, 0.39932, 0.23639, -0.3516, -0.20082, -0.09565, -0.10131, 0.89995, 0.21235, 0.13049}, {0.174, -1.21295, 0.11574, -0.00964, -0.22047, -0.01558, 0.017, 0.03313, 0.00596, 0.32351}, {-0.33581, 0.09917, 0.16704, 0.22709, -0.77546, 0.04257, 0.30201, 0.40631, -0.09942, 0.31362}, {-0.0016, 0.01947, 0.00581, 0.35182, 2.20875, -0.01116, 0.06759, -0.13046, -0.01331, 0.10111}, {-0.10632, -0.10971, 0.03537, -0.13764, 0.42813, -0.887, -0.24933, -0.12207, -0.35727, 0.76095}, {0.36041, -0.29079, -0.21237, -0.37255, 0.41362, -0.35869, -0.05666, -0.4326, 0.11144, 0.09773}, {-0.12989, 0.25465, -0.157, 0.23184, 0.52985, -0.15568, -0.58457, -0.06159, -0.55522, 0.55501}, {-0.15373, 0.19168, -0.07099, 0.18051, -0.40702, -1.12807, 0.15441, -0.07278, 0.18351, 0.02322}, {0.07838, 0.0418, -0.0422, 0.10966, 1.00878, 0.02811, 0.10998, 0.31167, 0.02107, -0.11687}, {-0.16645, -0.22604, 0.18251, -1.07261, 0.44118, -0.20031, 0.67272, -0.45139, 0.20102, 1.04938}, {0.2963, -0.12449, 0.40794, 0.62738, -0.14579, -0.36658, 0.18288, 0.01952, 0.01119, -0.25681}, {0.02134, -0.05595, 0.31582, 0.26278, -0.12295, 1.12707, 0.20189, -0.24168, -0.1817, 0.38775}, {0.14658, 0.1485, 0.44374, 0.20645, -0.15123, -0.19843, 0.64021, -0.34504, -0.07878, 1.0431}};
	Double_t biasesL1_35[15] = {1.22562, 1.02976, 0.65469, -0.57149, 1.36477, 0.09476, 2.33847, 0.28042, 2.65121, -0.25959, 0.64762, -2.08191, 1.2473, 1.69089, -0.18337};
	nets[35].SetWeightsL1(weightsL1_35);
	nets[35].SetBiasesL1(biasesL1_35);
	
	Double_t weightsL2_35[1][15] = {{-1.22663, 0.05299, 1.58168, -1.79372, 1.57134, -2.49067, 1.71609, 1.94173, -3.06225, 1.69487, 2.7099, 0.7, -1.195, 2.8758, -1.18945}};
	Double_t biasesL2_35[1] = {-3.03488};
	nets[35].SetWeightsL2(weightsL2_35);
	nets[35].SetBiasesL2(biasesL2_35);
	
	Double_t weightsL1_36[15][10] = {{0.31602, 0.58092, -0.46232, -0.14275, -0.88594, -0.19574, 0.38821, -0.4382, -0.84501, -0.46872}, {0.0409, 0.30176, 0.54709, 0.23004, 0.63885, 0.19912, 0.23369, -0.52736, -1.16743, 0.42427}, {-1.07208, 0.74804, 0.1095, -0.69223, -1.088, 0.89053, -0.0542, 0.24497, -0.63707, -0.2567}, {-0.02603, -1.49512, 0.17728, 0.25582, -0.34275, -0.03882, 0.10207, -0.1166, -0.09812, 0.3069}, {-0.24416, 0.14279, -0.02034, -0.07599, -0.26394, -0.05427, -0.08329, 0.90202, -0.0129, 0.14031}, {0.00666, -0.02647, -0.0277, 0.46663, 2.66763, 0.21607, 0.00465, -0.11039, 0.04031, 0.24703}, {0.28544, -0.49147, -0.16985, -0.0997, 0.40252, -1.16149, 0.02359, -0.03468, -0.33997, 0.91377}, {0.47818, -0.39305, -0.32343, -0.09423, 0.3926, -0.54251, -0.02155, -0.63737, 0.24266, 0.17823}, {-0.05143, 0.28298, -0.30351, -0.00888, 0.71858, 0.03884, -0.50479, -0.03806, -0.39144, 0.87256}, {-0.22097, 0.1125, -0.16497, 0.05197, -0.46151, -1.0204, 0.11023, 0.20068, 0.54937, 0.11061}, {0.34966, 0.04576, -0.10654, -0.21032, 1.79124, -0.07589, -0.07252, 0.50833, 0.28768, -0.23759}, {-0.04517, -0.18886, -0.24284, -1.25399, 0.49873, -0.25517, 0.4326, -0.16555, 0.3654, 0.64542}, {0.62086, -0.22222, 1.01406, 0.18302, -0.17698, -0.80892, 0.24959, -0.40343, 0.23741, -0.15149}, {0.03104, 0.01514, 0.26681, 0.27583, -0.21039, 1.07081, 0.30679, -0.12234, -0.06662, 0.41322}, {0.26035, 0.0576, 0.3765, -0.34548, -0.10541, -0.44887, 0.42551, 0.15111, 0.16627, 0.8549}};
	Double_t biasesL1_36[15] = {1.24453, 1.27508, -1.38938, -0.67672, 0.70763, 0.03319, 3.11969, 0.63294, 2.61923, 0.04042, 1.07286, -2.1295, 3.17424, 1.92397, -0.78227};
	nets[36].SetWeightsL1(weightsL1_36);
	nets[36].SetBiasesL1(biasesL1_36);
	
	Double_t weightsL2_36[1][15] = {{-0.65637, 0.49395, 0.65203, -1.48053, 1.75055, -2.03966, 1.07505, 1.42786, -0.9915, 1.42095, 1.58733, 1.39256, -1.55567, 2.68706, -1.06079}};
	Double_t biasesL2_36[1] = {-2.90455};
	nets[36].SetWeightsL2(weightsL2_36);
	nets[36].SetBiasesL2(biasesL2_36);
	
	Double_t weightsL1_37[15][10] = {{0.28741, 0.3999, -0.21518, -0.36401, -0.793, -0.45442, 0.37583, -0.22761, -0.64534, -0.52629}, {0.33311, 0.2175, 0.10009, -0.19003, -0.32717, -0.52501, -0.76544, 0.02516, 0.3145, 0.07007}, {0.38235, 1.13456, -0.08624, -1.16599, 0.26994, -0.18145, -0.0037, 0.6296, 0.22111, -0.27164}, {0.15282, -1.63753, 0.00444, -0.27823, 0.02757, -0.25373, 0.04154, -0.13065, -0.13391, 0.29633}, {-0.5122, 0.25332, -0.15422, 0.24913, -0.74874, 0.14788, -0.01645, 1.59802, 0.13819, 0.37758}, {0.05929, -0.02748, 0.13322, 0.37322, 2.77155, 0.09629, 0.01997, -0.02243, 0.06021, 0.25663}, {0.00373, 0.1345, 0.21204, -0.25485, 0.25623, -0.71196, 0.11577, -0.19832, -0.40594, 1.08336}, {0.33955, -0.24067, -0.04277, -0.38705, 0.34821, -1.04815, 0.0605, -0.64948, 0.34317, -0.06681}, {-0.22426, 0.32966, -0.24471, 0.05517, 0.22951, -0.30652, -0.28169, -0.07631, -0.51673, 0.44776}, {-0.28804, 0.29136, -0.32616, 0.09779, -0.66208, -1.71054, 0.06, 0.28812, 0.75672, -0.18414}, {0.20201, -0.0024, -0.06755, -0.24773, 1.54527, -0.11017, -0.12073, 0.7966, 0.08846, -0.3982}, {-0.35545, -0.13186, -0.13629, -0.87173, 0.29123, -0.185, 0.62074, -0.57582, 0.0927, 0.46631}, {0.1934, -0.09435, 0.85517, 0.33613, -0.13949, -0.30855, 0.17136, -0.22314, 0.22319, -0.1149}, {-0.0379, -0.13569, 0.38269, 0.41539, -0.14799, 1.18126, 0.13473, -0.29824, -0.01604, 0.41014}, {0.01414, -0.1938, 0.54445, 0.30194, -0.70097, 0.38459, -0.14686, 0.41086, 0.27681, 0.38703}};
	Double_t biasesL1_37[15] = {0.86205, 2.59829, 0.36857, -0.83919, 1.56138, -0.15957, 2.56447, 0.57792, 1.61739, 0.06414, 0.71287, -1.72035, 1.57205, 2.04933, -1.02813};
	nets[37].SetWeightsL1(weightsL1_37);
	nets[37].SetBiasesL1(biasesL1_37);
	
	Double_t weightsL2_37[1][15] = {{-1.26517, 0.89718, 0.87239, -1.05925, 1.07649, -2.26109, 1.39503, 0.9034, -0.95191, 0.80396, 1.48118, 0.95707, -1.68598, 2.16652, -0.71951}};
	Double_t biasesL2_37[1] = {-3.86268};
	nets[37].SetWeightsL2(weightsL2_37);
	nets[37].SetBiasesL2(biasesL2_37);
	
	Double_t weightsL1_38[15][10] = {{-0.07261, 0.22799, -0.16034, -0.08837, -0.46284, -0.16392, 0.22743, -0.11546, -0.7095, -0.2709}, {-0.44229, 0.869, 0.02077, 0.34628, 0.34668, -0.31125, 0.10556, 0.19637, 0.36142, -0.42107}, {-0.08269, 0.37576, -0.03973, -0.27438, -0.34357, -0.03056, -0.17493, 1.29246, 0.02709, 0.45049}, {0.09971, -1.5685, 0.11468, 0.23615, -0.00715, -0.50348, 0.25178, -0.38086, -0.07881, 0.21838}, {-0.86252, 0.11732, 0.25259, 0.43276, -0.93732, -0.39608, 0.3585, 0.41817, -0.19793, 0.00201}, {0.02896, -0.00769, 0.02692, 0.35972, 2.55236, 0.11897, 0.05483, -0.01733, -0.00653, 0.15938}, {-0.02165, 0.3409, 0.43509, -0.31354, 0.171, -0.40186, 0.71041, -0.39211, -0.129, 1.10621}, {-0.04914, 0.1013, -0.18145, -0.14404, -0.34196, -1.20185, 0.33961, 0.0943, 0.34227, -0.28004}, {-0.25997, 0.30174, -0.16998, 0.71206, 0.88583, 0.62783, -0.92861, 0.16728, -0.57385, 1.17041}, {0.61252, -0.29339, 0.15712, -0.12628, -0.61602, 0.54223, 0.69266, 0.86959, 0.64386, 0.21799}, {0.07882, 0.01224, -0.23173, -0.0059, 1.15233, 0.07042, 0.07286, 0.40736, 0.08544, -0.29379}, {-0.24493, 0.05818, -0.3145, -1.30968, 0.47322, -0.19593, 0.1591, -0.08658, 0.08489, 0.41741}, {-0.13624, -0.41296, 0.74169, 0.30036, -0.13407, -0.43703, 0.92455, -0.30425, 0.47582, -0.15239}, {0.01668, 0.01202, 0.32471, 0.16059, -0.04247, 1.30732, 0.20508, -0.20247, 0.00558, 0.05168}, {-0.39376, 0.45567, 0.20111, -0.27773, 0.0197, 0.91217, -0.05769, 0.80347, -0.09263, -0.34373}};
	Double_t biasesL1_38[15] = {0.82162, 1.34367, 0.51547, -0.72675, 1.85742, -0.00563, 3.22286, 0.05222, 3.95634, -0.34942, 0.65521, -2.00971, 2.36718, 1.77076, -0.50124};
	nets[38].SetWeightsL1(weightsL1_38);
	nets[38].SetBiasesL1(biasesL1_38);
	
	Double_t weightsL2_38[1][15] = {{-1.57437, 0.47009, 1.162, -1.21331, 1.14789, -2.19709, 2.4388, 1.2307, -1.6725, -0.52304, 2.09028, 1.61846, -1.05921, 1.99896, -0.9453}};
	Double_t biasesL2_38[1] = {-2.93612};
	nets[38].SetWeightsL2(weightsL2_38);
	nets[38].SetBiasesL2(biasesL2_38);
	
	Double_t weightsL1_39[15][10] = {{0.44422, 0.39009, -0.29499, -0.28491, -0.96069, -0.53408, 0.71088, -0.00539, -0.76076, -0.48319}, {-0.03722, 0.46659, 0.34167, 0.85059, -1.07519, 0.31741, -0.25892, 0.24408, 0.14203, 0.8194}, {0.51875, 0.82387, -0.07938, -1.20671, -0.0279, 0.32251, 0.00053, 1.7556, 0.01299, -0.10784}, {0.10371, -1.07481, 0.09004, 0.18287, -0.15876, -0.12033, 0.04433, -0.03877, -0.07609, 0.22774}, {-0.45681, -0.04714, 0.1193, 0.40386, -0.73707, -0.146, 0.13425, 0.94325, 0.14929, 0.11324}, {0.08892, 0.139, -0.04681, 0.41926, 3.14536, 0.15768, 0.12079, -0.2297, 0.01908, 0.14759}, {0.19215, 0.18258, 0.37502, -0.25274, 0.11176, -0.7947, 0.38027, -0.11524, -0.10736, 1.24799}, {-0.27598, 0.12937, -0.15751, -0.29582, -0.57216, -1.34379, 0.64612, -0.08982, 0.35877, -0.2462}, {-0.11557, 0.98109, -0.51928, 0.08392, 0.62949, -0.01187, -0.33552, -0.55509, -0.642, 0.2592}, {0.17672, 0.01955, -0.03396, -0.84817, 0.24315, -0.23043, 0.2535, 0.16847, -0.83526, -0.8659}, {0.17883, 0.17177, -0.18105, -0.06778, 1.90533, -0.01811, -0.10343, 0.73019, 0.18369, -0.27679}, {-0.43612, -0.04746, -0.81124, -1.17247, 0.63, -0.0049, 0.15386, -0.17354, -0.02896, 0.28767}, {-0.12846, -0.34308, 0.42258, -0.37427, 0.35282, -0.67975, 0.59222, -0.02724, 0.48933, -0.30302}, {0.16982, -0.07596, 0.24665, 0.36736, -0.2274, 1.39816, 0.47826, -0.51281, -0.19018, 0.39889}, {0.00266, 0.23342, 0.10707, -0.05179, -0.00154, 0.78444, 0.07488, 0.27091, -0.35927, -0.10318}};
	Double_t biasesL1_39[15] = {1.06179, -1.59548, 0.76452, -0.54896, 1.53525, -0.02755, 2.70036, 0.24756, 3.80436, 1.53318, 0.92412, -2.38885, 1.91803, 2.42185, -0.3349};
	nets[39].SetWeightsL1(weightsL1_39);
	nets[39].SetBiasesL1(biasesL1_39);
	
	Double_t weightsL2_39[1][15] = {{-0.67196, -1.1738, 0.93725, -1.9915, 1.45162, -1.86005, 0.92059, 0.60586, -1.26053, -0.58536, 1.20997, 1.59329, -1.15356, 1.89871, -1.71546}};
	Double_t biasesL2_39[1] = {-2.62346};
	nets[39].SetWeightsL2(weightsL2_39);
	nets[39].SetBiasesL2(biasesL2_39);
	
	Double_t weightsL1_40[15][10] = {{0.24968, 0.35486, -0.26366, -0.09376, -0.73825, -0.23999, 0.46106, -0.09149, -0.75026, -0.3979}, {0.3894, 0.3024, 0.48203, -0.26592, -0.78177, 0.34262, -0.25143, 0.525, -0.19922, 0.89051}, {0.04454, 0.40993, -0.11302, -0.26866, -0.16223, 0.10108, -0.05629, 0.89282, 0.05294, 0.07153}, {0.08834, -1.49726, 0.14182, 0.3853, -0.40389, -0.11013, 0.18369, -0.07201, -0.03875, 0.27364}, {-0.93598, 0.33522, 0.64622, 0.35093, -1.18489, -0.58977, 0.27109, 0.56623, 0.09256, -0.25527}, {0.08171, 0.03465, 0.06462, 0.2973, 2.27109, 0.03623, 0.04411, -0.15118, -0.04381, 0.15993}, {0.11851, 0.01138, 0.10804, -0.01538, 0.44083, -0.81035, 0.0464, -0.23279, -0.1509, 0.83809}, {-0.04486, -0.06659, -0.21332, 0.09527, -0.58803, -1.76464, 0.42767, 0.16678, 0.41582, -0.11533}, {-0.13406, 0.49957, -0.45821, 0.2558, 1.17865, -0.5663, -0.45773, -0.21547, -0.37894, 0.6329}, {-0.02383, -0.80683, 0.78449, 0.39712, -0.02125, -0.39779, -0.20421, -0.06193, 0.0141, 0.10124}, {0.19378, 0.00317, -0.18628, -0.11218, 1.8424, 0.00721, 0.12008, 0.4962, 0.11152, -0.32454}, {-0.23298, 0.05877, -0.68845, -1.77495, 0.81819, 0.19897, 0.40897, -0.34882, 0.30264, 0.53305}, {-0.16443, -0.49739, 0.59949, 0.74645, -0.03596, -0.42732, 0.74614, -0.3488, 0.49841, -0.30028}, {-0.00851, -0.02375, 0.3614, 0.28295, -0.06036, 1.07551, 0.26633, -0.1988, -0.09699, 0.37081}, {-0.255, 0.54172, 0.05652, -0.14958, -0.19581, 1.22128, -0.00548, 0.83264, -0.33018, -0.35586}};
	Double_t biasesL1_40[15] = {1.05267, -1.77662, 0.58277, -0.69237, 2.12509, 0.10368, 2.61387, 0.15657, 3.34372, 3.51149, 1.16647, -2.71688, 2.32711, 1.99643, -0.32221};
	nets[40].SetWeightsL1(weightsL1_40);
	nets[40].SetBiasesL1(biasesL1_40);
	
	Double_t weightsL2_40[1][15] = {{-1.40357, -1.12535, 1.47816, -1.57271, 0.92994, -2.29456, 1.97161, 0.91695, -1.06709, -0.62596, 1.26378, 0.99345, -1.18737, 2.26476, -0.74262}};
	Double_t biasesL2_40[1] = {-3.53486};
	nets[40].SetWeightsL2(weightsL2_40);
	nets[40].SetBiasesL2(biasesL2_40);
	
	Double_t weightsL1_41[15][10] = {{0.41663, 0.27134, -0.0934, -0.45671, -0.53246, -0.26042, 0.52032, -0.04219, -0.76466, -0.33071}, {0.3784, 0.55136, 0.55852, -0.21332, -0.90641, 0.25449, -0.03177, 0.77298, -0.22241, 0.61828}, {-0.07596, 0.25909, -0.11898, -0.38054, -0.06407, 0.10394, -0.25671, 1.04162, 0.45193, -0.13679}, {0.09038, -1.53736, 0.30529, -0.13382, -0.11342, -0.05098, 0.05115, -0.1261, 0.05197, 0.29729}, {-1.34893, -0.07923, 0.98093, 0.60502, -1.24729, -0.58611, -0.01523, 0.91028, -0.245, -0.18317}, {-0.0305, 0.01188, 0.00028, 0.48301, 2.47266, 0.0194, 0.0966, -0.02195, -0.03451, 0.20368}, {0.10709, -0.01418, -0.26142, -0.8347, 0.62869, -1.15252, -0.30052, -0.03049, -0.29173, 0.94645}, {-0.0802, 0.18194, -0.34364, -0.08306, -0.25658, -1.31165, 0.19278, 0.08266, 0.24661, -0.14308}, {0.25033, 0.33977, -0.90433, 0.31747, 0.49528, -0.14825, -0.38013, -0.50078, -0.54264, 0.49362}, {0.23935, 0.12576, 0.3483, -0.03625, -0.25062, -0.43634, 1.05989, -0.15517, -0.43104, 1.08668}, {0.2458, 0.16958, -0.14387, -0.30823, 1.73254, 0.05782, 0.05349, 0.69256, -0.04076, -0.25249}, {0.06927, 0.05459, -0.49137, -0.91053, 0.36129, 0.07609, 0.47533, -0.3411, 0.27931, 0.58956}, {-0.2136, -0.43487, 0.87581, 0.38143, -0.1031, -0.50361, 0.92874, -0.47346, 0.59037, -0.30894}, {-0.0066, -0.03159, 0.28606, 0.15328, -0.17708, 1.05755, 0.37328, -0.29747, -0.18097, 0.23126}, {-0.58369, 0.65261, 0.07649, 0.15294, -0.24684, 1.27419, 0.35978, 0.95236, -0.84388, -0.2988}};
	Double_t biasesL1_41[15] = {1.15625, -2.31154, 0.42383, -0.75086, 2.6937, -0.06713, 3.69567, 0.00459, 3.12432, 1.64529, 0.84789, -2.18709, 2.9195, 1.68141, -0.60313};
	nets[41].SetWeightsL1(weightsL1_41);
	nets[41].SetBiasesL1(biasesL1_41);
	
	Double_t weightsL2_41[1][15] = {{-1.2188, -1.07972, 1.3138, -1.3907, 0.94926, -2.10023, 1.11801, 1.20413, -0.82999, 0.55702, 1.44656, 1.52703, -1.17284, 2.09141, -0.67556}};
	Double_t biasesL2_41[1] = {-3.12675};
	nets[41].SetWeightsL2(weightsL2_41);
	nets[41].SetBiasesL2(biasesL2_41);
	
	Double_t weightsL1_42[15][10] = {{0.13786, 0.29778, 0.02195, -0.19351, -0.85362, -0.44303, 0.42678, -0.15181, -0.63201, -0.33578}, {-0.16968, 0.09945, 0.34136, -0.18083, -0.61567, 0.45008, -0.4047, 0.45576, -0.07689, 0.39253}, {0.03778, 0.62816, -0.02159, -0.75286, -0.04396, -0.07977, 0.02742, 0.96355, 0.12304, -0.01771}, {0.15135, -1.44532, 0.12433, -0.1549, -0.06863, -0.09966, 0.0158, 0.02302, 0.14745, 0.37529}, {-0.67079, 0.23287, 0.54329, 0.70901, -1.22162, 0.1094, 0.35725, 0.95202, 0.23885, 0.22033}, {0.06255, -0.03707, 0.11482, 0.32035, 2.75137, 0.07009, 0.03892, -0.06641, 0.01949, 0.17065}, {0.27678, -0.37021, -0.30214, -0.39264, 0.2004, -1.23236, -0.80682, 0.16754, -0.21392, 1.22128}, {-0.06227, 0.09288, -0.33646, 0.00099, -0.57033, -1.51239, -0.05116, 0.00798, 0.37429, 0.08934}, {0.38445, -0.04011, -0.43103, 0.149, 0.24582, 0.19538, -0.38284, -0.58561, -0.32182, 0.56018}, {0.38076, 0.10447, 0.7786, -0.20126, -0.03126, -0.03219, 1.11191, -0.81665, -0.1357, 1.06121}, {0.055, -0.01806, -0.09843, -0.06057, 1.23668, 0.08623, -0.05987, 0.49018, 0.14213, -0.26711}, {-0.31773, -0.0029, -0.20625, -1.33355, 0.41678, -0.04604, 0.24378, -0.54833, 0.18728, 0.63974}, {0.10957, -0.40729, 0.95405, 0.26389, 0.03575, -0.63261, 0.83884, -0.69517, 0.51587, 0.18984}, {0.00714, -0.07376, 0.0486, 0.50632, -0.1407, 1.42025, -0.07281, -0.19808, -0.12031, 0.32724}, {-0.28056, 0.52407, 0.17997, 0.11669, -0.18399, 0.72263, -0.10271, 0.58121, -0.27257, -0.08173}};
	Double_t biasesL1_42[15] = {1.0521, -2.06664, 0.48074, -0.73597, 2.17201, -0.08166, 3.49804, -0.00703, 2.33755, 2.63049, 0.64662, -2.02479, 2.48301, 1.99578, -0.37749};
	nets[42].SetWeightsL1(weightsL1_42);
	nets[42].SetBiasesL1(biasesL1_42);
	
	Double_t weightsL2_42[1][15] = {{-1.50933, -0.76976, 1.24281, -1.42281, 1.18621, -2.20519, 1.21534, 1.09882, -1.74091, 1.24706, 1.81196, 1.25447, -0.91512, 1.58021, -0.94437}};
	Double_t biasesL2_42[1] = {-3.37651};
	nets[42].SetWeightsL2(weightsL2_42);
	nets[42].SetBiasesL2(biasesL2_42);
	
	Double_t weightsL1_43[15][10] = {{0.23235, 0.35776, -0.03231, -0.52411, -0.60024, -0.42564, 0.50131, -0.21513, -0.59606, -0.37968}, {0.17898, 0.60863, 0.09716, -0.19967, -1.54186, 1.44817, -1.01967, 0.81363, 0.27099, 0.56207}, {0.23336, 1.06333, -0.07993, -0.94419, 0.24007, -0.12846, -0.09401, 0.60339, 0.20115, -0.20857}, {0.60254, -2.07241, 0.27567, -0.52394, -0.06163, -0.16648, 0.0856, -0.23153, -0.10331, 0.54096}, {-0.8657, 0.11615, 0.49373, 0.68011, -1.36837, -0.28362, 0.46547, 1.13728, 0.15518, 0.3168}, {0.07068, -0.0328, 0.08568, 0.3327, 3.03036, 0.09238, 0.05773, 0.05756, 0.10215, 0.23955}, {0.15193, -0.48424, -0.01116, -0.30432, 0.03857, -1.04508, -0.3691, -0.08443, -0.54521, 1.0058}, {-0.12256, 0.08957, -0.2975, 0.15703, -0.92671, -2.11789, 0.32479, 0.20356, 0.69353, -0.14681}, {0.62825, -0.78294, 0.27572, 0.14048, -0.19064, -0.64345, -0.06828, -0.71211, -0.73418, 1.53652}, {0.17766, -0.00767, 0.51971, -0.32456, -0.06967, -0.10798, 0.77525, -0.5264, -0.32845, 1.12578}, {0.19404, 0.04692, -0.14552, -0.33831, 1.76236, 4e-05, -0.07185, 0.78648, 0.15788, -0.35259}, {-0.37779, 0.20084, -0.61095, -1.69655, 1.00011, -0.09577, 0.13261, -0.34718, 0.06199, 0.30686}, {-0.43318, -0.8268, 1.16424, 0.32743, 0.0943, -1.11071, 1.08734, -0.76141, 0.53009, -0.20016}, {0.17143, -0.10553, 0.37054, 0.22884, -0.01544, 1.77862, 0.11922, -0.28842, -0.04227, 0.32467}, {-0.20043, 0.42953, 0.17692, -0.13239, 0.15616, 1.05376, -0.16692, 0.69154, -0.26281, -0.05431}};
	Double_t biasesL1_43[15] = {0.96922, -4.0831, 0.58083, -1.07905, 1.90174, -0.07908, 3.25993, -0.49845, 3.46581, 2.6504, 0.6367, -2.23181, 3.13985, 2.50541, -0.59083};
	nets[43].SetWeightsL1(weightsL1_43);
	nets[43].SetBiasesL1(biasesL1_43);
	
	Double_t weightsL2_43[1][15] = {{-1.33715, -0.76119, 1.22972, -0.90279, 1.1215, -2.12803, 1.2451, 0.69813, -0.94436, 1.46949, 1.41365, 1.49486, -0.93767, 1.53452, -0.97293}};
	Double_t biasesL2_43[1] = {-3.7568};
	nets[43].SetWeightsL2(weightsL2_43);
	nets[43].SetBiasesL2(biasesL2_43);
	
	Double_t weightsL1_44[15][10] = {{0.55121, 0.49194, -0.04529, -1.05309, -0.59744, -0.47661, 0.48322, -0.31917, -0.65438, -0.63527}, {-0.05819, 0.27415, 0.19743, 0.25725, -1.06222, 0.52796, 0.1084, 0.85151, -0.34399, 0.67953}, {0.17834, 0.54958, 0.05545, -0.66635, 0.02214, -0.27755, -0.14563, 0.83947, 0.03691, -0.00184}, {0.11711, -1.35941, 0.1221, 0.08298, -0.10926, -0.12529, -0.09879, -0.06228, -0.11227, 0.23018}, {-0.83411, -0.13993, 0.17426, 0.53024, -0.80113, -0.02305, -0.22189, 1.0732, 0.73409, -0.16162}, {0.09463, -0.02226, 0.15618, 0.49807, 2.69302, 0.0229, -0.00822, -0.10861, 0.02725, 0.34909}, {-0.00574, -0.39861, -0.29999, -0.32927, 0.2517, -1.01735, -0.63711, 0.72708, -0.22982, -0.16068}, {-0.24097, 0.11909, 0.07209, 0.08213, -0.35233, -1.34137, -0.0863, 0.17183, 0.57905, -0.2056}, {-0.11863, -0.13617, -0.19602, 0.32661, 0.10514, -0.81938, -0.12725, -0.423, 0.24856, -0.42683}, {-0.05798, 0.03571, 0.41788, 0.23108, -0.18066, -0.16985, 0.83174, -0.2907, -0.32651, 1.19247}, {0.13364, 0.01436, -0.12516, -0.25817, 1.67162, 0.07526, -0.16899, 0.53463, 0.14302, -0.31763}, {-0.10598, 0.16248, -0.46759, -0.75283, 0.48762, -0.00206, 0.06687, -0.21172, -0.00989, 0.4158}, {-0.06174, -0.57487, 0.90718, -0.34168, 0.21214, -0.583, 0.72838, -0.34657, 0.70389, -0.00214}, {0.14877, -0.04964, 0.25186, 0.15741, -0.08032, 1.47954, 0.19145, -0.16119, -0.09486, 0.28466}, {-0.12357, 0.40805, 0.22444, 0.06707, 0.03532, 0.99601, -0.23931, 0.64452, -0.31098, -0.00362}};
	Double_t biasesL1_44[15] = {1.26532, -2.21404, 0.31752, -0.79461, 1.30086, 0.02999, 1.44173, -0.24423, 1.39888, 2.80692, 1.01837, -1.74357, 2.45583, 2.02436, -0.66432};
	nets[44].SetWeightsL1(weightsL1_44);
	nets[44].SetBiasesL1(biasesL1_44);
	
	Double_t weightsL2_44[1][15] = {{-0.70623, -1.22384, 1.14353, -1.31742, 0.8423, -1.80589, 0.47844, 0.87135, -0.8907, 1.7682, 1.3561, 2.32418, -1.01424, 1.97555, -1.26408}};
	Double_t biasesL2_44[1] = {-3.54039};
	nets[44].SetWeightsL2(weightsL2_44);
	nets[44].SetBiasesL2(biasesL2_44);
	
	Double_t weightsL1_45[15][10] = {{0.27326, 0.07692, 0.57489, -0.30713, -0.48737, 0.01843, 0.35142, 0.15685, -0.12948, -0.62033}, {0.02687, -1.14824, 0.61488, -0.11693, -0.18856, 0.01268, -0.11844, -0.52119, -0.15162, 0.65511}, {0.22028, 0.3757, -0.09964, -0.92917, 0.11396, 0.0697, -0.45895, 0.9916, 0.34084, 0.0091}, {0.16487, -1.49833, -0.04803, 0.31608, -0.28405, -0.25079, 0.07177, -0.02478, -0.16691, 0.11594}, {-0.84212, 0.00214, 0.74629, 0.7992, -1.34876, -0.06113, 0.3981, 0.69734, 0.24666, 0.02574}, {0.02955, 0.04664, -0.02329, 0.30085, 2.68254, 0.12751, 0.08885, 0.01423, 0.0055, 0.06102}, {-0.98826, 0.65286, -1.15981, 0.71752, 0.68183, -0.13086, -0.38025, -1.02987, -1.14244, -0.7604}, {-0.07143, -0.18535, -0.03867, -0.11479, -0.11506, -1.44858, 0.21607, -0.06048, -0.13523, -0.38982}, {-0.4508, 0.2205, 0.17395, -0.39749, -0.3779, -0.02354, 0.49455, 0.24395, 0.04279, -0.26587}, {0.43603, 0.08271, 0.28415, -0.30414, -0.03153, 0.15392, 0.69681, -0.08692, -0.2788, 0.78155}, {-0.01019, -0.03066, -0.09205, 0.07583, 1.19851, 0.00962, -0.04602, 0.6647, 0.05247, -0.23426}, {0.0536, -0.03326, -0.23842, -0.88769, 0.26313, -0.02976, 0.33818, -0.13841, 0.05404, 0.57633}, {-0.0465, -0.46285, 0.92189, 0.28783, -0.22052, -0.37203, 0.32069, 0.05433, 0.45925, 0.0954}, {0.10043, -0.1602, 0.33156, 0.24726, -0.03678, 1.32236, 0.28947, -0.45863, -0.1122, 0.01628}, {0.0887, 0.22976, 0.08353, -0.10874, 0.02391, 0.95319, 0.01354, 0.35268, -0.83857, -0.14492}};
	Double_t biasesL1_45[15] = {1.66139, -1.16485, 0.52945, -0.78128, 1.91386, -0.06725, -0.10856, 0.02649, 0.40582, 2.09869, 0.53664, -1.77756, 2.12139, 1.8055, -0.64473};
	nets[45].SetWeightsL1(weightsL1_45);
	nets[45].SetBiasesL1(biasesL1_45);
	
	Double_t weightsL2_45[1][15] = {{-1.31555, -0.62952, 1.30771, -1.08766, 1.35529, -2.13548, 0.33708, 0.86539, -0.112, 1.2971, 1.81675, 1.4425, -1.33037, 1.59427, -1.52178}};
	Double_t biasesL2_45[1] = {-2.84203};
	nets[45].SetWeightsL2(weightsL2_45);
	nets[45].SetBiasesL2(biasesL2_45);
	
	Double_t weightsL1_46[15][10] = {{0.57112, 0.05079, -0.04321, -0.49572, -0.71772, -0.25574, 0.60208, 0.00187, -0.33237, -0.53562}, {0.4817, -1.14274, 0.20294, 0.91527, -0.46559, -0.53947, -0.06623, -0.23639, 0.35235, 1.21527}, {0.02405, 0.62774, 0.04408, -0.57554, -0.17877, -0.01266, -0.12549, 1.36207, 0.13173, 0.03632}, {0.01455, -1.42255, 0.16071, 0.23578, -0.15165, -0.23509, 0.09348, -0.1635, -0.32155, 0.1654}, {-1.06734, -0.09898, 0.77796, 0.91297, -1.67301, 0.08336, 0.59974, 1.10948, 0.21293, 0.15953}, {0.01666, 0.05074, -0.00934, 0.53783, 2.78028, 0.08777, 0.13774, -0.16718, -0.00974, 0.19902}, {-0.39944, -0.60762, 0.16893, 0.96951, 1.12452, -0.62239, -1.08983, 1.20005, 0.00524, -1.45684}, {-0.3144, -0.40799, -0.82057, -0.41141, 0.57382, -0.50355, 0.60911, -0.64685, -0.49532, -0.71439}, {-1.0567, -0.23411, 0.02923, -0.66905, 0.50131, 1.12713, 0.36703, -0.66575, 0.52385, -0.27227}, {0.21645, -0.0383, 0.64982, -0.06145, -0.00533, -0.59392, 0.27164, -0.14904, -0.2055, 0.96287}, {0.12913, 0.06295, -0.21341, 0.0296, 1.36301, -0.025, 0.11236, 0.52958, 0.17392, -0.34426}, {-0.25777, -0.07843, -0.33382, -1.00256, 0.56196, -0.06263, 0.05389, -0.37547, -0.01688, 0.43089}, {-0.0313, -0.33756, 1.59503, -0.29517, 0.08009, -0.70838, 0.43685, -0.05024, 0.29578, -0.27388}, {0.27456, -0.12478, 0.52074, 0.07868, 0.10459, 1.18896, 0.26637, -0.36109, -0.21885, 0.35446}, {-0.02327, 0.09858, 0.20455, 0.24925, -0.14742, 1.14248, -0.05764, 0.22097, -0.34584, 0.11838}};
	Double_t biasesL1_46[15] = {0.92385, -1.91432, 0.37198, -0.78346, 2.82124, 0.0599, 1.12993, 2.09131, 0.34686, 2.40747, 0.71501, -1.78224, 2.16516, 2.32794, -0.35082};
	nets[46].SetWeightsL1(weightsL1_46);
	nets[46].SetBiasesL1(biasesL1_46);
	
	Double_t weightsL2_46[1][15] = {{-0.70761, 0.06352, 1.0472, -1.52651, 1.21979, -2.17366, 0.14909, 0.41389, 0.16358, 1.73977, 1.51794, 1.26943, -1.10464, 2.30803, -1.80201}};
	Double_t biasesL2_46[1] = {-5.09962};
	nets[46].SetWeightsL2(weightsL2_46);
	nets[46].SetBiasesL2(biasesL2_46);
	
	Double_t weightsL1_47[15][10] = {{0.39004, 0.41342, -0.4958, -0.75337, -0.39148, -0.26683, 0.19421, 0.08895, -0.71257, -0.79477}, {-0.20194, -0.72692, 1.24058, 1.24404, -0.93946, -0.34877, 0.51676, -0.57757, -0.21253, -0.33337}, {0.13751, 0.60015, -0.1601, -0.42589, -0.19708, -0.06147, -0.14066, 1.03791, 0.45106, -0.02827}, {0.22012, -1.7767, 0.05228, 0.19596, -0.31935, -0.30345, -0.05, 0.00241, -0.02362, 0.33278}, {-1.00669, 0.11019, 0.69019, 0.96322, -1.51145, -0.08845, 0.30768, 1.15423, -0.04183, 0.24287}, {0.04685, -0.02958, 0.22372, 0.47582, 3.30906, -0.05391, 0.15598, -0.04039, 0.03904, 0.24525}, {0.09361, 0.12587, 0.0873, 0.21308, -0.6291, -0.12997, -0.24408, 1.84448, -1.00186, 0.08501}, {0.04768, -0.21471, -0.17758, -0.51414, 1.04295, -0.36798, 0.18906, -0.16367, 0.07698, -0.62047}, {0.02607, -1.00218, -0.99755, -0.06874, -0.03945, 0.25322, -1.05944, 0.09148, -0.69315, -0.95148}, {0.15704, 0.28731, 0.63694, -0.19446, 0.16569, -0.75774, 0.84822, -0.29772, -0.55871, 1.16566}, {0.3572, 0.22268, -0.35015, 0.02688, 2.20593, -0.03286, 0.24489, 1.25727, -0.00179, -0.33228}, {-0.39619, 0.26748, -1.05379, -1.41242, 0.85075, 0.18435, -0.06447, -0.29458, 0.1887, 0.4874}, {-0.17057, -0.37411, 0.74418, -0.03155, 0.31578, -0.57367, 0.92928, -0.27331, 0.40787, -0.19765}, {0.03021, -0.11946, 0.41504, 0.34048, 0.12433, 1.3341, 0.29241, -0.36998, -0.01481, 0.39473}, {0.07867, 0.17056, 0.21955, 0.16056, -0.03829, 1.03023, 0.01788, 0.23429, -0.40233, 0.07468}};
	Double_t biasesL1_47[15] = {1.17483, 1.56419, 0.66238, -0.92024, 2.34762, 0.00386, 1.11737, 1.21479, 1.70509, 2.59815, 0.87384, -2.54395, 2.1714, 2.35855, -0.31454};
	nets[47].SetWeightsL1(weightsL1_47);
	nets[47].SetBiasesL1(biasesL1_47);
	
	Double_t weightsL2_47[1][15] = {{-1.04523, 0.13842, 1.39924, -1.20802, 1.03169, -1.92598, 0.32434, 1.21858, 0.01985, 0.81468, 0.86038, 1.30113, -0.91924, 1.97594, -1.83352}};
	Double_t biasesL2_47[1] = {-4.00262};
	nets[47].SetWeightsL2(weightsL2_47);
	nets[47].SetBiasesL2(biasesL2_47);
	
