#include <bnn_ttbar_reco_3t.hpp>


namespace ttbar_reco_3t {

std::string const taskName("ttbar_reco_3t");
std::list<std::string> inputVarNames;
std::list<std::string> sgnFileNames;
std::list<std::string> bkgFileNames;

void Initialize()
{
    inputVarNames.push_back("DeltaRBJetTopLepWLep");
    inputVarNames.push_back("DeltaRLightJets");
    inputVarNames.push_back("log(MassTopHad)");
    inputVarNames.push_back("log(MassTopLep)");
    inputVarNames.push_back("log(MassWHad)");
    inputVarNames.push_back("MaxEtaTop");
    inputVarNames.push_back("log(MinPtBJet)");
    inputVarNames.push_back("PassBTagTopHad");
    inputVarNames.push_back("PassBTagTopLep");
    inputVarNames.push_back("RelHt");

    sgnFileNames.push_back("../tuples/ttbar-semilep_mu.root");
    sgnFileNames.push_back("../tuples/ttbar-semilep_e.root");
    bkgFileNames.push_back("../tuples/ttbar-semilep_mu.root");
    bkgFileNames.push_back("../tuples/ttbar-semilep_e.root");
}


Transform0::Transform0()
{
    mean[0] = 2.15939; sigma[0] = 0.911376;
    mean[1] = 2.10237; sigma[1] = 0.934254;
    mean[2] = 5.35631; sigma[2] = 0.424599;
    mean[3] = 5.22902; sigma[3] = 0.312468;
    mean[4] = 4.6384; sigma[4] = 0.528845;
    mean[5] = 1.64952; sigma[5] = 0.868319;
    mean[6] = 3.85293; sigma[6] = 0.45537;
    mean[7] = 0.737026; sigma[7] = 0.440248;
    mean[8] = 0.727667; sigma[8] = 0.44516;
    mean[9] = 0.463359; sigma[9] = 0.188655;
}

void Transform0::operator()(Double_t *vars) const
{
    for (unsigned iVar = 0; iVar < 10; ++iVar)
        vars[iVar] = (vars[iVar] - mean[iVar]) / sigma[iVar];
}


NN::NN()
{}


void NN::SetWeightsL1(Double_t const weights[15][10])
{
    for (unsigned n = 0; n < 15; ++n)
        for (unsigned np = 0; np < 10; ++np)
            weightsL1[n][np] = weights[n][np];
}


void NN::SetBiasesL1(Double_t const biases[15])
{
    std::copy(biases, biases + 15, biasesL1);
}


void NN::SetWeightsL2(Double_t const weights[1][15])
{
    for (unsigned n = 0; n < 1; ++n)
        for (unsigned np = 0; np < 15; ++np)
            weightsL2[n][np] = weights[n][np];
}


void NN::SetBiasesL2(Double_t const biases[1])
{
    std::copy(biases, biases + 1, biasesL2);
}


Double_t const * NN::Apply(Double_t const *vars) const
{
    std::copy(vars, vars + 10, bufferIn);
    
    for (unsigned n = 0; n < 15; ++n)
    {
        bufferOut[n] = biasesL1[n];
    
        for (unsigned np = 0; np < 10; ++np)
            bufferOut[n] += weightsL1[n][np] * bufferIn[np];
    }
    
    for (unsigned n = 0; n < 15; ++n)
        bufferIn[n] = TMath::TanH(bufferOut[n]);
    
    for (unsigned n = 0; n < 1; ++n)
    {
        bufferOut[n] = biasesL2[n];
    
        for (unsigned np = 0; np < 15; ++np)
            bufferOut[n] += weightsL2[n][np] * bufferIn[np];
    }
    
    for (unsigned n = 0; n < 1; ++n)
        bufferIn[n] = 1. / (1 + TMath::Exp(-bufferOut[n]));
    
    return bufferIn;
}


BNN::BNN(UInt_t netBegin_, UInt_t netEnd_)
{
    SetNetRange(netBegin_, netEnd_);
    
    Double_t weightsL1_0[15][10] = {{-0.08179, -0.08252, -0.85369, -1.18043, 0.45456, 0.23488, -0.18402, -0.05059, 0.20079, 1.34499}, {-0.22043, -0.43796, -1.09691, -0.21633, -2.03387, -0.10054, -0.03028, 0.66883, -0.08738, -0.13994}, {-0.11478, 0.34608, 0.94259, -0.0662, -2.694, 0.04208, -0.01284, -0.33843, -0.25915, -0.3866}, {-0.74876, -0.15587, 0.01243, 0.13937, 0.21874, -0.22594, 0.66735, 0.2388, -0.00872, -0.16073}, {0.10319, 0.131, 0.37901, -2.22355, -0.1952, -0.2188, 0.18574, 0.12526, -2.31081, -0.08938}, {-0.59004, 0.06547, 0.25634, -1.47849, 0.39237, -0.12724, -0.05671, -0.32292, -0.75504, -0.81137}, {0.03587, 0.18988, -1.94212, -0.05188, -0.3185, -0.30937, 0.23124, 0.90397, -0.19338, -0.02596}, {-0.01944, -0.11574, 0.58724, 0.00871, -1.72866, 0.21658, -0.08849, -0.18466, 0.09699, 0.27369}, {0.57855, 0.57698, 0.32151, 0.30139, -0.03024, 0.4285, -0.63178, -0.81262, 0.97771, 0.11547}, {-0.06241, -0.15278, 2.87065, 0.18103, -1.80622, -0.13318, -0.06559, -0.21575, 0.0437, -0.06718}, {-0.21239, -0.03022, -0.40612, -0.18503, 0.412, -0.35232, -0.01992, -0.28036, 0.52692, -0.68911}, {-0.85164, 1.18369, -0.4247, 0.20219, 0.60034, -0.2815, -0.2489, 0.21222, -0.69292, -0.19861}, {0.03009, 0.02941, -1.92248, 0.10684, 1.90965, -0.07382, -0.02639, 0.53993, 0.15508, -0.16097}, {0.37094, 0.36579, -1.65964, -0.26661, 0.10663, 0.32066, 0.31721, 0.92914, -0.64382, 0.60662}, {0.50706, -0.13361, -0.8766, -0.12604, -0.46705, -0.53632, -0.13595, -0.30391, 0.09044, 0.06489}};
    Double_t biasesL1_0[15] = {2.42324, 1.46108, -1.156, -1.74752, -0.48102, 1.61612, -0.63566, 0.51923, -3.97218, 1.70695, -1.19941, 1.83482, -0.01329, 0.26257, -2.27734};
    nets[0].SetWeightsL1(weightsL1_0);
    nets[0].SetBiasesL1(biasesL1_0);
    
    Double_t weightsL2_0[1][15] = {{1.11661, -0.95234, -0.89695, 1.16404, -0.77304, 0.85962, 1.17697, 2.18619, -0.93567, 2.18879, 0.96812, -0.81874, 1.3052, 1.12535, -0.95766}};
    Double_t biasesL2_0[1] = {-3.58018};
    nets[0].SetWeightsL2(weightsL2_0);
    nets[0].SetBiasesL2(biasesL2_0);
    
    Double_t weightsL1_1[15][10] = {{-0.11067, 0.09864, -0.13432, -1.29815, -0.04359, 0.15819, -0.13118, 0.05441, 0.44813, 1.23872}, {-0.31988, -0.84405, -1.01471, -0.49254, -2.26095, 0.32635, -0.11647, 0.69107, 0.0915, -0.16059}, {-0.01124, 0.07769, 1.24066, -0.30785, -2.19788, 0.11167, 0.15258, -0.11487, -0.36665, -0.20877}, {-0.93838, -0.03794, -0.04977, -0.15926, 0.08696, 0.20977, 0.9997, -0.47603, 0.14835, 0.35969}, {-0.13561, 0.50927, -0.52716, -1.48996, -0.07896, 0.05479, -0.09497, 0.18904, -1.80875, 0.16891}, {-0.8137, -0.1217, 0.11914, -2.19303, 0.20931, -0.19209, -0.47625, -0.30939, -0.97483, -0.68462}, {0.15003, 0.305, -1.89728, -0.19269, -0.12113, -0.0679, 0.13523, 0.71599, -0.2464, 0.12221}, {0.0222, -0.25379, 0.75591, 0.20919, -2.32222, 0.24116, -0.05528, -0.43865, 0.20524, 0.21147}, {-0.85639, 0.66256, 0.3728, 0.28184, -0.29502, 0.22603, -0.01254, -0.52283, 1.54283, -0.36711}, {0.00618, -0.09525, 2.45184, 0.04741, -1.49885, -0.10829, -0.01987, -0.34989, 0.05419, -0.0597}, {-1.03917, -0.72783, -0.96247, 0.28668, 0.77053, -0.239, -1.05614, 0.07731, 0.58456, -0.47658}, {-1.05854, 1.99235, 0.28773, 0.22196, -0.27957, -0.28408, -0.80707, 0.21603, -0.75069, 0.43613}, {-0.03877, 0.13307, -2.55794, 0.03499, 2.24718, -0.26557, -0.17986, 1.081, 0.1024, -0.14903}, {0.21576, 0.343, -1.18135, -0.07861, 0.15095, 0.1098, 0.59592, 0.77884, -0.86169, 0.3506}, {0.15325, -0.24632, -1.16321, -0.18596, 0.02463, -0.07252, -0.0501, -0.345, 0.26071, 0.3066}};
    Double_t biasesL1_1[15] = {2.39646, 1.77, -1.0574, -1.3399, -1.19324, 2.1164, -0.31616, 0.65376, -4.67502, 1.57132, -2.04412, 2.37519, -0.31134, -0.01833, -1.59251};
    nets[1].SetWeightsL1(weightsL1_1);
    nets[1].SetBiasesL1(biasesL1_1);
    
    Double_t weightsL2_1[1][15] = {{1.25422, -0.52442, -1.039, 0.78614, -0.97657, 0.6952, 1.33911, 1.59504, -3.25694, 2.18483, 0.75758, -0.87476, 1.05583, 0.88033, -1.27332}};
    Double_t biasesL2_1[1] = {-6.77757};
    nets[1].SetWeightsL2(weightsL2_1);
    nets[1].SetBiasesL2(biasesL2_1);
    
    Double_t weightsL1_2[15][10] = {{-0.55761, 0.11906, -0.56617, -1.11962, 0.19972, 0.21588, -0.33124, -0.02793, 0.36823, 1.27032}, {-0.14528, -0.83872, -1.34538, -0.34836, -1.93147, -0.03749, 0.25818, 0.37759, -0.30169, -0.13258}, {-0.39019, 0.30057, 1.30134, 0.20396, -2.16835, 0.06854, -0.06503, -0.12054, -0.19093, -0.22311}, {-1.26388, 0.3856, 0.11528, 0.20193, -0.22845, 0.19643, 0.61639, -0.33907, 0.23971, 0.36096}, {-0.36956, 0.05053, 0.29442, -1.70873, -0.0804, 0.22582, -0.30869, 0.09312, -1.20731, -0.14086}, {-0.35351, -0.14491, 0.11067, -1.48441, 0.11409, -0.38741, -0.17123, -0.2118, -0.2181, -0.73374}, {-0.23436, 0.23224, -1.96627, 0.2442, -0.13726, -0.0278, -0.04124, 0.92582, -0.18125, -0.03885}, {0.12838, -0.28068, 1.15441, 0.09493, -2.57575, 0.14771, -0.00138, -0.35828, 0.19713, 0.1613}, {-0.31639, 0.78092, -0.29474, 0.24759, 0.33384, 0.64354, -0.09069, -0.37817, 0.00051, 0.26198}, {0.0666, -0.07072, 2.60798, -0.01904, -1.36705, -0.09826, 0.07349, -0.43643, 0.0548, -0.01446}, {-0.36525, -0.62895, -0.69889, 0.03136, 0.75548, -0.35577, -0.4804, -0.24594, 0.32035, -0.46809}, {-1.31982, 1.27213, -0.36556, 0.63745, 0.32989, -0.33875, -0.71431, 0.1265, -1.62296, -0.09014}, {-0.13329, 0.2453, -2.13732, 0.0396, 1.75255, -0.07824, -0.21604, 1.13431, 0.25954, -0.04437}, {0.12252, 0.32507, -1.39295, -0.045, 0.09167, 0.21511, 0.9225, 0.87962, -1.16341, 0.29898}, {0.435, 0.10029, -0.64529, -0.38712, -0.49757, -0.34696, -0.04182, -0.39299, 0.2602, 0.27213}};
    Double_t biasesL1_2[15] = {2.25532, 1.823, -0.64331, -1.24332, -0.9282, 0.90459, -0.56495, 0.73951, -2.48293, 1.65297, -1.08309, 2.13443, -0.20918, 0.09097, -1.67455};
    nets[2].SetWeightsL1(weightsL1_2);
    nets[2].SetBiasesL1(biasesL1_2);
    
    Double_t weightsL2_2[1][15] = {{0.93831, -0.66333, -1.05737, 0.76584, -0.91602, 0.78683, 1.43378, 1.70838, -0.46743, 2.30702, 0.82478, -0.78758, 1.05663, 0.80561, -1.28361}};
    Double_t biasesL2_2[1] = {-3.58035};
    nets[2].SetWeightsL2(weightsL2_2);
    nets[2].SetBiasesL2(biasesL2_2);
    
    Double_t weightsL1_3[15][10] = {{0.0622, -0.01922, -0.21693, -1.09656, 0.24826, 0.01804, -0.07854, -0.01619, 0.28749, 0.88979}, {-0.06848, -0.94589, -0.81941, -0.04342, -1.8829, -0.07115, 0.08244, 0.23471, 0.06715, -0.34875}, {-0.15509, 0.26047, 1.17522, -0.1431, -2.16246, 0.15589, -0.10172, -0.08059, -0.22943, -0.01514}, {-1.10999, -0.2714, -0.16722, 0.13862, 0.58037, 0.53335, 0.63285, -0.17998, 0.26835, 0.15832}, {-0.01742, 0.1926, 0.14773, -1.40553, -0.24067, 0.1119, -0.0435, -0.08472, -1.38059, 0.03204}, {-1.30671, 0.01234, 0.36982, -2.1604, 0.63008, -0.19713, -0.61637, -0.14392, -0.96231, -1.16854}, {0.03192, -0.10053, -2.04105, -0.01628, 0.24103, -0.01435, 0.11496, 0.92912, -0.03197, 0.166}, {0.03991, -0.22886, 0.7908, 0.30055, -2.13372, 0.20647, -0.04303, -0.38092, 0.09209, 0.17415}, {-0.99826, -0.47848, 1.24938, 0.36095, 1.48021, 1.47606, -0.81142, 0.34011, 0.01753, -0.7905}, {0.01173, -0.03365, 2.12953, 0.00483, -1.20454, -0.1537, -0.03563, -0.22792, 0.03557, -0.07996}, {-0.67987, -1.02313, 0.67573, 0.56732, 0.10405, -0.82527, -1.79032, 0.56826, 0.77684, -0.0857}, {-1.04099, 1.17942, 0.07524, 0.17456, 0.30758, -0.3684, -0.66691, 0.37129, -0.56206, 0.23594}, {-0.09385, 0.26825, -1.87674, -0.04164, 1.49546, -0.07531, -0.0024, 0.46355, -0.02263, -0.06804}, {0.45657, 0.45482, -1.26903, -0.29776, -0.15338, 0.14926, 0.92259, 1.21349, -1.40476, 0.24494}, {0.91528, -0.03249, 0.13612, -0.49683, -1.69939, -1.1625, -0.13426, -0.34922, 0.07462, 0.05624}};
    Double_t biasesL1_3[15] = {1.7593, 1.32915, -0.92177, -1.14942, -0.79513, 2.34192, -0.68141, 0.61827, -4.18611, 1.24577, -2.07279, 1.77302, -0.18373, 0.12165, -2.50564};
    nets[3].SetWeightsL1(weightsL1_3);
    nets[3].SetBiasesL1(biasesL1_3);
    
    Double_t weightsL2_3[1][15] = {{1.25003, -0.53234, -0.83508, 0.75705, -0.91898, 0.6744, 1.65571, 1.73702, -0.48157, 3.19882, 0.43688, -0.83575, 1.62624, 0.73685, -0.65218}};
    Double_t biasesL2_3[1] = {-3.83169};
    nets[3].SetWeightsL2(weightsL2_3);
    nets[3].SetBiasesL2(biasesL2_3);
    
    Double_t weightsL1_4[15][10] = {{-0.04274, -0.09834, -0.52447, -1.18534, 0.40944, 0.00324, -0.22733, -0.14708, 0.24359, 0.97818}, {-0.26108, -0.23133, -0.79241, -0.1714, -1.66438, 0.26772, -0.08495, 0.40564, -0.13092, -0.00316}, {0.07349, 0.20048, 0.72536, -0.46531, -1.8018, 0.06729, 0.0626, -0.08992, -0.23236, -0.03305}, {-0.80716, 0.15348, -0.00301, -0.23801, 0.07969, 0.14595, 0.74815, -0.32609, 0.18266, 0.2362}, {-0.182, 0.0564, 0.27027, -1.07712, -0.25609, 0.2164, -0.20956, 0.07314, -0.9438, 0.1273}, {-1.10312, 0.30445, 0.52187, -1.24835, -0.11814, -0.01314, -0.54564, -0.07375, -0.82049, -0.71698}, {-0.12937, -0.08667, -2.01363, 0.21925, 0.27588, -0.02767, 0.02752, 0.99001, -0.18379, 0.08088}, {0.05294, -0.10134, 1.16818, 0.15917, -2.88629, 0.26892, -0.0256, -0.51036, 0.06561, 0.08978}, {0.56314, -0.25404, 0.45028, 0.26742, 0.56201, -0.17886, 0.23115, -0.26933, 0.01707, -0.29297}, {0.03328, -0.05211, 1.82262, -0.00245, -0.92656, -0.11652, -0.00937, -0.15979, 0.06618, -0.11162}, {-0.50067, -0.55742, -0.09352, 0.25678, 0.38258, -0.18647, -1.15135, 0.1303, 0.61688, 0.06501}, {-0.72957, 0.92776, -0.02229, 0.27338, 0.3262, -0.17886, -0.59673, 0.15908, -0.60309, 0.29838}, {0.01146, 0.46158, -2.42816, 0.1149, 1.9574, -0.11462, -0.19812, 0.83286, 0.10436, 0.04077}, {0.34295, 0.42591, -1.0943, -0.32204, -0.18515, 0.11551, 0.81638, 0.77606, -0.89173, 0.37958}, {0.30205, 0.15934, 0.20281, -0.24734, -1.18942, -0.44376, 0.05452, 0.02575, 0.41719, -0.24682}};
    Double_t biasesL1_4[15] = {1.95433, 1.13867, -0.91709, -0.87882, -0.68484, 1.40056, -0.5134, 0.91885, -0.24, 1.2647, -1.17914, 1.40353, 0.10854, 0.16479, -2.15628};
    nets[4].SetWeightsL1(weightsL1_4);
    nets[4].SetBiasesL1(biasesL1_4);
    
    Double_t weightsL2_4[1][15] = {{1.35816, -0.79601, -0.7658, 0.75112, -1.02309, 0.71836, 1.52421, 1.55528, -0.37331, 2.93217, 0.66541, -1.46679, 1.18254, 0.94651, -1.34279}};
    Double_t biasesL2_4[1] = {-4.17347};
    nets[4].SetWeightsL2(weightsL2_4);
    nets[4].SetBiasesL2(biasesL2_4);
    
    Double_t weightsL1_5[15][10] = {{-0.27821, -0.17809, -0.1525, -1.19252, 0.09397, 0.31812, -0.2743, -0.09642, 0.35044, 1.18579}, {0.10938, -1.58651, -2.71408, -0.78519, -3.17258, 0.72341, -0.17579, 0.46757, 0.08486, -0.12265}, {-0.15727, -0.00241, 0.80536, -0.00219, -1.6869, 0.09963, -0.09014, -0.12649, -0.07118, -0.1299}, {-2.0922, 0.21426, -0.40939, 0.41928, 0.34388, 0.31479, 1.04803, -0.56781, 0.23017, 0.1757}, {-0.21743, 0.29962, 0.002, -1.4376, -0.27992, -0.1172, -0.32032, 0.14294, -1.60784, -0.03712}, {-1.17346, -0.15744, 0.10349, -2.12947, 0.8799, 0.0865, -0.26059, -0.23679, -0.86201, -1.12451}, {-0.07715, 0.07401, -1.52494, 0.19842, -0.26552, -0.15531, -0.12642, 0.93698, -0.08908, 0.01779}, {0.13343, -0.34112, 0.61361, 0.00748, -1.96153, 0.23702, 0.00293, -0.41102, 0.16379, 0.08986}, {0.32441, -0.84094, 0.80388, 0.21134, 0.23174, 1.69702, -0.12773, 0.39308, 0.4184, 0.0379}, {-0.0121, -0.07527, 2.58153, 0.04656, -1.53063, -0.14187, -0.02042, -0.30081, -0.02417, -0.14556}, {-0.58551, -0.96281, 0.13801, 0.49345, 0.0014, -0.26515, -1.41111, 0.11991, 0.68812, 0.00186}, {-0.91884, 1.31442, 0.01511, 0.33452, 0.27033, -0.54795, -0.73837, 0.57094, -0.68257, -0.07108}, {0.00716, 0.11513, -1.6045, 0.00567, 1.39958, -0.06449, 0.02989, 0.54504, 0.15117, 0.02184}, {0.20914, 0.53667, -1.41834, -0.45786, -0.04786, 0.01193, 0.68966, 1.01132, -1.29905, 0.13937}, {0.91153, -0.24413, -1.29276, -0.44194, -0.36754, -0.22092, 0.21065, -0.70121, -0.04459, 0.73696}};
    Double_t biasesL1_5[15] = {2.50692, 2.22786, -1.04455, -1.66282, -1.09773, 2.2556, -0.47251, 0.63387, -1.21331, 1.61814, -1.51977, 1.92437, -0.1469, 0.29501, -2.24906};
    nets[5].SetWeightsL1(weightsL1_5);
    nets[5].SetBiasesL1(biasesL1_5);
    
    Double_t weightsL2_5[1][15] = {{1.0777, -0.60133, -1.2708, 0.67398, -0.94303, 0.676, 1.31558, 1.93618, -0.25687, 2.41542, 0.50541, -0.97336, 1.57165, 0.94101, -0.6742}};
    Double_t biasesL2_5[1] = {-3.89327};
    nets[5].SetWeightsL2(weightsL2_5);
    nets[5].SetBiasesL2(biasesL2_5);
    
    Double_t weightsL1_6[15][10] = {{-0.23319, 0.05893, -0.17048, -1.01975, 0.00288, -0.02113, -0.15123, 0.00019, 0.33997, 0.75691}, {0.08139, -0.64595, -0.99265, -0.47013, -2.4201, -0.1542, -0.0735, 0.71554, 0.06434, -0.07604}, {-0.41924, -0.08383, 1.13359, 0.08924, -2.07779, -0.16199, -0.10807, -0.3505, -0.23539, -0.63546}, {-2.29217, 0.0126, -0.0396, 0.53353, -0.16313, 0.27124, 0.62477, -0.24916, 0.51633, 0.37232}, {-0.25934, 0.41004, -0.03171, -1.61703, -0.4882, -0.12427, -0.33111, 0.2235, -1.85897, 0.02779}, {-0.89131, -0.24634, 0.01225, -1.93958, 0.72453, 0.01852, -0.63741, -0.21367, -0.83615, -1.04184}, {0.05169, 0.11688, -2.48848, -0.05484, 0.19202, -0.05847, 0.09128, 0.88426, -0.25201, 0.09275}, {0.06111, -0.10441, 0.62411, -0.00343, -1.87009, 0.24429, -0.02821, -0.15414, 0.18793, 0.23765}, {-0.47706, 0.11485, 0.11012, 0.0923, -0.46688, 1.28439, -0.20923, 0.22252, 0.27012, 0.38725}, {-0.14004, -0.14047, 2.72767, 0.10419, -1.84651, -0.11639, -0.04565, -0.20604, 0.02612, -0.08494}, {-0.44707, -0.70999, -0.79489, -0.04033, 0.76537, -0.32609, -0.64182, -0.10658, 0.38555, -0.73158}, {-0.54609, 1.32502, 0.13501, -0.05034, 0.24746, -0.23395, -0.71018, 0.2287, -0.93464, 0.40424}, {0.00647, 0.28794, -2.36512, 0.08979, 1.90591, -0.07132, 0.11624, 0.6007, 0.08196, -0.13117}, {0.22418, 0.24823, -0.95801, -0.18727, -0.0217, 0.31267, 0.42669, 0.98125, -1.13808, 0.49016}, {-0.04031, -0.24224, -1.94115, -0.09737, 0.25506, -0.13724, 0.00948, -0.01869, 0.42502, 0.16008}};
    Double_t biasesL1_6[15] = {2.13142, 1.54646, -1.03184, -1.59719, -1.4503, 1.7889, -0.35954, 0.55478, -0.5137, 1.481, -1.65262, 1.69829, -0.53642, 0.1642, -2.36867};
    nets[6].SetWeightsL1(weightsL1_6);
    nets[6].SetBiasesL1(biasesL1_6);
    
    Double_t weightsL2_6[1][15] = {{1.40897, -1.00566, -1.21744, 0.58699, -0.9509, 0.66056, 1.49372, 2.04776, -0.47649, 2.25177, 1.09101, -0.90578, 1.2077, 0.90033, -1.2375}};
    Double_t biasesL2_6[1] = {-3.62048};
    nets[6].SetWeightsL2(weightsL2_6);
    nets[6].SetBiasesL2(biasesL2_6);
    
    Double_t weightsL1_7[15][10] = {{0.02283, -0.28274, -0.50108, -1.30032, 0.43487, 0.06107, 0.19936, -0.14479, -0.08174, 0.96476}, {-0.78287, -1.15046, -1.31489, -0.10777, -1.11084, 0.01933, -0.05377, 0.72974, -0.19819, -0.5644}, {-0.43879, 0.24815, 2.08996, -0.19069, -3.75946, 0.31815, -0.14543, -0.25018, -0.33539, -0.39877}, {-1.70622, 0.46124, -0.24382, 0.24168, 0.17843, 0.33698, 0.8605, -0.77157, 0.41279, 0.33421}, {-0.30504, 0.03631, 0.20099, -1.73382, -0.11839, 0.00363, -0.2537, -0.12813, -1.8956, -0.22697}, {-1.57914, -0.10834, 0.53178, -1.64742, 0.71096, 0.07153, -0.72486, -0.08484, -1.16624, -1.34345}, {-0.22463, -0.02783, -2.5161, 0.24419, 0.23102, -0.14631, -0.13077, 1.28233, -0.0915, 0.03592}, {0.07896, -0.27352, 1.14475, -0.07683, -2.61728, 0.21389, -0.0635, -0.3931, 0.19981, 0.21097}, {-0.91561, 0.52864, -1.05658, 0.10832, -0.38014, -1.71754, 0.28889, 1.28526, 0.48307, -0.06853}, {0.02525, -0.1186, 2.35649, 0.04657, -1.26939, -0.12513, 0.04387, -0.20258, 0.01113, -0.178}, {-1.28597, -0.95457, -0.98837, 0.16803, 1.25589, -0.74007, -0.46446, -0.48088, 0.21625, -1.40434}, {-0.77955, 1.66542, -0.1469, 0.55259, 0.36058, -0.63261, -0.47047, 0.11516, -0.97764, 0.01427}, {-0.01457, 0.33376, -2.28245, 0.05726, 1.73401, -0.23882, -0.23558, 0.81583, 0.2408, -0.12155}, {0.39729, 0.03854, -1.32544, -0.38285, 0.03882, 0.08797, 0.83315, 1.14271, -1.10874, 0.11094}, {-0.15142, -0.12938, -0.11658, -0.24884, -0.6362, -1.15124, 0.0255, 0.03585, -0.10382, -0.79547}};
    Double_t biasesL1_7[15] = {2.25211, 1.16269, -1.28172, -1.69748, -0.23952, 1.94055, -0.59492, 0.8081, -0.82239, 1.50355, -1.66232, 1.84629, -0.15128, -0.00453, -1.61431};
    nets[7].SetWeightsL1(weightsL1_7);
    nets[7].SetBiasesL1(biasesL1_7);
    
    Double_t weightsL2_7[1][15] = {{1.37043, -0.65237, -0.75426, 0.62628, -0.90798, 0.66913, 1.16788, 1.61277, 0.29626, 2.45926, 0.65938, -0.65576, 1.03012, 1.01498, -0.73192}};
    Double_t biasesL2_7[1] = {-3.39452};
    nets[7].SetWeightsL2(weightsL2_7);
    nets[7].SetBiasesL2(biasesL2_7);
    
    Double_t weightsL1_8[15][10] = {{0.01023, 0.01927, -0.49283, -0.99391, 0.08984, 0.17511, -0.1572, -0.00536, 0.49542, 1.22286}, {-0.39161, -0.8594, -1.72614, -0.17042, -1.9379, -0.00196, 0.16101, 0.30164, -0.52093, -0.6332}, {-0.30418, 0.03997, 1.767, -0.07387, -3.4455, 0.56645, 0.0684, 0.06067, -0.07304, -0.14513}, {-1.6746, 0.13465, -0.19418, -0.13339, 0.49443, 0.07242, 1.6339, -0.89177, 0.60963, 0.12237}, {0.25771, 0.1664, 0.46458, -2.85974, -0.64194, -0.13392, 0.16379, -0.14715, -2.57467, 0.11673}, {-0.88667, 0.04878, 0.67704, -2.7381, 0.64556, 0.05436, -0.84076, -0.23795, -1.02674, -0.83914}, {-0.24205, 0.0131, -2.11082, 0.1044, -0.19318, -0.20082, 0.07611, 1.34858, -0.1241, 0.07559}, {0.17136, -0.35391, 0.97113, 0.09987, -2.50298, 0.09839, -0.03513, -0.47361, 0.16961, 0.16513}, {1.05108, -0.24684, -0.2946, -0.60515, -0.12342, 1.06356, 2.62064, 0.21831, -0.59763, 0.69695}, {-0.08855, -0.08685, 2.31254, 0.09815, -1.34887, -0.09944, -0.03059, -0.33104, 0.02531, -0.22051}, {-0.471, -0.88039, -0.60731, 0.33848, 1.23022, -0.39404, -0.6478, -0.59255, 0.34067, -0.5134}, {-0.76214, 2.20138, 0.06264, 0.23425, 0.07776, -0.62025, -0.5442, 0.1169, -1.29557, 0.24978}, {-0.08873, 0.31897, -2.57434, 0.08245, 2.07166, -0.17594, -0.31418, 1.27359, 0.3457, 0.08283}, {0.19183, 0.35421, -1.58684, -0.21183, 0.16205, 0.13449, 0.62899, 0.85463, -0.91176, 0.13336}, {-0.2882, 0.31551, -1.36763, -0.90146, -1.54556, -1.45324, -0.74117, -0.45239, -0.70889, -0.87583}};
    Double_t biasesL1_8[15] = {2.13696, 1.81975, -1.7683, -1.51564, -1.26674, 2.57605, -0.76716, 0.8495, -2.94419, 1.56056, -1.14144, 2.2464, -0.33251, 0.10549, -3.77348};
    nets[8].SetWeightsL1(weightsL1_8);
    nets[8].SetBiasesL1(biasesL1_8);
    
    Double_t weightsL2_8[1][15] = {{1.11765, -0.59296, -0.56551, 0.57118, -0.75859, 0.7051, 1.07551, 1.38655, 0.40657, 2.35036, 0.58507, -0.62652, 1.10993, 1.25661, -0.43931}};
    Double_t biasesL2_8[1] = {-2.99444};
    nets[8].SetWeightsL2(weightsL2_8);
    nets[8].SetBiasesL2(biasesL2_8);
    
    Double_t weightsL1_9[15][10] = {{0.00493, 0.02776, -0.26511, -1.01298, -0.30101, -0.15663, 0.00477, -0.14603, 0.00056, 0.71435}, {-0.96777, -0.89255, -1.16949, -0.35352, -1.76095, 0.07991, 0.03082, 0.63797, -0.46052, -1.05225}, {-0.13869, 0.16457, 0.79071, -0.12185, -1.55797, 0.16166, -0.07968, 0.04446, -0.2476, -0.09528}, {-1.59214, 0.48542, 0.1213, 0.7935, -0.49889, -0.58516, 0.26672, -0.14993, 0.08874, -0.15929}, {-0.06231, 0.16219, 0.41752, -2.52489, -0.54367, -0.01055, 0.21002, 0.02207, -2.36419, 0.05463}, {-0.97023, -0.01629, 0.05575, -2.08664, 0.9871, 0.02064, -0.54654, -0.31245, -0.82359, -1.10011}, {-0.10805, 0.15666, -1.87023, 0.1986, -0.10069, -0.03317, 0.0193, 0.89659, -0.20458, 0.13324}, {-0.00948, -0.29147, 1.07287, 0.04289, -2.55789, 0.19362, -0.05339, -0.40619, 0.10501, 0.19785}, {0.7415, -0.49995, 0.56778, -0.53719, -1.07429, 1.91726, 2.03832, 0.28258, -0.01818, 0.71924}, {-0.05993, -0.12043, 2.94212, 0.09172, -1.60139, -0.16104, 0.00288, -0.21731, 0.05127, -0.27346}, {-1.38918, -0.82481, -0.62136, 0.43816, 1.16981, -0.72343, -0.44711, -0.15178, 0.58513, -2.11183}, {-1.2314, 2.39017, -0.47993, 0.49023, 0.54359, -0.34791, -0.81113, 0.02583, -1.44735, 0.36958}, {-0.17808, 0.32423, -2.11898, 0.06672, 1.85836, -0.02166, -0.26416, 0.81859, 0.1475, 0.0526}, {0.37461, 0.33731, -1.50924, -0.43084, 0.11011, 0.41262, 0.90214, 0.90958, -1.14743, 0.45419}, {-1.6824, 0.94137, -0.56948, 0.77478, -0.94086, -1.44267, -0.08242, -0.58998, -0.44335, -1.02549}};
    Double_t biasesL1_9[15] = {1.62901, 1.94859, -0.74303, -1.58158, -0.8136, 2.09515, -0.60404, 0.86952, -3.01086, 1.81039, -1.92504, 2.36102, -0.10043, 0.46353, -2.25639};
    nets[9].SetWeightsL1(weightsL1_9);
    nets[9].SetBiasesL1(biasesL1_9);
    
    Double_t weightsL2_9[1][15] = {{1.30339, -0.47182, -1.38187, 0.90694, -0.74781, 0.84275, 1.52156, 1.59918, 0.49785, 2.35524, 0.41775, -0.53798, 1.1151, 0.62372, -0.62815}};
    Double_t biasesL2_9[1] = {-3.24117};
    nets[9].SetWeightsL2(weightsL2_9);
    nets[9].SetBiasesL2(biasesL2_9);
    
    Double_t weightsL1_10[15][10] = {{-0.16756, -0.16543, -0.39539, -1.09178, 0.32301, 0.01818, -0.08369, 0.01791, 0.09068, 0.8332}, {0.07028, -0.83522, -1.65814, -0.36929, -1.27901, 0.26443, 0.12331, 0.88257, -0.30156, -0.11558}, {-0.05719, 0.25524, 0.30736, -0.14813, -1.01345, -0.0413, 0.04589, 0.02471, -0.29674, -0.08881}, {-0.40675, -0.56376, 1.21297, 0.09823, -0.6352, -0.32562, 0.84274, -0.24918, -0.29908, 1.46084}, {0.13842, 0.14075, 0.3686, -2.08365, -0.29961, -0.403, 0.1203, -0.05416, -2.19293, -0.09616}, {-1.5741, -0.21953, 0.28539, -1.72174, 0.74119, -0.29905, -0.68656, -0.36602, -1.07601, -1.43114}, {-0.28319, 0.26611, -1.21341, 0.27564, -0.19156, -0.10419, -0.04949, 0.70815, -0.11779, -0.02984}, {0.20743, -0.16876, 1.18107, -0.01286, -2.64381, 0.3081, -0.06343, -0.3958, 0.06201, 0.30463}, {-0.45532, 1.20367, -0.48206, -0.36459, -0.38452, -0.24998, 1.35228, 0.03487, -0.07209, 0.25907}, {0.04209, -0.15021, 2.40836, 0.06327, -1.39557, -0.11097, 0.03068, -0.21127, -0.01544, -0.12994}, {-0.91874, -0.99133, -1.46209, 0.14761, 1.62021, -0.62038, -0.02337, -0.5793, 0.15555, -0.92936}, {-1.56797, 1.03844, -0.19159, 0.40649, 0.41557, -0.47486, -1.50491, 0.52415, -0.38769, -0.12056}, {0.03023, 0.30162, -2.53833, -0.05307, 2.31766, -0.13421, -0.01471, 1.08859, 0.29459, 0.00042}, {0.42259, -0.20862, -1.56609, -0.53677, 0.28037, 0.53038, 0.55689, 1.18269, -1.02844, 0.43877}, {-0.16876, -0.53811, -0.74957, 0.0844, 0.30468, -0.62427, 0.17514, -0.26885, -0.12001, 0.05675}};
    Double_t biasesL1_10[15] = {2.19948, 2.00713, -0.55371, -2.95692, -0.84086, 1.78784, -0.15025, 0.94635, -2.09644, 1.59652, -1.39399, 2.27077, -0.15511, 0.20816, -2.67213};
    nets[10].SetWeightsL1(weightsL1_10);
    nets[10].SetBiasesL1(biasesL1_10);
    
    Double_t weightsL2_10[1][15] = {{1.63131, -0.88884, -1.64318, 0.42849, -0.71812, 0.59444, 1.95508, 1.82223, 0.56936, 2.5666, 0.81644, -0.59034, 1.09422, 0.8763, -1.57153}};
    Double_t biasesL2_10[1] = {-4.67277};
    nets[10].SetWeightsL2(weightsL2_10);
    nets[10].SetBiasesL2(biasesL2_10);
    
    Double_t weightsL1_11[15][10] = {{0.00171, 0.0501, -0.38277, -1.19829, 0.01972, 0.03995, -0.04318, -0.18064, 0.24571, 1.19896}, {-0.13711, -1.03059, -1.05237, -0.63961, -2.01649, 0.02843, -0.13876, 0.73866, -0.70393, -0.25148}, {0.14089, 0.29789, 1.16969, -0.47839, -2.25021, 0.08582, -0.02934, 0.1248, -0.296, 0.13364}, {-0.72846, -0.41704, 0.86, 0.54298, -0.26675, 0.20029, -0.07306, 0.4705, 0.03969, 1.09298}, {0.28127, 0.30726, -0.04224, -1.9524, -0.09663, -0.16716, 0.27263, -0.21273, -2.08493, 0.10573}, {-1.1893, 0.08565, -0.14621, -2.15424, 0.7681, -0.48216, -0.60165, -0.40138, -1.06951, -1.3481}, {-0.36196, 0.04605, -1.61212, 0.18995, 0.14598, 0.06436, -0.26111, 1.34697, -0.18356, 0.07094}, {0.07595, -0.2783, 0.81419, 0.0557, -2.28348, 0.16053, 0.01706, -0.42876, 0.10125, 0.25359}, {0.7326, 0.08031, 0.36663, -1.15817, -0.14123, 0.17413, 2.24854, 0.13136, -0.22587, 0.26757}, {-0.00208, 0.02339, 2.15748, 0.00905, -1.4266, -0.02326, 0.06786, -0.36789, -0.04112, -0.13393}, {-1.36071, -0.91794, -1.78389, 0.30072, 1.85388, -0.82714, -0.38867, -0.58132, 0.78108, -1.1054}, {-1.37028, 1.88719, -0.28002, 0.37978, 0.27723, -0.50134, -0.63651, 0.17397, -0.85471, -0.02609}, {0.16583, 0.30229, -2.14877, -0.16791, 1.85066, -0.23458, -0.06362, 0.84999, 0.20857, 0.05079}, {0.19184, 0.67095, -1.88081, 0.06989, -0.1725, 0.29758, 0.92128, 1.16473, -1.38618, 0.20674}, {0.22898, 0.88497, -2.01025, 0.60634, -1.40766, -0.54756, -0.28126, 0.28547, 0.24628, -0.95465}};
    Double_t biasesL1_11[15] = {2.2184, 1.71248, -1.23375, -2.55693, -1.09412, 2.10732, -0.42224, 0.66259, -2.14176, 1.46167, -2.08924, 2.42331, -0.26223, 0.34088, -5.99665};
    nets[11].SetWeightsL1(weightsL1_11);
    nets[11].SetBiasesL1(biasesL1_11);
    
    Double_t weightsL2_11[1][15] = {{1.36609, -0.77516, -1.23112, 0.78772, -0.87148, 0.68824, 1.7705, 1.68591, 0.58898, 2.60477, 0.51515, -0.71879, 1.01699, 0.71824, -1.45716}};
    Double_t biasesL2_11[1] = {-4.2086};
    nets[11].SetWeightsL2(weightsL2_11);
    nets[11].SetBiasesL2(biasesL2_11);
    
    Double_t weightsL1_12[15][10] = {{-0.04156, -0.09181, -0.28774, -0.78753, 0.29025, 0.02852, -0.23699, -0.00838, 0.17123, 0.77181}, {-0.38818, -0.51675, -0.66551, -0.10461, -1.42496, -0.00305, -0.3642, 0.4545, -0.33171, -0.3256}, {-0.23819, 0.33312, 1.50327, -0.28929, -2.99946, 0.26261, 0.12695, -0.31106, -0.47825, -0.0841}, {-0.00869, -0.10439, 0.91051, 0.01728, -0.46736, -0.02914, 0.04729, 0.4908, -0.0769, 1.39162}, {-0.07229, 0.41284, 0.34953, -1.72997, -0.6811, -0.05051, 0.00155, 0.04073, -1.67388, -0.01345}, {-0.68235, 0.04034, 0.10572, -2.00998, 0.50049, -0.17446, -0.71914, -0.04201, -0.77496, -0.86888}, {-0.32974, -0.05823, -3.12942, 0.38069, 0.70713, -0.13058, -0.18564, 1.53444, -0.22311, -0.10901}, {0.11498, -0.19119, 0.85466, 0.1052, -2.29782, 0.15759, -0.11082, -0.32666, 0.16583, 0.27272}, {0.39706, -0.13895, -0.11226, -0.20873, -0.37732, 0.88945, 2.30698, 0.38694, -0.12612, 0.03173}, {-0.08233, -0.04823, 2.0304, 0.04518, -1.1219, -0.06373, 0.00255, -0.1775, 0.0161, -0.15668}, {-1.34271, 0.00573, -0.3402, 0.33655, 0.15736, -0.50933, 0.16346, -0.5754, 0.13061, -0.41916}, {-0.84659, 2.18961, 0.19244, 0.37267, 0.1191, -0.51588, -0.72085, 0.23332, -1.16659, 0.40684}, {-0.06554, 0.26224, -2.07621, -0.05306, 1.5305, -0.19692, -0.00536, 0.50644, 0.04597, -0.16229}, {0.41768, 0.35143, -2.15708, -0.66711, -0.02141, 0.40346, 1.17471, 1.65613, -1.74386, 0.34099}, {0.42244, -0.10428, -1.16009, -0.67258, -0.32264, -1.07608, 0.32264, -0.51457, -0.25977, -0.14743}};
    Double_t biasesL1_12[15] = {1.65762, 1.36566, -1.03861, -1.86168, -0.74336, 1.73117, -0.74968, 0.72896, -2.30928, 1.37909, -0.68614, 2.12422, -0.08173, 0.45884, -2.37664};
    nets[12].SetWeightsL1(weightsL1_12);
    nets[12].SetBiasesL1(biasesL1_12);
    
    Double_t weightsL2_12[1][15] = {{1.36034, -0.76562, -0.8609, 0.55637, -0.79609, 0.78562, 1.0725, 1.81867, 0.59511, 2.53168, 0.55042, -0.60341, 1.13607, 0.86386, -0.46966}};
    Double_t biasesL2_12[1] = {-3.39887};
    nets[12].SetWeightsL2(weightsL2_12);
    nets[12].SetBiasesL2(biasesL2_12);
    
    Double_t weightsL1_13[15][10] = {{0.18219, -0.22578, -0.50463, -1.30472, 0.41253, 0.37387, -0.24377, -0.08315, 0.27051, 1.6589}, {0.07313, -1.02671, -1.16487, -0.86279, -3.31017, 0.11772, -0.41714, 0.08992, 0.0381, -0.42863}, {-0.00026, 0.00627, 1.40945, -0.33674, -2.61183, 0.20512, 0.15201, 0.02008, -0.14819, 0.00684}, {-0.41862, -0.42492, 0.86373, 0.29927, -0.02235, -0.14141, -0.08954, 0.16315, -0.02649, 1.57268}, {0.29826, 0.66222, 0.88842, -2.43628, -1.32321, -0.00419, -0.70714, 0.70638, -1.66661, 0.03112}, {-1.17511, 0.09863, 0.96385, -1.70163, 0.34651, -0.19148, -0.61861, 0.06308, -0.53814, -1.42343}, {0.02315, -0.35196, -2.45869, -0.05699, -0.22396, -0.06244, 0.04649, 1.50319, -0.3284, -0.04216}, {0.01427, -0.28728, 0.91575, 0.15083, -2.68306, 0.17171, -0.1886, -0.42577, 0.2869, 0.0153}, {-1.72286, 0.45064, -1.87296, 0.50275, 0.81305, 0.0537, 2.70127, 0.76938, -0.11393, -0.2429}, {0.08894, -0.20135, 3.10669, 0.03326, -1.75643, -0.18588, 0.00674, -0.43274, 0.12015, -0.12854}, {-0.61475, -0.54515, -0.69662, -1.35326, 0.71173, -0.44079, 1.04885, -0.50158, 1.47207, 0.31486}, {-0.89407, 1.09265, 0.09749, 0.23704, 0.21934, -0.33676, -0.82416, 0.37626, -1.00045, -0.01715}, {-0.10659, 0.4276, -2.58852, 0.01922, 1.94411, -0.24632, -0.31853, 1.07109, 0.37307, -0.09234}, {-0.11588, 0.36056, -1.25334, 0.11419, -0.05115, -0.01791, 0.22985, 0.83105, -0.46878, 0.02138}, {0.25838, 0.2471, -0.9298, -0.77366, -0.94716, -0.62118, 0.19863, -0.39439, 0.14676, -0.02231}};
    Double_t biasesL1_13[15] = {2.6797, 1.70074, -1.41875, -2.2024, -1.54693, 2.08178, -1.15489, 0.75086, -3.47533, 1.8379, 0.15742, 1.72598, -0.31774, 0.01561, -2.48887};
    nets[13].SetWeightsL1(weightsL1_13);
    nets[13].SetBiasesL1(biasesL1_13);
    
    Double_t weightsL2_13[1][15] = {{1.29941, -0.68222, -0.98211, 0.3914, -0.5563, 0.7367, 0.81339, 1.57806, 0.45275, 2.0051, 0.39754, -0.87118, 0.90879, 1.33585, -0.56914}};
    Double_t biasesL2_13[1] = {-3.32826};
    nets[13].SetWeightsL2(weightsL2_13);
    nets[13].SetBiasesL2(biasesL2_13);
    
    Double_t weightsL1_14[15][10] = {{-0.7681, -0.18457, -0.14306, -1.36906, 0.22611, 0.29928, -0.16736, -0.45637, 0.69114, 1.87354}, {0.12805, -0.70409, -1.19994, -0.38792, -2.9853, 0.24305, 0.03854, 0.68187, -0.2133, 0.05519}, {-0.19308, 0.0571, 1.05984, 0.09454, -1.91018, 0.05833, -0.13227, -0.10891, -0.16349, 0.03456}, {0.52482, -0.32601, 1.05882, -0.18086, -0.63811, -0.05353, 0.23436, -0.13998, -0.10834, 1.80155}, {-0.07081, 0.1236, 0.15688, -1.60643, -0.30266, -0.17623, -0.14231, -0.0481, -1.49677, 0.13147}, {-0.66201, -0.23559, -0.06728, -1.48382, 0.74074, 0.04724, -0.3792, 0.02951, -0.66092, -0.8113}, {0.00738, -0.10748, -1.97576, 0.08821, 0.05953, -0.04426, 0.09311, 1.22536, -0.12376, 0.06374}, {-0.0549, -0.17374, 0.82953, 0.20558, -2.2275, 0.09897, -0.20697, -0.2327, 0.11981, 0.14755}, {0.90973, 0.66953, -0.69437, -0.74832, 0.25191, -0.15845, 1.7263, -0.15761, 0.00455, 0.12278}, {0.05359, 0.02834, 2.38468, -0.01679, -1.43904, -0.18497, 0.01207, -0.18401, -0.02269, -0.10099}, {-1.86088, -0.11981, -0.43388, 0.30837, 0.55992, -0.0959, 0.06431, -0.06539, 0.49907, 0.17095}, {-0.96677, 1.53852, -0.1618, 0.32978, 0.43502, -0.34295, -0.5396, 0.11861, -0.71653, 0.19654}, {-0.03232, 0.13625, -2.03475, 0.11989, 1.46317, -0.12622, -0.02248, 0.4178, 0.04293, -0.17617}, {0.02046, 0.34429, -1.60423, -0.04698, 0.05133, 0.13682, 0.72167, 1.10663, -1.05239, -0.25586}, {0.2564, 0.06767, -0.69306, -0.97686, -0.86059, -1.10899, 0.14406, 0.37878, -0.01813, -0.44231}};
    Double_t biasesL1_14[15] = {3.77575, 1.92715, -0.73163, -2.06117, -0.95659, 1.51015, -0.60843, 0.53998, -2.72567, 1.40003, -1.40488, 1.69878, 0.04167, 0.1971, -2.69734};
    nets[14].SetWeightsL1(weightsL1_14);
    nets[14].SetBiasesL1(biasesL1_14);
    
    Double_t weightsL2_14[1][15] = {{1.25542, -0.64449, -1.28688, 0.62853, -0.91878, 0.90286, 1.30763, 1.85766, 0.64574, 2.55145, 0.75333, -0.57945, 1.24301, 0.77756, -0.43041}};
    Double_t biasesL2_14[1] = {-3.20906};
    nets[14].SetWeightsL2(weightsL2_14);
    nets[14].SetBiasesL2(biasesL2_14);
    
    Double_t weightsL1_15[15][10] = {{-0.09583, -0.35566, -0.13824, -0.61402, 0.28018, -0.05625, -0.24988, 0.12083, -0.01339, 0.44112}, {-0.03393, -0.44511, -1.28372, -0.39814, -1.28714, -0.18262, 0.31565, 0.56711, -0.49975, -0.12241}, {-0.47985, -0.09205, 1.25851, 0.09172, -2.1265, 0.01785, -0.01816, -0.28212, -0.51076, -0.61837}, {-1.06789, -0.72896, 0.61204, 0.45346, 0.34295, 0.13841, 0.55274, 0.05284, -0.39948, 1.39792}, {-0.0768, 0.23825, 0.48011, -1.54118, -0.47867, 0.25471, -0.32161, 0.01974, -1.37524, 0.25733}, {-0.88224, 0.03473, 0.36068, -1.50665, 0.07153, 0.19965, -0.66508, -0.0817, -0.46932, -0.47316}, {0.05203, 0.2702, -1.5856, -0.08245, 0.00883, -0.04486, 0.25732, 0.79099, -0.54862, 0.15357}, {0.06138, -0.07524, 0.92209, 0.02396, -2.21933, 0.1184, -0.00841, -0.27364, 0.2263, 0.25849}, {0.54233, 0.33282, -0.97037, -0.3041, 0.77747, -0.13619, 0.88387, -0.04437, 0.31848, -0.13721}, {0.00102, -0.16909, 1.93074, 0.04648, -0.82953, -0.17396, -0.00359, -0.04705, -0.0258, -0.22287}, {-1.59351, 0.33159, -0.1038, 0.02948, 0.12788, 0.02141, 0.88692, -0.65824, 0.12104, 0.0145}, {-0.72024, 1.2448, 0.03899, 0.44019, 0.28391, -0.24543, -0.60902, 0.3013, -0.64031, 0.2737}, {-0.12506, 0.1201, -2.67105, 0.06727, 2.20771, -0.13344, -0.05736, 0.75245, 0.058, -0.22317}, {0.19691, 0.56456, 2.03953, -1.05163, 1.09943, 0.22793, 0.61296, -0.50651, 0.33216, 0.70456}, {1.38711, 0.01641, -1.0879, -1.09865, 0.39907, -0.94945, 0.68651, -0.27935, -0.36975, 0.29335}};
    Double_t biasesL1_15[15] = {1.48053, 1.5476, -1.17292, -2.76515, -0.67622, 1.42096, -0.00518, 0.81356, -2.4909, 1.39658, -0.99209, 1.68879, 0.11428, 0.53328, -1.55935};
    nets[15].SetWeightsL1(weightsL1_15);
    nets[15].SetBiasesL1(biasesL1_15);
    
    Double_t weightsL2_15[1][15] = {{1.55309, -0.92584, -1.15491, 0.5678, -0.78992, 0.76921, 1.77, 2.01969, 2.24476, 2.41383, 0.42396, -0.96449, 1.07028, -0.35553, -0.50769}};
    Double_t biasesL2_15[1] = {-1.86391};
    nets[15].SetWeightsL2(weightsL2_15);
    nets[15].SetBiasesL2(biasesL2_15);
    
    Double_t weightsL1_16[15][10] = {{-0.09911, -0.13492, -0.37502, -1.04355, 0.02, 0.10218, 0.18982, -0.1533, -0.24314, 0.7351}, {0.43816, -0.91517, -1.59061, -0.73989, -1.64242, 0.24693, 0.0539, 0.58314, -0.26056, 0.278}, {-0.08686, 0.1255, 1.15061, -0.09497, -2.16331, 0.09904, 0.05579, 0.03008, -0.21163, -0.14856}, {0.2623, -0.45254, 1.44113, 0.30687, -0.66368, -0.33411, -0.20148, 0.21898, 0.16788, 1.12693}, {-0.22654, 0.29791, 0.36534, -1.43449, -0.58717, -0.13207, 0.04572, -0.10673, -1.506, -0.14068}, {-0.88764, 0.36872, 0.16797, -1.76403, 0.1922, -0.20376, -0.50522, -0.2439, -0.72671, -0.71134}, {0.16562, 0.06, -1.84736, -0.14212, 0.15286, -0.0117, 0.38651, 0.96661, -0.48494, 0.10696}, {0.06202, -0.13821, 0.91196, 0.07955, -2.1007, 0.14934, -0.01228, -0.33032, 0.16658, 0.17163}, {-0.45081, -0.20012, -0.52127, -0.4912, 0.13211, 0.00787, 1.33999, 0.01958, -0.37729, 0.01468}, {0.01082, -0.10568, 2.91865, 0.11918, -1.71948, -0.07716, -0.09735, -0.29393, 0.08585, -0.07183}, {-1.16, -0.2531, -0.12218, -0.12898, 0.79511, 0.16264, 1.67688, -0.61506, 0.61774, 0.30828}, {-1.09336, 1.9513, -0.14781, 0.27664, 0.70978, -0.68562, -0.8073, 0.30333, -1.35426, 0.19197}, {0.02959, 0.14997, -1.74305, 0.02424, 1.66268, -0.29531, -0.12207, 0.60165, 0.19346, -0.10602}, {0.53869, -0.08355, 1.0506, -0.7988, 0.46565, -0.24257, 0.80981, -0.80151, -0.26312, 0.10471}, {0.62356, -0.45238, -0.89392, 0.63869, -1.29793, -0.23392, -0.18067, -0.81509, -0.02451, 1.47764}};
    Double_t biasesL1_16[15] = {1.93684, 1.67729, -0.71768, -2.04001, -0.44469, 1.61663, -0.38696, 0.48562, -2.31826, 1.87358, -0.90433, 2.53031, -0.09372, 0.29975, -2.9603};
    nets[16].SetWeightsL1(weightsL1_16);
    nets[16].SetBiasesL1(biasesL1_16);
    
    Double_t weightsL2_16[1][15] = {{1.49477, -0.66092, -1.30959, 0.54443, -0.74986, 0.72669, 1.61411, 2.04184, 0.90675, 2.19787, 0.37155, -0.73451, 1.38302, -0.63031, -0.62917}};
    Double_t biasesL2_16[1] = {-2.82838};
    nets[16].SetWeightsL2(weightsL2_16);
    nets[16].SetBiasesL2(biasesL2_16);
    
    Double_t weightsL1_17[15][10] = {{-0.00037, -0.49961, -0.55189, -1.51091, 0.6197, 0.01474, 0.1679, 0.02194, 0.27382, 1.16238}, {0.18147, -0.2067, -1.72176, -0.51224, -1.6061, 0.08216, 0.49918, 0.77614, -0.82928, 0.04772}, {-0.13668, 0.21413, 1.57692, -0.29051, -2.58574, -0.04712, 0.04726, 0.07767, -0.47569, -0.01495}, {0.39016, -1.17921, 0.88965, 0.40872, -0.35062, 0.20439, -0.61989, -0.02434, -0.10854, 0.53483}, {0.03263, 0.39972, 0.362, -1.27096, -0.52423, 0.01126, -0.61421, 0.2382, -0.90065, 0.10389}, {-0.64284, -0.03276, 0.37388, -2.41956, 1.00833, 0.62433, -0.33798, -1.11832, -0.71501, -0.56651}, {0.05511, 0.26055, -1.32465, -0.12577, -0.23589, 0.09427, 0.17355, 0.85073, -0.38524, 0.20681}, {-0.10065, -0.14147, 0.90624, 0.17047, -2.54495, 0.23753, -0.09989, -0.47231, 0.0941, 0.16696}, {-1.34827, 0.12003, -0.51424, 0.84701, -0.33971, -0.12055, 0.7432, 0.72508, -0.49881, 0.63541}, {0.00445, -0.12848, 2.15557, 0.05824, -1.18214, -0.11505, -0.13215, -0.19417, 0.00921, -0.12067}, {-0.58362, -0.00937, -0.55023, -0.37447, 0.40969, -0.25179, 0.3424, -0.2745, 0.37329, -0.19434}, {-0.53117, 0.8786, 0.19523, 0.25435, -0.16915, -0.10048, -0.68788, 0.12252, -0.45529, -0.11977}, {-0.1258, 0.27721, -1.96129, 0.01847, 1.67224, -0.13192, -0.07033, 0.69221, -0.02315, 0.03156}, {-0.80982, -1.04099, 2.14324, -1.34569, 0.77074, 0.40166, 0.33757, -1.16821, -1.07343, 0.22561}, {0.57738, -0.42532, -0.44843, 0.63818, -0.57643, -0.13729, -0.02376, -0.81991, -0.2773, 0.95923}};
    Double_t biasesL1_17[15] = {2.48191, 1.77676, -1.13648, -1.52972, -0.92605, 2.44652, -0.05096, 0.56195, -2.29231, 1.52126, -0.22265, 1.22452, -0.02036, 1.54585, -1.76785};
    nets[17].SetWeightsL1(weightsL1_17);
    nets[17].SetBiasesL1(biasesL1_17);
    
    Double_t weightsL2_17[1][15] = {{1.18924, -0.72226, -0.98622, 0.72654, -0.90791, 0.66076, 1.82455, 1.60019, 0.57592, 3.04429, 0.48752, -0.75424, 1.44254, -0.40021, -0.6643}};
    Double_t biasesL2_17[1] = {-3.65587};
    nets[17].SetWeightsL2(weightsL2_17);
    nets[17].SetBiasesL2(biasesL2_17);
    
    Double_t weightsL1_18[15][10] = {{0.11474, 0.0242, -0.35437, -1.30036, 0.03047, -0.17024, 0.23056, -0.15036, 0.07025, 0.97652}, {-0.27602, -0.88802, -0.9391, -0.49229, -1.75989, 0.13826, 0.23727, 0.64283, -0.81539, -0.2539}, {-0.11618, 0.05408, 1.07236, -0.163, -1.89905, -0.07288, 0.17824, -0.04529, -0.28612, -0.34862}, {-0.3416, -1.08181, 1.05817, 1.41876, -0.74813, 0.03711, -1.09917, 0.10945, -0.13459, 0.25057}, {0.51184, 0.46451, -0.04759, -2.32839, -0.28421, -0.09799, 0.19179, -0.15158, -2.2145, 0.30402}, {-1.08897, -0.16216, -0.01365, -3.0959, 1.17624, 0.17604, -0.24911, -0.60934, -1.21574, -0.92017}, {0.11843, 0.07425, -1.42667, -0.05857, 0.09784, 0.02986, 0.20755, 0.78699, -0.32063, 0.21565}, {-0.13456, -0.1883, 1.34545, 0.23972, -3.08248, 0.23467, -0.01057, -0.71693, 0.1376, 0.15282}, {0.58556, 0.3395, 0.82647, -0.52896, -0.86816, -0.04682, 0.60353, 0.22679, 0.24716, 0.73437}, {-0.03511, -0.10379, 2.30792, 0.1231, -1.44278, -0.14274, -0.02696, -0.20961, 0.01524, -0.16305}, {-1.62481, -0.35126, -0.54091, 0.13017, 0.93844, 0.21388, 1.09913, -0.38549, 0.35543, -0.22999}, {-0.53622, 1.34796, 0.10926, 0.18532, 0.11105, -0.39746, -0.7046, 0.25428, -0.52056, 0.32988}, {-0.08508, 0.20953, -1.95157, -0.06505, 1.59876, -0.1479, -0.08428, 0.7228, 0.09768, -0.0084}, {-0.32021, -0.42286, 0.9851, -1.38493, 1.19555, 0.01113, 0.91569, -0.60225, -0.92567, 0.65532}, {0.66873, -0.4635, -0.37137, 1.17615, -1.85091, -0.3771, -0.54989, -0.57326, -0.13572, 0.64009}};
    Double_t biasesL1_18[15] = {2.04502, 1.53664, -1.04966, -1.56601, -1.29682, 2.68137, -0.22489, 0.89556, -1.41866, 1.59921, -1.17419, 1.62777, -0.26306, 1.2826, -3.36513};
    nets[18].SetWeightsL1(weightsL1_18);
    nets[18].SetBiasesL1(biasesL1_18);
    
    Double_t weightsL2_18[1][15] = {{1.2691, -0.57869, -1.23623, 0.59694, -0.64391, 0.67629, 2.01436, 1.2224, 0.45572, 2.67111, 0.58499, -1.0023, 1.28926, -0.41435, -0.69806}};
    Double_t biasesL2_18[1] = {-3.29721};
    nets[18].SetWeightsL2(weightsL2_18);
    nets[18].SetBiasesL2(biasesL2_18);
    
    Double_t weightsL1_19[15][10] = {{-0.34717, -0.22235, -0.26296, -1.13588, -0.07186, 0.09626, 0.07933, -0.1001, -0.21652, 0.87859}, {-0.01541, -1.01529, -1.48401, -0.80887, -1.73589, 0.09305, 0.12277, 0.76469, -0.21186, -0.224}, {-0.21458, -0.01244, 1.05962, 0.08321, -1.84319, -0.086, 0.24468, -0.13774, -0.56772, -0.47529}, {-1.26323, -1.04578, 0.98003, 0.6661, -0.51074, -0.16112, -0.65554, -0.08864, 0.25204, 0.75874}, {0.27609, 0.45106, 0.48751, -2.13741, -0.77637, -0.32386, -0.1749, -0.26728, -2.40223, -0.00167}, {-0.69545, -0.29778, 0.05523, -2.04819, 0.99896, -0.1363, -0.53049, -0.20532, -0.90616, -0.78847}, {-0.00421, 0.16304, -1.76668, -0.11712, 0.16918, 0.10088, 0.28167, 0.69708, -0.38161, 0.10427}, {-0.08866, -0.26878, 1.10419, 0.18843, -2.51654, 0.19344, -0.01719, -0.45621, 0.02692, 0.12082}, {-1.34868, 0.3206, -0.88473, -0.40315, -0.30448, -0.38063, 2.19276, 0.02213, -0.51684, -0.28244}, {0.09685, -0.14285, 3.0491, 0.06221, -1.887, -0.20876, 0.04269, -0.21596, 0.08985, -0.14599}, {-0.94337, -0.11525, -0.514, -0.42888, 0.80852, -0.06393, 1.5945, -0.51168, 0.48719, 0.06356}, {-1.49551, 1.64294, -0.32161, 0.29193, 0.7285, -0.40785, -0.93089, 0.46036, -0.97776, -0.04487}, {-0.10447, 0.18892, -2.26481, 0.04705, 2.21935, -0.20956, -0.0126, 0.84985, -0.03534, -0.11417}, {-1.11477, -0.57473, 1.27806, -1.55572, 1.47596, 0.65606, 1.57773, -1.39016, -0.66986, 0.92542}, {0.63733, 0.00887, -1.39552, -0.22878, -0.50158, -0.05843, 0.04187, -0.51072, 0.18017, 0.6057}};
    Double_t biasesL1_19[15] = {2.07026, 2.13347, -0.63693, -2.28579, -0.75489, 2.01226, -0.02325, 0.72112, -3.86764, 1.7665, -0.50826, 2.55492, 0.08741, 1.86242, -2.55952};
    nets[19].SetWeightsL1(weightsL1_19);
    nets[19].SetBiasesL1(biasesL1_19);
    
    Double_t weightsL2_19[1][15] = {{1.05538, -0.64428, -1.0507, 0.28423, -0.81817, 0.73577, 1.65224, 1.69556, 0.62407, 1.7648, 0.36998, -0.72243, 1.15055, -0.46518, -0.99687}};
    Double_t biasesL2_19[1] = {-3.02139};
    nets[19].SetWeightsL2(weightsL2_19);
    nets[19].SetBiasesL2(biasesL2_19);
    
    Double_t weightsL1_20[15][10] = {{-0.00485, -0.04672, -0.13099, -1.11387, 0.15585, 0.10293, 0.00638, -0.12048, -0.09414, 0.98741}, {-0.27319, -0.77161, -0.80421, -0.68282, -1.99273, 0.44511, 0.13821, 0.24518, -0.34258, -0.25037}, {-0.17686, 0.37985, 1.17491, -0.04357, -2.21415, -0.1095, 0.07143, -0.16141, -0.30392, -0.24324}, {-0.01394, 0.24677, 1.1457, -0.12729, -1.14237, -0.41371, 0.55994, -0.49282, -0.21191, 1.62167}, {-0.10206, 0.05383, 0.04169, -1.30629, 0.02913, 0.00406, -0.12977, 0.21344, -1.458, -0.2728}, {-0.6149, 0.10813, -0.04808, -1.26276, 0.54344, 0.01179, -0.24894, -0.15893, -0.818, -0.64207}, {-0.15257, 0.30524, -1.73901, 0.06503, -0.04688, 0.21351, 0.19488, 0.77245, -0.45817, 0.18522}, {-0.03929, -0.14102, 1.12528, 0.03135, -2.7763, 0.19146, -0.10144, -0.38122, 0.14977, 0.1524}, {-0.32833, 0.10736, -0.27703, -0.39067, -0.05121, -0.01564, 1.5545, 0.47463, 0.10617, -0.50318}, {0.06025, -0.16609, 1.871, 0.04077, -1.03723, -0.04318, 0.13323, -0.3131, 0.02376, -0.02794}, {-1.26532, -0.38592, -0.73559, -0.73931, 0.61722, -0.11089, 1.19981, -0.72763, 0.59192, 0.50426}, {-1.04665, 1.09815, -0.11516, 0.3989, 0.24164, -0.18654, -0.7037, 0.3127, -0.5837, 0.03154}, {-0.05278, 0.06438, -1.81039, -0.00434, 1.51603, -0.17648, -0.05833, 0.56352, 0.03096, -0.15578}, {0.18452, -0.38813, 1.11475, -0.95758, 0.82326, 0.84221, 1.16957, -0.7061, -0.47842, 1.06309}, {0.74794, 0.1, -1.31595, -0.27447, -0.42803, -0.20004, 0.18611, -0.80342, 0.07214, 0.60335}};
    Double_t biasesL1_20[15] = {2.07601, 1.28064, -0.78127, -2.56491, -0.44769, 1.27985, -0.09292, 0.64395, -1.95808, 1.31255, 0.00334, 1.52245, -0.22133, 1.39213, -2.11553};
    nets[20].SetWeightsL1(weightsL1_20);
    nets[20].SetBiasesL1(biasesL1_20);
    
    Double_t weightsL2_20[1][15] = {{1.58083, -0.48959, -1.37658, 0.54384, -0.83419, 0.77498, 1.57817, 1.66064, 0.58211, 2.77822, 0.27573, -0.81944, 1.33969, -0.81718, -1.19169}};
    Double_t biasesL2_20[1] = {-3.89713};
    nets[20].SetWeightsL2(weightsL2_20);
    nets[20].SetBiasesL2(biasesL2_20);
    
    Double_t weightsL1_21[15][10] = {{0.09693, -0.20395, -0.26174, -0.95811, 0.29502, 0.04952, -0.04918, 0.04932, 0.21584, 0.94042}, {0.04266, -0.37003, -0.87781, -0.34514, -2.07945, 0.04751, -0.00399, 0.57807, -0.24334, 0.02528}, {-0.18689, 0.30882, 1.01291, -0.16941, -2.13108, 0.10764, -0.00495, 0.04375, -0.21828, -0.21071}, {-0.36046, -0.82328, 0.07488, 0.23259, -0.00792, 0.07259, -0.44316, 0.01345, 0.35196, 0.15891}, {0.17497, 0.30291, 0.04197, -1.61512, -0.42495, -0.0342, -0.06614, -0.02785, -1.3392, -0.00277}, {-0.74681, 0.08161, 0.36696, -1.62936, 0.24719, 0.04841, -0.40064, -0.17271, -0.80961, -0.66264}, {-0.01073, 0.05057, -1.53394, -0.07514, 0.04889, 0.11441, 0.15773, 0.76066, -0.39946, 0.14591}, {-0.0169, -0.00771, 0.82892, 0.12387, -2.19275, 0.04858, -0.12764, -0.21747, 0.1336, 0.15057}, {-0.90374, -0.16527, -0.16977, 0.29265, 0.19316, -0.09343, 1.27901, 0.72905, -0.19545, 0.36827}, {0.06616, -0.03002, 1.85435, -0.06542, -1.00182, -0.15652, 0.01701, -0.02091, 0.00673, -0.10867}, {-0.2321, -0.20223, 0.01673, -0.77052, -0.0036, -0.18089, 1.11828, 0.09686, 0.49509, 0.01839}, {-1.25828, 0.63142, 0.07538, 0.54772, 0.44817, -0.39228, -0.74815, 0.2911, -0.65648, -0.13342}, {0.05459, 0.3641, -2.05455, 0.05202, 1.53826, -0.13754, 0.04178, 0.30057, -0.08297, -0.00982}, {0.43143, -0.26644, 1.2108, -1.4706, 0.74279, 0.29413, 0.57473, -0.96721, -0.94059, 1.03541}, {0.65652, -0.12767, -1.91207, -0.60876, 0.16219, -0.5185, 0.21149, 0.0066, 0.11918, 0.21182}};
    Double_t biasesL1_21[15] = {1.69992, 1.61296, -0.8801, -0.95822, -0.74537, 1.51425, -0.18909, 0.60451, -2.43428, 1.16352, -0.35959, 1.68354, 0.26372, 1.06923, -2.18357};
    nets[21].SetWeightsL1(weightsL1_21);
    nets[21].SetBiasesL1(biasesL1_21);
    
    Double_t weightsL2_21[1][15] = {{1.32002, -1.04466, -1.07669, 0.70205, -0.87268, 0.87477, 1.97774, 2.14547, 0.48955, 2.34269, 0.46205, -0.8199, 1.52396, -0.48388, -0.98498}};
    Double_t biasesL2_21[1] = {-3.58334};
    nets[21].SetWeightsL2(weightsL2_21);
    nets[21].SetBiasesL2(biasesL2_21);
    
    Double_t weightsL1_22[15][10] = {{-0.25876, -0.05531, -0.52144, -1.01501, 0.1697, 0.08906, -0.38468, -0.10068, 0.29376, 0.98662}, {0.29749, -0.5705, -1.17207, -0.41253, -1.57062, 0.02174, 0.21835, 0.4251, -0.35988, -0.00782}, {-0.36403, 0.16166, 1.17007, 0.05655, -2.10449, 0.04314, -0.00068, -0.08299, -0.18768, -0.22392}, {0.25172, -2.35126, 1.07928, 1.31642, -0.57759, 0.23173, -1.18625, -0.01685, 0.05036, 0.15655}, {-0.01276, 0.48078, 0.44699, -1.31416, -0.70429, 0.1136, -0.58618, 0.35844, -1.05979, 0.05953}, {-0.31785, -0.11446, 0.1253, -1.18671, 0.6059, -0.02125, -0.18136, -0.19633, -0.34759, -0.376}, {0.05363, 0.09581, -1.15559, -0.05772, 0.02534, 0.02457, 0.13252, 0.62479, -0.30068, 0.1416}, {0.09136, -0.37659, 0.77241, 0.12088, -2.43837, 0.2423, 0.14833, -0.51134, -0.05342, 0.14098}, {-1.06519, -0.07786, 0.15517, 0.55224, -0.47503, -0.41777, 0.4485, 0.25435, 0.02674, -0.12257}, {-0.06094, -0.16334, 2.71472, 0.02166, -1.64519, -0.19861, 0.00171, -0.3257, 0.04913, -0.1865}, {-0.58442, -0.4905, -0.65447, -1.01817, 0.48168, -0.10693, 0.54427, -0.31133, 1.08261, 0.4365}, {-1.1581, 1.00423, 0.15996, 0.0452, 0.10679, -0.68894, -1.33555, 0.19575, -0.99351, -0.29202}, {-0.12713, 0.58695, -2.69198, -0.07818, 2.4165, -0.21461, -0.30198, 1.24206, 0.35423, 0.05889}, {-0.65466, -0.52719, 0.27741, -0.39802, 0.95193, -0.05464, 0.44191, -0.66589, -0.3591, 0.11208}, {0.25697, 0.31902, -1.21785, -0.13838, -0.89688, -0.21506, 0.08406, 0.20967, 0.02741, 0.21592}};
    Double_t biasesL1_22[15] = {2.232, 1.46452, -1.04401, -2.14029, -0.99696, 1.19864, -0.15285, 0.80468, -1.70952, 1.61759, 0.38736, 2.39195, -0.45021, 0.70383, -2.17279};
    nets[22].SetWeightsL1(weightsL1_22);
    nets[22].SetBiasesL1(biasesL1_22);
    
    Double_t weightsL2_22[1][15] = {{1.13337, -1.10908, -0.98052, 0.40382, -0.88816, 1.10786, 2.51113, 1.57035, 0.93632, 2.07121, 0.52702, -0.78772, 0.9991, -0.64052, -0.80426}};
    Double_t biasesL2_22[1] = {-2.86666};
    nets[22].SetWeightsL2(weightsL2_22);
    nets[22].SetBiasesL2(biasesL2_22);
    
    Double_t weightsL1_23[15][10] = {{0.12435, -0.31812, -0.75305, -1.1495, 0.5798, 0.09028, -0.03398, 0.09873, 0.35053, 1.06523}, {0.10842, -1.07184, -2.19014, -0.57866, -1.22567, 0.05572, 0.25206, 1.00021, -0.04449, -0.27214}, {-0.32928, 0.25541, 1.17547, -0.03886, -2.4969, 0.26147, -0.18104, 0.14255, -0.05192, 0.04353}, {-0.8829, -0.77088, 1.33357, 0.51583, -1.14768, -0.33169, -0.92723, 0.40596, 0.72386, 0.11635}, {0.06264, 0.37406, 0.08174, -1.80528, -0.75129, -0.10534, -0.26454, -0.09803, -1.59488, 0.04669}, {-0.85835, -0.03656, 0.21586, -1.66802, 0.69294, 0.12738, -0.09215, -0.35432, -0.73035, -0.60996}, {-0.01549, 0.22122, -1.30789, -0.02984, -0.0691, -0.04992, 0.15745, 0.59357, -0.36285, 0.08139}, {0.00341, -0.40969, 0.74755, 0.20848, -2.19532, 0.11868, -0.05494, -0.41893, 0.2351, 0.23324}, {-0.85941, 0.12404, -0.48906, 0.50027, 0.01352, -0.14473, 0.885, 0.45608, -0.15116, 0.25315}, {-0.08224, -0.13848, 2.64968, 0.05587, -1.52667, -0.10237, -0.08798, -0.04482, 0.06977, -0.15336}, {-1.01507, -0.17917, -0.57233, -0.27218, 0.75895, 0.10733, 0.99543, -0.27043, 0.09148, -0.07625}, {-1.43673, 1.51456, 0.12947, 0.55904, -0.00465, -0.51732, -1.44392, 0.37755, -0.98791, 0.03735}, {-0.00226, 0.12929, -2.92728, -0.18169, 2.75464, 0.09886, -0.29231, 1.00095, 0.34706, 0.1098}, {-0.70473, -0.64125, 0.88836, -1.25383, 1.02094, 0.14083, 0.76922, -0.97782, -0.97428, 0.33539}, {-0.17195, 0.14425, -0.90909, -0.62268, -1.61769, -0.98973, 0.19368, 0.04891, 0.65614, -0.19777}};
    Double_t biasesL1_23[15] = {2.06708, 1.81219, -1.24364, -1.43717, -1.28356, 1.88373, -0.13473, 0.62149, -2.22169, 1.69871, -0.79939, 2.55212, 0.16269, 0.73381, -3.44503};
    nets[23].SetWeightsL1(weightsL1_23);
    nets[23].SetBiasesL1(biasesL1_23);
    
    Double_t weightsL2_23[1][15] = {{1.2081, -0.78253, -0.86808, 0.52063, -0.74048, 0.92463, 2.1923, 1.38252, 0.43296, 2.2834, 0.53436, -0.73427, 0.89671, -0.59931, -0.28109}};
    Double_t biasesL2_23[1] = {-3.05213};
    nets[23].SetWeightsL2(weightsL2_23);
    nets[23].SetBiasesL2(biasesL2_23);
    
    Double_t weightsL1_24[15][10] = {{-0.08368, -0.01571, -0.14698, -0.69462, 0.14621, -0.00577, 0.01643, -0.08901, -0.01858, 0.5005}, {0.07224, -0.66725, -1.33452, -0.53247, -2.40952, 0.20346, -0.15228, 0.69846, 0.04952, -0.06799}, {-0.33876, 0.33204, 1.261, -0.06002, -2.31304, -0.0032, 0.15695, -0.17165, -0.30909, -0.47345}, {-2.06149, 0.50484, 0.66776, 1.61929, -0.85855, -0.21267, -0.67701, 2.23673, -0.14315, 0.91047}, {0.28346, 0.42746, 0.13441, -1.69574, -0.44295, -0.05167, -0.08561, -0.0118, -1.78272, 0.16974}, {-1.10774, -0.00305, 0.20154, -2.34135, 0.66415, 0.16812, -0.35553, -0.56298, -1.34371, -0.64222}, {0.02061, 0.07056, -2.00885, 0.01801, 0.14698, 0.11612, 0.15818, 0.7181, -0.34527, 0.18613}, {-0.02626, 0.00357, 1.10201, 0.11075, -2.70218, 0.1449, -0.14667, -0.24484, 0.09167, 0.22104}, {0.82509, 0.50335, 0.92645, -0.77555, -1.16001, 0.35289, 1.97037, 0.70377, -0.40077, 0.10342}, {0.09918, -0.11782, 2.43815, 0.03357, -1.24154, -0.10412, 0.09169, -0.2138, 0.03574, -0.11157}, {-1.33507, -0.67974, -1.1491, 0.07453, 1.2369, -0.79703, 0.57676, -0.24078, 0.20033, -1.12343}, {-1.08929, 1.33571, -0.02153, 0.29615, 0.11109, -0.34801, -0.6392, 0.27168, -0.90561, 0.0333}, {-0.12564, 0.05852, -2.22821, -0.03556, 1.58407, -0.22416, 0.05565, 0.53272, 0.09431, -0.21729}, {-0.5831, -0.7527, 0.82914, -1.47135, 0.99967, 0.08854, 0.73271, -0.86141, -0.87866, 0.5785}, {0.65229, -0.25129, -1.38316, -0.51076, -0.43949, -0.74084, 0.10318, -0.88137, 0.27771, 0.00103}};
    Double_t biasesL1_24[15] = {1.02068, 1.77183, -0.86201, -3.87263, -0.86943, 2.10743, -0.35968, 0.7009, -1.55243, 1.44998, -1.40131, 1.81812, -0.11773, 1.17773, -2.56992};
    nets[24].SetWeightsL1(weightsL1_24);
    nets[24].SetBiasesL1(biasesL1_24);
    
    Double_t weightsL2_24[1][15] = {{1.78568, -0.80641, -1.01454, 0.48393, -0.78067, 0.51675, 1.55785, 1.85013, 0.33736, 2.38352, 0.51547, -0.71634, 1.40743, -0.51025, -0.83794}};
    Double_t biasesL2_24[1] = {-3.1009};
    nets[24].SetWeightsL2(weightsL2_24);
    nets[24].SetBiasesL2(biasesL2_24);
    
    Double_t weightsL1_25[15][10] = {{-0.03684, -0.22088, -0.27316, -0.77589, 0.22523, 0.08088, -0.02457, -0.16908, -0.01535, 0.6251}, {-0.45446, -0.67218, -1.719, -0.3625, -1.49713, 0.11269, -0.06737, 0.25294, -0.72865, -0.4817}, {-0.33815, 0.09607, 0.73909, 0.0412, -2.00538, -0.18561, -0.15691, -0.12008, -0.30367, -0.54749}, {-1.571, 0.51165, 0.26399, 0.9386, -0.65165, -0.67595, -0.08502, 0.69424, 0.12346, 0.55204}, {0.13267, 0.62345, 0.41592, -1.58836, -1.00045, 0.08153, -0.19116, 0.3217, -1.43382, 0.07904}, {-0.92129, 0.09262, -0.02222, -2.16853, 0.68529, -0.12627, -0.59144, -0.0204, -0.83942, -0.9658}, {0.19869, 0.20452, -1.67569, -0.15946, 0.1473, 0.16862, 0.2688, 1.06195, -0.44216, 0.29791}, {-0.06386, -0.17563, 1.03209, 0.27619, -3.18821, 0.26135, -0.05972, -0.74404, 0.06484, 0.21064}, {0.53442, 0.486, 0.08022, -0.41946, -0.4063, 0.63072, 1.57631, 0.41796, 0.04016, 1.15461}, {-0.02597, -0.0127, 2.18201, 0.0052, -1.50875, -0.10247, 0.02326, -0.32951, -0.01598, -0.08534}, {-0.83164, -0.55983, -1.32427, 0.31066, 1.32939, -0.48929, 0.30707, -0.30751, 0.153, -0.92238}, {-0.65752, 1.58935, 0.24688, 0.12509, 0.64258, -0.34839, -1.11706, 0.39821, -1.07475, 0.46609}, {-0.09702, 0.23218, -1.95546, 0.02759, 1.77616, -0.23926, -0.1265, 1.00002, 0.29809, -0.14133}, {0.15415, -0.23972, 0.70086, -0.6529, 0.58761, 0.04606, 0.7071, -0.77399, -0.39323, 0.37292}, {-0.05187, 0.31649, -1.03035, 0.26933, -0.77223, -0.33313, -0.09114, 0.34088, 0.07239, 0.03424}};
    Double_t biasesL1_25[15] = {1.5438, 1.80387, -0.88837, -1.76555, -0.82557, 1.97981, -0.42524, 0.84249, -2.34005, 1.54027, -0.93001, 1.74818, -0.40468, 0.69266, -2.35372};
    nets[25].SetWeightsL1(weightsL1_25);
    nets[25].SetBiasesL1(biasesL1_25);
    
    Double_t weightsL2_25[1][15] = {{1.79281, -0.54256, -0.96262, 0.3384, -0.70414, 0.58138, 1.754, 1.38135, 0.39997, 2.96135, 0.56258, -0.58734, 1.18913, -0.71526, -1.09071}};
    Double_t biasesL2_25[1] = {-4.19493};
    nets[25].SetWeightsL2(weightsL2_25);
    nets[25].SetBiasesL2(biasesL2_25);
    
    Double_t weightsL1_26[15][10] = {{-0.01126, -0.15304, -0.29457, -0.8704, 0.2353, 0.0364, -0.02921, -0.06891, 0.09681, 0.67656}, {-0.01935, -0.58338, -1.34865, -0.56707, -2.28688, -0.09176, 0.35227, 0.4285, -0.37035, -0.06964}, {0.00674, 0.14675, 1.06997, -0.27143, -2.24603, 0.12264, 0.0234, 0.01009, -0.19831, -0.0458}, {-1.14171, 0.79564, 0.3574, 0.74054, -0.8648, -0.80284, -0.58884, 0.7085, -0.14443, 0.71642}, {-0.04688, 0.46817, 0.66181, -1.61974, -0.74375, 0.05609, -0.25978, 0.11314, -1.21022, -0.04156}, {-0.4652, 0.08298, 0.06513, -1.94954, 0.8458, -0.10067, -0.1881, -0.56443, -0.79561, -0.68121}, {0.00396, 0.03287, -1.6152, -0.02819, 0.13741, 0.02212, 0.10796, 0.93902, -0.26669, 0.07228}, {0.06335, -0.07826, 0.68988, 0.05183, -2.37388, 0.17015, 0.11642, -0.51385, 0.02644, 0.29704}, {0.49852, 0.26671, 0.2495, -0.09291, -0.644, 0.28774, 1.27269, 0.10731, 0.24026, 0.25741}, {-0.01737, -0.15252, 2.00772, 0.03431, -1.12431, -0.01587, 0.03832, -0.35365, -0.01256, -0.05401}, {-0.81799, -0.33576, -1.01112, 0.01664, 0.82677, -0.37794, 0.17549, -0.31898, 0.15809, -0.96085}, {-0.45314, 1.36805, -0.37212, 0.23509, 0.40123, -0.19156, -0.19399, -0.01846, -0.54364, -0.4628}, {-0.10923, 0.17458, -1.76532, 0.06545, 1.89956, -0.11351, -0.23132, 1.10691, 0.42381, -0.05648}, {-0.61933, -0.28508, 0.58378, -1.2285, 0.685, 0.11029, 0.36879, -0.85954, -0.64218, 0.44067}, {-0.17336, 0.06021, -0.101, 0.02111, -1.00204, -0.94186, -0.05793, -0.0323, -0.02024, 0.09318}};
    Double_t biasesL1_26[15] = {1.45351, 1.85257, -1.06437, -2.10016, -0.94109, 1.70165, -0.43364, 0.71053, -1.44386, 1.55771, -1.10039, 1.43804, -0.43736, 0.82003, -2.23964};
    nets[26].SetWeightsL1(weightsL1_26);
    nets[26].SetBiasesL1(biasesL1_26);
    
    Double_t weightsL2_26[1][15] = {{1.59312, -0.82018, -0.99887, 0.75601, -0.6545, 0.96778, 2.11997, 1.79803, 0.86011, 3.26246, 0.84747, -0.69214, 1.28726, -0.61612, -0.99803}};
    Double_t biasesL2_26[1] = {-3.52345};
    nets[26].SetWeightsL2(weightsL2_26);
    nets[26].SetBiasesL2(biasesL2_26);
    
    Double_t weightsL1_27[15][10] = {{-0.0777, -0.25053, -0.17565, -1.00005, 0.06973, -0.04404, -0.06656, -0.04127, 0.21198, 0.92419}, {0.18599, -0.71438, -1.7859, -0.75698, -1.99879, 0.06385, -0.02165, 0.73042, -0.77888, 0.19326}, {-0.17226, 0.16607, 0.45029, -0.0188, -1.1757, -0.01909, 0.10052, -0.06877, -0.211, -0.18996}, {-0.02013, 0.24139, 0.71812, 0.51389, -0.65198, -0.29572, -0.2503, 0.6829, 0.06012, 1.31007}, {0.22378, 0.15476, 0.0741, -1.42656, -0.13532, -0.01403, -0.10044, 0.07449, -1.1398, 0.06436}, {-0.83224, 0.15125, 0.45115, -1.72687, 0.02604, -0.09619, -0.32622, -0.36854, -0.36127, -0.64788}, {-0.03071, 0.16099, -1.32547, -0.11165, 0.15663, 0.13173, 0.12394, 0.55596, -0.38848, 0.1621}, {0.04798, -0.20611, 0.94795, 0.08805, -2.28914, 0.17048, -0.00566, -0.42827, 0.02035, 0.20329}, {0.44471, 0.62192, -0.46794, -0.13294, -0.11665, 0.35692, 1.11197, 0.43824, 0.40277, 0.34969}, {-0.11501, -0.13613, 2.45936, 0.00056, -1.67419, -0.07508, 0.01424, -0.30596, -0.02244, -0.14168}, {-1.6556, 0.05063, -0.40142, 0.2555, 0.15601, -0.46865, 0.3273, -0.28633, 0.3638, -0.13051}, {-0.50518, 1.33144, 0.11904, 0.09258, 0.21482, -0.25774, -0.80869, 0.21103, -0.60962, 0.22068}, {0.10998, 0.07319, -2.24491, -0.06228, 2.06207, -0.19545, 0.04076, 0.56624, 0.10845, -0.07827}, {-0.37688, -0.65001, 1.22808, -1.08332, 0.54234, 0.4639, 0.89233, -1.12969, -0.96769, 0.96562}, {0.28115, -0.06542, -2.30903, -0.17537, 0.05529, -0.2731, 0.13978, -0.50561, 0.13569, 0.27286}};
    Double_t biasesL1_27[15] = {2.0941, 2.26561, -0.5826, -2.40666, -1.05356, 1.51924, 0.00096, 0.72349, -2.57485, 1.35252, -1.37121, 1.75359, -0.28127, 1.04454, -2.57258};
    nets[27].SetWeightsL1(weightsL1_27);
    nets[27].SetBiasesL1(biasesL1_27);
    
    Double_t weightsL2_27[1][15] = {{1.35481, -0.75415, -1.50535, 0.55202, -0.86659, 0.78222, 2.29932, 1.84076, 0.83184, 2.00346, 0.52419, -0.93231, 1.31855, -0.56098, -1.1377}};
    Double_t biasesL2_27[1] = {-2.85402};
    nets[27].SetWeightsL2(weightsL2_27);
    nets[27].SetBiasesL2(biasesL2_27);
    
    Double_t weightsL1_28[15][10] = {{-0.11567, -0.00863, -0.2846, -0.97137, 0.04929, 0.03289, -0.1797, -0.16427, 0.07334, 0.74627}, {-0.08128, -0.82666, -1.69793, -0.54999, -2.01378, 0.01025, 0.13069, 0.8172, -0.49171, -0.29889}, {-0.13952, 0.33426, 0.63794, -0.06885, -1.69653, -0.05605, 0.19406, -0.01679, -0.23927, -0.19271}, {-0.26012, -0.0646, 1.24526, 1.19408, -1.46178, -0.17773, 0.83009, 1.09711, -0.42302, 1.05883}, {0.07837, 0.26325, 0.217, -1.71796, -0.48083, -0.07919, -0.24804, 0.02097, -1.60133, -0.03927}, {-1.03682, 0.24908, 0.25543, -1.98645, 0.767, 0.0462, -0.67046, -0.48001, -0.72561, -0.63308}, {0.04694, 0.18936, -1.48459, -0.086, -0.01202, 0.03404, 0.34777, 0.76027, -0.42626, 0.10869}, {0.04544, -0.11599, 1.2041, 0.17922, -2.6947, 0.15923, -0.09304, -0.36264, 0.17388, 0.17054}, {0.73201, -0.42962, 0.00255, 0.03598, -0.66629, 0.96496, 2.50714, -0.21698, 0.57482, -0.61467}, {0.00337, -0.09245, 2.44053, 0.067, -1.55979, -0.28169, 0.04897, -0.27742, -0.0317, -0.20437}, {-1.14443, 0.02467, -0.35918, -0.23686, 0.31249, -0.09524, 0.75083, -0.40844, 0.26154, 0.09725}, {-1.35955, 2.00223, -0.3721, 0.12359, 0.24715, 0.33521, -0.50098, 0.14937, -1.0156, 0.40364}, {-0.05441, 0.03514, -2.09555, -0.015, 1.99366, -0.12489, -0.03884, 0.68024, 0.11732, -0.23019}, {-0.57685, -0.14966, 1.03864, -1.04189, 0.42466, 0.19745, 0.99848, -0.87385, -0.78586, 0.59598}, {0.76837, 0.39049, -1.11206, -0.62765, -0.47643, -1.2047, 0.08475, -0.25408, -0.23293, 0.0134}};
    Double_t biasesL1_28[15] = {1.7983, 2.3167, -0.68609, -2.51297, -1.2245, 2.1228, -0.1954, 0.67952, -3.9122, 1.55968, -0.6436, 2.69, -0.06723, 1.1766, -2.48189};
    nets[28].SetWeightsL1(weightsL1_28);
    nets[28].SetBiasesL1(biasesL1_28);
    
    Double_t weightsL2_28[1][15] = {{1.77239, -0.63025, -1.33283, 0.33923, -0.81757, 0.78486, 2.29355, 1.72419, 0.60812, 2.56861, 0.65561, -0.63974, 1.36204, -0.44551, -0.71573}};
    Double_t biasesL2_28[1] = {-3.93577};
    nets[28].SetWeightsL2(weightsL2_28);
    nets[28].SetBiasesL2(biasesL2_28);
    
    Double_t weightsL1_29[15][10] = {{-0.01542, -0.12862, -0.22971, -0.84474, 0.21241, 0.00371, 0.04383, -0.14775, 0.15289, 0.73497}, {-0.09198, -0.55186, -1.21676, -0.30677, -1.0864, 0.02272, 0.02953, 0.66133, -0.22432, -0.13318}, {-0.22513, 0.05304, 1.13876, -0.16124, -2.24854, 0.06867, 0.23172, -0.0627, -0.23993, -0.44657}, {0.10632, -0.32964, -0.35397, -0.11719, 0.9722, 0.12456, 0.51073, -0.29825, -0.07105, -0.08612}, {-0.09824, 0.36262, 0.51526, -0.82383, -0.52326, 0.06441, -0.49147, 0.2073, -0.87592, -0.10192}, {-0.77922, 0.09087, 0.10603, -2.02771, 0.2492, -0.31134, -0.2396, -0.25106, -0.03501, -0.56889}, {0.04443, 0.2082, -1.6953, -0.10521, 0.15146, 0.13573, 0.24561, 0.96285, -0.46811, 0.19808}, {0.03431, -0.20274, 1.12502, 0.06831, -2.50557, 0.32939, -0.00526, -0.3545, 0.0805, 0.32152}, {-1.10562, 0.30955, -0.08177, 0.74659, -0.43804, -0.31891, 0.46895, 1.08171, -0.25842, 0.30158}, {-0.06664, -0.0725, 1.97068, 0.10237, -1.18349, -0.07501, 0.00439, -0.22328, -0.08409, -0.10281}, {-1.22081, -0.72005, -1.41598, 0.2475, 1.18815, -0.61826, 0.14931, -0.09713, 0.73362, -1.04706}, {-0.672, 1.24812, 0.06434, 0.14013, 0.1559, -0.40061, -0.88241, 0.26889, -0.96037, 0.1183}, {-0.09245, 0.10578, -2.04081, -0.09622, 1.72787, -0.12764, -0.09193, 0.75156, 0.1834, -0.14788}, {-0.81628, -0.64139, 1.14306, -0.6249, 1.34015, 0.35002, 1.00676, -1.00799, -0.78579, 0.81381}, {-0.03449, -0.25912, -1.02897, 0.21132, -0.54458, -0.45629, 0.15131, 0.13892, 0.25058, -0.21708}};
    Double_t biasesL1_29[15] = {1.75932, 1.5217, -0.68299, -2.8289, -0.87854, 1.23777, -0.13226, 0.73744, -2.68688, 1.25515, -1.626, 1.81367, -0.23842, 1.70552, -2.67628};
    nets[29].SetWeightsL1(weightsL1_29);
    nets[29].SetBiasesL1(biasesL1_29);
    
    Double_t weightsL2_29[1][15] = {{1.53535, -0.91037, -0.93782, 0.13649, -0.97345, 0.58342, 2.02259, 1.64983, 0.8128, 2.98521, 0.75007, -0.80977, 1.2363, -0.64227, -1.41917}};
    Double_t biasesL2_29[1] = {-3.57517};
    nets[29].SetWeightsL2(weightsL2_29);
    nets[29].SetBiasesL2(biasesL2_29);
    
    Double_t weightsL1_30[15][10] = {{0.04764, -0.40279, -0.42432, -1.12938, 0.48368, -0.07754, 0.03128, -0.0468, -0.01041, 0.80406}, {0.08517, -0.69068, -0.90816, -0.65057, -1.75681, -0.03673, 0.30852, 0.51933, -0.23776, -0.17049}, {-0.10599, 0.3279, 0.70987, -0.05685, -2.71211, 0.18024, 0.00773, -0.10063, -0.26121, 0.09173}, {0.27797, -0.95572, -1.85644, -0.9495, -0.31394, -0.09138, -0.99833, 0.14099, -0.86288, -0.42261}, {-0.0291, 0.17267, 0.40544, -1.96212, -0.55578, 0.02348, 0.13898, -0.00104, -2.0249, 0.22199}, {-0.93608, 0.04679, -0.14454, -1.67385, 0.67415, 0.06232, -0.47148, -0.13098, -0.67879, -0.80802}, {0.09815, -0.01434, -1.64136, -0.04571, 0.09253, 0.05724, 0.28653, 0.72151, -0.45345, 0.1418}, {0.13669, -0.15709, 0.18926, 0.00117, -1.19349, 0.08136, 0.07988, -0.20996, 0.2162, 0.26951}, {-0.21735, 0.24472, 0.42426, -0.18539, -0.25203, -0.46887, 0.39515, 0.32109, -0.06028, 0.24129}, {-0.11076, 0.05808, 2.46939, 0.03183, -1.5873, -0.09724, -0.05769, -0.03065, 0.01451, -0.16649}, {-1.11218, -0.87415, -1.4389, 0.1817, 1.62622, -1.07929, -0.46721, -0.32952, 0.41243, -1.39669}, {-0.24234, 0.97421, -0.08186, 0.365, -0.19977, -0.5747, -1.11818, 0.18531, -0.52351, -0.33606}, {0.03896, 0.33724, -1.84524, -0.0863, 1.21189, -0.04035, -0.12727, 0.69955, 0.137, 0.07247}, {-0.82578, 0.01853, 0.88061, -0.98213, 2.00564, 0.48515, 0.29137, -0.87857, -0.3092, 0.22215}, {0.36182, -0.03827, -0.69095, -0.29922, 0.08531, -2.04573, -0.20746, -0.23596, -0.15209, -0.76604}};
    Double_t biasesL1_30[15] = {2.08905, 1.60608, -1.60831, -3.38847, -0.44221, 1.68763, -0.16816, 0.34364, -1.89272, 1.52793, -1.79932, 1.23072, 0.08044, 1.45626, -1.96431};
    nets[30].SetWeightsL1(weightsL1_30);
    nets[30].SetBiasesL1(biasesL1_30);
    
    Double_t weightsL2_30[1][15] = {{1.08588, -0.90351, -1.22974, -0.09987, -0.67284, 0.77124, 1.81623, 2.07593, 1.17603, 2.54835, 0.67029, -0.65425, 1.13173, -0.3646, -0.43944}};
    Double_t biasesL2_30[1] = {-2.76913};
    nets[30].SetWeightsL2(weightsL2_30);
    nets[30].SetBiasesL2(biasesL2_30);
    
    Double_t weightsL1_31[15][10] = {{0.02823, -0.21895, -0.26088, -0.98779, 0.14368, -0.06732, 0.15053, -0.12488, 0.15078, 0.76709}, {-0.32978, -0.60289, -1.14869, -0.47327, -2.06832, -0.07036, 0.19692, 0.42045, -0.652, -0.42426}, {-0.03796, 0.16722, 1.178, -0.34035, -2.25356, 0.10707, -0.07172, -0.08653, -0.28835, 0.05661}, {1.85035, 1.22027, 0.31486, 1.04331, -0.73126, -0.35784, 0.30289, 0.38965, -0.75193, 0.10449}, {0.28334, 0.14802, 0.1499, -2.02353, -0.24115, 0.09958, -0.07168, 0.16572, -1.46495, 0.04878}, {-0.85347, -0.20871, 0.3032, -1.86633, 0.76856, 0.11124, -0.22993, -0.33189, -0.61835, -1.03193}, {-0.08042, 0.11743, -1.84939, 0.00054, 0.30619, 0.20177, 0.30002, 0.61589, -0.58514, 0.05201}, {-0.0032, -0.22646, 0.8907, 0.05059, -2.24729, 0.27795, -0.06861, -0.37861, 0.11051, 0.24697}, {-0.30623, 0.28405, -0.10806, -0.01194, -0.1343, -0.21116, 0.54635, 0.41652, -0.15906, -0.01419}, {0.05381, 0.01098, 2.41622, 0.10302, -1.65051, -0.20014, 0.03325, -0.10773, 0.12459, -0.08168}, {-1.06643, -0.71799, -1.5445, 0.34255, 1.15421, -0.778, -0.14933, -0.345, 0.49144, -0.96388}, {-0.84685, 0.85639, -0.37966, 0.47725, 0.46658, -0.105, -0.54572, 0.23264, -0.63003, -0.49743}, {-0.09803, 0.33656, -2.17155, 0.10676, 1.87559, -0.09162, -0.22114, 0.88155, 0.1766, 0.01241}, {-0.53678, -0.36019, 1.07743, -0.72197, 1.41806, 0.20373, 1.09699, -0.98913, -0.48812, 0.76698}, {0.26308, 0.07866, -2.99725, -0.04654, -0.17816, -0.60703, -0.12274, -0.90202, 0.42608, 0.14124}};
    Double_t biasesL1_31[15] = {1.78151, 1.82081, -1.06865, -0.46973, -1.07569, 2.02084, 0.01641, 0.65057, -1.63063, 1.45646, -1.7994, 1.04579, 0.01346, 1.86163, -3.37323};
    nets[31].SetWeightsL1(weightsL1_31);
    nets[31].SetBiasesL1(biasesL1_31);
    
    Double_t weightsL2_31[1][15] = {{1.44937, -0.77563, -0.99745, -0.34253, -0.63961, 0.60171, 1.69445, 1.60728, 0.94067, 1.96099, 0.47556, -0.8899, 1.21758, -0.5114, -1.06525}};
    Double_t biasesL2_31[1] = {-3.16352};
    nets[31].SetWeightsL2(weightsL2_31);
    nets[31].SetBiasesL2(biasesL2_31);
    
    Double_t weightsL1_32[15][10] = {{-0.28162, -0.24381, -0.44675, -1.07309, 0.39723, 0.31078, -0.10288, -0.13425, 0.16634, 1.17115}, {-0.15327, -0.40319, -1.55517, -0.50039, -2.53112, 0.01728, -0.0278, 0.70638, -0.67385, -0.14453}, {-0.17057, 0.21028, 1.15234, -0.01693, -1.8878, 0.09379, -0.13812, 0.00123, 0.0204, -0.33466}, {2.51444, 0.43265, 0.09786, -0.27506, -0.77085, -0.03833, -1.55562, 0.82131, -1.27464, -0.1332}, {0.17199, 0.08278, 0.32086, -2.36625, -0.41277, -0.13829, 0.09103, -0.03868, -2.09535, 0.03391}, {-0.78508, 0.05995, 0.19617, -2.13765, 0.57775, 0.07324, -0.81372, 0.00391, -0.9049, -0.7829}, {0.21517, 0.28066, -2.19752, -0.35488, 0.16511, -0.00952, 0.45409, 0.89433, -0.6461, 0.3245}, {-0.04345, -0.01829, 1.03327, 0.16579, -2.47092, 0.16521, -0.164, -0.27181, 0.16631, 0.2609}, {-0.41468, 0.2973, -0.23195, -0.51433, -0.31946, -0.06011, 1.72095, 1.0783, -0.76633, 0.5581}, {-0.04639, -0.16068, 2.24084, -0.01564, -1.60238, -0.11264, 0.0742, -0.36011, -0.06333, -0.12101}, {-0.8347, -1.14087, -0.83501, 0.22176, 1.06147, -0.29395, -0.27681, -0.14836, -0.08416, -0.70501}, {-0.97947, 1.32537, -0.06163, 0.50107, 0.34662, -0.31882, -0.87565, 0.39564, -0.49336, -0.0854}, {0.13375, 0.29024, -1.47091, 0.04542, 1.24147, -0.17342, -0.12045, 0.89308, 0.30238, -0.05646}, {0.66778, -0.42011, 0.70959, -1.1492, 1.3188, 0.2687, 1.04067, -1.10002, -0.57631, 1.32782}, {0.47219, -0.08001, -2.42789, -0.36311, 0.03546, -0.32963, 0.20382, -0.6157, 0.04047, 0.46134}};
    Double_t biasesL1_32[15] = {2.43503, 2.46709, -0.55647, 1.12486, -0.91339, 1.85119, 0.12177, 0.82693, -4.06625, 1.74853, -1.48592, 1.27752, -0.17635, 0.83709, -2.98053};
    nets[32].SetWeightsL1(weightsL1_32);
    nets[32].SetBiasesL1(biasesL1_32);
    
    Double_t weightsL2_32[1][15] = {{1.14973, -0.86065, -1.17979, -0.4376, -0.79605, 0.67682, 1.53868, 1.60168, 0.77216, 2.05805, 0.43412, -0.93075, 1.09234, -0.57317, -1.1919}};
    Double_t biasesL2_32[1] = {-3.29057};
    nets[32].SetWeightsL2(weightsL2_32);
    nets[32].SetBiasesL2(biasesL2_32);
    
    Double_t weightsL1_33[15][10] = {{-0.35387, -0.06135, -0.38438, -1.05954, 0.24836, 0.28624, -0.04425, -0.03866, 0.20763, 0.86365}, {0.03658, -0.30509, -0.8257, -0.24205, -1.82747, 0.18095, 0.24899, 0.52785, -0.47791, -0.24546}, {-0.20974, 0.04966, 1.28814, -0.10782, -2.22451, -0.01137, 0.01417, -0.07031, -0.28769, -0.38543}, {1.44009, -0.31393, 0.13655, -0.27452, 0.18755, -0.43179, -0.91073, 0.52559, -0.3487, -0.43022}, {0.1745, 0.07592, 0.43483, -1.83381, -0.59093, 0.03232, 0.00137, -0.19033, -1.52427, 0.18995}, {-1.22686, -0.01572, 0.56095, -2.3638, 0.79661, -0.07171, -0.42364, -0.15963, -1.12087, -1.13255}, {0.12831, 0.18567, -1.67185, -0.15702, 0.14359, 0.02679, 0.27211, 0.73196, -0.58886, 0.28191}, {0.14646, -0.09176, 0.73634, 0.05299, -2.01377, 0.10419, 0.06889, -0.24044, 0.06737, 0.24934}, {-0.18002, 0.28953, 0.14753, -0.54553, -0.64271, -0.37415, 1.16698, 0.76994, -0.27579, 0.30891}, {0.01012, -0.20152, 2.4409, 0.00478, -1.49432, -0.10683, 0.06761, -0.27721, 0.08029, -0.14176}, {-0.96051, -1.24627, -0.6726, -0.49686, 1.2748, -0.91944, -0.34291, -0.55201, 0.18389, -1.1758}, {-1.09587, 1.40665, -0.45265, 0.63265, 0.37164, -0.24585, -0.71007, 0.02495, -1.03897, 0.01343}, {0.10765, 0.21453, -2.87111, -0.16056, 2.42701, -0.29613, -0.1594, 1.06323, 0.2019, -0.24315}, {0.88165, -0.1049, 0.74873, -1.56346, 1.04341, 0.14864, 1.22215, -1.11475, -0.22914, 0.85871}, {0.60718, -0.45737, -1.76983, -0.5517, -0.05167, -0.21721, 0.36824, -0.81725, 0.01752, 0.46989}};
    Double_t biasesL1_33[15] = {2.04163, 1.73357, -0.98178, 0.98336, -0.79369, 2.20704, 0.0481, 0.57127, -3.22531, 1.54932, -2.18389, 1.70338, -0.23619, 0.7289, -2.52602};
    nets[33].SetWeightsL1(weightsL1_33);
    nets[33].SetBiasesL1(biasesL1_33);
    
    Double_t weightsL2_33[1][15] = {{1.32, -0.84747, -1.21611, -0.49282, -0.78695, 0.60084, 1.74132, 1.89387, 0.76248, 1.97776, 0.32522, -0.79982, 0.88168, -0.45504, -0.77047}};
    Double_t biasesL2_33[1] = {-2.89025};
    nets[33].SetWeightsL2(weightsL2_33);
    nets[33].SetBiasesL2(biasesL2_33);
    
    Double_t weightsL1_34[15][10] = {{-0.05501, -0.10681, -0.24455, -1.11938, 0.29313, 0.20704, -0.09207, -0.01154, 0.20656, 1.00312}, {-0.23594, -0.86565, -1.26992, -0.3611, -1.39861, 0.26379, 0.06774, 0.75884, -0.30278, 0.07515}, {-0.16924, 0.23721, 0.54703, -0.19542, -1.55665, -0.17593, 0.0102, -0.06153, -0.33693, -0.19621}, {1.68738, -0.1607, 0.11445, -0.15702, -0.25495, -0.17097, -0.96615, 0.495, -0.72509, -0.23331}, {-0.02132, 0.30449, 0.35252, -1.78849, -0.16698, 0.03528, -0.40617, 0.14137, -1.16938, -0.05506}, {-0.39381, 0.28087, 0.04283, -1.62957, -0.24061, -0.15454, 0.17107, -0.55031, -0.27788, -0.51904}, {-0.01263, 0.08749, -1.52971, -0.04145, 0.05889, 0.07496, 0.2089, 0.76413, -0.35928, 0.14453}, {0.05587, -0.17502, 1.44442, 0.21138, -3.0331, 0.20412, -0.00384, -0.44035, 0.08908, 0.18685}, {-0.14124, -0.52428, 1.93929, 0.05095, -1.14016, -0.07451, -0.06316, 0.43987, -0.24656, 1.77138}, {0.0724, -0.09607, 2.692, -0.04356, -1.78917, -0.06987, 0.01896, -0.28328, 0.04328, 0.01875}, {-0.91648, -1.25339, -1.67643, -0.10216, 1.42753, -0.75928, -0.69912, -0.48946, 0.42384, -0.76653}, {-0.97229, 1.68275, 0.25629, 0.66989, -0.20427, -0.3085, -0.83615, 0.35113, -0.8213, 0.14429}, {-0.07399, 0.16686, -2.02229, -0.00872, 1.97239, -0.24654, -0.08762, 0.6976, 0.13344, -0.19061}, {-0.52492, -0.53894, 0.64295, -1.15702, 0.86258, 0.2761, 0.60218, -0.95787, -0.67495, 0.39194}, {0.66969, -0.14335, -1.33175, -0.73206, -0.49623, -0.22638, 0.10016, -0.60657, 0.22122, 0.53832}};
    Double_t biasesL1_34[15] = {1.92645, 1.27258, -0.83325, 1.09237, -1.22484, 1.00358, -0.16049, 0.83465, -3.13651, 1.65896, -2.08422, 2.09511, -0.10612, 0.91373, -2.68733};
    nets[34].SetWeightsL1(weightsL1_34);
    nets[34].SetBiasesL1(biasesL1_34);
    
    Double_t weightsL2_34[1][15] = {{1.16968, -0.542, -0.99181, -0.61038, -0.68047, 0.77208, 2.15552, 1.30172, 0.45221, 2.28202, 0.54439, -0.79725, 1.33143, -0.47461, -1.09864}};
    Double_t biasesL2_34[1] = {-3.29403};
    nets[34].SetWeightsL2(weightsL2_34);
    nets[34].SetBiasesL2(biasesL2_34);
    
    Double_t weightsL1_35[15][10] = {{-0.03186, -0.39231, -0.47632, -1.31505, 0.53115, 0.28012, 0.18709, -0.34416, 0.29778, 1.24565}, {0.00856, -0.35242, -0.96686, -0.29539, -2.52907, 0.35109, -0.078, 0.44213, -0.25334, 0.15087}, {-0.23829, 0.06337, 1.05748, 0.01579, -2.07001, 0.04908, 0.00911, -0.1876, -0.36936, -0.34665}, {1.4472, -0.18574, 0.16782, -0.25644, 0.09266, -0.3068, -1.06787, 0.44816, -0.24854, -0.3149}, {0.11884, 0.47561, 0.30586, -2.15193, -0.70275, -0.1049, -0.33383, 0.01845, -1.49831, 0.13248}, {-0.78662, 0.13791, 0.13612, -1.94663, 0.59192, -0.12575, -0.68014, -0.19693, -0.48847, -0.62693}, {0.10062, 0.26543, -1.08314, -0.12659, -0.08166, 0.12141, 0.22728, 0.48902, -0.36443, 0.2575}, {0.11245, -0.13758, 0.7147, 0.04042, -2.10415, 0.16916, -0.1006, -0.14219, 0.18865, 0.22791}, {-0.51854, -0.38566, 0.2975, 0.03861, 0.1634, -0.31515, 0.37507, 0.09615, 0.28546, 0.27353}, {0.01877, -0.06411, 1.56533, 0.00989, -1.02115, -0.11259, 0.08872, -0.32686, 0.01293, -0.07779}, {-0.46961, -0.49655, -1.40552, -0.09985, 1.3049, -0.66773, -0.30025, -0.73001, 0.21106, -1.00778}, {-0.92353, 1.00185, -0.17653, 0.37373, 0.7187, -0.39595, -0.59256, 0.16695, -1.08537, 0.10618}, {-0.04017, 0.1776, -1.971, 0.04906, 1.56682, -0.20547, -0.04611, 0.91224, 0.12614, -0.13551}, {0.49639, 0.58708, 1.18608, -0.69118, -0.08269, -0.232, 0.92608, -0.77424, -0.17355, 0.4377}, {0.40528, -0.0655, -2.06201, -0.13666, -0.19833, -0.26004, 0.08017, -0.59694, 0.19727, 0.25696}};
    Double_t biasesL1_35[15] = {2.40857, 1.79319, -0.89533, 0.80273, -1.19982, 1.89318, -0.06243, 0.57846, -2.38624, 1.12646, -1.46736, 1.91016, -0.2703, 0.81055, -2.47365};
    nets[35].SetWeightsL1(weightsL1_35);
    nets[35].SetBiasesL1(biasesL1_35);
    
    Double_t weightsL2_35[1][15] = {{1.16432, -0.93743, -1.23081, -0.40103, -0.6936, 0.60183, 2.17825, 2.05459, 1.0628, 3.20232, 0.78528, -0.87509, 1.46874, -0.66302, -1.39001}};
    Double_t biasesL2_35[1] = {-3.14695};
    nets[35].SetWeightsL2(weightsL2_35);
    nets[35].SetBiasesL2(biasesL2_35);
    
    Double_t weightsL1_36[15][10] = {{-0.24732, -0.13267, -0.15841, -0.80391, 0.10677, 0.2474, 0.07473, -0.10596, 0.11635, 0.87042}, {0.03197, -0.61698, -0.98371, -0.54202, -2.08466, -0.1471, 0.28, 0.46785, -0.22027, -0.3244}, {-0.34079, 0.18779, 0.71708, -0.04162, -1.72944, 0.03456, -0.01421, -0.19727, -0.25913, -0.38842}, {0.91305, 0.54699, 0.28187, 0.46532, -0.59778, -0.45134, -1.19378, 0.42742, -0.43265, -0.74831}, {-0.17273, -0.17333, 0.00014, -1.77163, 0.02877, -0.10235, -0.00669, 0.05098, -1.89643, -0.21619}, {-1.27695, 0.14415, 0.33689, -1.89443, 0.61978, 0.01399, -0.86148, 0.05992, -0.68442, -1.07548}, {0.12187, 0.00351, -1.81189, -0.13753, 0.2318, -0.01658, 0.27185, 0.64706, -0.46555, 0.16849}, {0.10958, -0.21836, 0.5695, -0.04376, -1.85406, 0.1551, 0.02589, -0.21646, 0.09784, 0.19432}, {-0.39099, -0.40016, 0.58627, -0.37791, 0.2787, -0.43667, 0.85883, 0.25592, 1.00664, 0.74481}, {-0.09431, -0.03259, 2.35691, 0.14333, -1.56039, -0.19375, 0.03184, -0.17321, -0.00863, -0.14406}, {-0.5579, -1.00708, -1.18074, 0.05573, 1.33551, -0.56058, -0.39716, -0.39494, 0.16388, -0.92408}, {-0.63975, 0.68088, 0.14577, 0.29287, 0.28464, -0.20932, -0.4867, 0.2282, -0.56247, 0.05753}, {0.03054, 0.27169, -1.9793, 0.03182, 1.57459, -0.12934, -0.05272, 0.58029, 0.09615, -0.0287}, {0.52113, -0.67042, 0.15469, -0.65809, 0.93041, 0.2889, 0.61639, -0.7164, 0.15089, 0.64943}, {0.37384, -0.18116, -1.77082, -0.2701, 0.22305, -0.27158, 0.04304, -0.51054, 0.10298, 0.23712}};
    Double_t biasesL1_36[15] = {2.02078, 1.5593, -0.81032, 0.97665, -0.89241, 2.21877, -0.10207, 0.56097, -4.22959, 1.35351, -1.62943, 1.32346, -0.12736, -0.05988, -2.18311};
    nets[36].SetWeightsL1(weightsL1_36);
    nets[36].SetBiasesL1(biasesL1_36);
    
    Double_t weightsL2_36[1][15] = {{1.39445, -1.0788, -1.29366, -0.55173, -0.767, 0.71979, 1.76843, 2.27287, 0.86661, 2.3165, 0.79627, -1.10446, 1.53518, -0.50912, -1.32769}};
    Double_t biasesL2_36[1] = {-3.14425};
    nets[36].SetWeightsL2(weightsL2_36);
    nets[36].SetBiasesL2(biasesL2_36);
    
    Double_t weightsL1_37[15][10] = {{-0.1262, -0.21646, -0.32139, -1.01734, 0.22425, 0.04363, -0.11624, 0.138, 0.12344, 0.9629}, {-0.53663, -0.49716, -1.29966, -0.18009, -1.5095, 0.08449, -0.07812, 0.58243, -0.31368, -0.50293}, {-0.30749, 0.3644, 0.93229, -0.12303, -2.20753, -0.03858, 0.0218, 0.06223, -0.24879, -0.36903}, {0.62949, -0.24354, -0.05398, 0.26174, -0.07336, -0.03802, -0.84848, 0.39256, -0.16967, -0.3374}, {0.01524, 0.34136, 0.29636, -1.49127, -0.38345, -0.11337, -0.19914, 0.08882, -1.2699, -0.00284}, {-0.3136, 0.03093, 0.27693, -1.99135, 0.42087, -0.05343, -0.61886, -0.28039, -0.78525, -0.56265}, {-0.0091, 0.28774, -1.52148, -0.03576, -0.03518, 0.14238, 0.19619, 0.8546, -0.40184, 0.20956}, {0.0265, -0.16213, 0.8184, 0.08105, -2.38239, 0.23477, -0.02628, -0.46716, 0.15133, 0.07663}, {-0.76163, 0.19202, 0.42126, -0.0658, -0.15968, -0.67567, 0.78281, 0.22814, -0.00923, 0.24923}, {-0.05112, -0.07878, 2.78544, 0.04602, -1.85306, -0.28844, 0.10461, -0.3121, 0.04395, -0.27939}, {-0.6999, -0.97871, -0.60938, 0.073, 0.70377, -0.6268, -1.43053, 0.07547, 0.76212, -0.25845}, {-0.89058, 1.05247, -0.03355, 0.37062, 0.15508, -0.26841, -0.77966, 0.1815, -0.87068, -0.00572}, {-0.0954, 0.36083, -1.96752, -0.00589, 1.60159, -0.20435, -0.21969, 0.67455, 0.16592, -0.09915}, {-0.19248, 0.61908, 1.97823, 0.03432, 1.70224, 0.4269, -0.03743, -0.05866, -0.01058, 0.37479}, {0.32994, -0.09059, -1.23198, -0.4108, -0.05536, -0.17778, -0.02342, -0.52575, 0.03692, 0.31456}};
    Double_t biasesL1_37[15] = {1.78531, 1.44893, -0.79048, 0.50337, -0.49055, 1.82272, -0.06293, 0.69007, -2.93079, 1.78195, -1.92357, 1.50954, 0.08585, 1.3249, -1.59154};
    nets[37].SetWeightsL1(weightsL1_37);
    nets[37].SetBiasesL1(biasesL1_37);
    
    Double_t weightsL2_37[1][15] = {{1.01301, -0.57021, -0.92044, -0.47335, -0.84181, 0.72314, 1.72104, 1.55747, 0.88932, 1.75492, 0.40487, -0.74982, 1.18483, -0.35019, -1.10576}};
    Double_t biasesL2_37[1] = {-2.70175};
    nets[37].SetWeightsL2(weightsL2_37);
    nets[37].SetBiasesL2(biasesL2_37);
    
    Double_t weightsL1_38[15][10] = {{-0.29168, -0.01943, -0.44449, -1.14454, 0.19361, 0.41466, -0.12371, -0.14863, 0.14852, 1.18631}, {-0.03626, -0.14987, -1.35223, -0.27811, -1.97854, 0.15091, 0.37872, 0.66399, -0.42832, 0.06783}, {0.02995, 0.44015, 0.89933, -0.57307, -2.23551, -0.01926, -0.07576, -0.07265, -0.37605, -0.19184}, {1.94489, 0.08239, 0.71062, -0.05955, -1.11909, -0.40288, -1.49892, 0.83507, -0.97457, -0.11841}, {-0.0353, 0.07973, 0.42719, -1.58975, -0.41123, -0.06092, 0.09594, -0.14798, -1.76146, 0.0436}, {-0.64355, 0.12658, 0.11222, -1.72398, 0.4107, -0.24196, -0.19083, -0.14082, -0.74914, -0.69296}, {0.07439, 0.23003, -1.419, -0.07713, 0.1504, 0.17369, 0.28205, 0.50693, -0.33005, 0.30154}, {0.30361, -0.255, 1.36557, -0.0814, -2.96883, 0.30902, -0.03091, -0.48068, 0.11552, 0.30396}, {-0.33032, -0.17985, 1.10897, -0.12134, -0.44032, -0.28548, 0.56435, 0.0379, -0.30152, 1.36664}, {0.03301, -0.15857, 2.85373, 0.11328, -2.12214, -0.11899, 0.10136, -0.26433, 0.0552, -0.01184}, {-0.99365, -0.9149, -1.22392, 0.07798, 1.52353, -1.00274, -0.68604, -0.48388, 0.37347, -1.45028}, {-1.14055, 1.34885, -0.2017, 0.51145, 0.38515, -0.22674, -0.47443, 0.02839, -0.773, -0.01961}, {-0.00951, 0.22703, -2.31128, -0.11331, 2.25715, -0.38366, -0.16696, 0.91796, 0.17986, -0.19179}, {0.49118, -0.28736, 1.33393, -1.32461, 0.69797, 0.80162, 0.78177, -1.46524, 0.69747, 1.20545}, {0.62621, -0.1608, -2.36547, -0.25848, -0.07562, -0.27898, 0.29056, -0.65124, 0.10292, 0.48742}};
    Double_t biasesL1_38[15] = {2.2506, 1.95898, -1.15138, 1.71926, -0.77659, 1.54244, 0.16908, 0.79387, -2.86537, 1.74798, -1.87499, 1.8335, -0.25482, -0.17707, -2.75849};
    nets[38].SetWeightsL1(weightsL1_38);
    nets[38].SetBiasesL1(biasesL1_38);
    
    Double_t weightsL2_38[1][15] = {{1.17982, -0.73719, -0.81558, -0.56878, -0.8183, 0.66751, 2.11065, 1.39473, 0.61768, 1.7406, 0.50108, -0.95735, 0.94812, -0.56828, -1.0948}};
    Double_t biasesL2_38[1] = {-2.85095};
    nets[38].SetWeightsL2(weightsL2_38);
    nets[38].SetBiasesL2(biasesL2_38);
    
    Double_t weightsL1_39[15][10] = {{-0.08107, -0.00041, -0.15014, -1.34651, -0.11363, 0.26265, -0.09367, -0.0705, 0.4898, 1.4682}, {-0.05118, -0.9538, -1.17592, -0.43142, -1.71214, 0.10093, 0.10381, 0.84409, -0.11388, -0.25013}, {-0.14357, 0.2433, 1.43999, -0.20601, -2.67708, 0.08471, -0.16404, -0.11573, -0.24845, -0.09215}, {0.88716, 0.12174, 0.17408, 0.45967, -0.40491, -0.33688, -1.09986, 0.51432, -0.72294, -0.57261}, {0.15202, 0.35849, 0.2314, -1.81091, -0.33347, -0.15733, -0.20913, -0.1057, -1.32283, -0.14481}, {-1.35198, -0.26077, 0.44136, -2.6602, 0.55488, -0.40202, -0.32205, -0.48655, -0.69056, -1.19872}, {0.00569, 0.14897, -1.33395, -0.05355, -0.0407, 0.01728, 0.24973, 0.64128, -0.42413, 0.03916}, {-0.07568, -0.10044, 1.26215, 0.09591, -2.85428, 0.21563, -0.15929, -0.2457, 0.12763, 0.19975}, {-0.88152, -0.11981, 0.71083, 0.44402, -0.48499, -0.13137, 0.24398, -0.00789, -0.25017, 1.83748}, {0.01519, -0.09664, 2.4391, 0.11516, -1.52733, -0.17048, -0.11431, -0.13866, 0.07458, -0.11032}, {-0.35913, -1.09125, -0.46407, -0.07932, 1.05927, -0.70716, -0.54043, -0.66974, 0.16412, -0.79977}, {-1.06069, 1.1869, 0.00103, 0.26131, -0.03521, -0.36178, -0.58078, 0.1392, -1.069, -0.20659}, {0.03986, 0.21003, -2.16735, -0.25849, 1.90985, -0.16941, 0.01375, 0.66089, 0.03511, -0.05344}, {0.18428, -0.29188, 0.86996, -1.64304, 0.50038, 0.25681, 0.94101, -1.06897, -0.68415, 0.97295}, {0.72878, -0.27636, -1.34263, -0.53932, -0.09704, -0.44509, -0.02024, -0.20079, 0.36089, 0.29591}};
    Double_t biasesL1_39[15] = {2.39835, 1.81356, -0.9254, 0.75824, -1.54878, 2.07605, -0.16034, 0.66035, -2.64927, 1.48235, -1.69175, 1.62419, -0.11929, 0.45511, -2.3712};
    nets[39].SetWeightsL1(weightsL1_39);
    nets[39].SetBiasesL1(biasesL1_39);
    
    Double_t weightsL2_39[1][15] = {{1.27018, -0.7499, -1.17511, -0.5577, -0.79198, 0.62796, 2.13755, 1.66931, 0.43637, 2.33175, 0.58242, -0.81278, 1.20142, -0.64407, -1.17573}};
    Double_t biasesL2_39[1] = {-3.58583};
    nets[39].SetWeightsL2(weightsL2_39);
    nets[39].SetBiasesL2(biasesL2_39);
    
    Double_t weightsL1_40[15][10] = {{-0.04023, -0.22687, -0.44128, -1.34631, 0.17986, 0.01657, -0.0321, 0.04067, 0.34542, 0.98648}, {-0.33704, -0.33655, -0.61878, -0.25698, -2.06745, -0.01189, -0.08127, 0.39322, 0.07511, -0.25902}, {-0.22248, 0.04445, 0.31573, -0.75842, -1.40433, -0.25186, -0.0744, -0.2519, -0.04354, -0.69298}, {2.17337, -0.22093, -0.18298, -0.04978, -0.248, -0.02174, -1.04801, 0.79174, -0.16435, 0.18407}, {-0.39256, -0.22647, 0.64644, -1.96179, -0.12554, -0.31848, 0.18, 0.13965, -2.17792, -0.17986}, {-1.13678, 0.03757, 0.31695, -1.42513, 0.3952, 0.17311, -0.54325, 0.02188, -0.7131, -0.74105}, {-0.02832, 0.25155, -1.65712, 0.04915, 0.10329, 0.09225, 0.16197, 0.68422, -0.29726, 0.12203}, {-0.10795, -0.07248, 1.03697, 0.07219, -2.38848, 0.21287, -0.1039, -0.20818, 0.13305, 0.1675}, {-0.41406, -0.07003, 0.34264, -0.34176, 0.70344, -1.17006, 0.75316, -0.02292, 0.04134, 0.43715}, {0.05463, -0.15368, 2.22505, 0.02943, -1.25133, -0.23844, 0.07297, -0.15534, 0.0319, -0.2039}, {-0.64207, -0.59852, -0.75146, 0.04922, 0.61895, -0.56217, -0.53715, -0.25527, 0.17129, -0.86946}, {-0.8485, 1.17276, -0.5438, 0.72603, 0.94068, 0.00875, -0.49768, 0.05336, -1.02293, -0.19319}, {0.08952, -0.05801, -1.79764, -0.1152, 1.64868, -0.02888, 0.07819, 0.34854, 0.11276, 0.12967}, {-1.46101, 0.75602, 1.35085, -1.02557, -0.6202, 0.56872, -0.20379, -0.45055, 0.37731, 1.51979}, {0.50448, -0.28262, -1.68667, -0.44768, -0.09806, -0.37595, -0.02406, -0.71417, 0.28415, 0.22204}};
    Double_t biasesL1_40[15] = {2.17967, 1.37647, -0.92161, 1.24933, -0.6537, 1.49198, -0.04929, 0.85485, -3.7761, 1.2792, -1.33428, 1.35493, 0.14124, 0.1993, -2.41235};
    nets[40].SetWeightsL1(weightsL1_40);
    nets[40].SetBiasesL1(biasesL1_40);
    
    Double_t weightsL2_40[1][15] = {{1.16438, -0.90943, -0.69615, -0.52598, -0.80698, 0.69176, 1.88356, 2.23722, 0.85416, 2.17678, 0.71609, -0.75796, 1.88892, -0.25217, -1.03885}};
    Double_t biasesL2_40[1] = {-3.07115};
    nets[40].SetWeightsL2(weightsL2_40);
    nets[40].SetBiasesL2(biasesL2_40);
    
    Double_t weightsL1_41[15][10] = {{-0.00889, -0.15223, -0.26339, -1.22204, 0.13721, -0.13124, 0.11452, -0.03318, 0.05429, 0.88816}, {0.16663, -1.18415, -2.24866, -0.76495, -2.45703, 0.22892, 0.36833, 0.76981, -0.71831, -0.12153}, {-0.17682, 0.06461, 0.87475, -0.18253, -1.57602, 0.03827, 0.03042, -0.10127, -0.30618, -0.37195}, {1.55262, -0.26282, 0.18121, 0.11493, -0.33258, -0.17989, -1.06924, 0.38853, -0.40805, -0.12728}, {-0.06426, -0.12333, 0.32454, -2.45266, 0.02189, -0.47175, 0.35948, -0.09981, -2.7005, -0.08652}, {-1.28233, 0.03303, 0.11003, -1.92635, 0.66155, -0.23336, -0.834, -0.26837, -1.15592, -1.03592}, {0.13965, 0.19786, -1.54804, -0.04449, 0.02458, 0.08337, 0.23423, 0.6503, -0.37016, 0.22673}, {0.18148, -0.18583, 0.89813, -0.0969, -2.26284, 0.24963, -0.02374, -0.25646, 0.00407, 0.1968}, {-1.19127, -0.30315, 0.47196, 0.15026, 0.07185, -0.51635, 0.63911, -0.01587, 0.38051, 0.3562}, {-0.00932, -0.15552, 2.18102, 0.08974, -1.35972, -0.14566, 0.05801, -0.31333, 0.02437, -0.18103}, {-1.05093, -1.06492, -1.09935, 0.08613, 1.57579, -1.29006, -0.72828, -0.37233, 0.48846, -1.64605}, {-0.83556, 1.58298, 0.20179, 0.28209, 0.04359, -0.39411, -0.60182, 0.16495, -0.72998, 0.09011}, {-0.14637, 0.24007, -2.1824, 0.12041, 2.10625, -0.20353, -0.25444, 1.25004, 0.34924, -0.17559}, {-0.06835, 0.13963, 1.34434, -0.92265, 1.30457, -0.66434, -0.61134, 0.2474, -0.99289, -1.58485}, {0.70996, -0.46148, -1.6602, -0.58516, 0.05222, -0.31514, -0.06598, -0.64099, 0.06061, 0.41688}};
    Double_t biasesL1_41[15] = {2.17405, 2.75385, -0.58957, 1.25324, -0.39337, 2.23276, 0.00626, 0.72874, -4.06881, 1.49846, -2.1478, 1.70238, -0.24788, -0.97369, -2.56675};
    nets[41].SetWeightsL1(weightsL1_41);
    nets[41].SetBiasesL1(biasesL1_41);
    
    Double_t weightsL2_41[1][15] = {{1.22691, -0.80299, -1.19384, -0.53804, -0.60397, 0.72769, 2.15382, 1.76137, 0.89354, 2.36602, 0.56283, -0.83739, 0.96603, -0.17759, -0.93315}};
    Double_t biasesL2_41[1] = {-2.94244};
    nets[41].SetWeightsL2(weightsL2_41);
    nets[41].SetBiasesL2(biasesL2_41);
    
    Double_t weightsL1_42[15][10] = {{-0.30884, -0.25123, -0.35004, -0.9072, 0.36209, 0.08827, 0.01015, -0.01384, 0.0593, 0.67662}, {0.02532, -0.81301, -1.02319, -0.59256, -2.79032, 0.07749, 0.10903, 0.56218, -0.09368, -0.3735}, {-0.10552, -0.07639, 0.86904, -0.02059, -1.58889, 0.06305, 0.1224, -0.07764, -0.29529, -0.20859}, {1.626, -0.06369, 0.7038, 0.05974, -0.66333, 0.30132, -0.82948, 0.15303, -0.29162, -0.41177}, {-0.17575, 0.19181, 0.1777, -1.14381, -0.06761, -0.0231, -0.24711, -0.04043, -0.7094, -0.21768}, {-0.17328, 0.24732, 0.6795, -2.03314, -0.66763, -0.38378, 0.00713, -0.36676, -0.26268, -0.59895}, {0.05354, 0.23058, -1.91161, -0.11282, -0.05379, 0.00034, 0.26386, 0.5748, -0.42288, 0.13806}, {0.10122, -0.02987, 0.83955, 0.0376, -2.17962, 0.11257, -0.08936, -0.15745, 0.19144, 0.17229}, {-1.14498, -0.00687, 0.45777, 0.09626, 0.13332, -0.64617, 1.01776, 0.39578, 0.20304, 0.74313}, {0.01502, -0.06235, 2.36359, 0.01934, -1.31577, -0.11933, 0.00022, -0.12017, 0.09135, -0.11299}, {-0.85901, -0.80995, -0.86616, 0.01858, 0.914, -0.60221, -0.6084, -0.15273, 0.46749, -1.03088}, {-0.81659, 1.0295, 0.08059, 0.58649, 0.05654, -0.3573, -0.71684, 0.28727, -0.74384, -0.06583}, {-0.10367, 0.21729, -2.12746, 0.09546, 1.56793, -0.0589, 0.00345, 0.54416, -0.01919, -0.02562}, {-0.28026, -0.18538, -0.10157, -0.45623, 0.47339, 0.96379, 0.20692, 0.58409, -1.07986, 0.13776}, {0.3991, -0.04597, -1.0853, -0.34386, -0.03068, -0.22696, 0.22988, -0.4586, 0.24695, 0.14876}};
    Double_t biasesL1_42[15] = {1.93411, 1.75897, -0.67508, 1.10034, -0.50952, 0.64331, -0.31331, 0.54176, -4.4049, 1.27364, -1.71369, 1.37215, 0.0977, -0.63364, -1.85739};
    nets[42].SetWeightsL1(weightsL1_42);
    nets[42].SetBiasesL1(biasesL1_42);
    
    Double_t weightsL2_42[1][15] = {{1.15284, -0.82354, -1.31269, -0.25523, -1.36605, 0.74359, 1.753, 2.04437, 0.69126, 2.14726, 0.9014, -0.90602, 1.39395, 0.25963, -1.80526}};
    Double_t biasesL2_42[1] = {-3.29509};
    nets[42].SetWeightsL2(weightsL2_42);
    nets[42].SetBiasesL2(biasesL2_42);
    
    Double_t weightsL1_43[15][10] = {{-0.05925, -0.45879, -0.66702, -1.17965, 0.59545, 0.0923, 0.08198, -0.27946, 0.09666, 0.92053}, {-0.10274, -0.68776, -1.21141, -0.44697, -1.85372, 0.15134, 0.0179, 0.87483, -0.44859, 0.02216}, {-0.14555, 0.32301, 0.61879, -0.36309, -1.5272, 0.16145, 0.01749, -0.16701, -0.39977, -0.06282}, {1.54748, -0.38864, 0.0439, 0.0059, -0.19517, -0.13774, -0.90782, 0.2818, -0.23486, 0.12116}, {-0.55093, 0.04592, -0.21235, -1.18658, 0.65508, -0.03632, -0.06701, 0.16178, -0.10449, -0.51751}, {-0.89559, 0.41762, 0.40458, -1.97759, -0.23013, -0.15807, -0.65, 0.13161, 1.11579, -0.46563}, {0.04492, 0.16688, -1.35576, -0.03421, -0.01186, 0.02193, 0.16154, 0.55478, -0.32145, 0.14699}, {0.06931, -0.18776, 1.27368, 0.00332, -2.72625, 0.22624, -0.09746, -0.236, 0.04108, 0.19766}, {-1.38275, -0.17455, 0.64552, 0.0072, 0.55176, -0.88137, 1.0071, 0.31401, -0.40816, 0.07503}, {-0.01086, -0.09392, 2.20462, 0.01025, -1.28063, -0.15668, 0.06727, -0.04791, -0.00565, -0.18119}, {-0.6447, -0.4614, -1.02976, -0.04509, 0.74081, -0.22431, -0.35367, -0.17691, 0.57789, -0.55393}, {-0.6748, 0.80255, -0.10143, 0.47754, 0.23696, -0.18798, -0.45065, 0.1577, -0.7191, -0.06044}, {-0.05155, 0.14037, -2.1551, 0.08988, 1.93327, 0.1268, -0.12195, 0.42852, 0.21859, 0.1281}, {-1.59697, 0.57704, 0.63238, -0.59952, 0.70441, 1.45714, 0.68381, -0.25562, -1.36901, -0.41612}, {0.23291, -0.22678, -1.43455, -0.64804, -0.02229, -0.30713, -0.13806, -0.32625, 1.22639, 0.10931}};
    Double_t biasesL1_43[15] = {2.1973, 2.01047, -0.65989, 1.0606, -1.58434, 0.34901, -0.02498, 0.85314, -4.1218, 1.2564, -1.59196, 1.10427, -0.05532, 0.34079, -2.81563};
    nets[43].SetWeightsL1(weightsL1_43);
    nets[43].SetBiasesL1(biasesL1_43);
    
    Double_t weightsL2_43[1][15] = {{1.10367, -0.84291, -1.23119, -0.49115, -0.87399, 0.5603, 2.42832, 1.66798, 0.53299, 2.52946, 1.19079, -1.02272, 1.528, 0.10206, -1.2324}};
    Double_t biasesL2_43[1] = {-3.03128};
    nets[43].SetWeightsL2(weightsL2_43);
    nets[43].SetBiasesL2(biasesL2_43);
    
    Double_t weightsL1_44[15][10] = {{0.06417, -0.41683, -0.83288, -1.63455, 0.85904, 0.34467, 0.08351, -0.24815, 0.03868, 1.53276}, {-0.40406, -0.23234, -0.38976, -0.06219, -2.07275, -0.01707, -0.10732, 0.44034, -0.27637, -0.30378}, {-0.14877, 0.14695, 0.97839, -0.01688, -1.69714, 0.0402, -0.07862, -0.29704, -0.18185, -0.21098}, {1.51913, -0.39826, 0.17146, 0.0804, -0.05085, -0.33366, -1.40132, 0.77579, -0.46498, 0.04947}, {-0.26952, 0.10967, 0.39669, -1.97633, -0.00026, -0.28296, -0.05034, 0.36227, -0.49244, -0.62961}, {-0.98518, -0.3447, -0.33665, -1.90886, 0.40611, -0.03555, -0.46139, -0.33838, 0.75175, -0.54348}, {0.02959, 0.1705, -1.39603, -0.02236, -0.02575, 0.0242, 0.19932, 0.61541, -0.32446, 0.09144}, {-0.09645, -0.04463, 0.89488, 0.07259, -2.30105, 0.07926, -0.1203, -0.21864, 0.16707, 0.03365}, {-0.9216, -0.11528, 0.5401, -0.21529, 0.59957, -0.9233, 0.54193, 0.23733, -0.3445, 0.22968}, {0.00749, -0.06593, 2.09903, -0.00446, -1.27825, -0.18556, 0.04292, -0.22333, -0.07209, -0.14855}, {-0.63428, -0.70487, -1.3403, 0.09749, 0.68915, -0.42661, -0.64828, -0.26919, 0.41379, -0.54863}, {-0.92305, 1.16634, 0.02943, 0.54958, 0.20256, -0.14764, -0.67369, 0.08872, -1.02094, 0.20944}, {0.11256, 0.28561, -1.95297, -0.00178, 1.30386, -0.12515, -0.03685, 0.62111, 0.06368, 0.08129}, {0.75423, -0.38596, 0.04867, 0.34667, -1.65348, -0.81062, -0.32684, -0.92255, 0.77254, -0.19843}, {0.12739, 0.06156, -1.02822, -0.07406, -0.19555, -0.31802, -0.01246, -0.35993, -0.03245, 0.09937}};
    Double_t biasesL1_44[15] = {2.99211, 1.45671, -0.25836, 1.22652, -1.53998, 0.72955, -0.02848, 0.64937, -3.32317, 1.3409, -1.8356, 1.75781, -0.21134, 3.33352, -1.36784};
    nets[44].SetWeightsL1(weightsL1_44);
    nets[44].SetBiasesL1(biasesL1_44);
    
    Double_t weightsL2_44[1][15] = {{0.90856, -0.97894, -1.50552, -0.46393, -0.86604, 0.61233, 1.79655, 2.36289, 0.78848, 2.5623, 0.99613, -0.70182, 1.30202, 0.091, -1.62822}};
    Double_t biasesL2_44[1] = {-2.94989};
    nets[44].SetWeightsL2(weightsL2_44);
    nets[44].SetBiasesL2(biasesL2_44);
    
    Double_t weightsL1_45[15][10] = {{-0.12901, -0.09426, -0.121, -1.67028, 0.39642, 0.11519, -0.15115, -0.1758, 0.19439, 1.03842}, {0.08169, -0.34022, -1.15071, -0.61504, -1.48694, -0.00118, 0.28443, 0.48417, -0.24431, -0.00698}, {-0.04971, 0.11122, 0.96331, -0.19522, -1.84317, 0.01166, -0.02477, -0.22776, -0.15399, -0.27439}, {1.57844, -0.13396, 0.02004, -0.11974, -0.19915, -0.18928, -0.89424, 0.34945, -0.61746, -0.08011}, {-0.28662, 0.17403, 0.21767, -1.66555, 0.13326, -0.08154, 0.12572, 0.43138, -0.34192, -0.24733}, {-0.30264, -0.20389, 0.18749, -2.30844, 0.2241, 0.14263, -0.23073, -0.10889, 1.35368, -0.06919}, {-0.07812, 0.27319, -1.21154, 0.04483, -0.05709, 0.00267, 0.17715, 0.54074, -0.35083, 0.1053}, {0.0059, -0.13363, 0.58074, 0.03345, -1.57034, 0.15233, -0.04462, -0.17485, 0.14092, 0.11704}, {-0.75453, 0.04887, 0.438, -0.09122, 0.36092, -0.80775, 1.09666, 0.29819, 0.03697, 0.52474}, {0.12011, -0.0646, 2.22014, -0.03724, -1.34508, -0.20819, 0.01395, -0.13625, 0.11239, -0.09742}, {-1.50555, -1.1253, -0.77554, 0.34629, 1.22608, -0.83835, -0.61055, -0.41384, 0.49802, -1.67355}, {-0.69535, 0.80356, -0.06592, 0.40672, 0.34806, -0.15264, -0.41566, 0.25257, -0.94858, 0.1729}, {0.1848, 0.09269, -2.19478, -0.14002, 1.89481, -0.10751, -0.0391, 0.59085, 0.00456, -0.00096}, {-1.18391, -1.23327, 1.19605, -0.32455, -0.44952, -0.30233, 0.48811, 0.09859, -1.83924, -0.76413}, {0.64241, 0.07403, -1.36235, -0.68995, -0.27713, -0.1876, 0.1988, -0.2262, 0.36092, 0.45375}};
    Double_t biasesL1_45[15] = {2.83189, 1.51709, -0.80123, 1.05093, -1.83801, 0.43256, -0.01465, 0.43541, -3.73258, 1.25844, -1.98075, 1.51829, -0.06318, 4.91067, -2.25562};
    nets[45].SetWeightsL1(weightsL1_45);
    nets[45].SetBiasesL1(biasesL1_45);
    
    Double_t weightsL2_45[1][15] = {{0.99387, -1.00917, -1.58826, -0.45856, -0.63819, 0.61884, 2.51807, 2.51907, 0.72635, 2.24939, 0.39125, -1.18135, 1.38814, 0.44883, -1.33979}};
    Double_t biasesL2_45[1] = {-3.71665};
    nets[45].SetWeightsL2(weightsL2_45);
    nets[45].SetBiasesL2(biasesL2_45);
    
    Double_t weightsL1_46[15][10] = {{-0.13882, 0.13118, -0.13697, -1.0397, -0.10393, 0.26109, -0.12461, -0.09199, 0.30983, 1.22566}, {-0.22328, -0.20376, -0.65995, 0.01096, -1.7934, 0.1296, 0.05047, 0.41995, 0.02847, -0.04134}, {-0.07704, 0.08336, 0.85428, -0.208, -1.8315, 0.19058, 0.06387, -0.22335, -0.20712, -0.12807}, {1.64644, -0.38656, 0.51073, -0.34872, -0.32533, -0.12528, -0.42243, -0.04731, -0.46818, -0.06115}, {-0.06908, 0.12611, 0.20091, -1.04414, -0.03197, -0.00214, -0.13654, 0.13867, -1.06221, 0.08278}, {-0.528, 0.12062, 0.32712, -1.96668, 0.00481, -0.4229, 0.09972, -0.14923, -0.34484, -0.7074}, {0.06628, 0.13586, -1.40265, -0.03341, 0.04726, -0.04648, 0.1453, 0.69948, -0.32818, 0.08573}, {0.00983, -0.20184, 0.70747, 0.16943, -1.93485, 0.21806, -0.03586, -0.21503, 0.07295, 0.18815}, {-0.94081, 0.28606, -0.02108, 0.0476, 0.60037, -0.29501, 0.55832, 0.14656, -0.35374, 0.71546}, {-0.01556, -0.03249, 1.76395, 0.08351, -0.98466, -0.13822, -0.08812, -0.17139, 0.04453, -0.13309}, {-0.41701, -1.57163, -0.95366, -0.14492, 1.05536, -0.4721, -0.52014, -0.41911, 0.07104, -0.93989}, {-0.68855, 0.96774, 0.10792, 0.28606, 0.38272, -0.36923, -0.60501, 0.46972, -0.42793, -0.14177}, {-0.0168, 0.152, -2.17073, -0.10632, 2.09332, 0.07561, -0.03121, 0.64531, 0.07455, 0.02043}, {0.31993, -0.91997, -0.22526, -0.32584, -0.29768, -0.96515, -0.13412, 0.75914, 0.28848, -0.04952}, {0.84113, -0.42722, -0.98101, -0.53442, -0.26908, -0.42277, 0.22268, -0.66805, 0.25261, 0.31863}};
    Double_t biasesL1_46[15] = {2.43796, 1.24878, -1.00616, 1.09019, -0.79762, 1.32213, -0.11394, 0.607, -4.23849, 1.22571, -1.98951, 1.36568, 0.00866, 4.99742, -1.94522};
    nets[46].SetWeightsL1(weightsL1_46);
    nets[46].SetBiasesL1(biasesL1_46);
    
    Double_t weightsL2_46[1][15] = {{1.42443, -1.05113, -1.3633, -0.63161, -0.98579, 0.69935, 2.40742, 2.28771, 0.87903, 3.29548, 0.46241, -1.08432, 1.2827, 1.27419, -0.78179}};
    Double_t biasesL2_46[1] = {-5.14263};
    nets[46].SetWeightsL2(weightsL2_46);
    nets[46].SetBiasesL2(biasesL2_46);
    
