#include <bnn_ttbar_discr_CSVM_3t.hpp>

namespace ttbar_discr_CSVM_3t{

std::string const taskName("ttbar_discr_3t");
std::list<std::string> inputVarNames;
std::list<std::string> sgnFileNames;
std::list<std::string> bkgFileNames;


void Initialize()
{
	inputVarNames.push_back("log(glb_PtJ1)");
	inputVarNames.push_back("glb_Sphericity");
	inputVarNames.push_back("log(glb_SqrtSHat)");
	inputVarNames.push_back("abs(thq_EtaLJet)");
	inputVarNames.push_back("thq_CosLepLJetTH");
	inputVarNames.push_back("log(thq_MassHiggs)");
	inputVarNames.push_back("log(thq_PtHiggs)");
	inputVarNames.push_back("tt_DeltaRLightJets");
	inputVarNames.push_back("log(tt_MassTopHad)");
	inputVarNames.push_back("log(tt_MassWHad)");
	inputVarNames.push_back("log(tt_MaxMassBHadQ)");

	sgnFileNames.push_back("../tuples/thq-nc_mu.root");
	sgnFileNames.push_back("../tuples/thq-nc_e.root");
	bkgFileNames.push_back("../tuples/ttbar-semilep_mu.root");
	bkgFileNames.push_back("../tuples/ttbar-semilep_e.root");
}


Transform0::Transform0()
{
	mean[0] = 4.82994; sigma[0] = 0.447511;
	mean[1] = 0.272799; sigma[1] = 0.203629;
	mean[2] = 6.79036; sigma[2] = 0.461602;
	mean[3] = 2.30376; sigma[3] = 0.955276;
	mean[4] = 0.0352158; sigma[4] = 0.537811;
	mean[5] = 4.7177; sigma[5] = 0.210696;
	mean[6] = 4.73579; sigma[6] = 0.712773;
	mean[7] = 1.78166; sigma[7] = 0.782513;
	mean[8] = 5.30171; sigma[8] = 0.405254;
	mean[9] = 4.486; sigma[9] = 0.386935;
	mean[10] = 4.99101; sigma[10] = 0.426536;
}

void Transform0::operator()(Double_t *vars) const
{
	for (unsigned iVar = 0; iVar < 11; ++iVar)
		vars[iVar] = (vars[iVar] - mean[iVar]) / sigma[iVar];
}


NN::NN()
{}


void NN::SetWeightsL1(Double_t const weights[15][11])
{
	for (unsigned n = 0; n < 15; ++n)
		for (unsigned np = 0; np < 11; ++np)
			weightsL1[n][np] = weights[n][np];
}


void NN::SetBiasesL1(Double_t const biases[15])
{
	std::copy(biases, biases + 15, biasesL1);
}


void NN::SetWeightsL2(Double_t const weights[1][15])
{
	for (unsigned n = 0; n < 1; ++n)
		for (unsigned np = 0; np < 15; ++np)
			weightsL2[n][np] = weights[n][np];
}


void NN::SetBiasesL2(Double_t const biases[1])
{
	std::copy(biases, biases + 1, biasesL2);
}


Double_t const * NN::Apply(Double_t const *vars) const
{
	std::copy(vars, vars + 11, bufferIn);
	
	for (unsigned n = 0; n < 15; ++n)
	{
		bufferOut[n] = biasesL1[n];
	
		for (unsigned np = 0; np < 11; ++np)
			bufferOut[n] += weightsL1[n][np] * bufferIn[np];
	}
	
	for (unsigned n = 0; n < 15; ++n)
		bufferIn[n] = TMath::TanH(bufferOut[n]);
	
	for (unsigned n = 0; n < 1; ++n)
	{
		bufferOut[n] = biasesL2[n];
	
		for (unsigned np = 0; np < 15; ++np)
			bufferOut[n] += weightsL2[n][np] * bufferIn[np];
	}
	
	for (unsigned n = 0; n < 1; ++n)
		bufferIn[n] = 1. / (1 + TMath::Exp(-bufferOut[n]));
	
	return bufferIn;
}


BNN::BNN(UInt_t netBegin_, UInt_t netEnd_)
{
	SetNetRange(netBegin_, netEnd_);
	
	Double_t weightsL1_0[15][11] = {{-0.03469, 0.08497, 0.08937, 0.02977, 0.01878, -1.47157, 0.09899, -0.06325, 0.11551, 0.03863, -0.19166}, {0.0121, 0.339, 0.6898, 0.50806, 0.32342, 0.12096, -0.46211, -0.25179, -0.29058, 0.04304, 0.12529}, {-0.30743, 0.3797, 0.09147, 0.38922, 0.34598, -0.09557, -0.10189, 0.10562, -0.13934, 0.00726, 0.27741}, {0.49591, 0.13988, -0.25147, 0.48051, -0.22596, -0.06422, 0.34956, -1.52731, -2.9117, 0.10551, 0.39732}, {-0.11104, -0.03454, 0.01552, -0.40838, -0.2367, -0.38622, -0.34254, -1.1884, -0.01292, 0.60529, 0.27483}, {-0.03197, 0.32302, 0.10165, 0.07861, -0.0361, 0.06634, 0.22408, 0.17188, -3.10574, 1.44003, 0.10711}, {0.27085, -0.75252, -0.12544, -1.35086, -0.36927, -0.02567, 0.07429, 0.00437, -0.209, 0.0889, 0.27515}, {-0.12322, -1.95209, -0.01071, 0.07537, 0.03312, -0.01845, 0.02288, 0.00412, -0.06751, -0.00759, -0.07677}, {0.17237, -0.11694, -0.13072, -0.03108, -0.04131, -0.00532, 0.05917, -0.42945, -2.69069, -1.08651, 0.67848}, {0.07417, -0.04071, -0.02917, -0.04807, -0.026, -0.03373, 8e-05, 0.05304, -1.04678, 2.29548, -0.35311}, {-0.01269, 0.1352, 0.08559, -0.02961, 0.03966, -1.03123, -0.6934, -0.17482, 0.55455, 0.01367, -0.53532}, {-0.48364, 0.22971, -0.14123, 0.82049, -0.4884, 0.11149, 0.30592, 0.02583, -0.02683, 0.0417, -0.0164}, {0.21073, 0.23745, 0.21614, -0.40604, -0.22172, -1.9796, 0.32235, -0.07721, 0.35282, 0.02004, -0.16513}, {-0.06811, 0.08691, -0.0136, 0.04546, -0.07848, -0.05156, -0.07381, 0.01822, 3.80909, -1.54618, -0.39635}, {-0.28417, 0.04885, -0.03935, 0.02176, 0.0359, -0.00599, -0.11163, 0.2191, -0.66231, 0.80115, 0.60207}};
	Double_t biasesL1_0[15] = {1.66814, 1.49933, -0.4809, -2.22214, -2.25323, 0.09676, 0.05227, -3.44243, -0.18012, 0.88358, 1.19101, -1.67291, 3.46266, 1.85173, -1.23151};
	nets[0].SetWeightsL1(weightsL1_0);
	nets[0].SetBiasesL1(biasesL1_0);
	
	Double_t weightsL2_0[1][15] = {{2.68922, 1.59275, -1.98612, -0.57737, -1.20571, -0.67531, -0.99802, 4.84833, -1.07857, -1.18634, -1.30051, -1.36205, -1.20916, -1.51439, 1.60708}};
	Double_t biasesL2_0[1] = {3.24516};
	nets[0].SetWeightsL2(weightsL2_0);
	nets[0].SetBiasesL2(biasesL2_0);
	
	Double_t weightsL1_1[15][11] = {{0.0477, 0.12353, 0.12224, -0.04937, 0.01051, -1.54121, 0.07868, -0.03734, 0.14167, 0.08468, -0.26279}, {0.12995, 0.49424, 0.8102, 0.65565, 0.32201, 0.06881, -0.76174, -0.26777, -0.27496, 0.19026, 0.10098}, {-0.28546, 0.28002, 0.05916, 0.35384, 0.22454, -0.07978, 0.02865, 0.09557, -0.09874, 0.04774, 0.13866}, {0.36466, 0.11791, -0.19019, 0.48328, -0.09969, 0.0761, 0.09258, -0.82129, -2.38887, 0.11942, 0.74084}, {-0.09032, -0.04749, -0.01601, -0.39487, -0.18125, -0.30667, -0.31887, -1.29409, 0.43783, 0.5744, -0.20516}, {0.00278, 0.23212, -0.02911, 0.10989, -0.1081, 0.07807, 0.04221, -0.044, -3.01387, 1.71903, -0.27991}, {0.1822, -0.49736, -0.08292, -1.00035, -0.22848, 0.02655, 0.09958, -0.01488, -0.07795, -0.02996, 0.12485}, {-0.11398, -1.81685, -0.07066, 0.03657, -0.00741, -0.00918, 0.0276, -0.07374, 0.08389, -0.0169, -0.11407}, {0.08012, -0.01354, 0.05624, -0.09856, 0.03586, -0.1721, -0.04278, -0.35154, -1.69431, -2.01159, 0.52697}, {0.17666, -0.01542, 0.19761, -0.20612, 0.08998, 0.07329, -0.10366, 0.1221, -1.57619, 2.3403, -0.09373}, {0.11034, 0.16084, 0.10403, -0.05157, 0.06519, -0.91075, -0.73417, -0.13159, 0.48328, 0.06006, -0.52935}, {-0.37661, 0.0419, -0.34529, 0.74144, -0.62327, 0.00961, 0.47515, -0.03546, 0.51588, -0.16081, -0.40572}, {0.09728, 0.16418, 0.21622, -0.29611, -0.14423, -1.53693, 0.25628, 0.02301, 0.84785, -0.03773, -0.67643}, {-0.11285, 0.07389, -0.00079, 0.00765, -0.08891, -0.11713, -0.08682, 0.00754, 3.8009, -1.23585, -0.51337}, {-0.74283, -0.01608, 0.11944, -0.00819, 0.15651, -0.01668, -0.05278, 0.34667, -0.38242, 1.41007, 0.12864}};
	Double_t biasesL1_1[15] = {1.66158, 1.97499, -0.44266, -1.30984, -2.37521, -0.14184, 0.00327, -3.19688, 0.19357, 0.96186, 0.97717, -1.552, 2.56482, 1.96177, -1.79681};
	nets[1].SetWeightsL1(weightsL1_1);
	nets[1].SetBiasesL1(biasesL1_1);
	
	Double_t weightsL2_1[1][15] = {{2.68627, 1.488, -2.83217, -0.87892, -1.43095, -0.72339, -1.64825, 5.17989, -0.83405, -0.95053, -1.21335, -1.23862, -1.40321, -1.62319, 0.93709}};
	Double_t biasesL2_1[1] = {2.62834};
	nets[1].SetWeightsL2(weightsL2_1);
	nets[1].SetBiasesL2(biasesL2_1);
	
	Double_t weightsL1_2[15][11] = {{0.03898, 0.06175, 0.05498, -0.0556, 0.03481, -1.49705, 0.05059, 0.0289, 0.0723, -0.00072, -0.17448}, {0.00417, 0.37369, 0.65142, 0.54096, 0.27477, 0.04361, -0.50369, -0.1306, 0.03639, -0.00384, -0.03283}, {-0.23939, 0.28065, 0.02184, 0.28625, 0.3404, -0.13456, -0.0494, 0.06508, -0.0492, 0.03761, 0.11636}, {0.22941, 0.24672, -0.03715, 0.35955, -0.1319, -0.10556, 0.25874, -1.26171, -2.75678, 0.0849, 0.64852}, {-0.05681, -0.20974, -0.01409, -0.42974, -0.19327, -0.3206, -0.41892, -1.18458, 0.2852, 0.49975, 0.17395}, {-0.25356, 0.16826, 0.00867, -0.03592, -0.03005, 0.15024, 0.112, -0.08573, -3.72963, 1.87663, -0.04843}, {0.13563, -0.70136, -0.04288, -1.37002, -0.37143, -0.01842, 0.22493, 0.02145, -0.27944, 0.11144, 0.25282}, {-0.1381, -2.23269, -0.08685, 0.15528, 0.01901, 0.0094, 0.06442, -0.04358, 0.12597, -0.03269, -0.27102}, {0.21487, -0.11937, -0.08385, -0.04867, -0.03306, -0.0921, 0.03129, -0.46257, -2.79681, -1.70179, 1.05911}, {0.16296, 0.12513, 0.04171, -0.00415, -0.04698, 0.09831, -0.02245, 0.17916, -1.53089, 2.12619, -0.04661}, {0.06293, 0.10398, 0.06546, -0.01474, 0.06637, -0.90622, -0.55503, -0.04602, 0.30194, -0.01887, -0.31006}, {-0.31581, 0.16635, -0.17496, 0.65121, -0.25567, 0.0337, 0.26654, -0.03262, 0.22603, 0.03265, -0.3865}, {0.16756, 0.15434, 0.03196, -0.14685, -0.09748, -1.59779, 0.35385, -0.03119, 0.75315, -0.08223, -0.52596}, {-0.05277, 0.08036, 0.05067, -0.01115, -0.08653, -0.03948, -0.19536, -0.00128, 3.37139, -1.16702, -0.28592}, {-0.37729, -0.37528, 0.04673, -0.28642, 0.09036, -0.08602, -0.20761, 0.13901, -0.89924, 1.46776, 0.42522}};
	Double_t biasesL1_2[15] = {1.59599, 1.59958, -0.65321, -1.83708, -2.62404, -0.12031, 0.09552, -3.70854, 0.11123, 0.92329, 1.00326, -1.88386, 2.60978, 1.817, -1.54303};
	nets[2].SetWeightsL1(weightsL1_2);
	nets[2].SetBiasesL1(biasesL1_2);
	
	Double_t weightsL2_2[1][15] = {{2.91937, 1.95227, -1.78811, -0.7185, -1.23617, -0.62937, -0.91678, 3.81207, -0.86389, -1.09414, -1.77799, -3.58415, -1.10139, -1.65066, 0.99362}};
	Double_t biasesL2_2[1] = {-0.88793};
	nets[2].SetWeightsL2(weightsL2_2);
	nets[2].SetBiasesL2(biasesL2_2);
	
	Double_t weightsL1_3[15][11] = {{0.06983, 0.06059, 0.12876, -0.07024, 0.0398, -1.6259, 0.07648, -0.03018, 0.12389, 0.01939, -0.21457}, {0.02333, 0.41016, 0.89503, 0.54695, 0.33517, 0.07157, -0.72734, -0.10949, -0.055, 0.00556, 0.00943}, {-0.34907, 0.37447, 0.04871, 0.42948, 0.36183, -0.03002, 0.07259, 0.02463, -0.06396, 0.09025, 0.08102}, {0.40314, 0.07723, -0.08665, 0.37358, -0.12515, -0.03768, 0.07127, -1.24006, -2.65611, 0.01813, 0.80835}, {-0.20612, -0.12614, 0.13347, -0.47727, -0.14753, -0.34887, -0.47773, -1.55452, 0.26341, 0.88173, -0.03931}, {-0.11482, 0.26011, -0.00155, 0.09083, 0.10583, 0.08288, 0.10302, 0.04935, -3.35975, 1.45161, 0.22689}, {0.27894, -0.59079, -0.08856, -1.1635, -0.33412, -0.02049, 0.03729, 0.00138, -0.2674, 0.05622, 0.25306}, {-0.05891, -2.07125, -0.05025, 0.08682, -0.02048, 0.05717, -0.00497, -0.07373, 0.02336, -0.04073, -0.05631}, {-0.05503, 0.00869, 0.0766, -0.00662, -0.20043, -0.33672, 0.00161, -0.58998, -1.27067, -3.02089, 0.45041}, {0.07782, -0.06358, -0.00797, -0.07996, -0.08372, -0.02342, 0.03775, 0.17322, -1.56478, 2.38665, -0.34362}, {0.11078, 0.05186, 0.17041, -0.03825, -0.03243, -0.91073, -0.82827, -0.06223, 0.49125, 0.01987, -0.38649}, {-0.41096, 0.32407, -0.33365, 1.20166, -0.80713, -0.09863, 0.20385, -0.11202, 0.35415, 0.00444, -0.23009}, {0.38459, -0.07173, 0.2028, -0.42651, -0.1665, -1.80268, 0.32012, 0.01045, 1.07558, -0.21561, -0.79702}, {-0.16346, 0.16908, 0.02868, 0.05204, -0.01044, -0.03406, -0.14124, 0.11836, 3.5181, -1.00494, -0.43463}, {-0.41991, -0.11783, 0.18785, -0.16806, 0.13395, 0.06133, -0.04737, 0.15702, -0.8969, 1.53347, 0.13617}};
	Double_t biasesL1_3[15] = {1.68737, 1.72925, -0.51116, -1.75763, -2.63835, 0.06186, -0.01386, -3.33612, 0.22411, 0.87135, 1.05838, -2.18494, 2.96375, 2.00665, -1.16564};
	nets[3].SetWeightsL1(weightsL1_3);
	nets[3].SetBiasesL1(biasesL1_3);
	
	Double_t weightsL2_3[1][15] = {{2.27625, 1.37276, -1.65471, -0.73685, -0.89531, -0.85737, -1.17253, 3.63603, -0.65984, -0.87761, -1.12813, -0.97606, -1.03019, -1.52913, 0.98867}};
	Double_t biasesL2_3[1] = {2.14423};
	nets[3].SetWeightsL2(weightsL2_3);
	nets[3].SetBiasesL2(biasesL2_3);
	
	Double_t weightsL1_4[15][11] = {{0.07146, 0.09393, 0.07616, -0.0381, 0.06648, -1.43632, -0.01356, -0.00961, 0.04248, 0.03539, -0.13146}, {-0.0151, 0.52042, 0.84673, 0.61597, 0.24124, -0.03802, -0.65717, -0.19219, 0.21004, 0.04936, -0.12124}, {-0.30196, 0.31704, 0.05304, 0.36018, 0.2976, -0.0574, -0.06003, -0.01953, 0.02173, -0.00845, 0.0782}, {0.26341, 0.10112, 0.00912, 0.3297, -0.09619, -0.05384, 0.12425, -0.90463, -2.76868, 0.31639, 0.66123}, {-0.10769, -0.26175, 0.19738, -0.8561, -0.37122, -0.37637, -0.55214, -1.43329, 0.38099, 0.60527, 0.00473}, {-0.19439, 0.28955, 0.09172, 0.06841, 0.08125, 0.0228, 0.19049, 0.1781, -3.47793, 1.7197, 0.00757}, {0.27857, -0.55232, -0.11362, -0.99564, -0.27678, 0.03147, 0.12118, 0.04344, -0.00422, -0.03523, 0.04784}, {-0.11418, -2.28315, -0.03957, 0.08155, 0.027, -0.02514, 0.013, -0.08631, -0.172, 0.10044, 0.00153}, {-0.07927, -0.0322, 0.1205, -0.07442, -0.05131, -0.16508, 0.03048, -0.41591, -1.18911, -1.99552, 0.38914}, {0.22196, 0.04376, -0.00011, -0.00954, -0.04741, -0.05036, -0.04999, 0.06987, -1.48453, 1.9788, 0.06847}, {0.14726, 0.13621, 0.05052, -0.00024, 0.06555, -0.96018, -0.76745, -0.11899, 0.52521, 0.03675, -0.49549}, {-0.22329, 0.10263, -0.20513, 0.51798, -0.42102, -0.03465, 0.26751, -0.03085, 0.11818, 0.00336, -0.18381}, {0.13809, 0.31909, 0.37037, -0.28608, -0.08871, -1.69236, 0.27301, -0.03049, 0.67228, -0.00541, -0.46047}, {-0.13994, 0.11743, 0.04322, -0.02641, -0.01449, -0.05597, -0.11284, 0.15996, 3.70664, -1.13906, -0.42859}, {-0.58379, -0.38156, 0.08353, -0.293, 0.06808, 0.03997, -0.04718, 0.06556, -0.17298, 1.5637, -0.34559}};
	Double_t biasesL1_4[15] = {1.57472, 1.83958, -0.28627, -1.60461, -2.73336, 0.11177, -0.03487, -3.78434, 0.18428, 0.77593, 1.12169, -1.22985, 3.00822, 2.09956, -1.37226};
	nets[4].SetWeightsL1(weightsL1_4);
	nets[4].SetBiasesL1(biasesL1_4);
	
	Double_t weightsL2_4[1][15] = {{2.84231, 1.5843, -2.45179, -0.90997, -0.98206, -0.68301, -1.76083, 4.39284, -0.84854, -1.15006, -1.54989, -1.84469, -1.28807, -1.76631, 0.78438}};
	Double_t biasesL2_4[1] = {2.33486};
	nets[4].SetWeightsL2(weightsL2_4);
	nets[4].SetBiasesL2(biasesL2_4);
	
	Double_t weightsL1_5[15][11] = {{0.03003, 0.08711, 0.1439, -0.09805, 0.05852, -1.6368, 0.09036, -0.00534, 0.08625, 0.05298, -0.20565}, {0.00916, 0.37683, 0.76465, 0.43559, 0.32367, 0.01587, -0.69749, -0.12927, 0.10147, 0.03974, -0.10783}, {-0.36146, 0.47872, 0.12285, 0.43259, 0.3335, -0.08803, 0.0082, 0.0571, -0.12863, 0.05629, 0.0923}, {0.20785, 0.22456, -0.10524, 0.63792, -0.1404, -0.12617, 0.49739, -1.20895, -2.72354, 0.08317, 0.6934}, {-0.15408, -0.04506, 0.0431, -0.2311, -0.11172, -0.2045, -0.257, -0.93783, 0.05471, 0.3957, 0.1826}, {-0.09266, 0.16873, 0.07467, 0.06022, 0.03487, 0.13986, 0.07538, 0.00023, -4.09205, 2.12513, 0.00879}, {0.26749, -0.61264, -0.10155, -1.10292, -0.31397, 0.0669, 0.12006, 0.02137, 0.16323, -0.1275, -0.00989}, {-0.13489, -2.42555, -0.03832, 0.07498, 0.02677, -0.04063, 0.06226, -0.06798, 0.04861, -0.06114, -0.07805}, {0.0845, -0.0981, -0.09786, -0.00109, -0.02952, -0.0634, 0.04501, -0.40909, -2.87147, -1.16767, 0.93699}, {0.19595, 0.1159, 0.05807, -0.044, -0.00966, 0.02236, -0.05203, 0.37618, -1.42569, 2.28587, -0.29337}, {0.09483, 0.0982, 0.15979, -0.04725, 0.09212, -0.74189, -0.67056, -0.08856, 0.18554, 0.13795, -0.32692}, {-0.32824, 0.08216, -0.44288, 1.1238, -0.65831, 0.04396, 0.53362, -0.018, 0.19049, -0.15242, -0.19207}, {0.1526, 0.17882, 0.23311, -0.32233, -0.14366, -1.77605, 0.3216, -0.10396, 0.77821, -0.10661, -0.43179}, {-0.14729, 0.04066, -0.00486, -0.08776, -0.03752, -0.06414, -0.20116, -0.05401, 3.76213, -1.15987, -0.30515}, {-0.44468, -0.36194, 0.18402, -0.39566, 0.13372, 0.08796, -0.22654, 0.00492, -1.23117, 1.82992, 0.48093}};
	Double_t biasesL1_5[15] = {1.73446, 1.64477, -0.37837, -1.93388, -2.11031, -0.13683, 0.00853, -3.72546, -0.04765, 1.16139, 0.91011, -1.92736, 2.79942, 2.08487, -1.33827};
	nets[5].SetWeightsL1(weightsL1_5);
	nets[5].SetBiasesL1(biasesL1_5);
	
	Double_t weightsL2_5[1][15] = {{2.50603, 1.90081, -1.78509, -0.61741, -2.63466, -0.60003, -1.36935, 2.86979, -0.85048, -0.9673, -1.54926, -0.96102, -1.1576, -1.4493, 0.69212}};
	Double_t biasesL2_5[1] = {-0.48456};
	nets[5].SetWeightsL2(weightsL2_5);
	nets[5].SetBiasesL2(biasesL2_5);
	
	Double_t weightsL1_6[15][11] = {{0.05349, 0.04944, 0.11365, -0.00057, 0.0548, -1.61845, 0.11062, -0.00199, 0.11729, 0.0216, -0.25315}, {-0.01542, 0.49444, 0.87529, 0.63025, 0.38309, 0.15579, -0.61226, -0.15462, -0.26516, 0.12398, -0.00254}, {-0.28576, 0.36782, 0.03763, 0.46127, 0.3299, -0.03977, -0.03599, 0.09636, -0.32913, 0.11207, 0.24326}, {0.5614, 0.05156, -0.29031, 0.4507, -0.2794, -0.0277, -0.04163, -1.3346, -2.64848, 0.39421, 0.29442}, {-0.26794, 0.08155, 0.1493, -0.38498, -0.08626, -0.37303, -0.2835, -1.05637, 0.0363, 0.56288, 0.2742}, {-0.01577, 0.23526, 0.06661, 0.08699, 0.0361, 0.09384, 0.11486, 0.0143, -2.74302, 1.36545, 0.03851}, {0.19845, -0.62773, -0.03843, -1.23797, -0.42958, -0.0296, 0.13944, -0.01001, 0.45253, -0.20409, -0.10474}, {-0.15147, -1.71111, 0.01656, 0.14666, 0.04529, 0.0451, 0.03112, -0.0236, -0.12069, -0.09182, 0.05278}, {0.07852, -0.13849, -0.1035, -0.06061, -0.01811, -0.05547, 0.10787, -0.34139, -1.59458, -1.53264, 0.53249}, {0.1228, -0.02358, 0.0457, -0.06768, 0.06578, 0.02942, 0.01469, 0.15512, -1.4289, 2.25834, 0.03441}, {0.0176, 0.06606, 0.1059, -0.07069, -0.0232, -0.99297, -0.79866, -0.1772, 0.68458, 0.09428, -0.6927}, {-0.41699, 0.18, -0.10258, 0.74149, -0.44851, -0.03385, 0.26334, -0.04763, -0.25872, 0.12563, 0.13672}, {0.21801, -0.11652, 0.10673, -0.32825, -0.10677, -1.48724, 0.40287, 0.03867, 1.03208, -0.34151, -0.64531}, {-0.02942, 0.10799, 0.03658, -0.00737, -0.03672, -0.05009, -0.12345, 0.02479, 3.62484, -1.39902, -0.4851}, {-0.74829, -0.05475, 0.09696, -0.04124, -0.01584, -0.13431, 0.04334, 0.19681, -0.28547, 1.23718, 0.1125}};
	Double_t biasesL1_6[15] = {1.67899, 1.79682, -0.51431, -1.7263, -2.53483, -0.00931, 0.24485, -3.00243, 0.07837, 0.84584, 1.04896, -1.79511, 2.63332, 1.78005, -1.57136};
	nets[6].SetWeightsL1(weightsL1_6);
	nets[6].SetBiasesL1(biasesL1_6);
	
	Double_t weightsL2_6[1][15] = {{2.21559, 1.62241, -2.3456, -0.61458, -1.98421, -0.89358, -1.33523, 3.16137, -1.13607, -0.99524, -1.05544, -1.8676, -1.1256, -1.70092, 0.83539}};
	Double_t biasesL2_6[1] = {-0.21347};
	nets[6].SetWeightsL2(weightsL2_6);
	nets[6].SetBiasesL2(biasesL2_6);
	
	Double_t weightsL1_7[15][11] = {{-0.02286, 0.07467, 0.1213, -0.06515, 0.02359, -1.55618, 0.1238, -0.02436, 0.00209, 0.05646, -0.16231}, {0.05625, 0.50488, 0.84057, 0.57202, 0.29336, 0.05791, -0.66611, -0.20136, -0.23023, 0.03421, 0.09956}, {-0.42226, 0.39899, 0.16915, 0.3115, 0.31176, -0.18463, -0.03762, 0.04212, -0.09913, 0.01665, 0.18184}, {0.43986, 0.24963, -0.05255, 0.48134, -0.11789, -0.03917, 0.07396, -1.26484, -2.42259, 0.15253, 0.06558}, {0.04737, -0.28095, -0.038, -0.56403, -0.33157, -0.29108, -0.34879, -1.37484, -0.16138, 0.5288, 0.34462}, {-0.00531, 0.18253, -0.04622, 0.11159, -0.00939, 0.02628, 0.21199, 0.11917, -2.15633, 1.0434, 0.01504}, {0.35574, -0.798, -0.13636, -1.4307, -0.42685, 0.13401, 0.0474, -0.0265, 0.2942, -0.15644, -0.06401}, {-0.10628, -2.04221, -0.0489, 0.06268, -0.02783, -0.03476, 0.05913, -0.05322, -0.03329, -0.04591, 0.0228}, {0.08365, -0.14132, -0.10669, -0.06467, -0.03466, -0.11871, 0.03311, -0.47322, -2.20669, -1.68849, 0.52656}, {0.12652, -0.00348, 0.03143, -0.11493, 0.06516, 0.01216, 0.02066, 0.09611, -1.49104, 2.20304, -0.03545}, {-0.03806, 0.15441, 0.18017, -0.01568, -0.00079, -0.93598, -0.69961, -0.15657, 0.35846, 0.10176, -0.39063}, {-0.41738, 0.16385, -0.49125, 1.17145, -0.78136, -0.05358, 0.39008, -0.11532, -0.00375, -0.06574, 0.1558}, {0.11604, 0.37179, 0.21306, -0.22464, -0.14489, -1.74025, 0.38916, -0.05577, 0.22101, -0.00545, -0.12095}, {-0.05456, 0.04555, -0.0734, 0.01791, -0.11382, -0.07021, -0.06775, 0.02521, 3.28204, -1.40407, -0.01267}, {-0.37631, -0.12598, -0.00588, -0.08809, 0.03157, 0.06535, -0.07969, 0.21999, -1.00327, 1.43529, 0.5697}};
	Double_t biasesL1_7[15] = {1.66109, 1.81275, -0.33564, -1.69676, -2.45599, -0.25262, -0.05778, -3.35035, -0.0455, 0.92997, 1.00501, -2.13743, 3.11732, 1.82575, -1.48123};
	nets[7].SetWeightsL1(weightsL1_7);
	nets[7].SetBiasesL1(biasesL1_7);
	
	Double_t weightsL2_7[1][15] = {{2.32045, 1.6422, -1.51175, -0.5397, -1.01332, -1.14364, -0.92897, 3.79587, -0.82422, -1.07376, -1.13584, -0.92568, -0.91654, -1.81937, 0.94953}};
	Double_t biasesL2_7[1] = {2.34415};
	nets[7].SetWeightsL2(weightsL2_7);
	nets[7].SetBiasesL2(biasesL2_7);
	
	Double_t weightsL1_8[15][11] = {{0.01912, -0.01406, 0.0455, -0.05971, 0.08244, -1.605, 0.16029, -0.02055, 0.20502, -0.01538, -0.28769}, {-0.04853, 0.55549, 0.99438, 0.62732, 0.41805, 0.06374, -0.62862, -0.20798, -0.36093, 0.17306, 0.19955}, {-0.38749, 0.43866, 0.12565, 0.40868, 0.34729, -0.02468, -0.03744, 0.11623, -0.25603, -0.01479, 0.19755}, {0.37523, 0.1146, -0.14346, 0.4516, -0.08075, -0.04025, 0.19493, -1.06974, -2.72307, 0.30403, 0.5665}, {-0.06245, 0.08446, 0.19557, -0.44594, -0.10197, -0.24799, -0.32093, -0.78378, 0.38827, 0.34718, -0.07013}, {0.03763, 0.19028, 0.05144, 0.03131, -0.01328, -0.10828, 0.00192, -0.0802, -3.81167, 2.10867, -0.31267}, {0.21871, -0.60333, -0.09896, -1.14514, -0.38637, -0.05591, 0.17229, -0.07657, 0.23392, -0.01656, -0.03245}, {-0.10341, -1.95966, 0.00421, 0.10598, 0.0182, -0.01875, 0.04347, -0.03612, -0.00543, 0.00504, -0.18377}, {0.06043, -0.16894, -0.0959, -0.0749, -0.05194, -0.07486, 0.07383, -0.32178, -2.25395, -1.96136, 0.86585}, {0.11509, -0.04278, -0.00773, -0.08332, -0.00759, -0.06135, 0.00494, 0.14288, -1.36598, 2.03714, 0.03942}, {0.03397, 0.00671, -0.00384, -0.04253, 0.04735, -0.97952, -0.54709, -0.04184, 0.5253, -0.13476, -0.40998}, {-0.40369, 0.27054, -0.15886, 0.94801, -0.44808, -0.08274, 0.35839, -0.04348, 0.19192, 0.00509, -0.20459}, {0.11214, -0.14894, 0.01617, -0.30507, -0.15381, -1.46229, 0.50448, 0.02553, 1.0589, -0.26573, -0.79161}, {-0.03902, 0.04962, 0.05475, -0.06463, -0.08922, -0.05888, -0.15979, 0.00993, 3.76397, -1.26467, -0.54953}, {-0.68641, -0.05494, 0.14622, -0.10472, -0.02268, 0.05775, -0.1215, 0.37923, -0.22996, 1.01476, 0.21612}};
	Double_t biasesL1_8[15] = {1.63686, 1.77117, -0.39171, -1.55909, -2.21703, -0.2442, 0.09765, -3.53849, 0.12319, 0.92402, 1.02566, -1.87816, 2.36164, 1.87251, -1.45197};
	nets[8].SetWeightsL1(weightsL1_8);
	nets[8].SetBiasesL1(biasesL1_8);
	
	Double_t weightsL2_8[1][15] = {{2.5634, 1.23064, -1.99975, -0.79512, -1.5261, -0.67659, -1.30455, 5.42041, -0.83678, -1.11237, -1.27318, -1.53207, -0.95431, -1.69934, 0.78062}};
	Double_t biasesL2_8[1] = {2.99023};
	nets[8].SetWeightsL2(weightsL2_8);
	nets[8].SetBiasesL2(biasesL2_8);
	
	Double_t weightsL1_9[15][11] = {{-0.0364, 0.06132, 0.15993, -0.10948, 0.02325, -1.81076, 0.19605, 0.03638, 0.08107, 0.02766, -0.20808}, {-0.09757, 0.47974, 0.99299, 0.64826, 0.32733, 0.10735, -0.73764, -0.17863, -0.25164, 0.12122, 0.11179}, {-0.34845, 0.42204, 0.06402, 0.47067, 0.30761, -0.09574, 0.01571, -0.05667, 0.10776, 0.01596, -0.00225}, {0.49517, 0.07907, 0.0293, 0.46045, -0.0957, -0.15756, 0.31887, -1.18919, -2.50674, 0.00274, 0.32208}, {-0.19531, -0.16097, 0.0756, -0.44728, -0.2716, -0.25258, -0.36836, -1.15644, -0.54068, 0.65284, 0.72039}, {-0.11265, 0.11995, 0.04618, 0.04551, 0.05243, 0.0145, 0.13499, 0.06254, -2.66986, 1.14299, 0.16829}, {0.32329, -0.61506, -0.11995, -1.11378, -0.32987, 0.04928, 0.0339, 0.10099, -0.03928, -0.05983, 0.10461}, {-0.12358, -1.87796, -0.05085, 0.10144, -0.00131, -0.01365, 0.07674, -0.04864, 0.15977, -0.05632, -0.20065}, {0.05668, -0.10719, -0.05263, -0.05666, -0.04675, -0.1059, 0.07541, -0.37867, -1.74031, -1.64696, 0.45551}, {0.2209, -0.04361, -0.07936, 0.00063, -0.05849, 0.04565, -0.02343, 0.14761, -1.45042, 2.29357, -0.18002}, {0.03286, 0.05941, 0.06212, -0.08228, -0.10132, -0.93541, -0.89908, -0.12915, 0.40696, 0.17153, -0.46945}, {-0.3387, -0.11796, -0.25373, 0.63595, -0.56445, -0.03171, 0.3327, 0.0643, 0.41398, -0.09405, -0.43355}, {0.23081, 0.19519, 0.30513, -0.52312, -0.15981, -2.12508, 0.4808, 0.08538, 1.13165, -0.12934, -0.91555}, {-0.12756, 0.09491, 0.02024, 0.04015, -0.04276, -0.01469, -0.1112, -0.04397, 3.0141, -1.05579, -0.15507}, {-0.51575, -0.19513, 0.06869, -0.17578, 0.08322, 0.04041, -0.04418, 0.1332, -0.84374, 1.66386, 0.2037}};
	Double_t biasesL1_9[15] = {1.846, 1.92944, -0.27503, -2.08772, -2.46968, -0.19954, -0.03682, -3.30505, -0.05408, 0.84942, 1.18532, -1.67279, 3.42005, 1.71552, -1.38766};
	nets[9].SetWeightsL1(weightsL1_9);
	nets[9].SetBiasesL1(biasesL1_9);
	
	Double_t weightsL2_9[1][15] = {{1.96029, 1.24335, -2.24968, -0.59094, -1.59577, -1.10565, -1.67402, 5.14635, -0.89823, -1.0329, -0.91234, -1.24986, -0.85233, -1.9715, 0.84185}};
	Double_t biasesL2_9[1] = {3.06892};
	nets[9].SetWeightsL2(weightsL2_9);
	nets[9].SetBiasesL2(biasesL2_9);
	
	Double_t weightsL1_10[15][11] = {{0.03098, 0.09726, 0.16749, -0.03702, 0.04168, -1.60842, 0.10642, -0.04086, 0.14527, 0.0136, -0.24235}, {0.03274, 0.37713, 0.75116, 0.46396, 0.26038, 0.00463, -0.65053, -0.14857, 0.01672, -0.05613, 0.02477}, {-0.36092, 0.30872, 0.0639, 0.23848, 0.24087, -0.07242, 0.03979, 0.05766, 0.06948, -0.03168, 0.05442}, {0.40535, 0.04504, -0.03817, 0.2921, -0.18942, 0.00839, 0.15274, -0.9374, -1.89266, -0.17375, 0.4086}, {-0.00838, -0.01842, 0.0305, -0.29517, -0.20655, -0.29531, -0.32698, -0.93069, 0.26787, 0.25718, 0.04969}, {-0.0498, 0.17549, 0.10401, 0.01717, 0.05291, 0.02752, 0.06224, 0.02012, -3.35823, 1.58966, 0.16797}, {0.35564, -0.76032, -0.20084, -1.53503, -0.44982, 0.10969, 0.07991, 0.05836, -0.5928, 0.17775, 0.46953}, {-0.14372, -2.08652, -0.01304, 0.08741, 0.00211, -0.0433, 0.05283, -0.05868, 0.04035, -0.05711, -0.12404}, {0.00813, -0.08059, -0.02292, -0.00709, -0.02751, -0.11184, 0.09166, -0.27429, -2.48959, -1.32389, 0.73489}, {0.17457, -0.05838, 0.00875, -0.13536, -0.01406, 0.0207, -0.01824, 0.14033, -1.13819, 2.3399, -0.37282}, {0.07548, 0.08455, 0.20317, -0.09708, -0.00174, -0.99773, -0.70973, -0.1131, 0.43513, -0.05532, -0.37425}, {-0.34787, 0.02263, -0.23191, 0.79214, -0.53577, -0.05248, 0.28996, -0.00477, 0.41448, -0.01988, -0.42929}, {0.08868, 0.13178, 0.14544, -0.12914, -0.05823, -0.9989, 0.23173, -0.0095, 0.31628, 0.00858, -0.2498}, {-0.08246, 0.05752, -0.02605, 0.04383, -0.00765, -0.03368, -0.10652, -0.0152, 3.12863, -1.17285, -0.3331}, {-0.69996, 0.06125, 0.11448, -0.08039, 0.12396, -0.00876, -0.01572, 0.30708, -0.16353, 1.10034, -0.02617}};
	Double_t biasesL1_10[15] = {1.62066, 1.76076, -0.47203, -1.4688, -2.15328, -0.20533, -0.19124, -3.3806, 0.0171, 1.01652, 0.97416, -1.77136, 1.64307, 1.48871, -1.35644};
	nets[10].SetWeightsL1(weightsL1_10);
	nets[10].SetBiasesL1(biasesL1_10);
	
	Double_t weightsL2_10[1][15] = {{2.48901, 2.01606, -2.09104, -0.74421, -1.21837, -0.96919, -0.82207, 3.46929, -0.8975, -1.03543, -1.17093, -1.32749, -1.42834, -1.90203, 0.9695}};
	Double_t biasesL2_10[1] = {0.84457};
	nets[10].SetWeightsL2(weightsL2_10);
	nets[10].SetBiasesL2(biasesL2_10);
	
	Double_t weightsL1_11[15][11] = {{0.06284, 0.04269, 0.10798, -0.0401, 0.03103, -1.59128, 0.07605, 0.01972, 0.23003, 0.0609, -0.37064}, {0.06581, 0.47933, 0.94765, 0.40566, 0.46087, 0.01367, -0.90365, -0.17359, -0.06155, 0.11029, 0.02736}, {-0.36051, 0.21071, 0.04844, 0.15568, 0.4574, -0.13112, 0.08219, 0.05043, 0.18069, -0.04174, -0.03398}, {0.42721, 0.21487, -0.04588, 0.5469, -0.10371, -0.12829, 0.41738, -1.06216, -2.60697, -0.15001, 0.92935}, {-0.12311, -0.14396, -0.01113, -0.30907, -0.16161, -0.25522, -0.28486, -0.99177, 0.28845, 0.44343, -0.04198}, {-0.14374, 0.29975, 0.11222, 0.05928, 0.06013, 0.13137, 0.04457, 0.08991, -3.22319, 1.52789, -0.13669}, {0.01694, -0.63101, -0.11362, -1.39625, -0.43483, 0.00565, 0.27362, 0.03151, -0.30586, 0.07498, 0.3945}, {-0.15022, -2.12191, -0.01869, 0.09244, 0.02835, 0.01173, 0.04403, -0.05528, 0.22618, -0.04818, -0.32491}, {0.10831, -0.01046, -0.02706, 0.04587, 0.05757, -0.12276, -0.00649, -0.35442, -1.95017, -1.48047, 0.49325}, {0.16799, 0.13133, 0.11121, -0.05309, 0.02617, 0.01873, -0.14584, 0.0916, -1.6132, 2.39892, -0.09202}, {0.0903, 0.14676, 0.15135, -0.03479, 0.02986, -0.92695, -0.87872, -0.07602, 0.34801, 0.15044, -0.42504}, {-0.53508, 0.34741, -0.27442, 1.14726, -0.4551, 0.02765, 0.32898, -0.01582, 0.2061, -0.03604, -0.29351}, {0.23803, 0.08768, 0.20366, -0.41335, -0.09285, -1.87896, 0.34642, 0.09905, 1.31047, -0.19941, -0.99197}, {-0.12295, 0.06775, 0.00148, 0.00466, 0.00583, -0.02558, -0.19672, 0.01553, 3.80525, -1.18451, -0.66347}, {-0.51264, -0.4587, 0.04606, -0.27615, 0.11342, 0.07511, -0.13129, 0.13432, -0.39857, 1.44103, -0.18993}};
	Double_t biasesL1_11[15] = {1.68852, 1.75235, -0.65353, -2.01284, -1.95768, 0.00654, -0.15083, -3.51017, 0.01011, 1.00987, 1.00207, -1.90065, 3.25572, 1.94357, -1.1541};
	nets[11].SetWeightsL1(weightsL1_11);
	nets[11].SetBiasesL1(biasesL1_11);
	
	Double_t weightsL2_11[1][15] = {{2.30439, 1.54453, -1.10109, -0.66188, -1.40662, -0.75292, -0.79505, 3.45957, -0.84489, -1.08191, -1.21219, -1.18349, -1.07395, -1.55748, 0.81913}};
	Double_t biasesL2_11[1] = {1.342};
	nets[11].SetWeightsL2(weightsL2_11);
	nets[11].SetBiasesL2(biasesL2_11);
	
	Double_t weightsL1_12[15][11] = {{0.02434, 0.15789, 0.19036, -0.0564, 0.00607, -1.52241, -0.01714, -0.0492, 0.03638, 0.0797, -0.16557}, {0.0553, 0.41529, 0.82, 0.47361, 0.39058, 0.00412, -0.77513, -0.05199, 0.15387, -0.00461, -0.11148}, {-0.23383, 0.30526, -0.04705, 0.41921, 0.34928, -0.18319, -0.01305, 0.05604, -0.07804, 0.01375, 0.14562}, {0.25554, 0.25882, 0.03325, 0.48097, -0.08247, -0.04606, 0.326, -1.13404, -2.9487, 0.23412, 0.73906}, {-0.19981, -0.05484, 0.18861, -0.39814, -0.1949, -0.17897, -0.47819, -1.23363, -0.04886, 0.68569, 0.37089}, {-0.03517, 0.24779, -0.03042, 0.08453, 0.0189, 0.08057, 0.02562, 0.0612, -3.99002, 2.24574, -0.24114}, {0.10883, -0.51095, 0.05103, -1.08928, -0.37514, 0.15713, 0.14242, 0.01741, -0.12753, 0.03917, 0.19288}, {-0.12052, -1.80741, -0.03093, 0.192, 0.00051, 0.02338, 0.03725, -0.05301, 0.16979, -0.07781, -0.26874}, {0.02684, -0.13535, -0.00212, -0.07503, 0.04028, -0.00493, 0.01708, -0.39461, -2.60223, -1.47538, 0.6383}, {0.09198, 0.08019, 0.16935, -0.1986, -0.00022, 0.0271, -0.05524, 0.10535, -1.57077, 2.37911, -0.06241}, {0.10768, 0.1816, 0.24295, -0.0207, 0.06761, -0.80952, -0.76581, -0.07044, 0.393, 0.05685, -0.44627}, {-0.33346, 0.17926, -0.1793, 0.85484, -0.3088, 0.08207, 0.19213, -0.02365, 0.05489, -0.07722, -0.14583}, {0.15749, 0.27024, 0.34807, -0.30934, -0.02106, -1.63424, 0.27428, 0.00512, 0.13226, 0.13187, -0.22993}, {-0.05076, 0.09092, 0.06846, -0.02397, -0.01942, -0.08141, -0.27493, 0.04441, 3.81374, -1.15478, -0.61797}, {-0.29417, -0.39693, 0.12587, -0.20817, 0.16293, 0.08215, -0.20973, 0.15046, -1.0907, 1.45743, 0.49532}};
	Double_t biasesL1_12[15] = {1.6677, 1.56966, -0.40392, -1.88757, -2.52029, 0.09456, 0.13025, -3.26647, -0.05056, 0.8827, 0.98118, -1.90949, 2.89095, 1.92978, -1.23629};
	nets[12].SetWeightsL1(weightsL1_12);
	nets[12].SetBiasesL1(biasesL1_12);
	
	Double_t weightsL2_12[1][15] = {{2.62207, 1.7559, -1.84176, -0.79115, -1.26835, -0.6044, -1.32818, 4.50127, -0.91954, -0.95403, -1.66608, -2.66424, -1.16856, -1.61627, 0.91477}};
	Double_t biasesL2_12[1] = {1.12589};
	nets[12].SetWeightsL2(weightsL2_12);
	nets[12].SetBiasesL2(biasesL2_12);
	
	Double_t weightsL1_13[15][11] = {{0.0596, 0.05498, 0.10722, -0.03283, 0.00806, -1.54119, 0.03023, -0.01, 0.25021, 0.0964, -0.41979}, {-0.04379, 0.36105, 0.672, 0.41036, 0.28064, 0.07029, -0.517, -0.17585, -0.24198, 0.13903, 0.10663}, {-0.39277, 0.44235, 0.11065, 0.42883, 0.23398, -0.11718, 0.03228, 0.08985, -0.05659, 0.03248, 0.02927}, {0.46366, 0.26077, 0.10321, 0.35064, -0.12281, -0.05816, -0.22542, -1.10442, -1.81134, -0.1095, 0.16162}, {-0.09741, -0.0642, 0.02703, -0.26498, -0.05213, -0.29698, -0.26861, -1.07658, 0.12232, 0.44698, 0.13144}, {0.0172, 0.11399, -0.06014, 0.07994, -0.04088, 0.16591, 0.15941, -0.00363, -3.30582, 1.42973, 0.24456}, {0.32678, -0.62647, -0.02784, -1.15544, -0.32161, 0.06276, 0.03438, -0.02757, -0.06633, 0.01342, 0.17381}, {-0.08315, -2.54222, -0.0591, 0.06436, 0.01536, 0.07169, 0.00406, -0.09384, -0.02279, 0.01512, -0.15013}, {0.0531, -0.12058, -0.12301, -0.07748, -0.0433, -0.03779, 0.05372, -0.34934, -1.02079, -1.72478, 0.11207}, {0.16743, -0.13905, -0.04388, -0.17315, 0.03267, -0.03101, -0.0356, 0.163, -1.40333, 2.09954, 0.06949}, {0.09366, 0.12106, 0.08623, 0.06674, 0.015, -0.92262, -0.73192, -0.11517, 0.69998, 0.05785, -0.70393}, {-0.43618, 0.19991, -0.46933, 1.28171, -1.00787, 0.02946, 0.4428, -0.09603, 0.34893, 0.05765, -0.3811}, {0.21039, 0.08931, 0.22909, -0.25914, -0.14205, -1.68431, 0.3099, -0.10551, 1.11949, 0.00831, -1.0803}, {-0.05747, 0.00073, -0.05385, -0.0105, -0.06759, 0.01818, 0.01366, -0.01333, 2.71192, -0.98466, -0.17854}, {-0.76128, 0.07275, 0.10074, 0.07979, 0.06809, -0.08108, 0.12991, 0.35159, 0.00735, 1.16752, -0.2538}};
	Double_t biasesL1_13[15] = {1.72245, 1.60776, -0.412, -1.54678, -2.19964, -0.02453, 0.00352, -3.64307, 0.10045, 0.85713, 1.09596, -2.37351, 2.89135, 1.55049, -1.58683};
	nets[13].SetWeightsL1(weightsL1_13);
	nets[13].SetBiasesL1(biasesL1_13);
	
	Double_t weightsL2_13[1][15] = {{2.63481, 2.22297, -2.53572, -0.64756, -1.71071, -0.90719, -1.3864, 2.18963, -0.98654, -1.13687, -1.39088, -0.78012, -1.15014, -1.85637, 0.80791}};
	Double_t biasesL2_13[1] = {-0.45983};
	nets[13].SetWeightsL2(weightsL2_13);
	nets[13].SetBiasesL2(biasesL2_13);
	
	Double_t weightsL1_14[15][11] = {{0.00045, 0.04231, 0.11252, -0.07298, 0.0079, -1.47667, 0.07827, -0.03376, 0.1774, 0.07869, -0.29906}, {0.0094, 0.47796, 0.9206, 0.62761, 0.42516, 0.0857, -0.68137, -0.18898, -0.08322, 0.19346, -0.12571}, {-0.18529, 0.1987, 0.20612, -0.01873, 0.52182, -0.09309, -0.18208, 0.16265, -0.26364, 0.07521, 0.41102}, {0.20031, 0.21566, -0.12894, 0.42298, -0.16034, -0.12666, 0.36109, -1.202, -2.87134, 0.35034, 0.48028}, {-0.12405, -0.0101, -0.05722, -0.15554, -0.22231, -0.39973, -0.20671, -1.20071, 0.06841, 0.47913, 0.22463}, {-0.054, 0.24933, -0.03226, 0.04416, -0.0337, 0.0828, 0.10511, 0.05399, -3.42613, 1.60899, 0.16919}, {0.25254, -0.72236, -0.28296, -1.32052, -0.48114, 0.03781, 0.3029, 0.063, -0.24374, -0.02507, 0.14633}, {-0.11148, -2.17503, -0.14045, 0.16478, 0.00121, 0.02547, 0.0872, -0.03745, 0.35129, -0.11065, -0.33953}, {-0.001, -0.14977, 0.02518, -0.10336, -0.00317, -0.13361, 0.09732, -0.34877, -2.13553, -1.59372, 0.51229}, {0.06893, 0.16542, 0.07313, 0.01628, -0.0371, -0.01233, -0.01454, 0.05476, -1.32734, 2.12608, -0.24759}, {-0.00508, -0.00257, 0.02465, -0.05524, 0.01039, -0.93575, -0.50344, -0.11609, 0.55067, 0.07996, -0.58416}, {-0.30487, 0.28828, -0.2118, 0.92169, -0.1416, -0.02945, 0.20143, 0.06796, 0.10468, -0.09038, -0.18173}, {0.0512, 0.02518, 0.24082, -0.30264, -0.14835, -1.49659, 0.30906, -0.08164, 0.44022, 0.01261, -0.35679}, {-0.1346, 0.09311, 0.03853, -0.08214, -0.05321, -0.02144, -0.09874, 0.02584, 3.02319, -1.02928, -0.25258}, {-0.34769, -0.28966, 0.26644, -0.27494, 0.22278, 0.01169, -0.18608, 0.31427, -1.39373, 1.48584, 0.70281}};
	Double_t biasesL1_14[15] = {1.65573, 1.91472, -0.55437, -1.79045, -2.35606, -0.03958, -0.13372, -3.50553, -0.00733, 0.78691, 1.04407, -1.84904, 2.50781, 1.68422, -1.23082};
	nets[14].SetWeightsL1(weightsL1_14);
	nets[14].SetBiasesL1(biasesL1_14);
	
	Double_t weightsL2_14[1][15] = {{3.15682, 1.31138, -1.09012, -0.60038, -1.48595, -0.77888, -0.66409, 3.45802, -0.88208, -1.08194, -1.58682, -2.37511, -1.60514, -1.89036, 0.95904}};
	Double_t biasesL2_14[1] = {0.73027};
	nets[14].SetWeightsL2(weightsL2_14);
	nets[14].SetBiasesL2(biasesL2_14);
	
	Double_t weightsL1_15[15][11] = {{0.01846, 0.05016, 0.13467, -0.02768, 0.05462, -1.44293, 0.00914, 0.00277, 0.09282, 0.05307, -0.24371}, {-0.00708, 0.55954, 0.86627, 0.74018, 0.3066, 0.10799, -0.72186, -0.15462, -0.2607, 0.11692, 0.15893}, {-0.35461, 0.41654, 0.06938, 0.45741, 0.28861, -0.06607, 0.00517, 0.02498, -0.10554, 0.04047, 0.17523}, {0.2044, -0.10025, -0.15944, 0.31489, -0.15735, 0.03829, 0.30715, -0.95398, -2.63506, 0.25053, 0.84005}, {-0.09715, -0.0538, 0.13928, -0.48078, -0.28022, -0.38422, -0.56966, -1.30003, -0.32327, 0.6758, 0.64381}, {-0.04463, 0.15635, -0.01657, 0.08203, 0.02109, -0.00673, 0.04894, -0.00105, -3.52696, 1.80289, -0.24341}, {0.25713, -0.66574, -0.06865, -1.24797, -0.30204, 0.00739, 0.1111, -0.01343, 0.08011, 0.00741, -0.03824}, {-0.09773, -2.0302, -0.03972, 0.06713, 0.0155, -0.02746, 0.05378, -0.02237, 0.11666, -0.09447, -0.14308}, {0.05379, -0.07833, -0.01163, -0.11002, 0.03456, -0.07806, 0.00147, -0.39174, -1.65358, -2.7711, 0.51543}, {0.09864, 0.09213, 0.09413, -0.03052, 0.038, 0.04167, 0.07938, 0.21832, -1.56483, 1.96293, 0.01862}, {-0.01651, 0.09621, 0.14263, -0.05878, 0.04513, -0.83691, -0.45538, -0.02336, 0.34405, 0.01187, -0.4134}, {-0.24459, 0.11486, -0.43783, 0.95341, -0.70011, 0.03147, 0.39165, 0.01826, 0.46692, -0.12535, -0.38835}, {0.37645, -0.09047, 0.25697, -0.41885, -0.15304, -1.82576, 0.20115, -0.10916, 0.63862, 0.03627, -0.5635}, {-0.07342, 0.14789, 0.04771, 0.02104, -0.04005, -0.07298, -0.22986, 0.16163, 3.74393, -1.05987, -0.55419}, {-0.38436, -0.09082, 0.17659, -0.19473, 0.11204, 0.04385, -0.17744, 0.20002, -0.50154, 1.33016, -0.08869}};
	Double_t biasesL1_15[15] = {1.50109, 1.83464, -0.37924, -1.54492, -2.30378, -0.10587, 0.072, -3.55258, 0.12903, 0.81912, 0.91261, -1.77471, 3.05752, 2.0241, -1.17401};
	nets[15].SetWeightsL1(weightsL1_15);
	nets[15].SetBiasesL1(biasesL1_15);
	
	Double_t weightsL2_15[1][15] = {{2.816, 1.3864, -2.10613, -0.99821, -0.85089, -0.68585, -1.40458, 5.52709, -0.6693, -1.02287, -1.97331, -1.07618, -0.81086, -1.71361, 0.97951}};
	Double_t biasesL2_15[1] = {4.01864};
	nets[15].SetWeightsL2(weightsL2_15);
	nets[15].SetBiasesL2(biasesL2_15);
	
	Double_t weightsL1_16[15][11] = {{0.14528, 0.02552, 0.09754, -0.00846, 0.0047, -1.65452, 0.04713, -0.00317, 0.47927, 0.01898, -0.56728}, {-0.01201, 0.29638, 0.56944, 0.36893, 0.22348, -2e-05, -0.4849, -0.11154, -0.13865, 0.08131, 0.11233}, {-0.40145, 0.44451, 0.09128, 0.44947, 0.25308, -0.08155, 0.00926, 0.04513, 0.05018, 0.01387, 0.03086}, {0.52229, 0.27171, 0.11951, 0.48841, -0.07707, -0.01532, 0.06524, -1.44234, -2.44095, 0.04405, 0.51371}, {-0.03279, -0.37945, 0.19268, -0.84851, -0.27144, -0.26119, -0.50282, -1.09972, 0.84483, 0.53995, -0.41465}, {-0.1627, 0.23818, 0.11165, 0.12061, 0.03408, -0.04538, 0.15819, 0.06089, -3.03221, 1.49517, -0.06255}, {0.33828, -0.65934, -0.06662, -1.13154, -0.3131, 0.06247, 0.03065, -0.00552, -0.22332, -0.01925, 0.31492}, {-0.10028, -1.88102, 0.00028, 0.07275, 0.00542, 0.0237, 0.00384, -0.06694, 0.0845, -0.0386, -0.14422}, {0.03106, -0.09301, -0.06075, -0.02821, -0.05382, -0.08509, 0.08518, -0.44231, -2.11725, -1.55975, 0.95407}, {0.21015, 0.06146, 0.00728, -0.04699, -0.04514, 0.04113, -0.06422, 0.11518, -1.22311, 2.03424, -0.26431}, {0.17806, 0.02548, 0.16877, 0.02277, 0.05045, -0.82905, -0.7684, -0.10976, 0.82017, 0.02833, -0.8112}, {-0.35209, -0.00677, -0.21172, 0.77521, -0.6726, 0.06547, 0.31873, -0.05784, 0.02025, 0.06382, -0.06019}, {0.42862, -0.14444, 0.0465, -0.25749, -0.1999, -1.92038, 0.33557, 0.05844, 1.21439, -0.26731, -0.77941}, {-0.10732, 0.09243, -0.02848, 0.07199, -0.04301, -0.08518, -0.10015, 0.01448, 3.60376, -1.28976, -0.28677}, {-0.59671, -0.12924, 0.08851, -0.04945, -0.01473, -0.00435, 0.03525, 0.18572, -0.62377, 1.14836, 0.40932}};
	Double_t biasesL1_16[15] = {1.70649, 1.28445, -0.23741, -1.97349, -2.70695, -0.07818, -0.00169, -3.50016, -0.03188, 0.85047, 0.90978, -1.83348, 2.9608, 1.9036, -1.34213};
	nets[16].SetWeightsL1(weightsL1_16);
	nets[16].SetBiasesL1(biasesL1_16);
	
	Double_t weightsL2_16[1][15] = {{2.33981, 2.21947, -2.41873, -0.61462, -1.14334, -0.73737, -1.53115, 6.25922, -0.94456, -1.13459, -1.35681, -1.14291, -0.91006, -1.45551, 1.01746}};
	Double_t biasesL2_16[1] = {4.00665};
	nets[16].SetWeightsL2(weightsL2_16);
	nets[16].SetBiasesL2(biasesL2_16);
	
	Double_t weightsL1_17[15][11] = {{0.07503, 0.09165, 0.18255, -0.08336, 0.04631, -1.60122, 0.00254, -0.00065, -0.11666, 0.11591, -0.05781}, {-0.02331, 0.37004, 0.80785, 0.45156, 0.29863, -0.0115, -0.68187, -0.15871, -0.30076, 0.16008, 0.14291}, {-0.37724, 0.40911, 0.1221, 0.40234, 0.24882, -0.15174, 0.004, 0.01267, 0.02761, -0.01188, 0.05733}, {0.40192, 0.20554, 0.02391, 0.35347, -0.11614, -0.11851, 0.14274, -1.02656, -2.77703, 0.26164, 0.49614}, {-0.20928, -0.0539, 0.2437, -0.61863, -0.17512, -0.36744, -0.49612, -1.48594, -0.25638, 0.83194, 0.56289}, {-0.02126, 0.01844, -0.09506, 0.04023, -0.01059, 0.0713, 0.17929, 0.01504, -3.52173, 1.55761, 0.21946}, {0.31419, -0.67538, -0.07289, -1.28868, -0.28421, 0.13847, 0.06038, 0.11221, -0.43186, 0.02707, 0.29447}, {-0.14749, -2.3174, -0.0326, 0.04965, 0.02868, 0.0015, 0.03189, -0.04216, -0.04317, -0.06798, -0.03586}, {0.04502, -0.07771, 0.0432, -0.02079, 0.06043, -0.12542, -0.0498, -0.42954, -1.74885, -1.45422, 0.40781}, {0.1444, 0.0862, -0.02617, 0.02009, -0.01223, -0.04126, 0.03088, 0.09615, -1.26121, 1.89677, -0.2593}, {0.22508, 0.08983, 0.16526, -0.07039, 0.05639, -1.06559, -0.95452, -0.11722, 0.23455, 0.1169, -0.31131}, {-0.36312, 0.03688, -0.35565, 0.66714, -0.76065, -0.04809, 0.38859, -0.15663, 0.21039, 0.10904, -0.25928}, {0.11655, 0.28386, 0.23604, -0.15191, -0.07058, -1.4782, 0.18126, -0.02781, 0.27068, 0.12924, -0.19689}, {-0.12851, 1e-05, -0.02975, -0.01482, -0.07706, -0.00481, -0.14413, -0.03437, 3.4286, -1.03254, -0.32188}, {-0.33451, -0.19955, 0.1762, -0.14468, 0.07337, 0.0404, -0.16137, 0.0788, -1.28929, 2.05032, -0.0298}};
	Double_t biasesL1_17[15] = {1.6721, 1.6681, -0.34691, -1.84471, -2.26324, -0.11845, -0.1579, -3.40772, 0.0247, 0.57667, 1.16006, -1.88276, 2.57191, 1.89047, -1.20115};
	nets[17].SetWeightsL1(weightsL1_17);
	nets[17].SetBiasesL1(biasesL1_17);
	
	Double_t weightsL2_17[1][15] = {{2.49621, 1.52995, -2.01403, -0.59475, -0.86416, -0.7909, -1.2084, 2.1629, -0.8523, -1.12614, -1.15265, -1.09708, -1.30156, -1.74681, 0.88376}};
	Double_t biasesL2_17[1] = {0.66026};
	nets[17].SetWeightsL2(weightsL2_17);
	nets[17].SetBiasesL2(biasesL2_17);
	
	Double_t weightsL1_18[15][11] = {{0.06576, 0.09243, 0.10294, 0.00377, 0.06071, -1.64706, 0.09876, 0.00114, 0.38748, -0.069, -0.39515}, {-0.11935, 0.42923, 0.72462, 0.60799, 0.34235, 0.09015, -0.52737, -0.17121, -0.06832, 0.11365, 0.01352}, {-0.23616, 0.3578, 0.03303, 0.32432, 0.3102, -0.0129, -0.04916, 0.10497, 0.08622, -0.08628, -0.03717}, {0.31402, 0.06319, -0.32194, 0.48946, -0.29996, -0.12192, 0.16582, -1.20371, -2.74973, 0.26623, 0.36175}, {-0.13433, -0.01911, 0.11792, -0.18043, -0.04306, -0.16803, -0.23392, -0.98704, -0.17353, 0.59502, 0.21732}, {-0.02225, 0.29067, 0.06354, 0.11461, -0.09969, 0.02336, 0.21559, -0.10544, -4.53944, 1.63556, 0.67481}, {0.31553, -0.71525, -0.15884, -1.3815, -0.40349, -0.02432, 0.2165, -0.01314, -0.22964, 0.11049, 0.1226}, {-0.1726, -2.31086, -0.03607, 0.12403, -0.00615, -0.02385, 0.04997, -0.03192, 0.15409, 0.01065, -0.21188}, {-0.09134, 0.0468, 0.27854, -0.0481, 0.00905, -0.16551, -0.14229, -0.6731, -1.69533, -2.67783, 0.27943}, {0.04253, -0.06494, 0.01781, -0.12125, 0.08079, 0.0176, 0.02992, 0.04604, -2.30056, 2.63984, -0.1125}, {0.12009, 0.09018, 0.04097, 0.05404, -0.02865, -1.023, -0.8663, -0.00355, 0.92895, -0.11159, -0.7153}, {-0.33478, 0.10768, -0.14249, 0.6461, -0.42369, -0.06588, 0.20587, -0.04055, -0.02068, 0.11276, -0.07386}, {0.21304, 0.19568, 0.21119, -0.25532, -0.17935, -1.68984, 0.35526, -0.10205, 1.34541, -0.14624, -1.11827}, {-0.0967, 0.09778, 0.0619, -0.00156, -0.05704, -0.02926, -0.09429, 0.03233, 2.58051, -0.54537, -0.10358}, {-0.2066, 0.05489, 0.1051, -0.01175, -0.0332, 0.13148, -0.04689, 0.12447, -1.69449, 2.14201, -0.02742}};
	Double_t biasesL1_18[15] = {1.71142, 1.7648, -0.33506, -1.78155, -2.4133, -0.18441, -0.09812, -3.44736, 0.1849, 0.40232, 1.11559, -1.62445, 2.80207, 1.76529, -0.77522};
	nets[18].SetWeightsL1(weightsL1_18);
	nets[18].SetBiasesL1(biasesL1_18);
	
	Double_t weightsL2_18[1][15] = {{2.14863, 1.70735, -1.86304, -0.56427, -3.59673, -0.82282, -1.02484, 2.5013, -0.53009, -0.93526, -0.97655, -1.92425, -0.93945, -1.73584, 0.9175}};
	Double_t biasesL2_18[1] = {-3.05518};
	nets[18].SetWeightsL2(weightsL2_18);
	nets[18].SetBiasesL2(biasesL2_18);
	
	Double_t weightsL1_19[15][11] = {{-0.0455, 0.09824, 0.16544, -0.03199, 0.05722, -1.60284, 0.12217, -0.04148, -0.12774, 0.15746, -0.07929}, {-0.05369, 0.27424, 0.66198, 0.44281, 0.2578, 0.05801, -0.47456, -0.09539, -0.1857, 0.02422, 0.15789}, {-0.29819, 0.58561, 0.12334, 0.46475, 0.39257, 0.02519, -0.00247, 0.03695, -0.35309, 0.13667, 0.24249}, {0.41225, -0.00403, -0.29008, 0.49348, -0.2115, 0.06504, 0.24852, -1.23158, -3.63303, 0.57766, 0.90898}, {-0.1323, 0.09757, 0.23116, -0.20099, 0.00695, -0.15292, -0.28343, -0.87559, -0.22763, 0.54281, 0.26422}, {-0.00895, 0.21762, 0.02812, 0.02636, 0.06331, 0.16469, -0.0012, 0.11941, -4.234, 1.79171, 0.32742}, {0.20263, -0.59323, -0.03965, -1.12836, -0.26288, -0.03432, 0.11247, 0.06, 0.03472, -0.0356, 0.00975}, {-0.14868, -2.40117, -0.05643, 0.07474, -0.02194, -0.001, 0.0009, -0.08327, -0.15956, 0.0231, 0.02101}, {-0.0489, -0.04607, 0.04517, -0.00358, 0.03148, -0.1615, 0.06222, -0.34553, -1.98255, -2.4804, 0.73452}, {0.12112, -0.1554, 0.05415, -0.07643, -0.04401, -0.15667, 0.00116, 0.14758, -1.54224, 2.42035, -0.53165}, {-0.02343, 0.07753, 0.06327, 0.0103, -0.02286, -0.79539, -0.52381, -0.13982, 0.02547, 0.22973, -0.14801}, {-0.33006, 0.1076, -0.21199, 0.74257, -0.40697, -0.03851, 0.23666, -0.06388, 0.1988, -0.01585, -0.24043}, {-0.0658, 0.2126, 0.21993, -0.36794, -0.16448, -2.04181, 0.58607, -0.00035, 0.13227, 0.13932, 0.0385}, {-0.16203, 0.06041, 0.08959, -0.08347, -0.00621, -0.03477, -0.17628, 0.0823, 3.52504, -1.03538, -0.3212}, {-0.3522, 0.15476, 0.219, -0.0819, 0.13424, 0.0892, -0.05296, 0.1972, -1.17003, 1.5092, 0.12835}};
	Double_t biasesL1_19[15] = {1.71731, 1.49767, -0.55206, -1.93824, -2.29141, -0.15737, 0.06513, -3.69834, 0.27003, 0.73389, 0.85038, -1.61546, 3.23236, 1.96569, -1.06319};
	nets[19].SetWeightsL1(weightsL1_19);
	nets[19].SetBiasesL1(biasesL1_19);
	
	Double_t weightsL2_19[1][15] = {{2.26861, 1.95285, -1.71223, -0.67854, -3.15755, -0.6607, -1.2218, 3.22357, -0.7274, -0.74558, -1.30015, -1.84444, -0.8945, -1.60037, 0.91363}};
	Double_t biasesL2_19[1] = {-1.89129};
	nets[19].SetWeightsL2(weightsL2_19);
	nets[19].SetBiasesL2(biasesL2_19);
	
	Double_t weightsL1_20[15][11] = {{0.04061, 0.08664, 0.14129, -0.09673, 0.05709, -1.68258, 0.03697, 0.0066, 0.21103, 0.05675, -0.33598}, {0.00412, 0.49618, 0.78792, 0.54296, 0.39279, 0.05257, -0.74142, -0.06486, 0.40568, -0.07681, -0.3044}, {-0.45374, 0.45876, 0.00932, 0.54534, 0.21733, -0.01704, 0.16001, 0.03303, -0.29128, 0.05476, 0.24183}, {0.31126, 0.18007, 0.0167, 0.43094, -0.0969, -0.12233, 0.11806, -1.11845, -2.21957, 0.25056, 0.2178}, {-0.17506, -0.04772, 0.11944, -0.48254, -0.18031, -0.14863, -0.39488, -1.13544, 0.08139, 0.55516, 0.24459}, {-0.10512, 0.28842, 0.109, -0.05308, 0.0268, -0.03921, 0.03325, 0.12667, -3.89846, 2.22321, -0.91253}, {0.38448, -0.682, -0.03442, -1.18687, -0.28993, 0.03375, -0.00041, -0.00037, 0.18576, -0.0631, -0.07776}, {-0.04572, -2.41783, -0.08936, 0.07928, 0.01012, 0.01492, 0.04383, -0.00277, 0.29256, -0.08243, -0.45866}, {0.17948, -0.17764, -0.20973, -0.08411, 0.04251, -0.08846, 0.04102, -0.27846, -2.1493, -1.53338, 0.61347}, {0.17932, 0.00299, 0.00254, -0.10747, 0.03675, -0.03851, -0.07125, 0.26261, -1.7489, 2.13793, 0.09885}, {0.09606, 0.04214, 0.07364, -0.12332, 0.04866, -0.94356, -0.79414, -0.11202, 0.51238, 0.11037, -0.58367}, {-0.31126, -0.00788, -0.3024, 0.86915, -0.74689, -0.02198, 0.35463, -0.01884, 0.41259, 0.02813, -0.46898}, {0.49945, -0.05877, 0.35157, -0.54901, -0.16215, -1.84706, 0.04783, -0.04911, 1.64601, -0.22121, -1.38961}, {-0.0449, 0.14912, 0.0506, 0.01369, -0.03976, -0.05111, -0.23747, 0.08171, 4.05743, -1.3, -0.58611}, {-0.68617, -0.48018, -0.01262, -0.17554, -0.1029, 0.04027, 0.07849, 0.10546, -1.42668, 1.8733, 0.79863}};
	Double_t biasesL1_20[15] = {1.75829, 1.71951, -0.24656, -1.5988, -2.27746, -0.11135, 0.02794, -3.81111, 0.1039, 0.88251, 1.04179, -2.07345, 3.15239, 2.11943, -1.65298};
	nets[20].SetWeightsL1(weightsL1_20);
	nets[20].SetBiasesL1(biasesL1_20);
	
	Double_t weightsL2_20[1][15] = {{2.20052, 1.54555, -2.38829, -0.73522, -1.43646, -0.44396, -1.61635, 3.69274, -0.83559, -0.98307, -1.19072, -1.1088, -1.02813, -1.48617, 0.69521}};
	Double_t biasesL2_20[1] = {1.63013};
	nets[20].SetWeightsL2(weightsL2_20);
	nets[20].SetBiasesL2(biasesL2_20);
	
	Double_t weightsL1_21[15][11] = {{0.03547, 0.08567, 0.16796, -0.09056, 0.0076, -1.56061, 0.0086, -0.03609, 0.03062, 0.06768, -0.10712}, {0.1078, 0.39609, 0.80264, 0.49416, 0.32446, -0.01147, -0.72512, -0.10938, -0.22335, 0.12262, -0.01489}, {-0.3862, 0.43347, 0.11115, 0.45187, 0.35291, -0.10039, 0.07819, -0.03771, -0.17835, 0.05125, 0.1956}, {0.55826, -0.07602, -0.37161, 0.53289, -0.32423, -0.01622, 0.22499, -1.26831, -3.22389, 0.32608, 0.80482}, {-0.28839, -0.03634, 0.33342, -0.45889, -0.15173, -0.30881, -0.56756, -1.34655, -0.25742, 0.77119, 0.41078}, {-0.09153, 0.37994, 0.10237, 0.1087, 0.11199, 0.15447, 0.14686, 0.07847, -3.16693, 1.40464, 0.01441}, {0.2657, -0.68138, -0.16035, -1.19228, -0.34218, 0.06196, 0.10392, 0.06391, 0.07759, -0.04843, 0.06892}, {-0.11538, -1.86214, 0.00734, 0.12887, -0.01741, 0.01332, 0.02911, -0.07303, -0.03981, 0.00497, -0.03744}, {0.05784, -0.17606, -0.00108, -0.06741, -0.02733, -0.26271, -0.01371, -0.39209, -1.99084, -1.81096, 0.31099}, {0.08212, 0.01165, 0.09141, -0.07541, 0.01861, -0.10893, -0.10092, 0.17969, -1.78288, 2.33776, -0.07366}, {0.08617, 0.07, 0.19366, -0.08705, 0.04763, -0.77894, -0.76998, -0.12666, 0.56444, 0.00341, -0.51222}, {-0.36938, 0.15984, -0.1829, 0.78544, -0.44589, -0.00054, 0.27528, -0.08526, 0.14914, 0.03775, -0.20503}, {0.10009, 0.29142, 0.23592, -0.17198, -0.14805, -1.60396, 0.10268, -0.07, -0.02643, 0.15428, 0.15345}, {-0.11863, 0.15291, -0.03102, -0.00208, -0.03047, 0.00334, -0.02038, 0.10594, 3.21675, -1.1554, -0.41996}, {-0.59608, -0.20593, 0.16915, -0.25687, 0.08395, 0.03099, 0.04947, 0.11195, -0.24166, 1.2767, -0.21397}};
	Double_t biasesL1_21[15] = {1.71232, 1.67904, -0.55463, -1.91907, -2.06897, 0.07243, 0.04476, -3.4177, 0.03721, 0.82425, 0.94041, -1.63259, 2.45807, 1.76549, -1.14846};
	nets[21].SetWeightsL1(weightsL1_21);
	nets[21].SetBiasesL1(biasesL1_21);
	
	Double_t weightsL2_21[1][15] = {{2.81054, 1.79383, -1.67255, -0.61356, -0.77622, -0.73913, -1.22434, 5.291, -0.7757, -1.06917, -1.4574, -1.51066, -1.37938, -1.7235, 0.83417}};
	Double_t biasesL2_21[1] = {3.2951};
	nets[21].SetWeightsL2(weightsL2_21);
	nets[21].SetBiasesL2(biasesL2_21);
	
	Double_t weightsL1_22[15][11] = {{0.05203, 0.06149, 0.0773, -0.05906, 0.05227, -1.58898, 0.0328, -0.13069, 0.08599, 0.06832, -0.27195}, {-0.11424, 0.32512, 0.73036, 0.62784, 0.2678, 0.09174, -0.42118, -0.20187, -0.20896, 0.16099, 0.04942}, {-0.31306, 0.38719, 0.10852, 0.38059, 0.25293, -0.05603, -0.01723, 0.04715, -0.15689, -0.01273, 0.16551}, {0.50263, -0.07696, -0.40065, 0.39984, -0.16743, -0.00942, 0.32498, -1.04313, -2.76499, 0.3021, 0.64889}, {-0.06433, -0.04528, 0.12045, -0.30123, -0.06998, -0.2117, -0.25137, -0.90058, -0.09515, 0.29973, 0.30143}, {-0.12695, 0.25347, 0.17725, -0.01764, -0.02285, 0.11447, 0.10248, 0.08926, -3.58903, 1.66094, 0.47171}, {0.26202, -0.76414, -0.07217, -1.53558, -0.36274, 0.10168, 0.1543, 0.03686, 0.25959, -0.13059, -0.00405}, {-0.13666, -1.71955, -0.01821, 0.09868, 0.00765, -0.00745, 0.01042, -0.01693, 0.09368, -0.06275, -0.1009}, {0.14718, -0.14529, -0.13894, -0.06935, -0.02605, -0.07871, 0.06209, -0.36023, -1.60232, -1.7138, 0.32971}, {0.18437, -0.0656, -0.03198, 0.00164, -0.02746, -0.04336, -0.08608, 0.20774, -0.92558, 2.01578, -0.36625}, {0.07996, 0.0553, -0.03188, -0.04988, 0.03185, -0.91564, -0.66288, -0.25097, 0.46104, 0.0451, -0.52946}, {-0.38401, -0.00027, -0.23669, 0.73593, -0.54868, -0.10543, 0.27943, 0.0282, 0.26959, -0.01844, -0.214}, {0.21525, -0.0594, 0.33719, -0.44664, -0.20813, -1.81265, 0.34147, -0.20727, 0.75829, -0.07427, -0.60927}, {-0.16318, 0.07312, 0.07724, -0.08659, -0.07845, -0.06939, -0.10438, 0.06931, 3.62252, -1.29169, -0.36519}, {-1.04479, 0.32572, 0.42896, -0.00584, 0.17241, 0.07434, -0.13983, 0.4773, -0.89651, 1.49995, 0.65107}};
	Double_t biasesL1_22[15] = {1.71991, 1.71272, -0.46908, -1.62013, -2.13861, -0.03992, 0.08507, -3.33454, 0.04464, 0.94191, 1.0734, -1.59534, 3.17162, 1.90149, -1.85226};
	nets[22].SetWeightsL1(weightsL1_22);
	nets[22].SetBiasesL1(biasesL1_22);
	
	Double_t weightsL2_22[1][15] = {{2.35855, 1.62704, -2.3522, -0.78183, -2.66935, -0.80471, -1.02039, 7.54408, -0.92898, -1.10559, -1.2826, -1.22339, -0.94414, -1.74282, 0.65719}};
	Double_t biasesL2_22[1] = {3.77629};
	nets[22].SetWeightsL2(weightsL2_22);
	nets[22].SetBiasesL2(biasesL2_22);
	
	Double_t weightsL1_23[15][11] = {{0.022, 0.02508, 0.11347, -0.04103, 0.0763, -1.58915, 0.12455, -0.02256, -0.01826, 0.08924, -0.13648}, {0.03292, 0.32986, 0.60307, 0.54154, 0.23384, 0.07811, -0.50658, -0.20312, -0.2296, 0.14033, 0.10558}, {-0.46849, 0.54825, 0.21438, 0.4287, 0.31482, -0.13375, -0.03869, 0.15114, 0.26544, -0.11996, -0.09164}, {0.49713, 0.20955, -0.07777, 0.48603, -0.18119, -0.13801, -0.01226, -1.33088, -2.12223, 0.01721, 0.08201}, {-0.23206, -0.05159, 0.18093, -0.53738, -0.08961, -0.46941, -0.46157, -1.44612, -0.08536, 0.7751, 0.4369}, {0.00058, 0.00539, -0.10996, 0.05612, -0.0426, 0.13199, 0.33584, 0.06001, -3.55367, 1.3706, 0.56568}, {0.43684, -0.82839, -0.19793, -1.56009, -0.45365, 0.12608, 0.11578, 0.03295, -0.15501, 0.03785, 0.15226}, {-0.12217, -2.10938, -0.06237, 0.07021, -0.01144, -0.01478, 0.06732, -0.0175, 0.02919, -0.05842, -0.07183}, {0.00038, -0.07261, -0.02, -0.09569, 0.02149, -0.21736, 0.05188, -0.37301, -1.26313, -1.91509, 0.27122}, {0.17656, 0.03039, 0.03195, -0.02517, 0.08602, -0.03882, -0.09444, 0.0495, -1.76408, 2.51991, 0.13248}, {-0.01862, 0.01978, 0.0526, -0.00162, 0.06674, -0.8439, -0.63598, -0.21127, 0.20397, 0.21782, -0.20412}, {-0.35335, 0.05619, -0.3345, 0.84991, -0.58303, 0.00985, 0.33804, -0.03814, 0.00437, 0.0449, -0.14925}, {0.24425, 0.01361, 0.10495, -0.29511, -0.1098, -1.95257, 0.49545, -0.07851, 0.90668, -0.01571, -0.79676}, {-0.08161, 0.06147, -0.00547, -0.02369, -0.0325, -0.01288, -0.07801, -0.02594, 3.51969, -1.32148, -0.34893}, {-0.87997, -0.24838, 0.05044, -0.22189, 0.06842, 0.1627, 0.11659, 0.48396, -0.35176, 1.59446, 0.16543}};
	Double_t biasesL1_23[15] = {1.73654, 1.59965, -0.48193, -1.71052, -2.45669, -0.24588, -0.04316, -3.74998, 0.0741, 0.92808, 0.9071, -1.88448, 3.24542, 1.80165, -2.29071};
	nets[23].SetWeightsL1(weightsL1_23);
	nets[23].SetBiasesL1(biasesL1_23);
	
	Double_t weightsL2_23[1][15] = {{2.49878, 1.82605, -1.37309, -0.53766, -0.78807, -1.0181, -0.86203, 7.29228, -0.94328, -0.96554, -1.22357, -1.33357, -1.15766, -1.78099, 0.71471}};
	Double_t biasesL2_23[1] = {5.44115};
	nets[23].SetWeightsL2(weightsL2_23);
	nets[23].SetBiasesL2(biasesL2_23);
	
	Double_t weightsL1_24[15][11] = {{0.09973, 0.09768, 0.1716, -0.06839, 0.00266, -1.72208, -0.01889, -0.04567, -0.00769, 0.15239, -0.20233}, {0.03969, 0.40904, 0.82086, 0.5546, 0.3096, 0.0188, -0.69831, -0.25399, -0.27586, 0.05177, 0.16585}, {-0.38973, 0.34081, 0.24936, 0.30764, 0.46766, -0.16317, -0.03189, 0.03885, 0.15253, 0.0775, -0.10835}, {0.2709, 0.11717, -0.18151, 0.41442, -0.14257, -0.00396, 0.22604, -1.22322, -3.11555, 0.40529, 0.64016}, {-0.07181, -0.16537, 0.0014, -0.45904, -0.21284, -0.15171, -0.27379, -1.06826, -0.20519, 0.7008, 0.33309}, {-0.11623, 0.17967, 0.07655, -0.04757, 0.01133, 0.00037, 0.04991, 0.0693, -3.59439, 1.70027, -0.08089}, {0.31126, -0.75655, -0.18563, -1.4131, -0.42723, 0.05297, 0.11985, 0.12166, 0.03905, -0.13802, -0.02061}, {-0.12323, -1.73541, -0.01822, 0.10481, -0.00394, -0.06116, 0.03784, -0.03376, 0.07189, -0.03618, -0.115}, {0.10601, -0.16635, -0.13648, -0.13637, -0.12228, -0.15615, 0.03902, -0.51707, -1.66869, -2.52496, 0.45925}, {0.19098, 0.1773, -0.01758, -0.00605, -0.0304, -0.11218, 0.05826, 0.07527, -1.82389, 2.10604, 0.07019}, {0.1657, 0.12789, 0.17878, -0.03758, 0.00152, -0.96252, -0.84807, -0.16947, 0.15528, 0.11218, -0.23707}, {-0.37241, 0.30131, -0.23247, 0.99992, -0.47643, -0.02514, 0.24453, -0.00939, 0.07595, 0.00586, -0.12937}, {0.44406, 0.12292, 0.26126, -0.45497, -0.16266, -1.84784, 0.09683, -0.07342, 0.71451, 0.06866, -0.61292}, {-0.185, 0.03816, 0.01239, -0.10035, -0.03804, -0.06129, -0.16164, 0.12877, 3.37893, -0.92185, -0.31966}, {-0.2595, -0.3172, 0.12384, -0.22412, 0.06984, 0.03077, -0.10639, 0.15302, -0.92204, 1.63396, -0.10229}};
	Double_t biasesL1_24[15] = {1.8308, 1.79699, -0.62022, -1.77547, -2.01376, 0.01355, -0.04162, -3.09481, 0.19629, 0.70317, 1.25778, -1.85664, 3.41615, 1.94266, -1.18539};
	nets[24].SetWeightsL1(weightsL1_24);
	nets[24].SetBiasesL1(biasesL1_24);
	
	Double_t weightsL2_24[1][15] = {{2.30809, 1.46485, -1.30805, -0.72788, -1.18752, -0.79258, -0.82947, 4.22062, -0.65076, -0.89008, -1.32325, -1.56578, -0.99297, -1.68313, 1.02584}};
	Double_t biasesL2_24[1] = {2.15007};
	nets[24].SetWeightsL2(weightsL2_24);
	nets[24].SetBiasesL2(biasesL2_24);
	
	Double_t weightsL1_25[15][11] = {{0.07363, 0.09646, 0.09388, 0.04715, 0.07479, -1.58979, 0.07605, -0.04104, 0.0667, 0.05284, -0.19814}, {0.08985, 0.29585, 0.61074, 0.49262, 0.34059, 0.0504, -0.57349, -0.12583, -0.24168, 0.08187, 0.03329}, {-0.36933, 0.4203, 0.15718, 0.3323, 0.37209, -0.02064, -0.00791, 0.01139, -0.14215, 0.13346, 0.09031}, {0.35616, -0.0611, -0.13313, 0.35896, -0.18773, 0.00544, 0.21451, -1.31943, -3.14997, 0.57121, 0.54625}, {-0.14739, 0.01564, 0.05088, -0.11189, -0.16275, -0.17428, -0.25078, -1.23117, -0.54136, 0.76007, 0.4853}, {0.1838, 0.20416, -0.03796, 0.02581, 0.05723, 0.01281, -0.00927, 0.22178, -4.34857, 1.80453, 0.58111}, {0.37721, -0.66417, -0.19442, -1.15298, -0.43718, 0.00406, 0.04615, 0.05411, 0.10875, -0.118, -0.03245}, {-0.13747, -2.37289, -0.04352, 0.08811, 0.00577, -0.03244, 0.03383, -0.03795, 0.22017, -0.11055, -0.2063}, {0.07862, -0.14773, -0.12613, -0.02378, -0.01468, -0.26039, 0.15462, -0.43421, -1.66687, -3.05583, 0.54168}, {0.03543, 0.13005, 0.1286, -0.05693, 0.01132, -0.10042, 0.16384, 0.13102, -1.87948, 2.51105, -0.42192}, {0.12925, 0.07602, 0.07803, 0.10984, 0.04476, -1.04763, -0.78977, -0.31245, 0.39048, 0.22671, -0.49864}, {-0.31247, 0.19101, -0.21469, 0.85459, -0.39078, -0.00572, 0.23336, -0.01457, 0.22565, -0.09946, -0.23576}, {0.28212, 0.28159, 0.15696, -0.22507, -0.13457, -1.57824, 0.34301, -0.00366, 0.70363, -0.0444, -0.67363}, {-0.05217, 0.06398, -0.0179, -0.0435, -0.01864, -0.11151, -0.12518, 0.19133, 3.0845, -0.80355, -0.30017}, {-0.29, -0.11147, 0.1334, -0.12978, 0.12876, 0.03422, -0.02457, 0.11934, -1.89687, 2.25913, 0.13519}};
	Double_t biasesL1_25[15] = {1.63766, 1.57161, -0.36558, -1.93177, -2.25496, 0.12646, -0.03938, -3.70901, 0.09599, 0.48393, 1.03025, -1.83479, 2.87224, 2.00127, -1.44553};
	nets[25].SetWeightsL1(weightsL1_25);
	nets[25].SetBiasesL1(biasesL1_25);
	
	Double_t weightsL2_25[1][15] = {{2.27321, 1.94383, -1.76596, -0.58204, -1.91502, -0.8157, -1.13893, 3.12071, -0.67135, -0.62009, -1.13408, -1.8366, -0.99971, -1.62411, 0.95654}};
	Double_t biasesL2_25[1] = {-0.46595};
	nets[25].SetWeightsL2(weightsL2_25);
	nets[25].SetBiasesL2(biasesL2_25);
	
	Double_t weightsL1_26[15][11] = {{0.06265, 0.07195, 0.11104, -0.04648, 0.01532, -1.48509, 0.03141, -0.02739, 0.17707, 0.0959, -0.29287}, {0.00583, 0.39331, 0.70092, 0.52523, 0.34284, 0.06152, -0.55631, -0.07289, 0.01236, 0.06345, -0.10838}, {-0.45107, 0.43886, 0.00274, 0.55609, 0.29848, -0.08453, 0.18177, 0.13672, -0.01874, 0.05909, -0.05855}, {0.30541, 0.06443, 0.01025, 0.37291, -0.14483, 0.07268, 0.10718, -0.89337, -2.53461, 0.18652, 0.62943}, {-0.17144, 0.11327, 0.41614, -0.6225, 0.09633, -0.27515, -0.70803, -1.24758, -0.12058, 0.65674, 0.50086}, {-0.02311, 0.20227, -0.01687, 0.05638, 0.00466, -0.04607, 0.1164, 0.00412, -3.6306, 1.73806, 0.02878}, {0.33191, -0.78602, -0.05182, -1.51355, -0.3285, 0.03597, 0.07081, 0.01032, -0.26995, -0.08529, 0.53558}, {-0.12886, -1.98782, -0.01327, 0.05438, 0.00967, 0.03774, 0.02326, -0.03441, 0.16925, -0.05065, -0.2026}, {-0.05773, -0.12009, 0.02265, -0.08805, -0.00919, -0.10732, 0.09199, -0.44111, -1.36862, -2.0708, 0.33281}, {0.11857, 0.05745, 0.04426, -0.04197, 0.07155, 0.04578, -0.07566, 0.12202, -1.20755, 2.0536, -0.33438}, {0.08657, 0.08315, 0.10484, -0.01494, -0.00318, -0.86407, -0.70542, -0.12974, 0.46485, 0.11904, -0.50324}, {-0.48391, 0.10284, -0.47846, 1.14105, -0.91408, -0.06871, 0.30012, -0.33689, 0.64291, 0.1445, -0.6265}, {0.21401, 0.04126, 0.19955, -0.22245, -0.10839, -1.45145, 0.16676, 0.00778, 0.53274, 0.06698, -0.49221}, {-0.13759, 0.09549, 0.03803, -0.04126, -0.00343, -0.08927, -0.09063, 0.07335, 2.79166, -0.81652, -0.31621}, {-0.35857, -0.21218, -0.01502, -0.03731, 0.04203, -0.09755, -0.02387, 0.15152, -0.37471, 1.75695, -0.26704}};
	Double_t biasesL1_26[15] = {1.66061, 1.40758, -0.55308, -1.54801, -2.38507, 0.04499, 0.04832, -3.18415, 0.00066, 0.70904, 1.05027, -2.34743, 2.37442, 1.63834, -1.40152};
	nets[26].SetWeightsL1(weightsL1_26);
	nets[26].SetBiasesL1(biasesL1_26);
	
	Double_t weightsL2_26[1][15] = {{2.98361, 1.63634, -1.38496, -0.86924, -0.93184, -0.75371, -0.80452, 3.393, -0.78662, -1.00764, -1.51951, -0.83269, -1.44436, -1.98673, 0.87354}};
	Double_t biasesL2_26[1] = {2.16571};
	nets[26].SetWeightsL2(weightsL2_26);
	nets[26].SetBiasesL2(biasesL2_26);
	
	Double_t weightsL1_27[15][11] = {{0.03258, 0.07044, 0.13997, -0.08348, 0.03856, -1.4925, 0.04496, 0.00842, 0.12761, 0.07539, -0.26978}, {-0.02868, 0.31879, 0.76059, 0.37841, 0.28229, -0.0179, -0.6708, -0.08186, -0.05062, 0.03861, -0.01152}, {-0.30059, 0.56022, 0.12261, 0.36748, 0.44734, 0.03588, 0.0017, -0.04105, -0.43567, 0.14948, 0.30679}, {0.1971, -0.05116, -0.10713, 0.40764, -0.19771, -0.02077, 0.31797, -1.15154, -3.30103, 0.26261, 0.93838}, {-0.02485, 0.00236, 0.09015, -0.34212, -0.22102, -0.30974, -0.46922, -1.06137, -0.38012, 0.55055, 0.52112}, {-0.14516, 0.15806, 0.04972, 0.04675, -0.03668, 0.06531, 0.21861, 0.06263, -3.96445, 1.64422, 0.27967}, {0.18334, -0.73112, -0.14569, -1.19297, -0.41099, -0.00793, 0.17453, 0.0727, 0.40699, -0.10683, -0.16598}, {-0.12597, -2.03457, -0.00836, 0.04482, -0.02365, 0.00291, 0.08209, -0.02969, 0.01494, -0.02953, -0.05185}, {0.12524, -0.29472, -0.08287, -0.09975, -0.06158, -0.1369, 0.04701, -0.43276, -1.5856, -2.56653, 0.32216}, {0.15309, -0.01193, 0.03958, -0.06521, -0.03185, -0.07279, 0.05622, 0.2718, -1.6113, 2.12122, -0.2512}, {0.09521, 0.07858, 0.19926, -0.02342, 0.01592, -0.75831, -0.76641, -0.10252, 0.3537, 0.06593, -0.36628}, {-0.42183, 0.32756, -0.16964, 1.02563, -0.41753, -0.08912, 0.29485, -0.00807, 0.27709, -0.05918, -0.18978}, {0.19565, 0.15174, 0.31343, -0.43444, -0.23639, -2.04965, 0.33143, -0.04788, 0.6528, 0.05184, -0.42751}, {-0.13559, 0.10025, 0.02937, -0.01529, -0.04712, -0.01819, -0.16364, 0.11181, 3.34217, -0.83308, -0.42899}, {-0.27418, -0.14152, 0.15152, -0.03069, 0.15762, 0.18116, -0.22089, 0.06252, -2.1743, 2.74621, 0.10761}};
	Double_t biasesL1_27[15] = {1.66749, 1.60425, -0.4526, -1.82574, -1.95748, -0.01122, 0.06697, -3.34621, 0.17009, 0.68563, 0.93047, -2.07492, 3.41166, 1.94483, -1.42342};
	nets[27].SetWeightsL1(weightsL1_27);
	nets[27].SetBiasesL1(biasesL1_27);
	
	Double_t weightsL2_27[1][15] = {{2.61304, 1.95285, -1.45814, -0.72815, -1.13203, -0.74753, -0.95328, 4.0728, -0.66633, -0.91237, -1.60373, -1.58254, -1.26597, -1.61661, 0.68373}};
	Double_t biasesL2_27[1] = {1.46978};
	nets[27].SetWeightsL2(weightsL2_27);
	nets[27].SetBiasesL2(biasesL2_27);
	
	Double_t weightsL1_28[15][11] = {{0.08315, 0.04671, 0.10349, -0.03963, 0.07574, -1.66726, 0.03191, -0.00226, 0.0938, 0.10552, -0.25499}, {0.06728, 0.39942, 0.98375, 0.5571, 0.30747, 0.04555, -0.79465, -0.18028, -0.06614, 0.06844, -0.0681}, {-0.31722, 0.38428, 0.18659, 0.33751, 0.4177, -0.09641, -0.07985, 0.04362, 0.08543, -0.04262, 0.08785}, {0.32703, 0.1213, -0.18363, 0.44499, -0.1587, -0.04207, 0.36584, -1.15506, -2.6403, 0.19421, 0.43612}, {-0.1852, -0.10803, 0.08802, -0.39825, -0.17401, -0.30901, -0.30022, -1.08802, -0.14901, 0.68382, 0.30151}, {-0.14987, 0.16334, -0.08358, 0.0439, 0.06511, 0.06711, 0.16478, 0.10107, -4.72998, 2.09256, 0.16601}, {0.23186, -0.61714, -0.17519, -1.22298, -0.31045, 0.01607, 0.05818, -0.00419, 0.0909, -0.00304, -0.07205}, {-0.10583, -2.00031, -0.0523, 0.13304, 0.02913, -0.04033, 0.05544, -0.03651, -0.03646, 0.0556, -0.092}, {-0.00299, -0.08488, 0.00277, -0.10296, -0.0568, -0.18139, 0.05612, -0.42486, -1.82116, -2.28233, 0.85273}, {0.19079, 0.17283, -0.00979, 0.01125, 0.03547, -0.00233, -0.02553, 0.12861, -2.04607, 2.22653, 0.22445}, {0.05857, 0.1005, 0.14614, 0.0298, 0.07757, -0.90956, -0.75407, -0.05934, 0.38864, 0.14228, -0.54177}, {-0.41814, 0.14872, -0.2854, 0.78368, -0.43111, -0.02344, 0.31336, -0.02371, 0.1626, -0.01955, -0.20317}, {0.39059, 0.06836, 0.19142, -0.40168, -0.13281, -1.9046, 0.098, -0.0912, 0.6248, 0.05999, -0.50835}, {-0.1277, 0.08404, 0.03284, 0.01337, -0.03104, -0.04785, -0.18346, 0.11766, 3.70263, -1.05075, -0.45862}, {-0.27862, -0.302, 0.13124, -0.31793, 0.062, 0.07832, -0.23063, 0.13297, -0.9061, 1.45503, 0.14891}};
	Double_t biasesL1_28[15] = {1.84347, 1.83669, -0.68996, -1.86193, -2.1147, -0.05322, -0.15033, -3.33078, 0.20089, 0.78446, 1.13208, -1.69251, 3.25825, 2.07828, -1.13903};
	nets[28].SetWeightsL1(weightsL1_28);
	nets[28].SetBiasesL1(biasesL1_28);
	
	Double_t weightsL2_28[1][15] = {{2.40791, 1.30364, -1.3033, -0.71442, -1.1935, -0.61164, -1.02912, 3.60518, -0.72593, -1.0306, -1.22548, -1.56801, -1.14761, -1.47054, 0.87829}};
	Double_t biasesL2_28[1] = {1.26653};
	nets[28].SetWeightsL2(weightsL2_28);
	nets[28].SetBiasesL2(biasesL2_28);
	
	Double_t weightsL1_29[15][11] = {{0.03342, 0.02383, 0.14935, -0.02568, 0.04596, -1.75584, 0.1629, -0.04696, -0.08943, 0.1314, -0.12009}, {-0.03633, 0.48561, 0.95426, 0.67784, 0.4065, 0.10834, -0.61388, -0.15387, -0.26621, 0.19073, 0.04148}, {-0.34233, 0.41638, 0.03507, 0.43046, 0.30755, -0.05564, 0.02087, 0.05978, -0.05964, 0.01959, 0.09884}, {0.41159, 0.10355, -0.00038, 0.24471, -0.12942, -0.02262, 0.0539, -1.3382, -2.91664, -0.10439, 0.81423}, {-0.19992, -0.00872, 0.27156, -0.46861, -0.14273, -0.24224, -0.27735, -0.82859, -0.07735, 0.48619, 0.37367}, {-0.04886, 0.18844, -0.00427, 0.07845, -0.04688, -0.11711, 0.14142, 0.01618, -2.48683, 1.28567, -0.27864}, {0.27963, -0.6276, -0.00155, -1.13344, -0.32093, 0.07706, 0.00923, -0.00173, -0.14486, -0.02784, 0.21326}, {-0.181, -2.01874, -0.01073, 0.05963, -0.0036, -0.01669, 0.03338, -0.09813, -0.0635, 0.0439, -0.07744}, {0.06891, -0.09571, -0.00635, -0.08947, -0.06805, -0.11238, 0.05241, -0.49421, -2.57472, -1.63593, 0.83217}, {0.16095, 0.00139, 0.09198, -0.02737, 0.01044, -0.01214, -0.02056, 0.12207, -1.36315, 2.07478, -0.1405}, {0.13766, 0.06796, 0.08354, -0.03585, -0.03474, -0.95903, -0.82753, -0.0726, 0.62472, 0.02754, -0.57852}, {-0.27897, 0.10452, -0.2427, 0.75658, -0.51616, -0.002, 0.19338, -0.14314, 0.24597, 0.00753, -0.19899}, {0.22355, -0.00908, 0.27686, -0.28237, -0.14451, -1.68162, 0.33353, -0.01241, 0.61102, -0.1375, -0.50449}, {-0.16457, 0.02544, -0.02605, -0.00381, -0.07734, -0.07265, -0.06892, -0.00046, 3.85428, -1.21871, -0.39679}, {-0.51637, -0.07181, 0.01929, -0.09229, 0.09374, 0.00924, -0.07378, 0.26887, -0.69792, 1.33234, 0.36101}};
	Double_t biasesL1_29[15] = {1.91369, 1.67229, -0.2916, -1.98759, -2.37759, 0.07466, 0.00852, -3.09682, 0.09788, 0.91609, 1.10058, -1.67391, 2.84785, 2.10638, -1.43351};
	nets[29].SetWeightsL1(weightsL1_29);
	nets[29].SetBiasesL1(biasesL1_29);
	
	Double_t weightsL2_29[1][15] = {{2.2341, 1.16803, -2.32112, -0.70574, -1.75478, -0.76707, -1.48868, 2.66454, -0.83808, -1.17552, -0.87468, -1.58956, -1.1118, -1.52804, 0.8861}};
	Double_t biasesL2_29[1] = {0.24618};
	nets[29].SetWeightsL2(weightsL2_29);
	nets[29].SetBiasesL2(biasesL2_29);
	
	Double_t weightsL1_30[15][11] = {{-0.0279, 0.03909, 0.1422, -0.03942, 0.09173, -1.51809, 0.04157, 0.01625, -0.05701, 0.06644, -0.06608}, {-0.07025, 0.39007, 0.83476, 0.55114, 0.34916, 0.09328, -0.53629, -0.21976, -0.07988, 0.08019, -0.00295}, {-0.35242, 0.48596, 0.05895, 0.47777, 0.32919, -0.09034, -0.01121, 0.00582, 0.19823, -0.05182, 0.03989}, {0.287, 0.1815, 0.04488, 0.30414, -0.05176, -0.11683, 0.08214, -1.09103, -2.02017, -0.14004, 0.35271}, {-0.15157, -0.16568, 0.04288, -0.41727, -0.18854, -0.21855, -0.18862, -1.0981, -0.11127, 0.30403, 0.46799}, {-0.15578, 0.1297, 0.02795, 0.07454, 0.00025, 0.12152, 0.19662, 0.01748, -2.67348, 0.99716, 0.18221}, {0.31485, -0.71703, -0.04949, -1.31269, -0.43727, 0.02977, 0.04692, 0.05272, -0.06045, 0.0015, 0.00973}, {-0.17638, -1.70185, -0.02904, 0.09125, -0.05455, -0.01523, 0.06101, -0.11339, 0.03684, 0.05015, -0.1585}, {0.3229, -0.20135, -0.11624, -0.16326, -0.03737, -0.08064, -0.04861, -0.38779, -2.10558, -2.12443, 0.53881}, {0.22897, -0.06934, -0.0569, -0.07208, 0.00725, -0.07063, -0.05338, 0.16064, -0.86029, 1.8317, -0.26625}, {-0.07076, 0.0602, 0.15622, -0.06708, 0.06383, -0.94159, -0.60294, -0.06692, 0.23937, 0.0566, -0.28925}, {-0.46371, 0.02022, -0.18897, 0.79022, -0.56055, -0.03869, 0.3219, -0.02711, 0.19119, 0.00495, -0.21585}, {0.22384, 0.23401, 0.15587, -0.26154, -0.16381, -1.80664, 0.4317, -0.14077, 0.43646, 0.08811, -0.53528}, {-0.16531, 0.03238, 0.02862, -0.00212, -0.05577, -0.07017, -0.05398, 0.0418, 3.51493, -1.38533, -0.14984}, {-0.88964, 0.13621, 0.03494, 0.22178, -0.03267, 0.1651, -0.04491, 0.45631, -0.32477, 1.33561, 0.23231}};
	Double_t biasesL1_30[15] = {1.58104, 1.6086, -0.39065, -1.41378, -2.20725, -0.10035, 0.0085, -2.87687, 0.12023, 0.87861, 1.07334, -1.96575, 3.27088, 1.87353, -1.97353};
	nets[30].SetWeightsL1(weightsL1_30);
	nets[30].SetBiasesL1(biasesL1_30);
	
	Double_t weightsL2_30[1][15] = {{2.44159, 1.39036, -1.84216, -0.78074, -1.3268, -0.98995, -1.1085, 3.79383, -0.82548, -1.35425, -1.44847, -1.76118, -0.8456, -1.58753, 0.65974}};
	Double_t biasesL2_30[1] = {1.34869};
	nets[30].SetWeightsL2(weightsL2_30);
	nets[30].SetBiasesL2(biasesL2_30);
	
	Double_t weightsL1_31[15][11] = {{0.12818, 0.05923, 0.07546, -0.00947, 0.04559, -1.64391, -0.0202, -0.04425, 0.32821, -0.00223, -0.42724}, {0.02082, 0.45884, 0.96288, 0.57032, 0.40106, 0.0264, -0.75367, -0.27213, -0.05028, 0.08503, -0.01612}, {-0.41632, 0.42447, 0.14349, 0.35415, 0.4131, -0.02218, -0.02886, 0.04201, -0.31023, 0.06406, 0.36627}, {0.55634, 0.07041, -0.17206, 0.43056, -0.14418, -0.05427, 0.30839, -1.42831, -2.00418, -0.50507, 0.60065}, {-0.14233, -0.04366, -0.00419, -0.37549, -0.19883, -0.35424, -0.26399, -1.20904, 0.19164, 0.46853, 0.07554}, {-0.02412, 0.16113, 0.00213, 0.11539, -0.02671, 0.07531, 0.08069, 0.00259, -3.89626, 1.90046, -0.17401}, {0.2305, -0.56971, -0.08231, -1.22321, -0.39035, -0.01583, 0.12352, -0.03445, -0.07312, 0.09917, 0.07698}, {-0.13061, -1.96694, 0.00278, 0.08079, -0.01378, -0.02226, 0.05425, -0.05518, 0.12322, -0.04448, -0.20042}, {0.07496, -0.21923, -0.14949, -0.07434, 0.00317, -0.03065, 0.08478, -0.45181, -1.97136, -1.93072, 0.55408}, {0.25883, 0.07383, -0.06119, 0.00594, -0.03862, -0.06507, -0.07896, 0.18451, -1.3302, 2.38608, -0.46209}, {0.17426, 0.01426, 0.07346, -0.01591, 0.06199, -1.16517, -0.90129, -0.1491, 0.55982, 0.03623, -0.59521}, {-0.39571, 0.30331, -0.11661, 0.93083, -0.50725, -0.13062, 0.29136, -0.07273, 0.0675, 0.03342, -0.21543}, {0.31014, 0.13784, 0.34844, -0.33472, -0.35377, -1.7904, 0.24195, -0.12976, 0.87364, 0.11517, -0.8458}, {-0.10834, 0.0288, 0.01506, -0.04084, -0.03793, -0.03729, -0.06851, -0.01071, 2.50059, -0.91919, -0.16599}, {-0.57147, -0.08183, 0.15225, -0.1181, 0.13931, 0.11472, -0.04306, 0.16395, -0.98178, 1.46643, 0.34034}};
	Double_t biasesL1_31[15] = {1.71872, 1.83547, -0.4, -1.87292, -2.42104, -0.15701, 0.03839, -3.36456, 0.10269, 0.86076, 1.2251, -1.77777, 3.32416, 1.38306, -1.21884};
	nets[31].SetWeightsL1(weightsL1_31);
	nets[31].SetBiasesL1(biasesL1_31);
	
	Double_t weightsL2_31[1][15] = {{2.34071, 1.39267, -1.565, -0.51611, -1.6282, -0.86694, -1.05754, 4.03947, -0.77779, -0.95382, -1.18973, -1.41527, -1.10083, -1.7561, 0.9323}};
	Double_t biasesL2_31[1] = {1.888};
	nets[31].SetWeightsL2(weightsL2_31);
	nets[31].SetBiasesL2(biasesL2_31);
	
	Double_t weightsL1_32[15][11] = {{0.0618, 0.09063, 0.10035, -0.042, 0.03854, -1.66043, 0.13596, -0.01588, -0.01253, 0.09543, -0.16086}, {0.07642, 0.43801, 0.89525, 0.52526, 0.30901, 0.01635, -0.80819, -0.22533, -0.19346, 0.1147, 0.03107}, {-0.30298, 0.24338, 0.01629, 0.33233, 0.28781, -0.09347, 0.07762, 0.12383, -0.17156, -0.00442, 0.27341}, {0.24886, 0.18221, -0.06287, 0.36402, -0.09954, -0.06306, 0.14864, -1.34362, -2.5946, -0.04175, 0.66828}, {-0.17485, 0.08367, 0.22284, -0.43998, -0.03917, -0.32064, -0.23816, -0.98877, -0.20124, 0.52154, 0.39074}, {-0.11723, 0.24096, 0.09295, 0.09842, -0.07071, 0.0353, 0.06594, -0.05194, -2.8344, 1.48286, 0.02053}, {0.19059, -0.48353, -0.05941, -1.11023, -0.3009, -0.00094, 0.06092, 0.00738, -0.11452, 0.07114, 0.20579}, {-0.08004, -2.25765, -0.04161, 0.06779, 0.00607, 0.02357, 0.01937, -0.02472, 0.13587, -0.0543, -0.21044}, {0.17453, -0.1171, -0.06236, -0.12008, 0.04262, -0.07619, 0.05566, -0.45254, -1.53653, -1.8036, 0.17276}, {0.27438, -0.01194, 0.00767, -0.12201, 0.08077, 0.08956, -0.1268, 0.14231, -1.2899, 2.50046, -0.418}, {0.03935, 0.06341, 0.12562, -0.12968, 0.04862, -0.84798, -0.80817, -0.10503, 0.27453, 0.18681, -0.39545}, {-0.2739, 0.22826, -0.23473, 0.799, -0.48014, -0.00576, 0.26606, -0.08372, 0.0587, 0.04234, -0.08844}, {0.17514, 0.32684, 0.33504, -0.21102, -0.11753, -1.70969, 0.29316, 0.04005, 0.81735, -0.12491, -0.57111}, {-0.03236, 0.08806, -0.0595, 0.04321, -0.04335, -0.09519, -0.17153, 0.04567, 4.03272, -1.39915, -0.58694}, {-0.48258, -0.17264, -0.00402, -0.08706, 0.0394, -0.04682, 0.20848, 0.2687, -0.50854, 1.03706, 0.34838}};
	Double_t biasesL1_32[15] = {1.82414, 1.86281, -0.64544, -1.70951, -2.61231, 0.01037, -0.0947, -3.58145, 0.13934, 1.12322, 1.09039, -1.61951, 2.81449, 1.92303, -1.42073};
	nets[32].SetWeightsL1(weightsL1_32);
	nets[32].SetBiasesL1(biasesL1_32);
	
	Double_t weightsL2_32[1][15] = {{2.18384, 1.51587, -1.91338, -0.63044, -2.2957, -0.84233, -1.14377, 3.64114, -0.86245, -0.87099, -0.97541, -1.61414, -1.10036, -1.38368, 1.02549}};
	Double_t biasesL2_32[1] = {-0.1812};
	nets[32].SetWeightsL2(weightsL2_32);
	nets[32].SetBiasesL2(biasesL2_32);
	
	Double_t weightsL1_33[15][11] = {{0.03805, 0.08462, 0.16154, -0.09186, 0.07533, -1.64154, 0.05935, -0.026, 0.10323, 0.03583, -0.26362}, {0.08406, 0.48795, 0.75889, 0.67159, 0.37671, 0.08934, -0.63538, -0.22106, -0.05421, 0.0093, -0.03391}, {-0.40759, 0.5194, 0.10456, 0.53869, 0.53537, -0.18439, 0.13905, 0.21648, -0.10212, -0.0992, 0.20678}, {0.25634, 0.06543, -0.29741, 0.35117, -0.12954, -0.10807, 0.28534, -1.18099, -3.25039, 0.50167, 0.47474}, {-0.18619, 0.03786, 0.15591, -0.41853, 0.01286, -0.26439, -0.39898, -1.29386, -0.09249, 0.69768, 0.28645}, {-0.03915, 0.25701, 0.09556, 0.04787, 0.00594, 0.08116, -0.00868, -0.00971, -3.86057, 1.72805, 0.4096}, {0.25756, -0.82362, -0.09189, -1.56856, -0.42199, 0.07636, 0.13154, -0.05725, -0.40339, 0.25621, 0.21472}, {-0.0772, -2.40277, -0.05071, 0.15074, 0.00222, -0.0151, 0.05701, -0.05838, 0.23796, -0.1382, -0.1954}, {-0.00871, -0.07826, -0.01061, -0.11288, 0.02461, -0.17132, 0.05094, -0.4422, -2.09454, -2.2956, 0.72769}, {-0.01405, 0.2377, 0.00674, 0.12425, -0.03702, 0.06971, 0.01997, 0.1408, -2.39019, 2.90508, -0.0353}, {0.05627, 0.01608, 0.14875, -0.18348, 0.05294, -0.96249, -0.89953, -0.22461, 0.30135, 0.21895, -0.44487}, {-0.42918, 0.27816, -0.25615, 1.01014, -0.49285, 0.00961, 0.37656, -0.0892, 0.30285, 0.04682, -0.32443}, {0.24371, 0.08463, 0.21342, -0.48515, -0.0706, -1.86214, 0.29693, -0.02107, 1.06139, -0.04204, -0.91263}, {-0.09101, 0.09529, 0.04835, -0.01256, -0.05646, -0.04278, -0.14271, 0.10094, 3.18736, -0.88604, -0.28078}, {-0.25653, -0.31008, 0.04824, -0.20796, 0.00062, 0.03668, 0.03317, 0.13071, -1.36434, 1.46088, 0.39803}};
	Double_t biasesL1_33[15] = {1.82198, 1.7708, -0.65886, -1.8002, -2.27268, -0.04278, 0.02115, -3.72681, 0.17099, 0.86271, 1.09837, -1.87198, 3.26732, 1.81576, -1.09156};
	nets[33].SetWeightsL1(weightsL1_33);
	nets[33].SetBiasesL1(biasesL1_33);
	
	Double_t weightsL2_33[1][15] = {{2.18616, 1.4959, -0.99041, -0.65456, -1.04706, -0.77698, -0.86828, 3.016, -0.70176, -0.70429, -1.02263, -1.32729, -1.15692, -1.68507, 1.14149}};
	Double_t biasesL2_33[1] = {1.37357};
	nets[33].SetWeightsL2(weightsL2_33);
	nets[33].SetBiasesL2(biasesL2_33);
	
	Double_t weightsL1_34[15][11] = {{0.03497, 0.08358, 0.09981, 0.01686, 0.03713, -1.52683, -0.00588, -0.01649, 0.06826, 0.10742, -0.17428}, {0.05268, 0.44279, 0.87543, 0.46443, 0.32904, 0.09648, -0.68593, -0.09897, 0.02625, -0.0028, -0.00984}, {-0.33169, 0.50943, 0.11227, 0.4, 0.40264, -0.07968, 0.00157, -0.00746, -0.32901, 0.17369, 0.24636}, {0.57487, 0.30613, 0.24222, 0.66725, -0.186, -0.02531, 0.30142, -1.77268, -2.48957, -0.29876, 0.22852}, {-0.05093, -0.13884, 0.02722, -0.3294, -0.15098, -0.20694, -0.40744, -0.99434, 0.29846, 0.48339, 0.01087}, {-0.10063, 0.20915, 0.07892, -0.05191, 0.08588, 0.03535, 0.13987, 0.0693, -4.49293, 2.10716, 0.29938}, {0.29092, -0.83927, -0.10958, -1.55484, -0.43537, 0.03275, 0.18794, 0.03836, -0.1387, -0.02276, 0.15151}, {-0.09866, -2.27769, -0.03091, 0.02875, -0.01007, 0.00139, 0.04618, -0.04958, 0.03418, -0.0687, -0.15037}, {0.10086, -0.12963, -0.05781, -0.04692, -0.05182, -0.10099, -0.01575, -0.39469, -1.64598, -1.46061, 0.01718}, {0.11051, 0.25667, 0.18291, -0.07475, 0.02027, -0.0303, 0.02301, 0.17187, -1.63317, 2.36836, -0.30816}, {0.05914, 0.09847, 0.04716, -0.02692, -0.01435, -0.94851, -0.72973, -0.07367, 0.23797, 0.13815, -0.29077}, {-0.31584, 0.13007, -0.24811, 0.82963, -0.49136, -0.02672, 0.26052, -0.08908, 0.08475, 0.04579, -0.19712}, {0.18916, 0.03099, 0.053, -0.30562, -0.14276, -1.6802, 0.35435, 0.02949, 0.39923, 0.05043, -0.36112}, {-0.22798, -0.02792, 0.02882, -0.10718, -0.07534, -0.0895, -0.17338, -0.08204, 4.351, -1.30547, -0.50891}, {-0.2808, -0.31168, -0.03656, -0.07969, 0.08687, 0.06081, -0.18049, 0.03449, -1.37577, 2.30032, -0.14041}};
	Double_t biasesL1_34[15] = {1.61317, 1.60721, -0.49107, -2.56613, -2.00455, 0.0252, -0.18252, -3.51892, -0.01101, 0.76083, 1.0397, -1.73034, 3.14957, 2.38867, -1.31042};
	nets[34].SetWeightsL1(weightsL1_34);
	nets[34].SetBiasesL1(biasesL1_34);
	
	Double_t weightsL2_34[1][15] = {{2.30844, 1.53364, -1.24886, -0.36737, -1.30544, -0.54094, -0.72093, 3.20827, -0.86706, -0.86373, -1.31105, -1.46936, -1.00398, -1.24173, 0.76824}};
	Double_t biasesL2_34[1] = {0.82759};
	nets[34].SetWeightsL2(weightsL2_34);
	nets[34].SetBiasesL2(biasesL2_34);
	
	Double_t weightsL1_35[15][11] = {{0.05143, 0.05224, 0.15935, -0.0821, -0.00071, -1.59666, 0.00476, -0.0643, 0.16073, 0.04432, -0.29033}, {0.04945, 0.45469, 0.74262, 0.54974, 0.28229, 0.02426, -0.58581, -0.08924, -0.01836, 0.05286, -0.08585}, {-0.5078, 0.4969, 0.13541, 0.48916, 0.40326, -0.06978, -0.04211, 0.0093, -0.24911, 0.13879, 0.3312}, {0.26188, 0.22788, -0.05963, 0.47929, -0.10265, -0.07062, 0.18922, -0.95384, -2.3043, 0.22295, 0.59027}, {-0.35472, -0.16833, 0.27477, -0.79056, -0.27854, -0.3332, -0.53566, -1.49565, 0.17575, 0.83674, 0.22518}, {-0.08752, 0.19473, 0.03525, 0.06085, -0.00841, -0.00082, 0.09598, 0.10289, -2.30054, 1.20572, -0.04897}, {0.35013, -0.84798, -0.1843, -1.50887, -0.42449, 0.03443, 0.14176, 0.0583, 0.40306, -0.27802, -0.11076}, {-0.15109, -2.13594, -0.03503, 0.10283, 0.0118, 0.00041, 0.03054, -0.05849, -0.13442, 0.0007, 0.02909}, {0.13485, -0.00108, -0.06773, 0.05866, -0.01814, -0.06184, 0.05479, -0.31476, -2.39164, -1.00724, 0.29226}, {0.20089, 0.06541, 0.01405, -0.02594, 0.00278, -0.02069, -0.09075, 0.15845, -1.27293, 2.10219, -0.14206}, {0.06998, 0.09542, 0.16272, -0.08723, 0.03352, -0.9307, -0.69974, -0.14664, 0.30031, 0.0922, -0.35017}, {-0.37674, 0.15369, -0.22336, 0.72246, -0.5095, 0.11121, 0.34411, -0.10607, -0.12406, 0.08871, -0.10938}, {0.35367, 0.03574, 0.23646, -0.34058, -0.03947, -1.58233, 0.12261, -0.09262, 0.77736, -0.10707, -0.68384}, {-0.06456, 0.0205, 0.0243, -0.07446, -0.02929, -0.10181, -0.12945, -0.03521, 3.44082, -1.34071, -0.23484}, {-0.49248, -0.34156, -0.01645, -0.29719, 0.0992, 0.06493, -0.25358, -0.04534, -0.5581, 1.5598, 0.1978}};
	Double_t biasesL1_35[15] = {1.71448, 1.55565, -0.5662, -1.45887, -2.79774, -0.04983, 0.14648, -3.33856, -0.12375, 0.95291, 1.03083, -1.7809, 2.72292, 1.75244, -1.48819};
	nets[35].SetWeightsL1(weightsL1_35);
	nets[35].SetBiasesL1(biasesL1_35);
	
	Double_t weightsL2_35[1][15] = {{2.61063, 1.66841, -1.40812, -0.69235, -0.98589, -0.86488, -0.93183, 2.77908, -0.99023, -1.09835, -1.47824, -1.69992, -1.15721, -1.78744, 0.85457}};
	Double_t biasesL2_35[1] = {0.77468};
	nets[35].SetWeightsL2(weightsL2_35);
	nets[35].SetBiasesL2(biasesL2_35);
	
	Double_t weightsL1_36[15][11] = {{0.11334, 0.09594, 0.02215, 0.02732, 0.03689, -1.73951, 0.13956, -0.03532, 0.15983, 0.08817, -0.35768}, {-0.04449, 0.45479, 0.87642, 0.60138, 0.4578, 0.17538, -0.55764, -0.23556, -0.57786, 0.17254, 0.36992}, {-0.38288, 0.33715, 0.11924, 0.3603, 0.27274, -0.02998, 0.07103, 0.0957, -0.0547, -0.04916, 0.12336}, {0.36544, 0.04771, 0.04593, 0.24773, -0.18733, 0.05264, 0.06556, -1.58289, -2.63712, 0.16874, 0.48791}, {-0.02563, -0.03382, -0.05105, -0.38787, -0.00506, -0.472, -0.40521, -1.54647, 0.02877, 0.58473, 0.28429}, {-0.18905, 0.29221, 0.1353, 0.07422, 0.02504, 0.12443, 0.07994, 0.06323, -3.03986, 1.47615, 0.17787}, {0.35571, -0.59709, -0.14832, -1.22539, -0.27284, -0.05316, 0.03847, -0.05135, 0.25855, -0.03424, -0.13761}, {-0.13708, -2.0625, -0.03151, 0.10191, 0.01348, 0.05228, 0.06493, -0.03216, -0.06042, -0.01616, -0.05534}, {0.02493, -0.05918, -0.07198, 0.02532, -0.08775, -0.12537, 0.04959, -0.25299, -2.18386, -1.20869, 0.69394}, {0.14085, -0.01902, 0.00702, -0.06343, -0.05392, 0.03072, 0.01179, 0.18464, -1.13468, 1.9722, -0.20188}, {0.20018, 0.00553, -0.15756, -0.01389, -0.03228, -0.98859, -0.76838, -0.17601, 0.61535, 0.17487, -0.71582}, {-0.31378, 0.1991, -0.33925, 1.02403, -0.74252, -0.03611, 0.27773, -0.08765, 0.07934, 0.06613, -0.15015}, {0.38027, 0.08796, 0.10553, -0.23431, -0.22815, -1.64903, 0.28332, 0.00483, 0.88221, -0.17522, -0.65112}, {-0.11931, 0.00195, -0.07406, -0.01479, -0.05896, 0.0063, -0.03619, -0.02139, 3.21458, -1.31551, -0.12042}, {-0.45979, -0.13635, 0.07352, -0.09561, -0.04187, 0.00096, 0.03413, 0.30521, -0.34818, 0.8853, 0.17449}};
	Double_t biasesL1_36[15] = {1.79116, 1.66628, -0.38396, -1.84514, -2.56785, -0.21567, -0.18743, -3.19602, -0.00061, 0.90213, 1.03503, -1.94116, 2.70842, 1.78445, -1.20295};
	nets[36].SetWeightsL1(weightsL1_36);
	nets[36].SetBiasesL1(biasesL1_36);
	
	Double_t weightsL2_36[1][15] = {{2.20457, 1.17917, -1.96918, -0.57893, -0.90418, -0.69235, -1.08479, 2.58844, -1.02742, -1.31055, -1.05978, -0.8515, -1.10556, -1.69082, 0.99569}};
	Double_t biasesL2_36[1] = {1.72839};
	nets[36].SetWeightsL2(weightsL2_36);
	nets[36].SetBiasesL2(biasesL2_36);
	
	Double_t weightsL1_37[15][11] = {{-0.01405, 0.08099, 0.05905, -0.00287, 0.05359, -1.60631, 0.09176, -0.00343, -0.06479, 0.04888, -0.09431}, {0.05922, 0.54842, 0.84973, 0.6551, 0.44295, 0.0502, -0.65949, -0.22495, -0.19936, 0.13697, -0.04432}, {-0.36393, 0.37079, 0.12616, 0.36915, 0.4999, -0.1489, -0.06311, 0.06486, -0.19399, 0.04056, 0.23869}, {0.26487, 0.22397, -0.16301, 0.46176, -0.12798, -0.17805, 0.31094, -1.50935, -2.26224, 0.13315, 0.56682}, {-0.24432, -0.09216, 0.22157, -0.57803, -0.08612, -0.38279, -0.43918, -1.2552, -0.13705, 0.73036, 0.41121}, {0.01731, 0.26514, 0.04029, -0.00907, -0.01662, 0.147, 0.09012, 0.04677, -3.83028, 1.96242, -0.17427}, {0.19028, -0.79496, -0.17794, -1.39493, -0.59529, 0.11103, 0.26933, 0.0266, -0.02125, -0.02488, 0.10798}, {-0.07719, -2.53384, -0.11746, 0.12638, 0.04842, -0.07206, 0.04506, -0.02378, 0.17383, -0.05725, -0.21821}, {0.1571, -0.08664, -0.06613, -0.00552, -0.07458, -0.1676, -0.02399, -0.38345, -1.72679, -1.90063, 0.41568}, {0.24462, 0.16825, -0.11282, 0.08056, -0.00275, 0.03061, -0.01339, 0.17301, -1.68614, 2.30442, -0.01326}, {-0.08336, 0.13703, 0.11142, -0.07558, 0.04876, -0.95075, -0.54615, -0.08332, 0.15297, 0.07112, -0.21112}, {-0.35435, 0.20477, -0.21676, 0.85283, -0.37398, 0.0096, 0.20427, -0.11994, 0.0962, 0.03827, -0.18512}, {0.34271, 0.13177, 0.15507, -0.40916, -0.00234, -2.21613, 0.20115, -0.03823, 0.93839, -0.22552, -0.60023}, {-0.06848, 0.14829, 0.08718, -0.07602, -0.0559, -0.0209, -0.21426, 0.06566, 4.24296, -1.30002, -0.6354}, {-0.32012, -0.37584, 0.20141, -0.31309, 0.05221, 0.07766, -0.26153, 0.21979, -0.92897, 1.43364, 0.25459}};
	Double_t biasesL1_37[15] = {1.75901, 1.76366, -0.43805, -1.87751, -2.20849, 0.11679, 0.11817, -3.76326, 0.02261, 0.82535, 1.0997, -1.84035, 3.77363, 2.24046, -1.23023};
	nets[37].SetWeightsL1(weightsL1_37);
	nets[37].SetBiasesL1(biasesL1_37);
	
	Double_t weightsL2_37[1][15] = {{2.51418, 1.39802, -1.30185, -0.54847, -0.9168, -0.72569, -0.93646, 2.48657, -0.81041, -0.94578, -1.45997, -1.85322, -0.94589, -1.36145, 0.89157}};
	Double_t biasesL2_37[1] = {0.45417};
	nets[37].SetWeightsL2(weightsL2_37);
	nets[37].SetBiasesL2(biasesL2_37);
	
	Double_t weightsL1_38[15][11] = {{0.03879, 0.07569, 0.10856, -0.00471, 0.08909, -1.52679, 0.09296, -0.04008, 0.01655, 0.04918, -0.20468}, {0.11387, 0.37145, 0.82066, 0.48508, 0.31783, 0.11445, -0.75984, -0.17503, -0.52633, 0.1932, 0.19769}, {-0.47183, 0.46826, 0.19314, 0.38478, 0.32141, -0.11657, 0.00409, 0.00925, -0.12787, 0.11783, 0.15445}, {0.28462, -0.01565, -0.21778, 0.44712, -0.22875, -0.0122, 0.19815, -1.27725, -3.49402, 0.51714, 0.70897}, {-0.15199, -0.19937, 0.12672, -0.48291, -0.20138, -0.24815, -0.37232, -1.17234, -0.39523, 0.70264, 0.58973}, {-0.10926, 0.29708, 0.16424, -0.04285, 0.10409, 0.01531, 0.07343, -0.02552, -4.29373, 1.93032, -0.01394}, {0.40681, -0.73932, -0.24185, -1.47389, -0.36129, 0.06713, 0.08106, -0.02824, -0.2868, 0.13319, 0.07133}, {-0.03809, -2.60301, -0.05766, 0.09313, -0.00387, -0.01614, -0.0034, -0.01518, 0.00905, -0.07705, -0.11776}, {0.12857, -0.16773, -0.05916, -0.13151, -0.04533, -0.19046, 0.06673, -0.39249, -2.34282, -2.05389, 1.03418}, {0.19226, 0.2293, 0.052, 0.06975, -0.08353, -0.09005, 0.01322, 0.14292, -1.85161, 2.43113, -0.34608}, {0.15856, 0.01032, 0.05605, -0.00417, 0.15852, -0.95044, -0.99442, -0.2922, 0.24735, 0.18298, -0.46512}, {-0.14954, 0.06063, -0.49602, 0.97458, -0.7706, -0.06172, 0.38685, 0.05285, 0.22388, -0.12489, -0.34587}, {0.00115, 0.20368, 0.27537, -0.37697, -0.04462, -2.1253, 0.44766, -0.11866, 0.73746, 0.05592, -0.79431}, {-0.11421, 0.03941, 0.02491, -0.07315, 0.04328, -0.05978, -0.14435, 0.09285, 3.04171, -0.83038, -0.29777}, {-0.27652, -0.30292, 0.09903, -0.18714, 0.16208, 0.08526, -0.13903, 0.03206, -1.67264, 1.74832, 0.42714}};
	Double_t biasesL1_38[15] = {1.6712, 1.69978, -0.36193, -1.96102, -2.33365, -0.18563, -0.35957, -3.92687, 0.26514, 0.78529, 1.00603, -1.87422, 3.80907, 1.76414, -1.35673};
	nets[38].SetWeightsL1(weightsL1_38);
	nets[38].SetBiasesL1(biasesL1_38);
	
	Double_t weightsL2_38[1][15] = {{2.05193, 1.35673, -1.29969, -0.64394, -1.13105, -0.64174, -0.93454, 2.88992, -0.76538, -0.8182, -0.79751, -0.96404, -0.9297, -1.71111, 0.94342}};
	Double_t biasesL2_38[1] = {1.29778};
	nets[38].SetWeightsL2(weightsL2_38);
	nets[38].SetBiasesL2(biasesL2_38);
	
	Double_t weightsL1_39[15][11] = {{0.17124, 0.05712, 0.08951, -0.09554, 0.03463, -1.8251, 0.11076, -0.01338, 0.32486, -0.03296, -0.39897}, {-0.09683, 0.4495, 0.80702, 0.56058, 0.3876, 0.03331, -0.53006, -0.12569, -0.03207, 0.03954, -0.01879}, {-0.39943, 0.28912, -0.06071, 0.35211, 0.31038, -0.16524, 0.15586, 0.17089, 0.20971, -0.05912, -0.05515}, {0.30505, 0.32027, -0.0949, 0.47495, -0.04791, -0.10335, 0.21672, -1.14281, -2.63583, 0.35847, 0.63598}, {-0.06445, -0.12331, 0.23209, -0.52333, -0.04716, -0.26107, -0.55372, -1.01362, -0.04114, 0.58646, 0.26495}, {-0.07785, 0.25487, 0.02118, 0.10527, 0.02597, 0.01971, 0.1997, 0.11544, -3.28507, 1.72729, -0.30572}, {0.37057, -0.82692, -0.22885, -1.60567, -0.45656, 0.0936, 0.10081, 0.02486, -0.33942, 0.06843, 0.3275}, {-0.10936, -2.59526, -0.10337, 0.16746, -0.00787, -0.03084, 0.07234, -0.07105, 0.14818, -0.06202, -0.20211}, {-0.15753, -0.07706, 0.068, -0.07461, -0.06525, -0.18216, 0.06792, -0.39555, -1.50729, -2.22946, 0.52981}, {0.1209, 0.06032, 0.0339, -0.09486, 0.05537, 0.05549, -0.12738, 0.05304, -2.41329, 2.50493, 0.46051}, {0.05461, 0.15833, 0.09175, -0.05146, 0.03344, -0.77288, -0.77537, -0.19977, 0.52471, -0.00979, -0.41889}, {-0.26095, 0.02215, -0.27849, 0.74669, -0.47103, -0.03951, 0.1782, -0.1122, 0.19767, -0.03111, -0.20385}, {0.37747, 0.01439, 0.21545, -0.32232, -0.01662, -1.88805, 0.18521, 0.02417, 1.22414, -0.27708, -0.91809}, {-0.12348, 0.10498, 0.07912, -0.02082, 0.01763, -0.01208, -0.12579, 0.15804, 3.44184, -1.01215, -0.45462}, {-0.24101, -0.3438, 0.03704, -0.19575, -0.00723, -0.00256, -0.14772, 0.16566, -0.47834, 1.15719, -0.03059}};
	Double_t biasesL1_39[15] = {1.97546, 1.76732, -0.55737, -1.5866, -2.03142, -0.00143, -0.15562, -4.0307, 0.2144, 0.83326, 0.9586, -1.75674, 2.75434, 1.93221, -0.93887};
	nets[39].SetWeightsL1(weightsL1_39);
	nets[39].SetBiasesL1(biasesL1_39);
	
	Double_t weightsL2_39[1][15] = {{2.48484, 1.68878, -1.20656, -0.71667, -1.10664, -0.73334, -0.81074, 3.3636, -0.76425, -0.94719, -1.03814, -1.65611, -1.36365, -1.59461, 1.01234}};
	Double_t biasesL2_39[1] = {0.92702};
	nets[39].SetWeightsL2(weightsL2_39);
	nets[39].SetBiasesL2(biasesL2_39);
	
	Double_t weightsL1_40[15][11] = {{0.08329, 0.05484, 0.07353, -0.03793, 0.04107, -1.64821, 0.07042, -0.01678, 0.06834, 0.0555, -0.20335}, {-0.05165, 0.45362, 0.84069, 0.62961, 0.37858, 0.09573, -0.50576, -0.0891, -0.01958, -0.01134, -0.00193}, {-0.3989, 0.36013, -0.00499, 0.40887, 0.30959, -0.10455, 0.05081, 0.11309, -0.11349, 0.01009, 0.25775}, {0.42403, 0.33102, -0.03212, 0.54264, 0.02071, -0.03899, -0.03684, -1.56474, -2.7039, 0.28921, 0.35488}, {-0.46844, -0.13503, 0.37006, -0.75613, -0.20999, -0.34645, -0.68288, -1.75356, 0.12735, 1.02374, 0.36482}, {-0.02088, 0.24378, 0.10567, 0.0687, 0.08309, 0.01207, -0.00722, 0.03362, -3.46849, 1.63432, -0.08161}, {0.2198, -0.66718, -0.16567, -1.31817, -0.3143, 0.01453, 0.15426, 0.07963, -0.2974, 0.10501, 0.31562}, {-0.09521, -2.41161, 0.00368, 0.05832, 0.05414, -0.00318, 0.02176, -0.04962, -0.00357, 0.00059, -0.17375}, {0.00789, -0.04554, 0.0136, -0.09022, -0.07577, -0.09413, 0.03159, -0.42835, -1.6546, -1.62878, 0.62833}, {0.14592, -0.07776, -0.00408, -0.06153, -0.03974, -0.00978, 0.0467, 0.13143, -1.51188, 2.28576, -0.05714}, {0.14326, 0.15088, 0.09169, -0.03187, 0.05804, -1.11495, -0.92097, -0.11974, 0.85594, -0.05595, -0.76466}, {-0.44754, 0.15577, -0.42764, 1.04953, -0.77082, -0.02947, 0.51507, -0.10541, 0.19318, 0.06557, -0.54114}, {0.18128, 0.17361, 0.32032, -0.38041, -0.24553, -1.75559, 0.27695, 0.04512, 0.31164, 0.12069, -0.22211}, {-0.0643, 0.13202, 0.05944, 0.02101, -0.00174, -0.03969, -0.12441, 0.00302, 2.96706, -1.15572, -0.22573}, {-0.48868, -0.03748, 0.0332, -0.05215, 0.10602, 0.03499, -0.02147, 0.27223, -0.95613, 1.12193, 0.69641}};
	Double_t biasesL1_40[15] = {1.65247, 1.78167, -0.57248, -1.89104, -2.93136, -0.18743, -0.01127, -3.62275, 0.03032, 0.75915, 1.09951, -1.87107, 3.11144, 1.5452, -1.29786};
	nets[40].SetWeightsL1(weightsL1_40);
	nets[40].SetBiasesL1(biasesL1_40);
	
	Double_t weightsL2_40[1][15] = {{2.08262, 1.66531, -1.62356, -0.57753, -0.61115, -0.81207, -0.94979, 2.41847, -0.97097, -1.10044, -0.97156, -0.89717, -0.98072, -1.75095, 1.0605}};
	Double_t biasesL2_40[1] = {1.31945};
	nets[40].SetWeightsL2(weightsL2_40);
	nets[40].SetBiasesL2(biasesL2_40);
	
	Double_t weightsL1_41[15][11] = {{-0.05972, 0.11739, 0.16324, -0.0624, 0.02572, -1.71232, 0.18393, -0.03845, -0.04669, 0.10026, -0.13389}, {0.01544, 0.34848, 0.59456, 0.4672, 0.25576, 0.01506, -0.52109, -0.24039, 0.52961, -0.06675, -0.34257}, {-0.32366, 0.34626, 0.10742, 0.39799, 0.22073, -0.12683, 0.04272, 0.1891, -0.2135, 0.01069, 0.26469}, {0.23833, 0.23527, -0.08133, 0.45563, -0.05754, 0.0853, 0.09561, -1.51624, -2.50869, 0.02456, 0.28553}, {-0.10663, 0.0517, 0.10404, -0.44912, -0.13532, -0.31908, -0.37651, -1.25162, 0.32385, 0.47869, 0.05983}, {0.09132, 0.25076, 0.01574, 0.08681, -0.07664, 0.01023, -0.04052, -0.09395, -3.50889, 1.97571, -0.20732}, {0.31848, -0.60486, -0.1302, -1.09773, -0.2613, 0.06063, 0.05596, -0.04205, -0.01628, -0.04651, 0.04053}, {-0.14423, -1.71052, 0.02799, 0.09589, 0.02936, 0.0092, 0.01584, -0.07142, 0.06502, -0.05557, -0.15085}, {0.02609, -0.09737, 0.0395, -0.02256, -0.03712, -0.2202, -0.01945, -0.36155, -1.52306, -1.75704, 0.35553}, {-0.02515, -0.0228, 0.02892, -0.09527, 0.03631, -0.01176, 0.11833, 0.04917, -1.30129, 2.03445, 0.02771}, {0.03195, 0.16742, 0.09637, 0.01155, -0.00786, -0.85146, -0.98444, -0.28371, 0.5439, 0.1764, -0.66022}, {-0.35247, 0.12644, -0.37294, 1.02006, -0.79218, -0.02611, 0.39849, -0.19976, 0.57102, -0.01076, -0.70382}, {0.2762, 0.27262, 0.36068, -0.26193, -0.32834, -1.8479, 0.32067, 0.03452, 0.6043, -0.03796, -0.5154}, {-0.08083, 0.13729, 0.12902, 0.01054, -0.05391, -0.01804, -0.23175, -0.04736, 3.88845, -1.36254, -0.51541}, {-0.31341, -0.00905, 0.18973, -0.14996, -0.00668, -0.07936, -0.04297, 0.45915, -0.95869, 1.08096, 0.54533}};
	Double_t biasesL1_41[15] = {1.74127, 1.52588, -0.36255, -1.94023, -2.34811, -0.18517, -0.04051, -3.07517, 0.06015, 0.65239, 1.15464, -1.97743, 3.16522, 1.94427, -1.22693};
	nets[41].SetWeightsL1(weightsL1_41);
	nets[41].SetBiasesL1(biasesL1_41);
	
	Double_t weightsL2_41[1][15] = {{1.91171, 1.92626, -2.66789, -0.62571, -1.245, -0.74525, -1.56989, 4.0221, -0.94442, -1.07878, -0.86473, -0.9254, -0.82932, -1.63284, 1.12016}};
	Double_t biasesL2_41[1] = {1.80782};
	nets[41].SetWeightsL2(weightsL2_41);
	nets[41].SetBiasesL2(biasesL2_41);
	
	Double_t weightsL1_42[15][11] = {{0.063, 0.12623, 0.0995, -0.01091, 0.04257, -1.79559, 0.07897, -0.0521, -0.16043, 0.17171, -0.07806}, {-0.02961, 0.4647, 0.8471, 0.60762, 0.38004, 0.05268, -0.58986, -0.27375, -0.20823, 0.18444, -0.00215}, {-0.3656, 0.35217, 0.01455, 0.41963, 0.27754, -0.16134, 0.02621, 0.04769, -0.06317, 0.07261, 0.121}, {0.44872, 0.15268, -0.17062, 0.52042, -0.17902, 0.01635, 0.04771, -1.41162, -3.0174, 0.16592, 0.57044}, {-0.15182, -0.02788, 0.26544, -0.51042, -0.13406, -0.3395, -0.3507, -1.28331, -0.65711, 0.86109, 0.64606}, {-0.01053, 0.16304, 0.02027, 0.02363, -0.01775, 0.11599, 0.12408, -0.0493, -3.04528, 1.49685, -0.22506}, {0.25354, -0.62414, -0.0941, -1.27376, -0.31972, 0.04514, 0.06883, 0.03687, 0.09684, -0.10139, 0.04627}, {-0.17581, -2.19843, -0.07274, 0.04948, 0.00341, 0.03837, 0.04039, -0.0768, 0.19175, -0.10314, -0.19279}, {0.002, -0.09847, -0.02241, -0.03632, -0.04561, -0.13379, 0.12375, -0.43387, -2.09969, -1.81114, 0.75277}, {0.1493, 0.11812, 0.02292, 0.02299, 0.03307, 0.00217, -0.00914, 0.09182, -1.55215, 2.28252, -0.00707}, {0.06126, 0.17167, 0.15686, 0.04638, 0.11127, -1.01448, -0.89512, -0.14433, -0.0513, 0.2518, -0.03315}, {-0.4414, 0.12786, -0.32045, 1.0133, -0.84645, 0.02895, 0.49957, 0.06656, 0.67014, -0.24493, -0.55645}, {0.19236, 0.68925, 0.31924, -0.38248, -0.23039, -2.45531, 0.37567, -0.19383, 0.5359, -0.028, -0.28443}, {-0.07041, 0.09162, -0.00668, 0.00618, -0.04546, -0.02453, -0.09181, 0.00435, 3.55711, -1.26108, -0.44188}, {-0.64664, -0.08145, 0.08718, -0.18692, -0.0411, -0.04628, 0.03843, 0.3974, 0.07974, 1.213, -0.21364}};
	Double_t biasesL1_42[15] = {1.87419, 1.82575, -0.41048, -1.92355, -2.36388, -0.2242, -0.02605, -3.58518, 0.03637, 0.89027, 1.11396, -1.94348, 4.28236, 1.74628, -1.71729};
	nets[42].SetWeightsL1(weightsL1_42);
	nets[42].SetBiasesL1(biasesL1_42);
	
	Double_t weightsL2_42[1][15] = {{2.00611, 1.65502, -1.71329, -0.57071, -1.11968, -0.93861, -1.11735, 3.91475, -0.89371, -0.98221, -0.98845, -0.87155, -0.83241, -1.72495, 0.84078}};
	Double_t biasesL2_42[1] = {2.27383};
	nets[42].SetWeightsL2(weightsL2_42);
	nets[42].SetBiasesL2(biasesL2_42);
	
	Double_t weightsL1_43[15][11] = {{0.01027, 0.11437, 0.09935, 0.0167, 0.00652, -1.84283, 0.19625, -0.03312, 0.07347, 0.0983, -0.27665}, {-0.11161, 0.39288, 0.76371, 0.58671, 0.34735, 0.10284, -0.53048, -0.13236, -0.13076, 0.065, -0.0234}, {-0.31812, 0.55983, -0.02277, 0.60915, 0.21237, -0.07713, 0.0241, 0.05169, 0.05212, -0.0274, 0.01297}, {0.38806, -0.0243, -0.13076, 0.39104, -0.10837, 0.09802, 0.14202, -1.13133, -2.42776, 0.09767, 0.48171}, {-0.27431, -0.07939, 0.15451, -0.37715, -0.06745, -0.32955, -0.32404, -1.22563, -0.02438, 0.62152, 0.3109}, {-0.23071, 0.14989, 0.05209, -0.00488, 0.09702, 0.06946, 0.20243, -0.0567, -3.6387, 1.90335, -0.4005}, {0.2195, -0.61907, 0.09054, -1.13794, -0.24443, 0.05496, 0.05989, 0.02334, -0.18984, -0.02213, 0.2309}, {-0.10909, -2.32348, -0.0519, 0.01474, -0.01134, 0.09324, 0.0514, -0.11698, 0.08898, -0.08067, -0.20101}, {0.0771, -0.04595, 0.02566, -0.07673, -0.03996, -0.11204, 0.06121, -0.35021, -2.28004, -1.69458, 0.82972}, {0.05735, 0.0432, 0.00769, -0.0006, -0.01234, 0.03953, 0.00938, 0.16602, -1.40612, 1.89447, -0.00731}, {0.11629, 0.03115, 0.05509, 0.056, 0.03668, -0.91606, -0.83285, -0.12346, 0.42396, 0.16194, -0.47016}, {-0.34441, -0.03761, -0.52041, 1.12332, -1.12216, 0.27872, 0.48443, -0.17905, -0.52811, 0.07141, 0.1828}, {0.18936, -0.08832, 0.26113, -0.37346, -0.03779, -1.4427, 0.33374, -0.21523, 0.62023, -0.00843, -0.51933}, {-0.08448, 0.0236, 0.00201, -0.08435, 0.0215, -0.06559, -0.1412, 0.12792, 3.63341, -1.30543, -0.57186}, {-0.50782, -0.19836, 0.31188, -0.29635, 0.13829, -0.08412, -0.13749, 0.28554, -1.14466, 1.69295, 0.62117}};
	Double_t biasesL1_43[15] = {1.87032, 1.62519, -0.3369, -1.59971, -2.07086, -0.06912, 0.08703, -3.40494, 0.16709, 0.7897, 0.97115, -2.38931, 2.4355, 1.81876, -1.60458};
	nets[43].SetWeightsL1(weightsL1_43);
	nets[43].SetBiasesL1(biasesL1_43);
	
	Double_t weightsL2_43[1][15] = {{1.96004, 1.57774, -2.20233, -0.82512, -1.11164, -0.63947, -1.60865, 2.51905, -0.84621, -1.1955, -1.00602, -0.7649, -0.96675, -1.69786, 0.63111}};
	Double_t biasesL2_43[1] = {1.19298};
	nets[43].SetWeightsL2(weightsL2_43);
	nets[43].SetBiasesL2(biasesL2_43);
	
	Double_t weightsL1_44[15][11] = {{-0.0472, 0.08189, 0.16905, -0.06331, 0.00115, -1.49913, 0.13517, 0.02127, 0.00426, 0.08125, -0.14613}, {-0.08747, 0.40743, 0.69121, 0.50167, 0.32983, 0.07892, -0.51632, -0.14386, -0.15635, 0.13863, 0.05159}, {-0.30654, 0.32851, 0.07183, 0.29248, 0.26802, -0.10511, 0.12724, 0.06582, -0.1359, 0.03887, 0.1179}, {0.26304, 0.11191, 0.04649, 0.44316, -0.18843, -0.09218, 0.12698, -1.13973, -2.44131, 0.18097, 0.57405}, {-0.11685, 0.01418, 0.13596, -0.30873, -0.06666, -0.32273, -0.33584, -0.99251, 0.20803, 0.44796, 0.01742}, {-0.19619, 0.2375, 0.15851, -0.07963, 0.03919, 0.18314, 0.10597, -0.00703, -4.00891, 1.77792, 0.34907}, {0.20691, -0.68322, -0.19412, -1.24302, -0.34478, -0.01638, 0.12663, 0.06684, -0.08026, 0.12667, 0.09676}, {-0.13612, -2.1106, -0.06082, 0.16708, -0.04148, 0.0469, 0.0842, -0.10198, -0.03147, 0.05437, -0.08628}, {-0.01495, -0.13253, 0.0423, -0.08229, 0.04228, -0.08536, -0.01059, -0.42882, -1.0969, -2.32101, 0.2035}, {0.16738, 0.10796, 0.02334, 0.02908, -0.06196, 0.03105, -0.01093, 0.03315, -1.53643, 1.85511, -0.03456}, {0.01902, 0.03124, 0.17811, -0.03226, -0.00802, -0.83056, -0.73366, -0.11252, 0.24431, 0.10749, -0.2771}, {-0.3093, 0.07417, -0.25586, 0.80136, -0.41988, 0.01646, 0.23025, -0.05298, -0.19416, 0.19708, 0.01264}, {0.18618, 0.12981, 0.36574, -0.35287, -0.13483, -1.80115, 0.22937, -0.04385, 1.02289, -0.12363, -0.80685}, {-0.08818, 0.0884, 0.05598, -0.04297, -0.01617, -0.03864, -0.22111, 0.04464, 3.25819, -0.88895, -0.42842}, {-0.32956, -0.10477, 0.16682, -0.12422, 0.08824, -0.02786, -0.04943, 0.0962, -0.85371, 1.47414, -0.13604}};
	Double_t biasesL1_44[15] = {1.66996, 1.60199, -0.44607, -1.63927, -2.02409, -0.11189, -0.01714, -3.40998, 0.23778, 0.56099, 0.969, -1.81232, 3.06722, 1.93119, -1.15166};
	nets[44].SetWeightsL1(weightsL1_44);
	nets[44].SetBiasesL1(biasesL1_44);
	
	Double_t weightsL2_44[1][15] = {{2.5586, 1.89314, -2.00599, -0.60137, -1.5683, -0.80526, -1.00359, 3.42889, -0.78457, -0.93138, -1.10505, -1.99752, -1.37784, -1.7696, 1.0652}};
	Double_t biasesL2_44[1] = {0.22168};
	nets[44].SetWeightsL2(weightsL2_44);
	nets[44].SetBiasesL2(biasesL2_44);
	
