#include <bnn_ttbar_reco_CSVM_3t.hpp>

namespace ttbar_reco_CSVM_3t{

std::string const taskName("ttbar_reco_3t");
std::list<std::string> inputVarNames;
std::list<std::string> sgnFileNames;
std::list<std::string> bkgFileNames;


void Initialize()
{
	inputVarNames.push_back("DeltaRBJetTopLepWLep");
	inputVarNames.push_back("DeltaRLightJets");
	inputVarNames.push_back("log(MassTopHad)");
	inputVarNames.push_back("log(MassTopLep)");
	inputVarNames.push_back("log(MassWHad)");
	inputVarNames.push_back("MaxEtaTop");
	inputVarNames.push_back("log(MinPtBJet)");
	inputVarNames.push_back("PassBTagTopHad");
	inputVarNames.push_back("PassBTagTopLep");
	inputVarNames.push_back("RelHt");

	sgnFileNames.push_back("../tuples/ttbar-semilep_mu.root");
	sgnFileNames.push_back("../tuples/ttbar-semilep_e.root");
	bkgFileNames.push_back("../tuples/ttbar-semilep_mu.root");
	bkgFileNames.push_back("../tuples/ttbar-semilep_e.root");
}


Transform0::Transform0()
{
	mean[0] = 2.13968; sigma[0] = 0.926598;
	mean[1] = 2.09408; sigma[1] = 0.969999;
	mean[2] = 5.3766; sigma[2] = 0.44028;
	mean[3] = 5.24243; sigma[3] = 0.323381;
	mean[4] = 4.66222; sigma[4] = 0.541256;
	mean[5] = 1.65664; sigma[5] = 0.863062;
	mean[6] = 3.86181; sigma[6] = 0.472039;
	mean[7] = 0.73725; sigma[7] = 0.440128;
	mean[8] = 0.72873; sigma[8] = 0.444615;
	mean[9] = 0.473796; sigma[9] = 0.191367;
}

void Transform0::operator()(Double_t *vars) const
{
	for (unsigned iVar = 0; iVar < 10; ++iVar)
		vars[iVar] = (vars[iVar] - mean[iVar]) / sigma[iVar];
}


NN::NN()
{}


void NN::SetWeightsL1(Double_t const weights[15][10])
{
	for (unsigned n = 0; n < 15; ++n)
		for (unsigned np = 0; np < 10; ++np)
			weightsL1[n][np] = weights[n][np];
}


void NN::SetBiasesL1(Double_t const biases[15])
{
	std::copy(biases, biases + 15, biasesL1);
}


void NN::SetWeightsL2(Double_t const weights[1][15])
{
	for (unsigned n = 0; n < 1; ++n)
		for (unsigned np = 0; np < 15; ++np)
			weightsL2[n][np] = weights[n][np];
}


void NN::SetBiasesL2(Double_t const biases[1])
{
	std::copy(biases, biases + 1, biasesL2);
}


Double_t const * NN::Apply(Double_t const *vars) const
{
	std::copy(vars, vars + 10, bufferIn);
	
	for (unsigned n = 0; n < 15; ++n)
	{
		bufferOut[n] = biasesL1[n];
	
		for (unsigned np = 0; np < 10; ++np)
			bufferOut[n] += weightsL1[n][np] * bufferIn[np];
	}
	
	for (unsigned n = 0; n < 15; ++n)
		bufferIn[n] = TMath::TanH(bufferOut[n]);
	
	for (unsigned n = 0; n < 1; ++n)
	{
		bufferOut[n] = biasesL2[n];
	
		for (unsigned np = 0; np < 15; ++np)
			bufferOut[n] += weightsL2[n][np] * bufferIn[np];
	}
	
	for (unsigned n = 0; n < 1; ++n)
		bufferIn[n] = 1. / (1 + TMath::Exp(-bufferOut[n]));
	
	return bufferIn;
}


BNN::BNN(UInt_t netBegin_, UInt_t netEnd_)
{
	SetNetRange(netBegin_, netEnd_);
	
	Double_t weightsL1_0[15][10] = {{-0.35241, -0.42249, 3.33552, 0.45124, 2.60537, 0.34551, 0.22688, -0.50866, 0.44661, 0.57771}, {0.05149, -0.11429, 1.96899, -0.08489, -1.14168, -0.04435, 0.03442, -1.30934, 0.11018, -0.08101}, {-0.49488, -0.44532, -1.03667, -0.04297, -3.23706, 0.29956, 0.00042, -2.53291, -0.16039, -0.20083}, {-1.18317, -0.42724, -0.05594, 0.51463, 0.5849, 0.09241, 0.39534, -0.32715, 0.36113, 0.24964}, {-0.70145, -0.16188, 1.06375, 0.65588, -0.16188, 0.22954, -0.62042, 0.28541, -0.33247, -0.76629}, {0.5358, -0.12446, -0.00039, 1.19499, -0.15229, -0.14081, 0.55691, -0.07111, 2.40172, 0.08032}, {-0.24027, 0.05778, 2.92498, 0.17397, -1.68355, 0.08912, -0.11469, -2.07363, -0.03928, -0.13866}, {-0.01171, -0.0545, -0.0026, -1.08692, -0.11925, -0.0675, 0.06034, -0.25334, 2.5974, -0.24657}, {-0.00892, 0.05994, -0.11656, 0.94826, -0.05468, -0.26128, 0.0657, 0.13768, 0.1043, -0.54007}, {-0.01895, -0.16963, 1.2113, 0.0415, -2.58983, 0.16734, -0.09258, 0.00669, -0.08408, 0.02005}, {-0.28455, 1.23157, -0.76342, 0.49261, 0.9669, -0.2297, 0.00115, 1.25482, -0.37022, 0.57165}, {-0.10452, 0.11124, -0.08455, -0.16488, -1.26327, 0.08473, 0.15127, -0.35419, -0.29028, -0.10208}, {-0.0046, 0.15786, -2.78964, -0.10758, 3.08344, -0.01926, 0.03563, -0.13367, -0.08908, 0.17896}, {-0.4874, 0.31757, -1.04534, 0.50196, -0.21905, 0.13721, -0.20703, 2.63977, -0.09036, 0.0176}, {-0.52641, 0.06714, 0.79598, 0.077, -0.2957, 0.18916, -0.96521, -0.07962, 2.02012, -0.23814}};
	Double_t biasesL1_0[15] = {0.94727, 1.62967, 0.17419, -1.14079, 2.11407, 0.21313, 1.13271, -1.23844, -2.0613, 0.63725, -2.67963, -0.17903, 0.69275, -1.24572, 0.28059};
	nets[0].SetWeightsL1(weightsL1_0);
	nets[0].SetBiasesL1(biasesL1_0);
	
	Double_t weightsL2_0[1][15] = {{-0.3959, 2.81132, 0.66298, 0.80585, 1.11191, 1.0491, -1.45731, 1.05838, -1.88874, 1.60173, 0.7039, -1.68211, 0.8864, 1.2711, -1.1083}};
	Double_t biasesL2_0[1] = {-4.00505};
	nets[0].SetWeightsL2(weightsL2_0);
	nets[0].SetBiasesL2(biasesL2_0);
	
	Double_t weightsL1_1[15][10] = {{0.06783, -0.07745, 2.18006, 0.14077, 0.85356, -0.0655, 0.17996, -0.13812, 0.14077, 0.24981}, {0.02901, -0.13978, 1.97605, -0.04785, -1.15083, -0.06321, -0.03529, -1.01381, 0.08466, -0.04929}, {-0.18481, -0.12708, -0.58326, -0.16277, -3.07806, 0.25293, -0.10729, -1.75709, 0.01793, 0.1312}, {-1.0758, -0.4302, -0.20453, 0.45719, 0.65271, -0.07775, 0.22644, -0.09582, 0.17271, 0.22598}, {-0.27036, -0.02814, 1.35364, 0.35106, -0.48127, 0.16665, -0.2598, -0.10456, -0.45005, -0.48445}, {0.60059, -0.0547, 0.09535, 1.59182, -0.51917, -0.19098, 0.66169, -0.07812, 3.06027, 0.15433}, {-0.17113, -0.00915, 3.02559, 0.16198, -1.95582, 0.03569, -0.17727, -1.6397, 0.06586, -0.11698}, {-0.00629, 0.00745, 0.08088, -1.09774, -0.29431, -0.0389, 0.1315, -0.20252, 3.15146, -0.08723}, {0.00943, 0.00653, -0.21047, 0.78097, 0.04914, -0.17105, 0.1369, 0.07979, 0.05474, -0.52665}, {0.04406, -0.20281, 1.04432, 0.12097, -2.3979, 0.03563, -0.10326, -0.09164, 0.05355, -0.09359}, {-0.00547, 0.76738, -0.45945, 0.13844, 0.20296, 0.12987, 0.35498, 0.81979, -0.0383, 0.3938}, {-0.15034, 0.0222, -0.2819, -0.13488, -1.31351, 0.07242, 0.06341, -0.49773, -0.21108, -0.09444}, {-0.1879, -0.22665, -2.7337, -0.06383, 3.65156, 0.01659, -0.05848, -0.01875, 0.03183, -0.1184}, {-0.30312, 0.53875, -1.26001, 0.44473, -0.52808, 0.15201, -0.19347, 2.5382, -0.09303, 0.07487}, {-0.29533, 0.94151, 1.64596, 0.0328, -0.87217, 0.19808, -1.09951, -0.41256, 3.15344, 0.12533}};
	Double_t biasesL1_1[15] = {0.94436, 1.3256, 0.20683, -0.94487, 1.92101, 0.211, 1.10212, -1.32369, -2.01915, 0.4412, -1.49603, -0.19562, 0.98316, -1.19314, 0.30183};
	nets[1].SetWeightsL1(weightsL1_1);
	nets[1].SetBiasesL1(biasesL1_1);
	
	Double_t weightsL2_1[1][15] = {{-0.53268, 3.26467, 0.90571, 0.90566, 1.5742, 0.80341, -2.03724, 1.11014, -1.72801, 1.34144, 0.85263, -1.66299, 0.89965, 1.14156, -0.91629}};
	Double_t biasesL2_1[1] = {-3.97228};
	nets[1].SetWeightsL2(weightsL2_1);
	nets[1].SetBiasesL2(biasesL2_1);
	
	Double_t weightsL1_2[15][10] = {{0.25576, -0.23923, 1.75827, -0.30868, 1.16008, 0.05361, 0.23887, -0.39237, 0.37222, 0.56857}, {0.03139, -0.19065, 1.85848, -0.07251, -1.06076, -0.08172, -0.06109, -0.84531, 0.14594, -0.09158}, {-0.05768, -0.26817, -0.9037, -0.23505, -2.91287, 0.28099, 0.10884, -2.19337, 0.0871, 0.14092}, {-0.91964, -0.28074, -0.05619, 0.35226, 0.40387, -0.04765, 0.17576, -0.14019, 0.32923, 0.26556}, {-0.21626, 0.05222, 0.39256, 0.63759, -0.2193, 0.16601, -0.07117, -0.25676, -0.4433, -0.35918}, {0.77945, -0.24555, -0.10151, 1.215, -0.14082, -0.25299, 0.62124, -0.07641, 2.72613, 0.1468}, {-0.18858, 0.01236, 2.73961, 0.27858, -1.57358, 0.06374, -0.12133, -1.80311, 0.00172, -0.10434}, {0.03429, -0.05185, 0.16732, -0.90863, -0.15681, -0.1509, 0.03512, -0.24068, 2.04554, -0.19882}, {0.05415, 0.0496, -0.15826, 0.91529, -0.13321, -0.29703, -0.13212, 0.20808, 0.27588, -0.47945}, {-0.03854, -0.21038, 0.87962, -0.02093, -2.25196, 0.07261, -0.08054, -0.11421, -0.10613, -0.13943}, {0.06808, 0.8153, -0.74294, 0.17244, 0.39932, 0.24332, 0.13555, 0.98914, 0.08574, 0.60128}, {-0.05183, -0.02734, -0.15728, -0.09276, -1.13011, 0.03353, 0.12257, -0.3681, -0.23357, -0.15094}, {-0.03693, -0.06792, -2.52959, 0.00203, 3.32629, 0.00055, 0.01696, -0.03445, 0.02089, 0.07897}, {-0.28887, 0.29857, -1.16383, 0.3303, -0.26606, 0.15373, 0.04102, 2.28115, -0.06152, 0.43868}, {-0.21713, 0.5336, 0.69731, 0.14857, -0.48174, 0.15375, -0.69775, -0.42861, 2.12084, 0.14403}};
	Double_t biasesL1_2[15] = {0.43501, 1.38767, 0.26146, -0.98493, 1.35045, 0.00159, 0.94038, -0.90384, -2.18905, 0.37507, -1.51741, -0.07224, 0.90273, -0.72285, 0.35511};
	nets[2].SetWeightsL1(weightsL1_2);
	nets[2].SetBiasesL1(biasesL1_2);
	
	Double_t weightsL2_2[1][15] = {{-0.60921, 3.10373, 0.94714, 1.06938, 1.99211, 0.81968, -1.69453, 1.51572, -1.39719, 1.71681, 1.10684, -2.20268, 0.96397, 1.0177, -1.20732}};
	Double_t biasesL2_2[1] = {-3.86566};
	nets[2].SetWeightsL2(weightsL2_2);
	nets[2].SetBiasesL2(biasesL2_2);
	
	Double_t weightsL1_3[15][10] = {{0.11546, -0.4796, 2.18341, -0.03543, 1.6834, 0.24229, 0.10239, -0.4086, 0.46708, 0.49285}, {0.1302, -0.10524, 1.76968, -0.14236, -0.95437, -0.05104, 0.07172, -1.01178, 0.12943, -0.04038}, {-0.03221, -0.27866, -0.74472, -0.17793, -2.79791, 0.29538, 0.09842, -2.02293, 0.02129, 0.22188}, {-0.94354, -0.37108, -0.35935, 0.51628, 0.58288, 0.04764, 0.29901, -0.15692, 0.28205, 0.30567}, {-0.20967, -0.08634, 0.5823, 0.47872, -0.17392, 0.17041, -0.196, -0.2352, -0.21258, -0.37762}, {0.56636, -0.15563, -0.0158, 1.28461, -0.13624, -0.20767, 0.56078, -0.03452, 2.59588, 0.05416}, {-0.0769, -0.00974, 2.9342, 0.11305, -1.54689, 0.06229, 0.01187, -2.01628, -0.01291, -0.11136}, {0.0915, 0.02463, 0.20346, -1.03511, -0.2129, -0.11206, 0.1342, -0.12304, 2.40564, -0.34496}, {-0.11341, -0.05575, -0.00567, 1.02319, 0.00653, -0.23443, 0.05332, 0.05067, 0.10586, -0.58383}, {-0.00819, -0.15363, 0.95494, 0.08644, -2.01625, 0.09425, -0.12377, 0.08639, -0.133, -0.00428}, {-1.1951, 1.489, -1.35954, 0.46358, 1.64754, -0.30678, -0.23552, 0.62462, -0.47659, 0.29165}, {-0.00484, 0.10065, -0.09021, -0.14442, -1.0047, 0.00808, 0.14241, -0.1696, -0.25485, -0.02805}, {-0.09087, 0.09731, -2.63895, -0.10158, 3.05688, -0.04278, -0.01618, -0.19781, -0.07405, 0.02991}, {-0.20847, 0.37834, -0.77315, 0.23383, -0.2183, 0.14407, 0.05345, 1.61955, -0.12188, 0.2432}, {-0.40622, 0.29933, 0.56821, 0.14859, -0.39634, 0.2236, -0.86907, -0.19154, 2.09457, -0.09208}};
	Double_t biasesL1_3[15] = {0.64918, 1.33126, 0.27822, -0.9258, 1.62225, 0.32835, 1.15455, -1.21667, -2.18699, 0.55901, -2.90679, -0.04785, 0.86031, -0.52284, 0.60891};
	nets[3].SetWeightsL1(weightsL1_3);
	nets[3].SetBiasesL1(biasesL1_3);
	
	Double_t weightsL2_3[1][15] = {{-0.60602, 3.07384, 0.93093, 1.04615, 1.59887, 1.03754, -1.70455, 1.21775, -1.74263, 2.01624, 0.60912, -2.52371, 0.99534, 1.47194, -1.26069}};
	Double_t biasesL2_3[1] = {-4.29169};
	nets[3].SetWeightsL2(weightsL2_3);
	nets[3].SetBiasesL2(biasesL2_3);
	
	Double_t weightsL1_4[15][10] = {{0.15877, -0.38092, 2.27941, -0.2238, 1.49586, -0.22976, 0.11625, -0.32779, 0.35117, 0.62934}, {0.05771, -0.10642, 2.00732, -0.06287, -1.22664, -0.0354, 0.04288, -1.16476, 0.06866, -0.0784}, {-0.12199, -0.00338, -0.88511, -0.2292, -3.0855, 0.35395, -0.064, -2.11377, 0.00929, 0.29478}, {-1.1076, -0.37576, -0.13425, 0.44325, 0.4323, 0.10004, 0.43765, -0.21646, 0.34461, 0.16884}, {-0.44253, -0.25632, 0.88011, 0.94129, -0.0952, 0.19455, -0.46109, -0.02662, -0.19961, -0.51682}, {0.5876, -0.08052, -0.03423, 1.06337, -0.04228, -0.18534, 0.57184, -0.08144, 2.21507, 0.15463}, {-0.09027, 0.03779, 3.22939, 0.20139, -1.65071, 0.07207, -0.15793, -2.36819, 0.04389, -0.01384}, {0.01601, -0.12422, 0.09356, -0.93228, -0.07679, -0.19171, -0.07136, -0.08071, 1.73482, -0.49666}, {0.02133, 0.04371, -0.07839, 0.70504, -0.09325, -0.17938, 0.04791, 0.06559, 0.14781, -0.4176}, {-0.01045, -0.1271, 1.04523, 0.05934, -2.21013, 0.0099, -0.07707, -0.01832, -0.03574, -0.09061}, {-0.53791, 0.87972, -0.86054, 0.4441, 1.15085, 0.04737, -0.10249, 0.57857, -0.35805, 0.64067}, {0.0001, 0.12116, -0.14038, -0.19991, -1.30215, 0.02932, 0.14337, -0.39854, -0.21478, -0.08301}, {0.01613, 0.1131, -3.10352, -0.19025, 3.70198, -0.0284, -0.02487, -0.07036, -0.05187, 0.154}, {-0.04635, 0.57889, -1.25639, 0.45438, -0.19498, 0.0052, 0.05516, 2.34149, -0.058, 0.46254}, {-0.42584, 0.09423, 0.81401, 0.11085, -0.17241, 0.07122, -0.9852, -0.34856, 2.64126, -0.24572}};
	Double_t biasesL1_4[15] = {0.73604, 1.71706, 0.39643, -1.06695, 2.27365, 0.30555, 1.24454, -0.72985, -1.61565, 0.49911, -1.89664, -0.09784, 0.90683, -0.32203, 0.29934};
	nets[4].SetWeightsL1(weightsL1_4);
	nets[4].SetBiasesL1(biasesL1_4);
	
	Double_t weightsL2_4[1][15] = {{-0.46897, 2.33025, 1.09488, 0.90417, 1.45665, 1.10452, -1.24127, 1.03919, -2.18423, 1.75473, 0.67764, -2.02089, 0.90794, 0.86316, -1.0363}};
	Double_t biasesL2_4[1] = {-4.73685};
	nets[4].SetWeightsL2(weightsL2_4);
	nets[4].SetBiasesL2(biasesL2_4);
	
	Double_t weightsL1_5[15][10] = {{0.0414, -0.41995, 2.13716, 0.05959, 0.98971, 0.16241, -0.10344, -0.26324, 0.5841, 0.17134}, {0.06046, 0.02689, 2.5298, -0.07425, -1.57579, -0.10039, 0.07788, -1.70882, 0.0536, -0.01653}, {-0.11746, -0.38208, -1.31966, -0.20653, -3.05598, 0.49452, 0.04885, -2.64112, -0.039, 0.24096}, {-1.18606, -0.19716, -0.01688, 0.65031, 0.40202, -0.05077, 0.31207, -0.20683, 0.23815, 0.3843}, {-0.30682, -0.15708, 0.91285, 0.28843, -0.03359, 0.18242, -0.07422, -0.03051, -0.44243, -0.51429}, {0.51586, -0.17491, -0.05448, 1.005, -0.03536, -0.22881, 0.45747, 0.05796, 2.21512, 0.04807}, {-0.12595, 0.02355, 3.05416, 0.13688, -1.30273, 0.06182, -0.14094, -2.2818, -0.11452, -0.12512}, {0.14525, -0.02181, -0.13941, -1.40025, -0.10252, -0.17782, 0.24613, -0.10388, 2.35191, -0.27599}, {-0.10201, -0.03815, -0.09864, 0.78583, -0.05948, -0.11801, 0.02595, 0.03003, 0.24488, -0.4706}, {0.00845, -0.01082, 1.40392, 0.10356, -2.56226, 0.10553, -0.16836, 0.00143, 0.03197, 0.05685}, {-1.2935, 1.09285, -1.16058, 0.89375, 1.16642, -0.31176, 0.11882, 0.31953, -0.76299, 0.10607}, {0.00523, 0.21561, -0.1327, -0.19384, -0.96993, -0.01015, 0.18459, -0.25495, -0.29719, 0.0089}, {-0.10953, 0.02525, -3.08165, -0.13908, 3.25713, -0.0034, -0.00591, -0.12528, 0.03674, 0.1474}, {-0.32893, 0.79995, -1.61376, 0.56418, 0.03916, 0.07617, 0.08274, 3.37599, -0.43023, 0.12396}, {-0.30397, 0.51399, 0.50989, -0.13589, -0.23781, 0.19851, -0.75467, -0.14746, 2.35143, 0.09252}};
	Double_t biasesL1_5[15] = {0.49731, 2.24591, 0.45461, -1.21967, 1.41298, 0.27597, 1.23488, -1.0362, -1.66175, 0.68955, -2.12057, -0.15296, 0.56129, -0.73291, 0.355};
	nets[5].SetWeightsL1(weightsL1_5);
	nets[5].SetBiasesL1(biasesL1_5);
	
	Double_t weightsL2_5[1][15] = {{-0.65126, 1.65317, 0.79259, 0.88111, 1.17881, 1.12901, -0.95837, 0.89499, -2.26082, 1.70702, 0.39133, -1.93071, 0.94895, 0.85793, -0.86051}};
	Double_t biasesL2_5[1] = {-4.37175};
	nets[5].SetWeightsL2(weightsL2_5);
	nets[5].SetBiasesL2(biasesL2_5);
	
	Double_t weightsL1_6[15][10] = {{0.22446, -0.13146, 3.86607, -0.24715, 1.99804, -0.11324, -0.23168, -0.58707, 0.86874, 0.74723}, {0.14948, -0.13602, 3.20755, -0.03957, -2.03576, -0.02912, -0.00637, -2.20918, 0.17474, -0.02142}, {0.08166, -0.30422, -0.98119, -0.26183, -3.22505, 0.44534, 0.10227, -2.53075, -0.1035, 0.39677}, {-1.24299, -0.1641, -0.02324, 0.59152, 0.33237, -0.04665, 0.18569, -0.23745, 0.21739, 0.42019}, {-0.28023, -0.00219, 2.07696, 0.54105, -0.91934, -0.00727, -0.36594, 0.06543, -0.22985, -0.59978}, {0.82565, -0.23777, -0.19619, 1.03978, 0.05927, -0.05786, 0.56448, -0.08196, 2.72982, 0.21103}, {-0.18106, 0.20547, 3.68844, 0.30653, -1.78201, 0.15101, 0.02942, -2.36631, -0.1158, 0.15127}, {0.04861, -0.17176, -0.25693, -1.2443, 0.08021, -0.18773, 0.36478, -0.23535, 2.12145, -0.57076}, {-0.11733, 0.04968, -0.15057, 0.79653, -0.00412, -0.12921, -0.01751, 0.17772, 0.17376, -0.53424}, {0.05974, -0.1737, 1.27111, 0.02772, -2.38521, 0.08551, -0.09992, -0.00013, -0.0687, 0.05845}, {-0.89844, 1.23236, -1.53962, 0.66526, 1.70373, -0.22947, 0.38214, 0.82051, -0.57235, 0.02426}, {0.14429, 0.06375, -0.21226, -0.21344, -1.01604, 0.02503, 0.19561, -0.30149, -0.33533, 0.03218}, {0.26423, 0.06654, -4.29587, -0.24568, 4.64977, -0.13988, 0.16728, -0.04869, -0.07781, 0.16092}, {-0.15, 0.50121, -1.17748, 0.43166, -0.17829, -0.03218, 0.05947, 2.52816, -0.0925, 0.25009}, {-0.1935, 0.85226, 1.26544, 0.26499, -0.91307, 0.14018, -1.06531, -0.17809, 2.50161, 0.3294}};
	Double_t biasesL1_6[15] = {0.92751, 2.86165, 0.2575, -1.15534, 2.29407, 0.31543, 1.28297, -0.76943, -1.64087, 0.66757, -2.46239, -0.17711, 0.86495, -0.81899, 0.6362};
	nets[6].SetWeightsL1(weightsL1_6);
	nets[6].SetBiasesL1(biasesL1_6);
	
	Double_t weightsL2_6[1][15] = {{-0.48179, 1.44086, 0.77854, 0.80914, 1.03158, 1.0125, -0.72513, 0.78268, -2.04856, 1.58761, 0.55513, -1.86694, 0.84691, 1.10483, -0.88215}};
	Double_t biasesL2_6[1] = {-3.93706};
	nets[6].SetWeightsL2(weightsL2_6);
	nets[6].SetBiasesL2(biasesL2_6);
	
	Double_t weightsL1_7[15][10] = {{0.30155, -0.3493, 2.51644, -0.28449, 1.45238, -0.02364, 0.11669, -0.37103, 0.65274, 0.43998}, {-0.00162, -0.11228, 2.03032, 0.02637, -1.15018, -0.02123, -0.00814, -1.28497, 0.08696, -0.08404}, {-0.22657, -0.22433, -0.76585, -0.06353, -2.906, 0.3459, -0.02051, -1.91225, 0.06022, 0.09935}, {-1.12249, -0.37546, -0.20311, 0.55056, 0.56155, -0.00888, 0.30727, -0.35353, 0.2751, 0.34761}, {-0.34116, -0.31485, 0.9927, 0.7263, -0.04676, 0.33718, -0.31908, 0.30535, -0.35682, -0.59936}, {0.597, -0.0856, 0.07595, 1.07387, -0.31411, -0.2565, 0.75966, -0.21556, 2.30161, 0.06356}, {-0.13882, 0.02446, 2.94775, 0.15873, -1.56901, 0.08161, -0.11448, -2.03258, -0.05677, -0.10986}, {-0.27503, -0.09154, 0.06175, -1.12789, -0.01156, -0.05542, 0.04309, -0.20439, 2.5091, -0.4235}, {-0.06435, 0.0972, -0.21577, 0.78005, -0.11635, -0.21207, 0.11118, 0.08944, 0.12264, -0.46903}, {0.08088, -0.0606, 1.16536, -0.01696, -2.15452, 0.06916, -0.09176, 0.0157, -0.03187, 0.0151}, {-1.00984, 1.57641, -1.57643, 0.72811, 1.60969, -0.47331, -0.01189, 0.66341, -0.56957, 0.41446}, {-0.02513, 0.08122, -0.05307, -0.10938, -1.12023, 0.07375, 0.06748, -0.21462, -0.21666, -0.04847}, {0.11371, 0.02728, -2.97463, -0.23758, 3.28482, -0.00326, 0.06902, -0.10305, -0.02489, 0.15178}, {-0.24224, 0.49384, -0.90514, 0.37993, -0.21813, 0.0843, -0.0493, 2.58138, -0.15575, 0.24004}, {-0.57922, 0.03385, 0.70866, 0.03315, -0.20856, 0.10262, -1.09342, -0.3254, 2.46646, -0.12632}};
	Double_t biasesL1_7[15] = {0.73242, 1.64725, 0.30678, -1.2481, 1.81206, 0.0893, 1.18572, -1.08356, -1.86043, 0.52524, -2.98368, -0.09978, 0.60913, -0.77278, 0.39316};
	nets[7].SetWeightsL1(weightsL1_7);
	nets[7].SetBiasesL1(biasesL1_7);
	
	Double_t weightsL2_7[1][15] = {{-0.61509, 2.53491, 0.90763, 0.81558, 0.84159, 0.90185, -1.50611, 1.08051, -2.01611, 1.95111, 0.53696, -2.08591, 1.05259, 1.11134, -0.87361}};
	Double_t biasesL2_7[1] = {-4.02413};
	nets[7].SetWeightsL2(weightsL2_7);
	nets[7].SetBiasesL2(biasesL2_7);
	
	Double_t weightsL1_8[15][10] = {{0.22526, -0.29886, 2.25781, -0.05147, 1.3105, 0.00296, 0.36623, -0.16156, 0.19255, 0.54183}, {-0.02017, -0.18825, 1.9418, 0.03607, -1.12372, -0.05993, -0.03173, -1.0629, 0.15689, -0.12665}, {-0.00084, -0.14579, -0.8034, -0.25311, -3.41587, 0.43468, 0.1756, -2.28858, -0.06581, 0.27125}, {-1.29444, -0.42736, -0.10721, 0.7004, 0.6302, -0.09234, 0.16647, -0.22894, 0.1623, 0.24472}, {-0.46603, -0.01761, 1.12386, 0.40204, -0.28756, 0.29994, -0.1931, 0.04823, -0.88619, -0.57153}, {0.62991, -0.21997, -0.02346, 1.16108, 0.02906, -0.2655, 0.57755, 0.00575, 2.52861, 0.07989}, {-0.2106, 0.03233, 3.03556, 0.28651, -1.79975, 0.10186, -0.15619, -1.98167, 0.00183, -0.18344}, {-0.07195, 0.06255, -0.0078, -1.1114, -0.34145, -0.07411, 0.23112, -0.38075, 2.37058, -0.26699}, {-0.06454, 0.11773, -0.22762, 0.88664, -0.0637, -0.1777, 0.03989, -0.03835, 0.15643, -0.46632}, {0.00592, -0.08703, 1.05422, 0.07537, -2.57183, 0.04392, -0.09411, -0.00346, -0.07501, -0.03539}, {-0.15303, 1.09529, -0.61844, 0.26982, 0.58282, 0.0908, 0.07345, 1.24893, -0.24932, 0.50974}, {-0.00911, 0.08407, -0.17834, -0.16191, -1.34151, 0.05213, 0.17571, -0.45228, -0.19695, -0.0731}, {0.09325, -0.02715, -2.75106, 0.01877, 3.3277, 0.09082, 0.08917, -0.18046, 0.08975, 0.24791}, {-0.23483, 0.35876, -1.20139, 0.30973, -0.20858, 0.13216, 0.02148, 2.39083, -0.18365, 0.0951}, {-0.48737, 0.4966, 0.90101, 0.06603, -0.65508, 0.34831, -0.89601, -0.39492, 2.21465, 0.01887}};
	Double_t biasesL1_8[15] = {1.00917, 1.57631, 0.25273, -1.26645, 2.04228, 0.15339, 1.13061, -0.92006, -1.81116, 0.67377, -2.24327, -0.0993, 0.85138, -1.01362, 0.57654};
	nets[8].SetWeightsL1(weightsL1_8);
	nets[8].SetBiasesL1(biasesL1_8);
	
	Double_t weightsL2_8[1][15] = {{-0.47006, 2.70232, 0.98754, 0.76991, 0.86399, 0.92045, -1.30389, 1.08136, -1.80678, 1.47309, 0.76372, -1.95316, 0.81481, 1.2156, -0.89011}};
	Double_t biasesL2_8[1] = {-3.58702};
	nets[8].SetWeightsL2(weightsL2_8);
	nets[8].SetBiasesL2(biasesL2_8);
	
	Double_t weightsL1_9[15][10] = {{0.07799, -0.25952, 2.9191, -0.37, 1.78787, 0.11562, 0.00815, -0.21027, 0.38549, 0.78304}, {0.07398, -0.15464, 1.84369, -0.12063, -1.08657, -0.10677, -0.04087, -0.74634, 0.12346, -0.06742}, {-0.0656, -0.2699, -1.03574, -0.15508, -3.23026, 0.35049, -0.15665, -2.44716, -0.00135, 0.25042}, {-1.3826, -0.48941, -0.13307, 0.68885, 0.67267, -0.13414, 0.19412, -0.17886, 0.06701, 0.07331}, {-0.24668, -0.00761, 0.66828, 0.71311, -0.17755, 0.22904, -0.26289, -0.21925, -0.22204, -0.21524}, {0.62194, -0.10413, -0.24295, 1.19765, -0.12602, -0.16811, 0.69184, -0.1042, 2.70518, 0.30762}, {0.04867, 0.06298, 2.99674, 0.06751, -1.74836, 0.12856, 0.00956, -1.82833, -0.01552, 0.08799}, {-0.22684, -0.05858, 0.25525, -0.89643, -0.22838, -0.17859, 0.10817, -0.20131, 2.7898, -0.4562}, {-0.06755, 0.14384, 0.03737, 0.78393, -0.29313, -0.26579, 0.07507, 0.11535, 0.26739, -0.5788}, {-0.15205, -0.25625, 1.21302, 0.18818, -2.69632, 0.12988, -0.15503, -0.03872, -0.0483, -0.17856}, {-0.0713, 0.94106, -0.45738, 0.18122, 0.18566, 0.19457, 0.35398, 1.18752, -0.15592, 0.36445}, {-0.08979, 0.06154, -0.26088, -0.0109, -1.20181, 0.01491, 0.11875, -0.4025, -0.2388, -0.14864}, {-0.03954, -0.08138, -3.01131, -0.10339, 3.72726, 0.03107, -0.01879, -0.29205, 0.10903, 0.07883}, {0.06682, 0.39399, -1.04868, 0.14206, -0.24624, 0.10637, 0.10202, 1.60869, -0.07294, 0.36018}, {-0.70232, 0.68771, 1.04067, 0.12627, -0.47542, 0.32851, -1.25915, -0.5224, 3.01225, 0.08744}};
	Double_t biasesL1_9[15] = {0.817, 1.31592, 0.29947, -1.10415, 2.19042, 0.07466, 0.92283, -1.33002, -1.89397, 0.54505, -1.82782, -0.24452, 1.01933, -0.48383, 0.62751};
	nets[9].SetWeightsL1(weightsL1_9);
	nets[9].SetBiasesL1(biasesL1_9);
	
	Double_t weightsL2_9[1][15] = {{-0.53352, 2.69246, 0.81458, 0.83063, 2.6003, 0.87348, -1.33094, 1.02124, -1.73978, 1.24284, 0.877, -1.64997, 0.83087, 1.24027, -0.80836}};
	Double_t biasesL2_9[1] = {-5.26488};
	nets[9].SetWeightsL2(weightsL2_9);
	nets[9].SetBiasesL2(biasesL2_9);
	
	Double_t weightsL1_10[15][10] = {{0.08294, -0.15038, 2.10523, -0.16675, 1.10689, -0.03002, 0.05938, -0.18001, 0.4297, 0.38599}, {0.01426, -0.1094, 1.84976, -0.0315, -1.08516, -0.06325, -0.03539, -0.46675, 0.16185, -0.071}, {-0.06962, -0.07793, -0.62516, -0.26897, -3.15147, 0.2593, 0.01619, -2.12126, -0.12444, 0.17785}, {-0.98405, -0.22073, -0.08369, 0.50592, 0.31452, 0.05297, 0.21973, -0.07579, 0.15063, 0.34247}, {-0.29045, -0.1318, 0.72293, 0.53002, -0.05919, 0.11237, -0.33647, -0.18351, -0.39451, -0.44089}, {0.54193, -0.17096, 0.05605, 1.35739, -0.2975, -0.18483, 0.53083, 0.02278, 2.70713, 0.25039}, {0.01453, -0.03737, 2.78394, 0.03412, -1.72142, 0.0923, 0.06814, -1.37955, -0.07971, 0.00215}, {0.07315, -0.07478, -0.00389, -0.78847, -0.1211, -0.12677, 0.20862, -0.31782, 1.64884, -0.36335}, {0.02418, 0.15246, -0.11341, 0.92158, -0.13598, -0.16939, 0.07671, 0.13979, 0.36839, -0.42515}, {-0.13111, -0.11839, 1.00416, 0.03999, -2.55691, 0.08693, -0.08599, -0.05368, -0.10067, -0.09096}, {0.11554, 0.94618, -0.27628, 0.20561, -0.2344, 0.15019, 0.18064, 1.48714, 0.12103, 0.60084}, {-0.06853, 0.08887, -0.16133, -0.19111, -1.27844, 0.04386, 0.11017, -0.48592, -0.30898, -0.06599}, {0.1613, -0.10432, -2.36951, -0.3604, 2.91364, -0.02318, 0.11083, -0.10981, -0.02105, 0.08576}, {0.05276, 0.40695, -1.48207, 0.12539, -0.24659, 0.12167, 0.14604, 1.58353, -0.09343, 0.45605}, {-0.31487, 0.46123, 1.04989, 0.13967, -0.34461, 0.13686, -0.96302, -0.44422, 2.50784, 0.03471}};
	Double_t biasesL1_10[15] = {0.72702, 1.16458, 0.15748, -0.98777, 1.75321, 0.39641, 0.5923, -0.73202, -1.79044, 0.61311, -2.04348, -0.0864, 0.713, -0.50612, 0.38542};
	nets[10].SetWeightsL1(weightsL1_10);
	nets[10].SetBiasesL1(biasesL1_10);
	
	Double_t weightsL2_10[1][15] = {{-0.63215, 2.66426, 0.97925, 1.04338, 2.00051, 0.93328, -1.3794, 1.12275, -1.91545, 1.39981, 0.89775, -2.02867, 0.86448, 0.91675, -1.13142}};
	Double_t biasesL2_10[1] = {-4.24509};
	nets[10].SetWeightsL2(weightsL2_10);
	nets[10].SetBiasesL2(biasesL2_10);
	
	Double_t weightsL1_11[15][10] = {{0.19451, -0.24244, 2.66504, -0.17774, 1.77817, -0.12961, 0.00576, -0.18459, 0.5099, 0.34568}, {0.00571, -0.1565, 2.0522, 0.00484, -1.27201, -0.10279, -0.04556, -0.58199, 0.12248, -0.10885}, {-0.14785, 0.10743, -1.01041, -0.11797, -3.53526, 0.31175, -0.02618, -2.35343, -0.1745, 0.29234}, {-0.91893, -0.27003, -0.16059, 0.45999, 0.49586, -0.04859, 0.18334, -0.14833, 0.20976, 0.22775}, {-0.23408, 0.06539, 0.69022, 0.32474, -0.34479, 0.06823, -0.16649, -0.11428, -0.45754, -0.42671}, {0.57394, -0.12055, 0.03078, 1.47762, -0.26342, -0.24209, 0.53342, 0.0398, 2.91401, 0.11924}, {-0.19529, -0.03284, 2.85889, 0.19544, -1.7516, 0.0597, 0.01312, -1.49621, -0.09773, -0.10727}, {0.02915, 0.00346, -0.03712, -1.10677, -0.20177, -0.22898, 0.15488, -0.21006, 2.84724, -0.32805}, {-0.0393, 0.05896, -0.14078, 0.79362, -0.08473, -0.22699, 0.08079, 0.20551, 0.25996, -0.47506}, {-0.11886, -0.11589, 0.88016, 0.11506, -2.29123, 0.12496, -0.12685, -0.10995, -0.09447, -0.11923}, {-0.01197, 1.09014, -0.61634, 0.16289, 0.19324, 0.31677, 0.43128, 1.60872, -0.02891, 0.49358}, {-0.1982, 0.13319, -0.1917, -0.00876, -1.62622, 0.04771, 0.0909, -0.47726, -0.31883, -0.12844}, {-0.02106, -0.06576, -2.25941, -0.07056, 3.10407, -0.03541, 0.06695, -0.09713, 0.12847, -0.04969}, {-0.11978, 0.31722, -1.22551, 0.23227, -0.18329, 0.06384, 0.13172, 1.83384, -0.21189, 0.35496}, {-0.4303, 0.8099, 1.16701, 0.08058, -0.56891, 0.06782, -0.99097, -0.58967, 3.16215, -0.10852}};
	Double_t biasesL1_11[15] = {0.6047, 1.32424, 0.16604, -0.96216, 1.55651, 0.18117, 0.66714, -1.25099, -1.79468, 0.27327, -2.33224, -0.18634, 0.82799, -0.44206, 0.41368};
	nets[11].SetWeightsL1(weightsL1_11);
	nets[11].SetBiasesL1(biasesL1_11);
	
	Double_t weightsL2_11[1][15] = {{-0.6778, 2.46608, 0.85241, 1.19183, 1.90181, 0.92033, -1.34772, 0.94934, -1.91941, 1.55668, 0.69774, -1.93563, 0.88867, 1.00234, -0.83517}};
	Double_t biasesL2_11[1] = {-4.34505};
	nets[11].SetWeightsL2(weightsL2_11);
	nets[11].SetBiasesL2(biasesL2_11);
	
	Double_t weightsL1_12[15][10] = {{0.22431, -0.15773, 2.56847, -0.02078, 1.43172, -0.08019, 0.16801, -0.39918, 0.20324, 0.57196}, {0.04807, -0.30493, 1.91216, -0.01002, -0.98456, -0.19067, -0.05611, -0.5196, 0.21029, -0.1443}, {-0.16669, -0.51962, -1.04425, -0.1547, -3.42915, 0.28637, 0.01181, -2.58939, -0.17892, 0.00176}, {-1.20222, -0.29603, -0.22161, 0.59856, 0.64596, -0.10403, 0.26146, -0.29736, 0.14094, 0.21397}, {-0.3963, -0.02618, 1.37303, 0.39099, -0.44892, 0.4846, -0.15663, 0.10309, -0.51685, -0.35011}, {0.59839, -0.13182, -0.17636, 1.43417, -0.15272, -0.16698, 0.66369, -0.17722, 2.88534, 0.1083}, {-0.05123, -0.10289, 2.93432, 0.08063, -1.63214, 0.062, 0.06101, -1.47521, -0.00271, -0.02642}, {-0.12307, 0.06694, 0.15944, -1.30053, -0.25687, -0.3609, -0.03346, -0.24776, 2.7586, -0.45543}, {-0.07761, 0.05173, -0.13933, 0.87856, -0.06782, -0.26907, -0.03131, 0.12968, 0.22809, -0.5598}, {-0.01801, -0.14442, 1.09907, 0.03945, -2.52941, 0.10455, -0.14124, -0.13464, -0.08882, -0.08076}, {-0.04263, 0.90982, -0.40868, 0.1429, 0.10659, 0.29974, 0.29441, 1.06379, -0.04847, 0.45758}, {-0.13027, -0.09245, -0.21866, -0.0921, -1.27369, 0.05548, 0.11435, -0.47227, -0.30772, -0.22528}, {0.03071, -0.08497, -3.21324, -0.23259, 3.9205, 0.02068, 0.07878, -0.00475, 0.11072, 0.06086}, {-0.26009, 0.29888, -1.25275, 0.30373, -0.30984, 0.22336, 0.07305, 2.45893, -0.13342, 0.40514}, {-0.2431, 0.51509, 1.12163, -0.02261, -0.56522, 0.2071, -0.87463, -0.04419, 2.41335, 0.27485}};
	Double_t biasesL1_12[15] = {0.69243, 1.23757, 0.01933, -1.12405, 1.76319, 0.17371, 0.58524, -1.2281, -1.98959, 0.39045, -1.67394, -0.25885, 0.82953, -0.84039, 0.20287};
	nets[12].SetWeightsL1(weightsL1_12);
	nets[12].SetBiasesL1(biasesL1_12);
	
	Double_t weightsL2_12[1][15] = {{-0.5761, 2.30972, 0.82122, 0.8702, 0.96446, 0.94082, -1.30855, 0.88519, -2.04555, 1.55977, 0.90195, -1.71219, 0.8639, 0.79335, -0.98716}};
	Double_t biasesL2_12[1] = {-3.63775};
	nets[12].SetWeightsL2(weightsL2_12);
	nets[12].SetBiasesL2(biasesL2_12);
	
	Double_t weightsL1_13[15][10] = {{0.10215, -0.29191, 2.60689, 0.15074, 1.50255, 0.18659, 0.16281, -0.44897, 0.26157, 0.47117}, {0.10616, -0.15199, 1.74436, -0.05826, -1.0216, -0.09634, -0.0467, -0.75323, 0.1736, -0.04291}, {-0.11617, -0.0906, -0.79421, -0.06826, -3.04777, 0.3043, -0.06608, -2.10997, -0.03321, 0.30661}, {-1.07095, -0.31325, 0.02, 0.61637, 0.42491, -0.07796, 0.18874, -0.25542, 0.24263, 0.26157}, {-0.70049, 0.28283, 1.87704, 0.50506, -0.85334, 0.3568, -0.07035, -0.06831, -1.37473, -0.65791}, {0.33504, -0.07458, -0.05933, 1.37556, -0.14592, -0.2076, 0.41186, 0.01519, 2.57037, 0.0802}, {-0.15648, 0.09809, 3.23961, 0.12935, -1.96984, 0.05588, 0.04829, -1.79882, -0.03261, -0.05176}, {0.17496, -0.10794, -0.05057, -0.92203, -0.08708, -0.09966, 0.16327, -0.20625, 1.58823, -0.25096}, {-0.0542, -0.0661, -0.14679, 0.85155, 0.11296, -0.14815, -0.02752, 0.07987, 0.17689, -0.52236}, {-0.06322, -0.10483, 1.18769, 0.13643, -2.28566, 0.04655, -0.20546, 0.0662, -0.05559, -0.07422}, {-0.28249, 0.71324, -1.06805, 0.24279, 0.9346, 0.18461, 0.24336, 0.92661, -0.23493, 0.22445}, {-0.0869, 0.21781, -0.13684, -0.15035, -1.3121, -0.03589, 0.12883, -0.3434, -0.25971, -0.1219}, {-0.03283, -0.02621, -2.79464, -0.27926, 3.30209, -0.04042, 0.17053, -0.07731, -0.01143, -0.05313}, {-0.31589, 0.52833, -1.07239, 0.36768, -0.34503, 0.07991, 0.05358, 2.29218, -0.16991, 0.26525}, {-0.18712, 0.66628, 1.21368, 0.19338, -0.84244, 0.11065, -1.01299, -0.39027, 2.60751, 0.37447}};
	Double_t biasesL1_13[15] = {0.77293, 1.33623, 0.23297, -1.1797, 2.4787, 0.08289, 0.81124, -0.78089, -1.77718, 0.55163, -1.78967, -0.27089, 0.67394, -0.90829, 0.46025};
	nets[13].SetWeightsL1(weightsL1_13);
	nets[13].SetBiasesL1(biasesL1_13);
	
	Double_t weightsL2_13[1][15] = {{-0.57808, 2.86365, 0.90785, 0.87311, 0.71822, 1.00082, -1.18934, 1.04784, -2.02217, 1.68513, 1.09883, -1.89524, 0.98502, 1.07307, -0.92557}};
	Double_t biasesL2_13[1] = {-3.69011};
	nets[13].SetWeightsL2(weightsL2_13);
	nets[13].SetBiasesL2(biasesL2_13);
	
	Double_t weightsL1_14[15][10] = {{0.15384, -0.35301, 2.43166, -0.06723, 1.56333, -0.08883, -0.09347, -0.2365, 0.85687, 0.51166}, {0.08729, -0.09398, 1.79611, -0.09544, -1.01405, -0.0622, 0.05961, -1.17191, 0.0928, -0.03201}, {-0.03697, -0.13919, -0.80202, -0.19101, -3.16283, 0.30052, 0.07172, -2.18622, -0.12893, 0.1767}, {-0.83423, -0.21563, -0.04143, 0.45166, 0.24584, -0.08644, 0.1695, -0.1676, 0.2973, 0.15491}, {-0.52806, -0.04012, 1.07791, 0.51488, -0.33146, 0.33589, -0.3635, -0.01563, -0.55953, -0.58828}, {0.63788, -0.16195, -0.03702, 0.91732, 0.00825, -0.21014, 0.63643, -0.02127, 2.26959, 0.10711}, {0.00207, 0.05909, 3.00785, 0.10823, -1.61798, 0.07372, 0.06053, -2.06748, -0.08715, -0.01922}, {0.15021, -0.07621, -0.00536, -1.3586, 0.00174, -0.14302, 0.17428, -0.02123, 2.22308, -0.26662}, {0.03139, 0.10115, -0.19667, 0.83244, -0.0471, -0.31196, 0.11843, 0.00889, 0.13455, -0.50373}, {-0.11193, -0.10764, 1.00906, 0.17294, -2.12871, 0.05182, -0.12513, 0.06036, -0.04838, -0.09794}, {-0.86216, 1.27931, -1.2605, 0.91235, 1.5402, -0.06727, -0.22328, 0.46646, -0.66274, 0.35519}, {-0.10282, 0.10163, -0.12617, -0.09197, -1.24063, 0.04772, 0.11144, -0.28781, -0.31888, -0.11816}, {0.1775, 0.03628, -3.34305, -0.05368, 3.68083, 0.16677, 0.02434, -0.1614, -0.04764, 0.3838}, {-0.18268, 0.47103, -0.98767, 0.1728, -0.12284, 0.12873, 0.11293, 2.12184, -0.38269, 0.24124}, {-0.58705, 0.29835, 1.16345, 0.07599, -0.495, 0.49404, -1.12144, -0.20466, 2.78735, -0.03015}};
	Double_t biasesL1_14[15] = {0.51001, 1.46254, 0.50626, -1.02085, 2.10986, 0.36379, 1.11755, -0.81073, -2.04923, 0.60694, -2.83003, -0.0523, 1.0079, -0.76851, 0.44016};
	nets[14].SetWeightsL1(weightsL1_14);
	nets[14].SetBiasesL1(biasesL1_14);
	
	Double_t weightsL2_14[1][15] = {{-0.48019, 2.62275, 0.94597, 1.1612, 1.67105, 1.05359, -1.49886, 0.98498, -2.05223, 1.73996, 0.59905, -1.90206, 0.9086, 1.17372, -0.94501}};
	Double_t biasesL2_14[1] = {-4.69079};
	nets[14].SetWeightsL2(weightsL2_14);
	nets[14].SetBiasesL2(biasesL2_14);
	
	Double_t weightsL1_15[15][10] = {{-0.16048, -0.21293, 2.24819, 0.43409, 1.26345, 0.06988, 0.22678, -0.238, 0.12949, 0.09163}, {0.0416, -0.25409, 1.49449, -0.03446, -0.793, -0.06291, 0.0316, -0.62393, 0.09019, -0.13929}, {-0.05089, -0.45583, -0.84178, -0.13917, -3.04709, 0.30666, 0.09326, -2.18497, -0.12277, 0.07308}, {-1.0144, -0.28737, -0.07595, 0.53639, 0.40111, -0.01018, 0.07827, -0.08354, 0.32923, 0.25249}, {-0.48997, 0.23471, 0.55059, 0.77661, -0.2345, 0.40252, -0.41048, 0.03098, -0.36582, -0.27196}, {0.61695, -0.09253, -0.32193, 1.15783, 0.13804, -0.1993, 0.61926, -0.05575, 2.45359, 0.18887}, {-0.21185, -0.11907, 3.00822, 0.22604, -1.8015, 0.0588, -0.12367, -1.76776, -0.00974, -0.17256}, {0.25401, -0.15574, 0.01262, -1.12874, 0.00968, -0.2218, 0.23305, -0.17129, 1.9701, -0.46106}, {0.01926, -0.05605, -0.24751, 0.81184, 0.12697, -0.18221, 0.12397, 0.11757, 0.11734, -0.46705}, {-0.11755, -0.19825, 0.97184, 0.14146, -2.27046, 0.03091, -0.10665, -0.07959, -0.16901, -0.14738}, {-0.20803, 1.04175, -0.58541, 0.30825, 0.23992, 0.10333, -0.08192, 1.02657, -0.13599, 0.42437}, {-0.08138, -0.10268, -0.24368, -0.10869, -1.25238, 0.00614, 0.13275, -0.3997, -0.25702, -0.13689}, {-0.07392, -0.31083, -2.63394, -0.12272, 3.57029, -0.04739, 0.02776, 0.03388, 0.08219, -0.07178}, {-0.24447, 0.40254, -1.03808, 0.43601, -0.38376, 0.11, -0.00586, 1.59601, -0.05202, 0.24471}, {-0.37526, 0.34801, 0.72195, 0.13858, -0.35272, 0.22555, -0.91756, -0.26202, 2.22327, 0.02627}};
	Double_t biasesL1_15[15] = {0.74831, 1.19885, 0.01499, -0.95342, 1.66217, 0.36958, 0.85178, -0.93127, -1.78825, 0.42594, -1.57631, -0.19396, 0.81703, -0.54602, 0.3661};
	nets[15].SetWeightsL1(weightsL1_15);
	nets[15].SetBiasesL1(biasesL1_15);
	
	Double_t weightsL2_15[1][15] = {{-0.70272, 3.60559, 0.97332, 1.1836, 1.30987, 1.13116, -1.49656, 1.15041, -2.10181, 1.70683, 0.88658, -2.02987, 0.97914, 1.09847, -1.25156}};
	Double_t biasesL2_15[1] = {-4.5177};
	nets[15].SetWeightsL2(weightsL2_15);
	nets[15].SetBiasesL2(biasesL2_15);
	
	Double_t weightsL1_16[15][10] = {{0.15795, -0.29821, 2.52696, 0.10146, 1.49253, -0.11188, -0.07825, -0.29127, 0.34037, 0.08591}, {0.01451, -0.16222, 1.94378, 0.00484, -1.08604, -0.06036, -0.04809, -0.98459, 0.08888, -0.08736}, {-0.20439, -0.24447, -0.77009, -0.13587, -2.49479, 0.33639, -0.08346, -1.74312, -0.03842, 0.08083}, {-1.15603, -0.29647, 0.08522, 0.46834, 0.34665, -0.12257, 0.04149, 0.00142, 0.05477, 0.19815}, {-0.40321, -0.2082, 1.03819, -0.73332, 0.07854, 0.13694, 0.05897, -0.02705, -1.13413, -0.92403}, {0.4831, -0.15141, -0.07818, 1.34058, -0.10865, -0.22596, 0.52933, -0.15256, 2.63145, -0.04957}, {-0.19125, -0.08847, 2.4283, 0.17611, -1.36372, 0.04272, -0.07028, -1.65108, -0.02615, -0.2344}, {-0.09626, -0.07356, -0.36493, -1.27383, -0.03111, 0.02543, 0.59826, -0.70174, 2.45946, 0.04424}, {-0.22513, 0.00195, -0.03091, 1.03717, 0.06618, -0.25681, 0.15938, 0.16805, 0.10937, -0.89921}, {-0.05027, -0.25278, 0.89984, 0.13947, -1.98268, 0.0878, -0.10438, -0.04083, -0.02553, -0.12252}, {-0.02794, 0.72915, -0.40525, 0.0006, 0.21601, 0.19828, 0.38981, 1.29087, -0.06522, 0.44379}, {-0.12465, -0.1229, -0.2584, -0.07537, -1.14705, 0.13929, 0.02883, -0.40417, -0.21987, -0.14516}, {0.13934, -0.11022, -1.95637, -0.22356, 2.69484, 0.0601, 0.08304, -0.08343, 0.0153, 0.07507}, {-0.33466, 0.23671, -0.95647, 0.75734, -0.24181, 0.04419, -0.33809, 2.03616, -0.13184, -0.30242}, {-0.04796, 0.87635, 0.93874, 0.09582, -0.48903, 0.06143, -0.89746, -0.47183, 2.66648, 0.36322}};
	Double_t biasesL1_16[15] = {0.83227, 1.45662, 0.20372, -0.90844, 1.60334, 0.17014, 1.01293, -0.65038, -2.01295, 0.29762, -1.69775, -0.22333, 0.71676, -0.98193, 0.44346};
	nets[16].SetWeightsL1(weightsL1_16);
	nets[16].SetBiasesL1(biasesL1_16);
	
	Double_t weightsL2_16[1][15] = {{-0.56582, 3.42558, 0.94111, 0.81976, 0.53982, 0.90328, -2.04305, 0.72068, -1.23748, 1.80535, 0.93179, -1.93768, 1.19078, 1.00738, -0.62623}};
	Double_t biasesL2_16[1] = {-3.04707};
	nets[16].SetWeightsL2(weightsL2_16);
	nets[16].SetBiasesL2(biasesL2_16);
	
	Double_t weightsL1_17[15][10] = {{-0.34449, -0.33807, 2.5811, 0.42271, 1.54201, -0.02995, 0.2633, -0.23607, 0.30354, 0.18422}, {-0.02997, -0.12806, 1.70557, 0.04397, -0.98781, -0.05805, -0.08227, -0.6081, 0.07866, -0.09502}, {0.10507, -0.02362, -0.87698, -0.41148, -3.24409, 0.29734, 0.10142, -2.2515, -0.09801, 0.3773}, {-1.1126, -0.38171, -0.07028, 0.55153, 0.44511, -0.0468, 0.14793, -0.21511, 0.24384, 0.20684}, {-0.18237, -0.12287, 0.93141, -0.43868, 0.60417, 0.03008, -0.1238, -0.1001, -1.33776, -0.98282}, {0.4781, -0.09569, -0.00235, 1.08777, -0.11405, -0.12249, 0.62673, -0.02119, 2.26935, -0.01951}, {-0.16042, -0.05476, 2.58255, 0.14704, -1.58939, 0.01312, -0.14953, -1.33362, -0.09737, -0.0585}, {-0.19974, 0.02065, 0.07452, -0.9664, -0.47881, -0.15505, 0.19159, -0.29431, 2.63118, -0.31112}, {-0.09795, 0.06779, -0.07278, 1.00705, -0.20985, -0.12453, 0.12814, -0.01499, 0.01196, -0.65794}, {-0.07709, -0.12374, 1.11408, 0.15138, -2.84054, 0.08929, -0.19132, -0.09812, -0.00318, -0.06165}, {0.10003, 1.0265, -0.2651, 0.13555, -0.02405, 0.20641, 0.21369, 1.25248, -0.03099, 0.4975}, {0.02602, 0.12331, -0.20225, -0.28209, -1.55788, 0.00963, 0.13501, -0.61652, -0.25946, -0.06123}, {-0.02287, -0.14396, -2.15425, -0.07818, 2.86468, -0.04221, 0.03085, -0.04663, 0.10809, -0.02241}, {-0.21005, 0.24763, -1.55258, 0.25444, 0.0158, 0.098, 0.06852, 1.69365, -0.20823, 0.25616}, {-0.29489, 0.42327, 0.7834, -0.09533, -0.28986, 0.04814, -0.6476, -0.18628, 2.14934, -0.04923}};
	Double_t biasesL1_17[15] = {1.06725, 1.13469, 0.11652, -1.02469, 2.26002, 0.4167, 0.75127, -0.89518, -1.96021, 0.57235, -1.89437, -0.19148, 0.63905, -0.60602, 0.39648};
	nets[17].SetWeightsL1(weightsL1_17);
	nets[17].SetBiasesL1(biasesL1_17);
	
	Double_t weightsL2_17[1][15] = {{-0.50579, 3.68204, 0.96273, 0.89144, 0.63923, 1.05391, -1.79652, 0.94629, -1.68316, 1.28576, 0.72629, -1.63944, 0.84922, 1.17383, -1.19754}};
	Double_t biasesL2_17[1] = {-3.52315};
	nets[17].SetWeightsL2(weightsL2_17);
	nets[17].SetBiasesL2(biasesL2_17);
	
	Double_t weightsL1_18[15][10] = {{0.03165, -0.38044, 2.60193, -0.13309, 0.78039, 0.37534, 0.09588, -0.10401, 0.31017, 0.43849}, {-0.00613, -0.09604, 1.77464, 0.07421, -1.06356, -0.07582, -0.0817, -0.44061, 0.12567, -0.10907}, {-0.09301, -0.34356, -0.73138, -0.20112, -2.8599, 0.34568, -0.08088, -2.0169, -0.24019, 0.07003}, {-1.28717, -0.44258, -0.14307, 0.62606, 0.53229, -0.02862, 0.13062, -0.17551, 0.17191, 0.13032}, {-0.31992, -0.49694, 1.29243, -1.04722, 0.28422, 0.17033, 0.00637, -0.09091, -1.66728, -1.17938}, {0.88771, -0.15659, 0.30057, 1.30839, -0.23894, -0.0521, 0.64675, -0.09952, 3.0111, 0.26589}, {-0.11736, -0.0317, 3.2148, 0.21208, -2.16376, 0.0707, -0.01121, -1.4865, -0.07506, -0.04528}, {0.04873, 0.20683, 0.13309, -1.22202, -0.81473, -0.1141, 0.55014, -0.69127, 2.53174, -0.01342}, {-0.06279, -0.02606, -0.04055, 0.85483, -0.06298, -0.09211, 0.10394, 0.04434, 0.04962, -0.65905}, {-0.11295, -0.23818, 1.05348, 0.10036, -2.83726, 0.13026, -0.21468, -0.06963, -0.10158, -0.16919}, {-0.09098, 0.82211, -0.09735, 0.19499, -0.15729, 0.29435, 0.45546, 1.30925, -0.20231, 0.64694}, {-0.13937, -0.10344, -0.26996, -0.12457, -1.69154, 0.01249, 0.08051, -0.73006, -0.43659, -0.22611}, {0.1426, -0.37745, -1.89006, -0.05114, 2.95466, -0.10946, 0.15339, -0.11326, 0.07004, -0.04185}, {-0.10182, 0.17112, -1.38434, 0.3057, 0.04148, 0.08488, 0.02065, 1.32573, -0.08147, 0.15898}, {-0.25034, 0.91454, 1.15562, 0.03586, -0.55317, 0.03185, -1.22996, -0.53114, 3.43441, 0.20516}};
	Double_t biasesL1_18[15] = {0.6562, 1.1731, 0.04209, -0.95468, 2.22563, 0.26992, 0.77448, -0.57001, -1.80037, 0.46668, -1.87528, -0.19563, 0.90699, -0.37943, 0.62431};
	nets[18].SetWeightsL1(weightsL1_18);
	nets[18].SetBiasesL1(biasesL1_18);
	
	Double_t weightsL2_18[1][15] = {{-0.58457, 3.0115, 1.06241, 0.89412, 0.6376, 0.85937, -1.28708, 0.71639, -1.65145, 1.18413, 0.70023, -1.51714, 0.91247, 1.23197, -0.71584}};
	Double_t biasesL2_18[1] = {-3.4799};
	nets[18].SetWeightsL2(weightsL2_18);
	nets[18].SetBiasesL2(biasesL2_18);
	
	Double_t weightsL1_19[15][10] = {{0.00076, -0.16507, 2.16779, -0.00645, 1.53935, 0.2793, 0.18913, -0.08838, 0.17466, 0.50748}, {0.02676, -0.14257, 1.73375, -0.03156, -1.00855, -0.0192, -0.04601, -1.07784, 0.15545, -0.08296}, {0.01562, -0.38439, -0.73671, -0.20714, -3.35184, 0.31903, 0.12075, -2.30193, -0.06974, 0.18734}, {-1.52474, -0.28356, -0.04509, 0.84768, 0.46485, 0.00359, 0.13915, -0.29574, 0.05474, 0.22654}, {-0.56188, -0.22435, 0.93283, -0.12024, 0.26908, 0.14095, -0.20342, -0.1259, -0.99645, -0.79307}, {0.70076, -0.15315, 0.1399, 1.12379, -0.21651, -0.28964, 0.65119, -0.06891, 2.62961, 0.04449}, {-0.21984, -0.06794, 2.86489, 0.24068, -1.69804, 0.12549, -0.0981, -1.97037, 0.04103, -0.22412}, {-0.00019, -0.0311, 0.23354, -1.125, -0.67079, -0.03718, 0.16338, -0.13688, 2.18597, 0.04702}, {-0.21924, 0.06107, 0.2398, 1.01132, -0.35141, -0.25898, -0.02328, 0.23105, 0.16013, -0.7523}, {0.02727, -0.19753, 0.97559, 0.01293, -2.62152, 0.04196, -0.08985, -0.03127, -0.11649, -0.07785}, {-0.02369, 0.97761, -0.50936, 0.2381, 0.43883, 0.11725, 0.07434, 1.22636, -0.22803, 0.57138}, {0.00786, 0.05121, -0.15262, -0.11593, -1.31492, 0.01834, 0.09647, -0.3637, -0.20252, -0.02701}, {-0.01465, -0.10004, -2.99304, 0.09041, 3.462, 0.18624, -0.05231, -0.25616, -0.00169, 0.21566}, {-0.26535, 0.25265, -1.0131, 0.34318, -0.2144, 0.06829, 0.01107, 1.92493, -0.20971, -0.0004}, {-0.45052, 0.0982, 0.98946, 0.1264, -0.13628, 0.30113, -1.1824, -0.4798, 2.88032, -0.0059}};
	Double_t biasesL1_19[15] = {0.767, 1.36592, 0.18372, -1.1704, 1.58782, 0.14644, 1.13183, -0.42431, -2.08452, 0.55058, -1.82031, -0.07512, 0.93501, -0.89112, 0.13845};
	nets[19].SetWeightsL1(weightsL1_19);
	nets[19].SetBiasesL1(biasesL1_19);
	
	Double_t weightsL2_19[1][15] = {{-0.53213, 3.62134, 0.88396, 0.79691, 0.8565, 0.93484, -1.84435, 0.8971, -1.61853, 1.43998, 0.66271, -2.0553, 0.8458, 1.60198, -0.7359}};
	Double_t biasesL2_19[1] = {-3.77779};
	nets[19].SetWeightsL2(weightsL2_19);
	nets[19].SetBiasesL2(biasesL2_19);
	
	Double_t weightsL1_20[15][10] = {{0.07264, -0.30177, 1.60473, -0.06211, 1.42462, 0.0945, 0.08262, -0.13989, 0.3346, 0.12183}, {0.08102, -0.23335, 2.7348, -0.07901, -1.55798, -0.08274, 0.02833, -1.67371, 0.15279, -0.11145}, {-0.31572, -0.24174, -1.02143, -0.09757, -3.13083, 0.40803, -0.20637, -2.35323, 0.00655, 0.26623}, {-1.00831, -0.23794, 0.03717, 0.4835, 0.20776, -0.0042, 0.26459, -0.20979, 0.24885, 0.1599}, {-0.56301, 0.0367, 1.76496, -0.0422, -0.60628, 0.18566, -0.16836, 0.10784, -0.53686, -0.81923}, {0.37737, -0.15891, -0.03895, 0.97194, 0.00782, -0.10563, 0.35935, 0.08547, 2.06469, -0.06072}, {-0.10319, 0.08854, 2.9501, 0.27609, -1.40789, 0.03233, -0.08851, -2.14166, -0.0569, -0.08231}, {0.12362, -0.032, 0.19052, -1.33032, -0.29563, -0.21081, 0.00278, 0.05907, 2.14483, -0.34594}, {-0.0397, -0.07784, 0.04875, 0.6312, 0.08046, -0.08386, 0.02379, 0.16788, 0.27941, -0.40329}, {0.02694, -0.1074, 1.06811, 0.06187, -2.14573, 0.07978, -0.09496, -0.01672, -0.01207, 0.06496}, {-0.76126, 1.19352, -1.2073, 0.55918, 1.56641, -0.03945, 0.01904, 0.92986, -0.54394, 0.39765}, {-0.1122, 0.18068, -0.07924, -0.03759, -1.1827, 0.0052, 0.11383, -0.22729, -0.24497, -0.01032}, {0.13826, 0.1025, -2.80576, -0.13454, 3.1449, 0.05552, 0.08714, -0.09716, -0.00723, 0.33654}, {-0.20496, 0.43891, -0.74802, 0.5583, -0.35037, -0.00521, -0.00784, 2.11769, -0.2393, -0.0897}, {-0.36846, 0.43226, 0.74145, -0.09926, -0.59177, 0.05829, -0.98401, -0.50693, 2.39984, 0.15004}};
	Double_t biasesL1_20[15] = {0.58869, 2.36542, 0.25869, -0.87922, 1.70656, 0.11845, 1.15864, -0.9604, -1.51433, 0.48391, -2.30778, -0.24293, 0.63153, -0.7594, 0.49096};
	nets[20].SetWeightsL1(weightsL1_20);
	nets[20].SetBiasesL1(biasesL1_20);
	
	Double_t weightsL2_20[1][15] = {{-0.70384, 1.8537, 0.77893, 1.13393, 0.70274, 1.28376, -1.06267, 0.74211, -2.41089, 1.7752, 0.65582, -2.01427, 1.03849, 0.94796, -0.82789}};
	Double_t biasesL2_20[1] = {-3.8122};
	nets[20].SetWeightsL2(weightsL2_20);
	nets[20].SetBiasesL2(biasesL2_20);
	
	Double_t weightsL1_21[15][10] = {{-0.12358, -0.39414, 2.25847, 0.11709, 1.46606, 0.18201, 0.07218, -0.3143, 0.15394, 0.2672}, {0.0489, -0.12914, 1.93414, -0.00708, -1.14282, -0.00621, 0.04171, -1.01187, 0.11341, -0.01713}, {-0.12558, -0.15846, -1.09485, -0.12056, -2.99834, 0.40889, -0.02145, -2.31652, -0.05671, 0.33133}, {-1.36905, -0.36749, -0.18844, 0.72656, 0.35782, 0.00268, 0.29024, -0.32529, 0.33889, 0.39085}, {-0.39105, 0.07806, 0.83839, -0.20523, -0.14311, 0.23861, 0.04784, -0.18267, -0.52789, -0.72057}, {0.4252, -0.241, -0.0443, 1.14977, 0.07377, -0.13295, 0.48446, -0.06051, 2.26444, -0.03348}, {-0.22056, 0.1172, 3.4762, 0.2398, -1.99201, 0.05306, -0.19791, -2.17971, 0.04678, -0.2397}, {0.02189, -0.09368, -0.14627, -1.38917, -0.15041, -0.23774, 0.34601, -0.14417, 2.33164, -0.25911}, {-0.13252, -0.03777, -0.07557, 0.89115, -0.0585, -0.16693, 0.06312, 0.02868, 0.16631, -0.73772}, {-0.01418, -0.07931, 1.30899, 0.12522, -2.46021, 0.0936, -0.13918, 0.07943, 0.00834, 0.00682}, {-0.94933, 1.31643, -1.29626, 0.64577, 1.71972, -0.24509, -0.08472, 0.82796, -0.47151, 0.30474}, {0.02433, 0.20733, -0.13331, -0.17946, -1.03579, 0.0251, 0.15454, -0.1855, -0.18268, 0.00255}, {-0.06772, 0.23095, -2.83993, -0.11145, 2.91618, -0.05025, -0.13085, -0.06676, 0.10311, -0.02285}, {-0.13458, 0.48867, -1.18262, 0.17656, -0.17732, 0.07668, 0.10273, 1.83578, -0.16994, 0.29487}, {-0.01132, 0.91488, 1.46364, -0.0572, -1.10149, 0.15333, -1.12005, -0.35587, 2.68432, 0.47444}};
	Double_t biasesL1_21[15] = {0.78579, 1.45766, 0.36194, -1.46141, 1.35455, 0.19881, 1.37195, -0.9564, -2.0186, 0.6751, -2.73284, -0.15664, 0.6004, -0.33603, 0.64996};
	nets[21].SetWeightsL1(weightsL1_21);
	nets[21].SetBiasesL1(biasesL1_21);
	
	Double_t weightsL2_21[1][15] = {{-0.66748, 2.6579, 0.76345, 0.63488, 0.75819, 0.99287, -1.25358, 0.73876, -1.92221, 1.62923, 0.65059, -2.10857, 0.86977, 1.23466, -0.69198}};
	Double_t biasesL2_21[1] = {-3.94503};
	nets[21].SetWeightsL2(weightsL2_21);
	nets[21].SetBiasesL2(biasesL2_21);
	
	Double_t weightsL1_22[15][10] = {{0.31784, -0.46165, 2.23384, -0.44228, 1.36282, 0.04658, 0.21112, -0.13809, 0.3162, 0.55326}, {-0.04274, -0.03857, 1.44553, 0.07274, -0.80847, -0.00951, -0.01927, -1.01248, 0.0906, -0.07819}, {-0.08608, -0.09811, -0.88763, -0.11622, -2.93077, 0.35133, 0.02227, -2.09699, 0.01515, 0.25554}, {-1.60446, -0.44754, -0.23725, 0.78526, 0.78718, 0.07927, 0.37355, -0.32272, 0.19717, 0.45136}, {-0.48918, -0.1379, 0.90343, 1.09404, -0.12889, 0.4403, -0.51418, 0.28556, -0.50922, -0.44358}, {0.95054, -0.41034, 0.26293, 0.97684, -0.26592, -0.44805, 0.93128, -0.04462, 2.5985, 0.04506}, {-0.14432, 0.08165, 2.62522, 0.20556, -1.41262, -0.01188, -0.18607, -1.8525, 0.04581, -0.1648}, {-0.09575, -0.03678, 0.23278, -0.89417, -0.29037, -0.08772, 0.01573, -0.20055, 2.19941, -0.30405}, {0.00319, 0.00039, -0.14238, 0.80032, -0.0833, -0.30425, 0.10679, 0.08033, 0.14274, -0.71249}, {-0.14068, -0.0823, 1.25182, 0.17345, -2.57778, 0.11081, -0.14347, -0.01909, -0.01095, -0.06277}, {-0.08551, 0.78653, -0.67321, 0.10128, 0.95455, -0.22701, -0.03286, 0.18506, -0.17793, 0.40246}, {-0.16344, 0.16952, -0.17544, 0.00129, -1.42155, 0.08466, 0.10517, -0.42778, -0.20906, -0.13707}, {0.04983, 0.18931, -3.23877, -0.19913, 3.34354, -0.05221, -0.09634, -0.16592, 0.01932, 0.2154}, {-0.38286, 0.62312, -1.54993, 0.61247, 0.20399, -0.00256, -0.13559, 2.72722, -0.23058, 0.05487}, {-0.48312, 0.55384, 0.86528, 0.29556, -0.58976, 0.40327, -1.19174, -0.18248, 2.35943, 0.24346}};
	Double_t biasesL1_22[15] = {0.60514, 1.19743, 0.30578, -1.55009, 1.84694, 0.16618, 1.13217, -0.75748, -1.84227, 0.66897, -1.62494, -0.22033, 0.8109, -0.40072, 0.47966};
	nets[22].SetWeightsL1(weightsL1_22);
	nets[22].SetBiasesL1(biasesL1_22);
	
	Double_t weightsL2_22[1][15] = {{-0.53886, 3.76405, 0.98657, 0.73278, 0.78669, 0.7405, -2.10692, 1.35004, -1.54122, 1.53668, 0.60881, -1.66418, 0.86231, 1.18872, -1.00168}};
	Double_t biasesL2_22[1] = {-3.96261};
	nets[22].SetWeightsL2(weightsL2_22);
	nets[22].SetBiasesL2(biasesL2_22);
	
	Double_t weightsL1_23[15][10] = {{0.13845, -0.29193, 2.84949, -0.53869, 2.12085, -0.22615, 0.16611, -0.6499, 0.37544, 0.43132}, {0.07965, -0.19943, 1.72457, -0.04212, -0.9159, -0.04267, 0.02248, -0.79459, 0.11007, -0.07342}, {0.02723, -0.2746, -0.72432, -0.20747, -2.83473, 0.29278, 0.02381, -1.9705, -0.05212, 0.17081}, {-1.08147, -0.34429, -0.04593, 0.58715, 0.33382, 0.00611, 0.36669, -0.30504, 0.4444, 0.18001}, {-0.63076, 0.36487, 0.54912, 0.66165, -0.23687, 0.24023, -0.27777, -0.1465, -0.6639, -0.58629}, {0.25055, -0.3088, -0.04903, 0.89635, 0.05664, -0.08899, 0.2723, 0.09486, 1.89433, -0.03505}, {-0.16244, 0.11739, 3.19813, 0.20726, -1.80781, -0.01503, 0.03083, -1.94021, -0.08927, -0.11863}, {0.42775, -0.05222, -0.05082, -1.55236, 0.0766, -0.16587, 0.13133, -0.07468, 2.48782, -0.14967}, {0.01828, -0.1352, -0.16079, 0.82029, 0.04864, -0.22343, 0.11804, 0.00398, 0.28501, -0.44365}, {-0.02978, -0.11234, 1.40785, 0.14167, -2.83177, 0.07435, -0.16833, 0.06005, -0.08829, -0.04596}, {-1.06146, 1.0631, -1.10469, 0.72944, 1.19457, -0.07659, -0.12218, 0.76863, -0.37129, 0.33448}, {0.06719, 0.04446, -0.17399, -0.13993, -1.27928, 0.06942, 0.1482, -0.37397, -0.21733, -0.03796}, {-0.02117, 0.1979, -3.02778, -0.09295, 3.20898, -0.00409, -0.01205, -0.16765, -0.0549, 0.1937}, {-0.06787, 0.64011, -1.22262, 0.04683, -0.23505, 0.03514, 0.25351, 2.49826, -0.25652, 0.36245}, {-0.23343, 0.60608, 0.65939, -0.04243, -0.43405, 0.16482, -0.68746, -0.40635, 1.91941, 0.07458}};
	Double_t biasesL1_23[15] = {0.63593, 1.34549, 0.17262, -1.12929, 1.79306, 0.22789, 1.01079, -1.24765, -2.01648, 0.68917, -2.32712, -0.17758, 0.82589, -0.99691, 0.32493};
	nets[23].SetWeightsL1(weightsL1_23);
	nets[23].SetBiasesL1(biasesL1_23);
	
	Double_t weightsL2_23[1][15] = {{-0.43522, 2.65801, 1.0636, 0.88786, 1.13722, 1.33164, -1.19632, 0.9453, -2.32552, 1.43828, 0.67946, -1.79221, 0.87196, 1.11171, -1.12035}};
	Double_t biasesL2_23[1] = {-4.54761};
	nets[23].SetWeightsL2(weightsL2_23);
	nets[23].SetBiasesL2(biasesL2_23);
	
	Double_t weightsL1_24[15][10] = {{0.0832, -0.44803, 2.33312, 0.01655, 1.75442, 0.18906, 0.00369, -0.42789, 0.40578, 0.41015}, {0.09063, -0.15936, 2.03256, -0.07608, -1.22488, -0.07865, 0.00321, -1.16618, 0.16714, -0.03005}, {-0.18247, -0.18214, -0.75589, -0.06239, -3.11007, 0.29338, -0.09336, -2.19545, -0.02351, 0.1986}, {-1.42342, -0.44704, -0.02504, 0.74784, 0.44097, -0.19822, 0.29277, -0.27906, 0.41826, 0.12585}, {-0.51149, 0.12309, 1.76162, 0.49867, -0.84405, 0.35292, -0.15401, -0.05719, -0.60964, -0.52693}, {0.65528, -0.12955, -0.11212, 0.96385, -0.07653, -0.12114, 0.60102, -0.06491, 2.35704, 0.0557}, {-0.16007, 0.02611, 3.55646, 0.17298, -1.95762, 0.06508, -0.02402, -1.91829, -0.08923, -0.04379}, {0.17475, 0.03893, 0.02693, -1.38738, -0.23719, -0.14804, 0.07135, -0.13925, 2.12322, -0.30333}, {-0.05516, 0.01282, -0.29419, 0.80712, 0.10512, -0.24014, 0.03312, 0.04077, 0.13158, -0.50631}, {-0.06357, -0.0569, 1.38093, 0.14056, -2.87381, 0.03066, -0.13602, 0.10619, -0.03624, -0.00772}, {-0.72665, 1.13422, -1.0235, 0.7614, 1.15148, -0.30269, 0.02078, 0.98533, -0.50194, 0.07103}, {-0.00366, 0.19961, -0.14651, -0.15263, -1.01062, -0.00645, 0.13581, -0.1609, -0.22416, 0.00327}, {0.08301, 0.18649, -3.05594, -0.19055, 3.22674, 0.04602, -0.00023, -0.16723, -0.02778, 0.30398}, {-0.17081, 0.374, -1.08453, 0.19368, -0.14829, 0.19442, 0.10572, 2.14234, -0.20428, 0.34262}, {-0.29757, 0.679, 1.42828, -0.0208, -0.94834, 0.41162, -1.00601, -0.07394, 2.51961, 0.42492}};
	Double_t biasesL1_24[15] = {0.67371, 1.76967, 0.26178, -1.2012, 2.20994, 0.22103, 1.05418, -0.82927, -1.92668, 0.83981, -2.6917, -0.14863, 0.82337, -0.69125, 0.44508};
	nets[24].SetWeightsL1(weightsL1_24);
	nets[24].SetBiasesL1(biasesL1_24);
	
	Double_t weightsL2_24[1][15] = {{-0.68636, 2.12995, 0.76975, 0.89122, 1.08881, 1.00967, -0.82989, 0.89571, -2.4807, 1.29749, 0.52383, -2.22595, 0.80931, 1.39905, -0.99052}};
	Double_t biasesL2_24[1] = {-4.67682};
	nets[24].SetWeightsL2(weightsL2_24);
	nets[24].SetBiasesL2(biasesL2_24);
	
	Double_t weightsL1_25[15][10] = {{-0.17562, -0.25714, 2.88113, -0.06744, 1.71079, 0.09401, -0.13774, -0.22292, 0.33832, 0.46899}, {0.11649, -0.16297, 2.84548, -0.03189, -1.64864, -0.05059, 0.04299, -1.90678, 0.1556, -0.10382}, {-0.06997, -0.10347, -0.75922, -0.22325, -3.47548, 0.50366, 0.00645, -2.29749, -0.04839, 0.26616}, {-1.50706, -0.47142, -0.04745, 0.78805, 0.50825, -0.18276, 0.35777, -0.19607, 0.30541, 0.11033}, {-0.52264, 0.10431, 1.48288, 0.46649, -0.58203, 0.10521, -0.44478, 0.27955, -0.23949, -0.74821}, {0.77852, -0.23499, -0.06934, 1.0675, 0.00216, -0.11893, 0.56698, -0.16063, 2.45038, 0.11261}, {-0.14126, 0.08568, 3.14195, 0.12596, -1.58271, 0.29835, 0.13137, -2.2495, -0.24116, -0.03032}, {0.06331, -0.2572, -0.07986, -1.24796, 0.12157, -0.07845, 0.29007, -0.1829, 2.18687, -0.42155}, {-0.10905, -0.08171, -0.25619, 0.91078, 0.08733, -0.15224, 0.09373, 0.02262, 0.14062, -0.57317}, {-0.05037, -0.25147, 0.91515, 0.17256, -1.78575, 0.00718, -0.02861, 0.03559, 0.02211, -0.11658}, {-0.54091, 1.08637, -0.79296, 0.46851, 0.82375, 0.12896, -0.05271, 0.69797, -0.39504, 0.64412}, {0.02857, -0.02506, -0.11768, -0.11684, -0.92292, -0.00399, 0.13915, -0.28842, -0.15085, -0.11083}, {0.04984, 0.09888, -2.28748, -0.19698, 2.63282, 0.03979, 0.06803, -0.15498, -0.01858, 0.08993}, {-0.18072, 0.49842, -1.33232, 0.26319, -0.02656, 0.1528, 0.09855, 2.24498, -0.28518, 0.24011}, {-0.32943, 0.76165, 1.17078, 0.05657, -0.64693, 0.23577, -1.06341, -0.38218, 2.65826, 0.15616}};
	Double_t biasesL1_25[15] = {0.55828, 2.62507, 0.44923, -1.23967, 2.28699, 0.32188, 1.27814, -0.79931, -1.83923, 0.47495, -2.44047, -0.15076, 0.62117, -0.59867, 0.77226};
	nets[25].SetWeightsL1(weightsL1_25);
	nets[25].SetBiasesL1(biasesL1_25);
	
	Double_t weightsL2_25[1][15] = {{-0.50055, 1.76411, 0.87703, 0.80809, 0.90745, 0.94247, -0.74261, 0.90687, -2.02589, 1.79693, 0.64844, -2.00266, 1.03229, 1.02161, -0.89723}};
	Double_t biasesL2_25[1] = {-4.01163};
	nets[25].SetWeightsL2(weightsL2_25);
	nets[25].SetBiasesL2(biasesL2_25);
	
	Double_t weightsL1_26[15][10] = {{0.22824, -0.08088, 2.55603, -0.25248, 1.36719, 0.07677, -0.05745, -0.15944, 0.74003, 0.93155}, {0.04148, -0.10803, 2.58873, 0.00251, -1.46875, -0.03911, -0.03581, -1.4631, 0.13334, -0.06002}, {-0.17283, -0.09042, -1.04628, -0.06669, -3.52684, 0.33641, -0.07166, -2.49432, 0.0636, 0.24087}, {-1.37553, -0.26412, -0.01405, 0.92232, 0.29846, -0.18853, 0.27388, -0.23454, 0.35314, 0.14908}, {-0.51798, -0.03639, 1.16774, 0.7146, -0.40499, 0.6204, -0.20122, 0.22836, -0.86337, -0.62802}, {0.69829, -0.22356, -0.04096, 1.12658, -0.00704, -0.34724, 0.7451, -0.08076, 2.74258, 0.01656}, {-0.09997, 0.02268, 2.58025, 0.19065, -1.24574, 0.17949, -0.12475, -1.7206, -0.06404, 0.02534}, {0.07752, -0.06831, 0.08898, -1.07216, -0.12279, -0.18221, 0.14924, -0.16409, 2.12375, -0.33288}, {-0.07065, -0.06617, -0.20861, 0.88683, 0.1111, -0.21309, 0.08092, -0.01717, 0.24021, -0.47821}, {-0.06218, -0.09214, 0.89723, 0.06929, -2.00604, 0.08049, -0.0881, 0.00261, -0.06409, -0.00455}, {-1.03476, 1.65269, -1.40962, 1.1425, 1.75002, -0.20419, -0.03095, 0.56779, -0.43409, 0.90337}, {-0.05001, 0.14369, -0.10907, -0.0757, -1.04481, 0.02364, 0.13447, -0.26806, -0.22711, -0.07453}, {-0.16397, 0.18212, -3.66244, 0.03202, 3.88593, 0.12283, -0.05343, -0.34534, -0.09746, 0.19602}, {-0.04201, 0.42732, -1.01466, 0.1379, -0.12924, 0.21376, 0.12897, 1.91598, -0.24603, 0.49398}, {-0.48731, 0.64161, 1.11769, 0.1062, -0.90491, 0.39091, -0.98822, -0.12069, 2.26405, 0.34758}};
	Double_t biasesL1_26[15] = {0.74838, 2.08431, 0.46341, -1.13044, 2.01561, 0.28516, 1.21005, -0.84512, -1.92356, 0.5603, -3.36869, -0.13002, 1.01146, -0.61556, 0.57356};
	nets[26].SetWeightsL1(weightsL1_26);
	nets[26].SetBiasesL1(biasesL1_26);
	
	Double_t weightsL2_26[1][15] = {{-0.49357, 2.39281, 0.85741, 0.76724, 0.64396, 0.91063, -1.31391, 1.04562, -2.08334, 1.75291, 0.50028, -2.17117, 0.92486, 1.22418, -0.91965}};
	Double_t biasesL2_26[1] = {-4.0108};
	nets[26].SetWeightsL2(weightsL2_26);
	nets[26].SetBiasesL2(biasesL2_26);
	
	Double_t weightsL1_27[15][10] = {{0.24512, -0.39339, 3.01212, -0.56282, 1.94221, 0.13618, 0.16088, -0.4924, 0.62034, 0.86199}, {0.05076, -0.14617, 2.67117, -0.00229, -1.62871, -0.04832, 0.00904, -1.6564, 0.18144, -0.06593}, {-0.02714, 0.02626, -1.13551, -0.1561, -3.26939, 0.40084, -0.01592, -2.40867, 0.03696, 0.32947}, {-0.85616, -0.45527, -0.10633, 0.46091, 0.49552, 0.05746, 0.26446, -0.23051, 0.39045, 0.17819}, {-0.52559, 0.06913, 1.02566, 0.48021, -0.45274, 0.2765, -0.27121, 0.1621, -0.52725, -0.66045}, {0.64903, -0.33074, -0.17108, 1.2777, 0.14242, -0.26157, 0.69367, -0.07267, 2.69278, 0.00381}, {-0.31892, 0.12508, 3.93226, 0.35428, -1.78786, 0.38427, -0.07634, -2.67514, -0.12359, 0.05728}, {0.36548, 0.08217, 0.14071, -1.23377, -0.36839, -0.23322, 0.067, -0.16118, 1.88517, -0.29799}, {0.03932, -0.0231, -0.274, 0.91614, 0.11517, -0.28442, 0.12348, 0.11454, 0.17706, -0.43882}, {-0.00251, -0.15028, 1.14141, 0.02387, -2.07897, 0.03096, -0.08556, 0.06934, -0.03371, -0.05818}, {-0.80309, 1.04151, -1.15305, 0.56394, 1.57342, -0.1576, 0.00674, 0.65782, -0.38882, 0.1328}, {-0.09441, 0.14492, -0.05409, -0.07514, -1.15431, 0.0236, 0.13927, -0.23699, -0.31959, -0.14078}, {-0.09985, 0.27391, -3.69721, -0.09351, 3.9704, 0.06856, 0.03856, -0.22313, 0.01179, 0.11193}, {-0.1569, 0.42662, -1.09448, 0.20921, -0.2124, 0.23677, 0.09528, 2.06114, -0.09989, 0.40851}, {-0.38346, 0.3726, 0.89243, -0.02182, -0.65117, 0.26924, -0.81378, -0.03026, 2.09985, 0.00781}};
	Double_t biasesL1_27[15] = {0.56517, 2.41689, 0.43473, -0.91336, 1.9637, 0.47506, 1.37369, -0.77041, -1.85118, 0.48414, -2.2667, -0.19644, 1.00016, -0.5259, 0.39561};
	nets[27].SetWeightsL1(weightsL1_27);
	nets[27].SetBiasesL1(biasesL1_27);
	
	Double_t weightsL2_27[1][15] = {{-0.51042, 1.65852, 0.76376, 1.19878, 1.27868, 1.01085, -0.7376, 1.00295, -1.79936, 1.76165, 0.73799, -1.89815, 0.9005, 1.06605, -1.19793}};
	Double_t biasesL2_27[1] = {-3.77128};
	nets[27].SetWeightsL2(weightsL2_27);
	nets[27].SetBiasesL2(biasesL2_27);
	
	Double_t weightsL1_28[15][10] = {{0.27099, -0.59892, 3.0418, -0.49491, 2.35981, 0.18608, 0.32984, 0.03304, 0.51497, 0.99234}, {-0.02749, -0.09196, 2.77518, 0.10239, -1.65904, 0.01201, -0.02989, -1.8709, 0.12732, -0.0668}, {-0.09281, -0.13822, -1.07422, -0.28214, -3.22823, 0.51251, 0.1173, -2.40694, -0.08563, 0.25212}, {-1.04291, -0.33181, -0.07038, 0.55242, 0.54668, -0.10678, 0.32135, -0.22485, 0.19551, 0.25387}, {-1.18958, 0.07484, 1.1509, 1.42835, 0.42126, 0.82862, -0.76612, 0.70781, -0.63358, -1.04009}, {0.83552, -0.23652, 0.08144, 1.24317, -0.16042, -0.30126, 0.68565, 0.05509, 2.74964, 0.03987}, {-0.11861, 0.03385, 3.17776, 0.12943, -1.33955, 0.01617, -0.05694, -2.42285, -0.09008, -0.23883}, {0.04839, 0.04904, 0.22081, -1.24951, -0.34383, -0.08191, 0.23049, -0.24639, 1.99055, -0.30795}, {0.0735, -0.01061, -0.25636, 0.86508, 0.07462, -0.20584, 0.1397, -0.04509, 0.12691, -0.64822}, {-0.02737, -0.06988, 1.32899, 0.11345, -2.55367, 0.00823, -0.17724, -0.05221, 0.02535, -0.05534}, {-1.08641, 1.27895, -1.3354, 0.79527, 1.73348, 0.01438, -0.10706, 0.86838, -0.71003, 0.09404}, {-0.09568, 0.23062, -0.11365, -0.0911, -1.4752, 0.07277, 0.07591, -0.46689, -0.18576, -0.05802}, {0.16521, -0.01619, -2.81043, -0.38996, 2.99636, -0.01202, 0.1068, -0.30228, -0.03885, 0.17353}, {-0.2046, 0.53718, -1.28995, 0.39683, 0.06052, 0.1152, 0.06288, 2.73668, -0.24164, 0.26843}, {-0.83248, 0.9872, 1.79909, 0.28685, -1.31055, 0.63978, -1.43636, -0.47639, 3.49032, 0.44859}};
	Double_t biasesL1_28[15] = {0.84054, 2.54239, 0.30792, -1.10491, 3.14387, 0.37372, 1.46013, -0.62355, -1.96101, 0.56592, -2.53166, -0.25792, 0.6261, -0.6567, 0.51394};
	nets[28].SetWeightsL1(weightsL1_28);
	nets[28].SetBiasesL1(biasesL1_28);
	
	Double_t weightsL2_28[1][15] = {{-0.42191, 1.81774, 0.89142, 0.89003, 0.61461, 0.84384, -0.85121, 1.02913, -1.64023, 1.49102, 0.40392, -1.54729, 0.91256, 1.07474, -0.77405}};
	Double_t biasesL2_28[1] = {-3.58778};
	nets[28].SetWeightsL2(weightsL2_28);
	nets[28].SetBiasesL2(biasesL2_28);
	
	Double_t weightsL1_29[15][10] = {{0.12397, -0.44987, 2.59214, -0.00531, 1.92755, -0.13572, -0.07992, -0.42968, 0.53412, 0.49637}, {0.09275, -0.16104, 2.07739, -0.05905, -1.22572, -0.03676, 0.03696, -1.306, 0.10927, -0.03266}, {0.02462, -0.07182, -0.80717, -0.19835, -3.2883, 0.34753, -0.06182, -2.25278, 0.06386, 0.32902}, {-1.17243, -0.33869, -0.17745, 0.66442, 0.49817, 0.06125, 0.33669, -0.19638, 0.51745, 0.2519}, {-0.31423, 0.25578, 1.15351, 0.44729, -0.64287, 0.30959, -0.22113, -0.09881, -0.43313, -0.44384}, {0.9993, -0.29234, -0.10443, 1.16876, 0.04962, -0.3106, 0.58757, 0.00131, 2.95294, 0.02588}, {-0.14102, 0.07648, 2.67902, 0.19199, -1.57925, 0.20768, -0.10774, -1.68293, -0.07591, -0.01124}, {0.10174, 0.05615, 0.27506, -1.34745, -0.34717, -0.22861, -0.00854, -0.11206, 2.72715, -0.39667}, {0.01378, -0.15853, -0.27215, 0.93668, 0.06059, -0.2566, 0.14042, 0.04115, 0.10237, -0.64885}, {0.04804, 0.02553, 1.26942, 0.07866, -2.36682, 0.0166, -0.12562, 0.16927, -0.00276, 0.08091}, {-1.50332, 1.37337, -1.40134, 0.97334, 1.51405, -0.05887, -0.17616, 0.76852, -0.71597, 0.3704}, {0.02081, 0.24945, -0.09259, -0.14436, -1.12058, 0.04088, 0.06499, -0.14425, -0.20749, 0.04505}, {0.12258, 0.04422, -3.32071, -0.08615, 3.49951, 0.1874, -0.04737, -0.29414, -0.05788, 0.27867}, {-0.1504, 0.36679, -0.95089, 0.19942, -0.2259, 0.14734, 0.08184, 2.34645, -0.16709, 0.28497}, {-0.51092, 0.88324, 1.81762, 0.38922, -1.21345, 0.43966, -1.17666, -0.29395, 3.11776, 0.35273}};
	Double_t biasesL1_29[15] = {0.65282, 1.70655, 0.27558, -1.17403, 1.66661, 0.39524, 1.02348, -1.08071, -2.14332, 0.6613, -2.75669, -0.18569, 0.64162, -0.83073, 0.53381};
	nets[29].SetWeightsL1(weightsL1_29);
	nets[29].SetBiasesL1(biasesL1_29);
	
	Double_t weightsL2_29[1][15] = {{-0.63056, 2.65653, 0.89846, 0.99126, 1.01841, 0.85161, -1.31401, 0.93417, -1.80037, 1.60543, 0.54112, -2.1476, 0.95649, 1.38824, -0.90173}};
	Double_t biasesL2_29[1] = {-4.13352};
	nets[29].SetWeightsL2(weightsL2_29);
	nets[29].SetBiasesL2(biasesL2_29);
	
	Double_t weightsL1_30[15][10] = {{-0.1803, -0.27332, 2.41928, 0.01472, 1.90705, -0.03143, 0.07539, -0.36652, 0.33785, 0.25014}, {0.06796, -0.10754, 2.16205, -0.0265, -1.22249, -0.01266, 0.10714, -1.57715, 0.08021, -0.07622}, {-0.1535, -0.13574, -0.91704, -0.00074, -3.08983, 0.37044, -0.09051, -2.18186, 0.08203, 0.24854}, {-1.85046, -0.6683, -0.09396, 0.98383, 0.64802, -0.11766, 0.42206, -0.17847, 0.36901, -0.0399}, {-0.7657, -0.22173, 1.0716, 0.51468, -0.04491, 0.46452, -0.26912, 0.28287, -0.23604, -0.81095}, {0.79676, -0.24359, 0.13609, 1.19256, -0.24545, -0.29389, 0.70852, 0.00486, 2.61253, 0.05238}, {-0.01133, 0.1096, 3.68581, 0.14168, -2.02364, 0.03741, 0.07345, -2.64984, -0.1225, 0.00084}, {0.23828, -0.02086, -0.0074, -1.40922, -0.09538, -0.19458, 0.34205, -0.25995, 1.85384, -0.16606}, {-0.09553, 0.00155, -0.09803, 0.91895, -0.01331, -0.17124, 0.09309, -0.02025, 0.07541, -0.59494}, {-0.00606, -0.22157, 1.17966, 0.0864, -2.25859, 0.02585, -0.08315, 0.03963, -0.00642, -0.02495}, {-0.63987, 1.46409, -0.97162, 0.43697, 1.24735, -0.3737, -0.36116, 0.49586, -0.46132, 0.81862}, {0.08434, 0.12508, -0.20441, -0.18162, -1.1768, 0.0315, 0.18461, -0.31291, -0.2041, 0.0159}, {0.09117, 0.13754, -3.33683, -0.21547, 3.58498, 0.06884, 0.16923, -0.17017, -0.09772, 0.27513}, {-0.14462, 0.51216, -1.33912, 0.36288, -0.08126, 0.13208, 0.1526, 2.55233, -0.17709, 0.35229}, {-0.60795, 0.12621, 0.62319, 0.1806, -0.28493, 0.43211, -0.79136, -0.36046, 1.8916, -0.1334}};
	Double_t biasesL1_30[15] = {0.59715, 1.92588, 0.29018, -1.51626, 1.8584, 0.35618, 1.58858, -0.5759, -1.96311, 0.6646, -3.01546, -0.11743, 0.85811, -0.70481, 0.82218};
	nets[30].SetWeightsL1(weightsL1_30);
	nets[30].SetBiasesL1(biasesL1_30);
	
	Double_t weightsL2_30[1][15] = {{-0.58284, 2.12308, 0.9929, 0.68136, 0.71721, 0.86412, -1.06248, 0.92624, -1.83141, 1.50352, 0.66137, -1.86556, 0.88548, 1.05085, -0.85563}};
	Double_t biasesL2_30[1] = {-3.58712};
	nets[30].SetWeightsL2(weightsL2_30);
	nets[30].SetBiasesL2(biasesL2_30);
	
	Double_t weightsL1_31[15][10] = {{0.20915, -0.36646, 2.10566, -0.14613, 1.66389, -0.05177, 0.19481, -0.36543, 0.35341, 0.44876}, {0.01368, -0.08758, 2.56623, -0.01034, -1.62784, 0.00879, -0.00523, -1.54358, 0.1107, -0.06485}, {-0.09363, -0.01966, -0.99778, -0.17361, -3.78065, 0.43268, -0.09704, -2.47868, 0.04497, 0.36385}, {-1.54347, -0.36198, 0.02448, 0.78716, 0.38087, -0.01961, 0.37088, -0.20249, 0.16015, 0.07309}, {-0.66561, 0.06823, 1.0658, 0.38594, -0.29554, 0.29115, -0.1456, -0.13193, -0.45357, -0.70772}, {0.56413, -0.26534, -0.02349, 1.47669, -0.11151, -0.23371, 0.6459, 0.0013, 3.08742, 0.03056}, {-0.24934, 0.04792, 3.12554, 0.26159, -1.43976, 0.17269, -0.18199, -2.23617, -0.05749, -0.20887}, {-0.04309, -0.02946, 0.02015, -1.37278, -0.17905, -0.23689, 0.13722, -0.17854, 2.16027, -0.44851}, {-0.08053, -0.00392, -0.08156, 0.79938, -0.03356, -0.20311, 0.02386, 0.078, 0.12029, -0.48596}, {-0.04293, -0.19309, 1.41074, 0.08725, -2.63217, 0.10654, -0.14004, 0.108, -0.03544, -0.02713}, {-0.56651, 1.36352, -1.40792, 0.60767, 1.58189, -0.24555, 0.2099, 0.89021, -0.23318, 0.40137}, {-0.0754, 0.15971, -0.19595, -0.17168, -1.0341, 0.06042, 0.13099, -0.24974, -0.23033, -0.05796}, {0.15631, 0.20938, -3.57281, -0.24318, 3.68831, 0.03852, 0.0958, -0.29323, 0.11724, 0.20018}, {-0.24793, 0.41441, -1.50167, 0.34136, 0.03611, 0.13115, 0.11039, 2.88993, -0.22606, 0.29073}, {-0.61612, 1.33815, 1.51655, 0.14194, -0.98986, 0.25317, -1.56085, -0.52944, 3.53995, 0.11742}};
	Double_t biasesL1_31[15] = {0.45553, 2.21013, 0.27535, -1.13773, 1.66295, 0.17714, 1.4391, -0.8445, -1.74781, 0.74898, -2.70226, -0.16866, 0.81988, -0.82704, 0.75598};
	nets[31].SetWeightsL1(weightsL1_31);
	nets[31].SetBiasesL1(biasesL1_31);
	
	Double_t weightsL2_31[1][15] = {{-0.63442, 1.97456, 0.86085, 0.66359, 0.69795, 0.8843, -0.94954, 0.78476, -2.21496, 1.40505, 0.52176, -2.11732, 0.88287, 1.03339, -0.7379}};
	Double_t biasesL2_31[1] = {-4.16004};
	nets[31].SetWeightsL2(weightsL2_31);
	nets[31].SetBiasesL2(biasesL2_31);
	
	Double_t weightsL1_32[15][10] = {{0.24961, -0.62792, 2.98252, -0.57565, 2.14824, -0.05605, 0.04288, -0.16261, 0.50184, 0.76713}, {0.06805, -0.03112, 2.57061, -0.08317, -1.57954, -0.04991, 0.14137, -1.86417, 0.10075, -0.06263}, {-0.0241, -0.2036, -0.83738, -0.26928, -2.87142, 0.39028, -0.12814, -2.02481, 0.02466, 0.22656}, {-1.30924, -0.43827, -0.13909, 0.58679, 0.45955, -0.023, 0.53539, -0.16288, 0.50833, 0.34273}, {-0.23992, -0.16165, 0.89496, 0.49897, -0.34235, 0.10245, -0.2264, -0.14654, -0.11712, -0.32273}, {0.72224, -0.26189, 0.04491, 1.50234, -0.14806, -0.2524, 0.77932, -0.08256, 2.96359, 0.07362}, {-0.08091, 0.11051, 2.42235, 0.08476, -1.39859, 0.18505, 0.08196, -1.77516, -0.1307, -0.02243}, {-0.03923, -0.04815, 0.11752, -1.26445, -0.13402, -0.09886, 0.02016, -0.12756, 2.35251, -0.40067}, {-0.0706, 0.07143, -0.18224, 0.81119, -0.19244, -0.21047, 0.05454, -0.03039, 0.0622, -0.55005}, {-0.07649, -0.05587, 1.27085, 0.18, -2.41667, -0.01871, -0.19515, 0.01922, 0.07909, -0.03988}, {-0.73211, 0.96036, -0.76723, 0.2849, 1.0978, -0.01265, -0.18854, 0.4935, -0.45064, 0.43676}, {-0.00234, 0.18472, -0.20846, -0.12978, -1.21857, 0.03638, 0.0608, -0.35069, -0.15602, -0.06491}, {0.01741, 0.13392, -2.72641, -0.05698, 2.81477, 0.12526, -0.01298, -0.15302, 0.01265, 0.14556}, {-0.08765, 0.55202, -1.51996, 0.0821, -0.22714, 0.16232, 0.24846, 2.3023, -0.34306, 0.3811}, {-0.40612, 0.37606, 0.71288, 0.32894, -0.50652, 0.22125, -1.01724, -0.38603, 2.00178, -0.02449}};
	Double_t biasesL1_32[15] = {0.61773, 2.21349, 0.3825, -1.34048, 1.59223, 0.22346, 1.08446, -0.95293, -1.86174, 0.71342, -2.18106, -0.05222, 0.56115, -0.79163, 0.46746};
	nets[32].SetWeightsL1(weightsL1_32);
	nets[32].SetBiasesL1(biasesL1_32);
	
	Double_t weightsL2_32[1][15] = {{-0.58125, 1.89652, 1.00174, 0.69041, 1.92544, 0.81512, -1.23321, 1.00854, -1.80366, 1.6333, 0.66113, -1.97424, 1.00921, 1.05792, -0.86913}};
	Double_t biasesL2_32[1] = {-4.3674};
	nets[32].SetWeightsL2(weightsL2_32);
	nets[32].SetBiasesL2(biasesL2_32);
	
	Double_t weightsL1_33[15][10] = {{-0.05106, -0.25855, 2.71257, 0.63249, 1.40709, 0.03268, 0.02324, -0.33565, 0.08995, 0.42606}, {0.05295, -0.1167, 2.28102, -0.05645, -1.42308, -0.02754, 0.04674, -1.46175, 0.14085, -0.00449}, {-0.11846, -0.18774, -0.82937, -0.14294, -3.41106, 0.43937, -0.04326, -2.36294, -0.03013, 0.26288}, {-1.41009, -0.45438, -0.13561, 0.64974, 0.57196, 0.08664, 0.41818, -0.16366, 0.20361, 0.27871}, {-0.36015, 0.01481, 1.48935, 0.59878, -0.5631, 0.25884, -0.273, 0.05713, -0.3057, -0.55783}, {0.70671, -0.09066, -0.13026, 1.15109, -0.10763, -0.2513, 0.62708, -0.10502, 2.5984, 0.11643}, {-0.17214, 0.09263, 3.23793, 0.09036, -1.98101, 0.2803, 0.01503, -1.85348, -0.08826, 0.11098}, {0.04195, 0.00819, 0.00881, -1.24472, -0.15368, -0.17127, 0.1882, -0.34287, 2.06179, -0.32333}, {-0.05335, 0.0895, -0.31795, 0.84785, -0.12359, -0.20393, 0.02927, -0.06989, 0.07774, -0.4912}, {0.02968, -0.16177, 1.10456, 0.0681, -2.22066, 0.03687, -0.10833, 0.0319, -0.0497, -0.02041}, {-0.9742, 1.20305, -0.75571, 0.57064, 1.14608, -0.00277, -0.37488, 1.18887, -0.28458, 0.55357}, {0.04548, 0.14025, -0.11306, -0.23856, -1.14128, 0.01441, 0.11401, -0.29424, -0.16728, -0.00983}, {0.08134, 0.26728, -3.28076, -0.19961, 3.33991, 0.03152, 0.03454, -0.16589, 0.10408, 0.25485}, {-0.09237, 0.43918, -1.33458, 0.18562, -0.20491, 0.11751, 0.16673, 2.90224, -0.14687, 0.41046}, {-0.17865, 0.77112, 1.24283, -0.03126, -0.62845, 0.31417, -1.06353, -0.08278, 2.83019, 0.25159}};
	Double_t biasesL1_33[15] = {1.04715, 1.90509, 0.16444, -1.23321, 2.16972, 0.3454, 0.9175, -0.69547, -1.93366, 0.57228, -3.08734, -0.23391, 0.66594, -1.15467, 0.54369};
	nets[33].SetWeightsL1(weightsL1_33);
	nets[33].SetBiasesL1(biasesL1_33);
	
	Double_t weightsL2_33[1][15] = {{-0.60236, 1.89829, 0.79131, 0.71786, 1.144, 0.91136, -0.81427, 1.04161, -1.83929, 1.70253, 0.63458, -2.12843, 0.9256, 1.19332, -1.04469}};
	Double_t biasesL2_33[1] = {-3.93824};
	nets[33].SetWeightsL2(weightsL2_33);
	nets[33].SetBiasesL2(biasesL2_33);
	
	Double_t weightsL1_34[15][10] = {{0.16696, -0.01001, 3.53087, -0.18648, 2.12688, 0.06669, 0.04163, -0.37481, 0.59145, 0.8098}, {0.11349, -0.20932, 3.13748, -0.06955, -1.94319, 0.00821, -0.02155, -1.78754, 0.15853, -0.0325}, {-0.17233, -0.16216, -0.89375, -0.13984, -3.36577, 0.42641, 0.0793, -2.41023, -0.05096, 0.29355}, {-1.2301, -0.38986, -0.09598, 0.61625, 0.65735, -0.06219, 0.13073, -0.14483, 0.04454, 0.24797}, {-0.22074, -0.08845, 1.53778, 0.43808, -0.62276, -0.10591, -0.33368, 0.04077, -0.16246, -0.58714}, {0.71314, -0.31033, -0.1419, 1.38132, -0.0728, -0.21135, 0.87217, -0.15365, 2.92347, 0.02081}, {-0.10152, 0.01284, 3.33878, 0.183, -1.45648, 0.00685, 0.12273, -2.56579, -0.16492, -0.20754}, {-0.03206, -0.08421, 0.11882, -1.23583, -0.12148, -0.17032, 0.31039, -0.39776, 2.18547, -0.28935}, {-0.08794, 0.07857, -0.11942, 0.83367, -0.22349, -0.16626, 0.12571, -0.02783, 0.0557, -0.54824}, {0.0275, -0.13465, 1.155, 0.13258, -2.63325, 0.01728, -0.10311, -0.01304, -0.08106, -0.02615}, {-0.33418, 1.10011, -0.94374, 0.30323, 0.40253, 0.33467, 0.52484, 1.35888, 0.01115, 0.52919}, {-0.03783, 0.04407, -0.1471, -0.14024, -1.38253, -0.01027, 0.11868, -0.40055, -0.28149, -0.06512}, {0.12751, 0.06689, -2.95964, -0.15867, 3.33906, -0.02367, 0.12101, -0.09641, -0.02398, 0.20201}, {-0.10904, 0.95414, -1.58204, 0.47432, -0.09697, -0.17486, -0.01974, 2.81738, -0.15096, 0.17993}, {-0.37758, 1.56006, 1.52938, 0.1933, -1.0148, 0.11066, -1.26405, -0.3378, 3.55117, 0.35758}};
	Double_t biasesL1_34[15] = {0.815, 2.73866, 0.19324, -1.05339, 1.9969, 0.30135, 1.32028, -0.67226, -1.87433, 0.61715, -2.18535, -0.22455, 0.72943, -0.37942, 0.5444};
	nets[34].SetWeightsL1(weightsL1_34);
	nets[34].SetBiasesL1(biasesL1_34);
	
	Double_t weightsL2_34[1][15] = {{-0.462, 1.46244, 0.80326, 0.85848, 1.2719, 0.76797, -0.84958, 1.03435, -1.74762, 1.44415, 0.54758, -1.56728, 0.78274, 0.81254, -0.83805}};
	Double_t biasesL2_34[1] = {-3.96979};
	nets[34].SetWeightsL2(weightsL2_34);
	nets[34].SetBiasesL2(biasesL2_34);
	
	Double_t weightsL1_35[15][10] = {{0.17779, -0.04775, 3.53806, -0.1021, 1.83099, 0.10413, 0.13723, -0.76027, 0.59092, 0.70922}, {0.01436, -0.10743, 2.65725, -0.12727, -1.63643, -0.02803, 0.0276, -1.74381, 0.0872, -0.03853}, {0.11284, -0.57644, -1.18152, -0.47343, -3.4865, 0.60577, 0.22743, -2.96351, -0.13399, 0.38598}, {-1.61803, -0.64985, -0.12348, 0.80432, 0.69272, 0.08829, 0.28967, -0.1966, 0.2529, 0.29106}, {-0.11528, 0.05009, 0.84937, 0.45757, -0.33357, 0.03551, -0.09852, -0.23256, -0.29212, -0.27782}, {0.88844, -0.23904, 0.00311, 1.39426, -0.08719, -0.1215, 0.72361, 0.03338, 3.01853, 0.23325}, {-0.19682, 0.10802, 3.38064, 0.27919, -1.98248, 0.09408, -0.08396, -2.2282, 0.04039, -0.12321}, {-0.11688, -0.07727, 0.11026, -1.18214, -0.22528, -0.2197, 0.0981, -0.1509, 2.20545, -0.46899}, {-0.03424, 0.0295, -0.25399, 0.69968, 0.04807, -0.15492, 0.02671, 0.09953, 0.25209, -0.52929}, {-0.02099, -0.17857, 1.24521, 0.08729, -2.35746, 0.09312, -0.0806, 0.1162, -0.03167, -0.03235}, {-0.13697, 1.59882, -0.8078, 0.35552, 0.80148, 0.1302, 0.96326, 1.72903, 0.01162, 0.7295}, {0.04297, -0.00195, -0.20035, -0.12979, -0.88261, 0.05575, 0.11253, -0.14534, -0.32008, -0.01254}, {0.17536, 0.14466, -2.41927, -0.22419, 2.5214, 0.03865, -0.05175, -0.19003, 0.0742, 0.21682}, {-0.11184, 0.31785, -1.02085, 0.24706, -0.14288, 0.04575, -0.03927, 2.24382, 0.00459, 0.28305}, {-0.20103, 0.96128, 1.51937, 0.10076, -0.64328, 0.32681, -1.1056, -0.59182, 2.86753, 0.40869}};
	Double_t biasesL1_35[15] = {1.10817, 2.22044, 0.18616, -1.48944, 1.42945, 0.18708, 1.30221, -0.78045, -1.79535, 0.56838, -3.57938, -0.26272, 0.54307, -0.81257, 0.55217};
	nets[35].SetWeightsL1(weightsL1_35);
	nets[35].SetBiasesL1(biasesL1_35);
	
	Double_t weightsL2_35[1][15] = {{-0.6308, 1.8899, 0.67152, 0.77332, 1.59341, 0.724, -0.94817, 0.88564, -2.03626, 1.41243, 0.36363, -1.94633, 1.06686, 1.40842, -0.71521}};
	Double_t biasesL2_35[1] = {-4.51419};
	nets[35].SetWeightsL2(weightsL2_35);
	nets[35].SetBiasesL2(biasesL2_35);
	
	Double_t weightsL1_36[15][10] = {{-0.06138, -0.22099, 3.28217, -0.03049, 1.92016, 0.24916, -0.02538, -0.29606, 0.63601, 0.94654}, {0.15397, -0.29202, 1.86945, -0.16331, -0.97519, -0.15097, -0.07173, -0.77545, 0.13757, -0.10392}, {0.03344, 0.16606, -0.73106, -0.3353, -3.2157, 0.02516, -0.22373, -2.00958, -0.08188, 0.28116}, {-2.07003, -0.35598, 0.04465, 0.95979, 0.63404, -0.0615, 0.22286, -0.18786, 0.02615, 0.30071}, {-0.12911, 0.13212, 0.83549, 0.33359, -0.57492, 0.07302, -0.02931, -0.34132, -0.30945, -0.17726}, {0.5229, -0.23096, -0.0555, 1.72204, -0.14067, -0.20494, 0.61859, 0.04939, 3.32594, 0.28003}, {-0.02711, 0.12022, 2.23341, -0.08973, -1.20541, 0.13611, 0.03015, -1.65141, -0.12566, 0.00996}, {0.10879, -0.35413, -0.10797, -1.23962, 0.15103, -0.26056, 0.17405, -0.17356, 2.68963, -0.42084}, {0.06985, -0.18159, -0.33421, 0.63531, 0.2551, -0.15439, 0.07011, 0.15666, 0.22541, -0.50247}, {-0.09244, -0.1144, 1.12266, 0.10105, -2.621, 0.01486, -0.16738, 0.00563, -0.02445, -0.06356}, {-0.14469, 0.80328, -0.88265, 0.19878, 0.37404, 0.36807, 0.46381, 0.91118, 0.06303, 0.51764}, {-0.04781, 0.11773, -0.21143, -0.16096, -1.26583, -0.07647, 0.09778, -0.37873, -0.28206, -0.08773}, {0.0936, -0.12146, -3.75258, -0.15383, 4.02619, 0.24165, 0.04805, -0.10793, -0.0104, 0.12836}, {-0.12545, 0.7491, -1.04347, -0.02403, -0.71241, 0.16008, 0.30052, 2.21402, -0.31196, 0.5212}, {0.08389, 1.51097, 1.88596, -0.05493, -1.57635, 0.27673, -0.76923, -0.65966, 3.54557, 0.55185}};
	Double_t biasesL1_36[15] = {0.75682, 1.50253, 0.26167, -1.52053, 1.32675, 0.19749, 0.65606, -1.16244, -1.68897, 0.61356, -1.69546, -0.11302, 0.89471, -0.81578, -0.1178};
	nets[36].SetWeightsL1(weightsL1_36);
	nets[36].SetBiasesL1(biasesL1_36);
	
	Double_t weightsL2_36[1][15] = {{-0.47485, 2.2772, 0.88632, 0.64581, 2.49217, 0.78602, -1.53738, 1.02436, -2.04637, 1.34986, 0.99868, -1.85494, 0.86905, 0.76665, -0.69022}};
	Double_t biasesL2_36[1] = {-5.07038};
	nets[36].SetWeightsL2(weightsL2_36);
	nets[36].SetBiasesL2(biasesL2_36);
	
	Double_t weightsL1_37[15][10] = {{-0.07388, -0.25081, 2.42314, 0.14785, 0.47753, -0.15859, -0.0513, -0.34763, 0.15515, 0.01706}, {0.02383, -0.15971, 2.0603, 0.0457, -1.23431, -0.06159, -0.04998, -0.54259, 0.12204, -0.10801}, {-0.16015, -0.34906, -0.6502, -0.14643, -2.8499, 0.28373, 0.07517, -2.04544, -0.08327, -0.01106}, {-1.55272, -0.34472, 0.09494, 0.88998, 0.3555, -0.06037, 0.12143, -0.17779, 0.26845, 0.2948}, {-0.58013, -0.39072, 0.85816, -0.28218, 0.81353, 0.12898, -0.04792, -0.06911, -1.21222, -1.29322}, {0.47464, -0.2597, 0.0052, 1.33626, -0.01972, -0.11383, 0.54899, 0.05965, 2.75476, 0.07011}, {-0.22839, 0.02836, 3.28933, 0.33306, -2.23546, 0.01672, -0.12724, -1.49978, -0.04062, -0.17725}, {0.03334, -0.06242, 0.05502, -0.88025, -0.22688, -0.14668, 0.25581, -0.25297, 1.7071, -0.09236}, {-0.09579, 0.00999, 0.03598, 0.78084, -0.17754, -0.08889, 0.08388, 0.14127, 0.14264, -0.58935}, {-0.18498, -0.24577, 0.94342, 0.12407, -2.64959, 0.10088, -0.0756, -0.02771, -0.16651, -0.25218}, {-0.31282, 1.0793, -0.02998, 0.40598, -0.39536, 0.2388, 0.13506, 1.39557, -0.1799, 0.68904}, {-0.08955, -0.07956, -0.17333, -0.10323, -1.40148, 0.01537, 0.13568, -0.44573, -0.1981, -0.18126}, {0.06689, -0.26187, -1.98697, 0.07793, 2.96359, -0.08554, -0.12596, 0.02691, 0.19811, -0.02871}, {-0.34022, 0.33315, -1.37416, 0.49392, -0.11003, 0.07866, -0.09316, 1.37129, -0.16423, 0.10678}, {-0.22333, 0.31053, 0.54632, -0.10204, 0.03255, 0.15045, -0.7058, -0.25468, 2.04504, -0.03386}};
	Double_t biasesL1_37[15] = {0.67803, 1.22111, 0.15366, -1.33957, 2.26181, 0.37323, 0.93957, -0.5284, -1.93246, 0.46458, -1.89524, -0.15213, 0.94074, -0.30422, 0.35449};
	nets[37].SetWeightsL1(weightsL1_37);
	nets[37].SetBiasesL1(biasesL1_37);
	
	Double_t weightsL2_37[1][15] = {{-0.63256, 2.97054, 0.96918, 0.60371, 0.6215, 0.93863, -1.37511, 0.98129, -2.07048, 1.15563, 0.63942, -1.56503, 0.84645, 1.18825, -0.81947}};
	Double_t biasesL2_37[1] = {-3.8747};
	nets[37].SetWeightsL2(weightsL2_37);
	nets[37].SetBiasesL2(biasesL2_37);
	
	Double_t weightsL1_38[15][10] = {{-0.11597, -0.21175, 2.95792, 0.25694, 1.56932, 0.26279, 0.21346, -0.08712, 0.38387, 0.70801}, {-0.03025, -0.0975, 1.69413, 0.05947, -0.97767, -0.02692, -0.06967, -1.00295, 0.06204, -0.08197}, {-0.08588, -0.37141, -0.97387, -0.30873, -4.53304, 0.33887, 0.0051, -2.92908, -0.02378, -0.05485}, {-1.81124, -0.33054, 0.14396, 0.85984, 0.48791, -0.14957, 0.24322, -0.16178, 0.20735, 0.15663}, {-0.52187, -0.00507, 0.91289, -0.48905, 0.58904, 0.00658, -0.19994, 0.03983, -1.62316, -1.0861}, {0.64713, -0.35228, -0.09435, 1.71151, -0.00933, -0.1712, 0.69506, -0.04268, 3.36415, 0.05456}, {-0.23107, 0.01128, 2.82728, 0.25953, -1.75135, 0.03128, -0.11127, -1.94357, -0.03587, -0.14147}, {-0.13128, -0.0576, 0.30135, -1.03807, -0.63054, -0.21465, 0.25757, -0.22937, 2.29732, -0.21095}, {-0.10581, 0.05016, 0.06457, 0.81376, -0.1857, -0.12636, -0.00671, 0.13037, 0.1212, -0.57546}, {0.02045, -0.2449, 1.05314, 0.03095, -2.44634, 0.10568, -0.11518, 0.04567, -0.03711, -0.10451}, {-0.11202, 0.92794, -0.74139, 0.26417, 0.39685, 0.10953, 0.35904, 1.14926, -0.09979, 0.37381}, {0.00292, 0.08618, -0.13553, -0.20737, -1.2595, -0.07005, 0.10868, -0.33327, -0.27034, -0.23382}, {-0.07709, -0.222, -2.96207, -0.03609, 3.89346, -0.08183, -0.14032, -0.03618, -0.04761, 0.06881}, {-0.15996, 0.43563, -1.36214, 0.2575, -0.24825, 0.03736, 0.09327, 2.09292, -0.27619, 0.19309}, {-0.39109, 0.58996, 1.38214, -0.11586, -0.31444, -0.00287, -0.88248, -0.3421, 3.32134, 0.00596}};
	Double_t biasesL1_38[15] = {0.8622, 1.28265, 0.39191, -1.40366, 2.45834, 0.32307, 1.20172, -0.71933, -1.84824, 0.58197, -1.75572, -0.10363, 1.02042, -0.82134, 0.06252};
	nets[38].SetWeightsL1(weightsL1_38);
	nets[38].SetBiasesL1(biasesL1_38);
	
	Double_t weightsL2_38[1][15] = {{-0.55663, 4.02515, 0.70971, 0.68253, 0.62075, 0.92906, -2.10727, 0.89186, -2.0209, 1.33447, 0.77277, -1.66245, 0.76443, 1.19637, -0.81014}};
	Double_t biasesL2_38[1] = {-4.09372};
	nets[38].SetWeightsL2(weightsL2_38);
	nets[38].SetBiasesL2(biasesL2_38);
	
	Double_t weightsL1_39[15][10] = {{0.06503, -0.099, 1.97371, -0.165, 1.04222, 0.09554, 0.09296, -0.25355, 0.25672, 0.39935}, {-0.05036, -0.16311, 2.09355, 0.06536, -1.20073, -0.06148, -0.08013, -0.52415, 0.12905, -0.14991}, {-0.06504, -0.32681, -0.75929, -0.22498, -3.3733, 0.35957, 0.10174, -2.28332, 0.02187, 0.04079}, {-1.40387, -0.36766, 0.13374, 0.68891, 0.49937, -0.07344, 0.09857, -0.13047, 0.06072, 0.32435}, {-0.47329, -0.67714, 0.53967, -0.55265, 0.86541, 0.12656, 0.24054, 0.06014, -1.23788, -1.24749}, {0.33791, -0.09212, -0.2, 1.48003, 0.00047, -0.12381, 0.63922, -0.02055, 2.8417, 0.14019}, {-0.14462, -0.02024, 2.97458, 0.18508, -1.91791, 0.11336, -0.05015, -1.51218, -0.07518, -0.09203}, {0.01919, 0.33186, -0.15691, -1.49769, -0.73678, -0.10086, 0.58066, -0.68837, 3.3522, -0.07322}, {-0.09662, 0.17737, 0.02833, 0.79082, -0.23918, -0.09237, 0.08819, -0.03031, 0.17684, -0.61436}, {-0.18631, -0.26034, 0.78371, 0.15388, -2.40695, 0.19723, -0.07896, -0.06858, -0.08467, -0.1403}, {0.0386, 1.2532, 0.03658, 0.44984, -0.26405, 0.12714, 0.01618, 1.12941, -0.3692, 0.73261}, {-0.23847, -0.20258, -0.42657, 0.023, -1.63429, 0.06944, 0.1738, -0.49098, -0.22186, -0.29969}, {0.08618, -0.26695, -1.90077, -0.09296, 3.08113, -0.06681, 0.09787, -0.01995, 0.18248, -0.15259}, {-0.10025, 0.24013, -1.35176, 0.2053, -0.31622, 0.12594, 0.10973, 1.50685, -0.12392, 0.36124}, {-0.2125, 0.22326, 0.81826, 0.01401, -0.33498, 0.04921, -0.97694, -0.65618, 2.28801, -0.08959}};
	Double_t biasesL1_39[15] = {0.67066, 1.40393, 0.28399, -1.20808, 1.65118, 0.26778, 0.83222, -0.86997, -1.85553, 0.50576, -1.85431, 0.01578, 0.96132, -0.51841, 0.62922};
	nets[39].SetWeightsL1(weightsL1_39);
	nets[39].SetBiasesL1(biasesL1_39);
	
	Double_t weightsL2_39[1][15] = {{-0.71707, 2.71499, 0.96124, 0.73253, 0.55585, 0.99177, -1.3647, 0.66406, -2.00428, 1.43358, 0.64317, -1.52958, 0.96594, 0.88173, -0.65397}};
	Double_t biasesL2_39[1] = {-3.77245};
	nets[39].SetWeightsL2(weightsL2_39);
	nets[39].SetBiasesL2(biasesL2_39);
	
	Double_t weightsL1_40[15][10] = {{0.09754, -0.36001, 2.10252, 0.06754, 1.38363, 0.0111, 0.32829, -0.53042, 0.08672, 0.13435}, {-0.07108, -0.08025, 1.95607, 0.08159, -1.15335, -0.07097, -0.11543, -0.52826, 0.12612, -0.16685}, {0.06463, -0.35669, -0.69863, -0.11596, -3.29241, 0.47146, 0.04989, -2.38448, -0.05107, 0.46533}, {-1.50452, -0.32137, -0.05495, 0.81177, 0.44662, -0.08634, 0.24436, -0.29653, 0.15578, 0.40688}, {-0.19582, -0.21471, 0.17982, -0.79433, -0.04126, 0.05175, 0.1124, -0.09181, -1.62642, -0.45756}, {0.52467, -0.10288, 0.14759, 1.26894, -0.19698, -0.35734, 0.63289, -0.09569, 2.76918, 0.09118}, {-0.21585, 0.02127, 3.30083, 0.26197, -1.81774, 0.06586, -0.24879, -1.56223, 0.00225, -0.11598}, {-0.35177, 0.58839, 0.00851, -0.59175, -0.43452, 0.26836, 0.39381, -1.03211, 3.08093, 0.57765}, {-0.22038, -0.01735, -0.19963, 0.77543, 0.12372, 0.00135, 0.12707, -0.08782, -0.04082, -0.68169}, {0.01481, -0.20652, 1.11922, 0.15483, -2.75209, 0.14315, -0.09686, -0.0109, -0.09984, -0.01368}, {-0.40082, 1.16579, -0.61137, 0.48415, -0.01827, 0.34619, 0.4737, 1.43548, -0.32078, 0.70788}, {0.0607, 0.16094, -0.06324, -0.14266, -1.3549, -0.05142, 0.11567, -0.3185, -0.31387, 0.04543}, {0.1602, -0.01615, -2.78083, -0.28897, 3.27558, 0.02312, -0.08947, -0.16592, 0.03646, 0.26794}, {-0.33555, 0.35902, -1.51931, 0.54394, 0.15914, 0.03354, -0.15121, 1.74274, 0.09474, 0.22678}, {-0.35615, 0.28539, 0.38511, 0.04772, -0.22167, 0.29098, -0.49881, -0.30241, 1.48589, 0.14979}};
	Double_t biasesL1_40[15] = {0.60285, 1.25501, 0.11866, -1.467, 1.31941, 0.09767, 1.03179, -0.15884, -1.82675, 0.5401, -2.35302, -0.3307, 0.83492, 0.08534, 0.49767};
	nets[40].SetWeightsL1(weightsL1_40);
	nets[40].SetBiasesL1(biasesL1_40);
	
	Double_t weightsL2_40[1][15] = {{-0.75594, 2.8319, 0.73337, 0.6639, 0.95579, 0.96696, -1.32929, 1.03912, -1.66483, 1.18062, 0.55664, -1.75642, 0.80675, 0.83154, -1.2583}};
	Double_t biasesL2_40[1] = {-3.92186};
	nets[40].SetWeightsL2(weightsL2_40);
	nets[40].SetBiasesL2(biasesL2_40);
	
	Double_t weightsL1_41[15][10] = {{0.07983, -0.22056, 2.58725, -0.27141, 1.28457, -0.00739, 0.08343, -0.53792, 0.32688, 0.41434}, {-0.07136, -0.15722, 2.00128, 0.09801, -1.08607, -0.05522, -0.1037, -0.44373, 0.12332, -0.20632}, {-0.01555, -0.08542, -0.55343, -0.16753, -2.78061, 0.22165, 0.14866, -1.90708, -0.06668, 0.21017}, {-1.28964, -0.37814, -0.06792, 0.65892, 0.67895, -0.14772, 0.26333, -0.17611, 0.14102, 0.21314}, {0.19316, -0.26168, 0.00267, -0.98724, 0.17417, -0.08705, 0.19079, -0.07132, -1.415, -0.41959}, {0.27513, -0.05668, -0.04335, 1.52273, -0.17389, 0.02165, 0.47307, -0.07087, 2.72782, 0.09539}, {-0.30798, -0.03684, 3.20335, 0.39997, -1.6244, 0.10953, -0.14124, -1.69019, -0.01279, -0.18329}, {-0.03441, 0.79718, -0.06156, -0.81171, -0.65574, 0.21102, 0.42979, -0.9956, 3.15638, 0.78816}, {-0.10552, 0.13455, -0.14571, 0.68422, -0.05865, -0.06785, 0.12897, -0.16028, -0.0294, -0.53856}, {-0.03235, -0.15714, 1.04518, 0.10469, -2.51936, 0.10359, -0.0518, -0.06391, -0.08191, -0.04677}, {0.01313, 0.94573, -0.38872, 0.16789, -0.21518, 0.31816, 0.51949, 0.62983, -0.22882, 0.79002}, {-0.02957, 0.02354, -0.16175, -0.12207, -1.33326, 0.03725, 0.19894, -0.47279, -0.27163, -0.0639}, {0.01101, -0.10916, -2.71154, -0.09797, 3.4606, 0.00766, -0.00765, -0.00049, 0.06174, -0.03652}, {-0.51386, 0.44823, -1.7801, 0.99026, 0.4596, -0.14544, -0.37333, 1.99847, 0.3363, 0.02356}, {0.24482, 0.85178, 0.7062, -0.31983, -0.19456, -0.00648, -0.2519, -0.63209, 3.32272, 0.27909}};
	Double_t biasesL1_41[15] = {0.58364, 1.40222, 0.14316, -1.18847, 0.99942, -0.00121, 0.96827, -0.28848, -1.81577, 0.62535, -1.9193, -0.15821, 0.84934, 0.57474, 0.22965};
	nets[41].SetWeightsL1(weightsL1_41);
	nets[41].SetBiasesL1(biasesL1_41);
	
	Double_t weightsL2_41[1][15] = {{-0.58466, 2.52517, 1.09314, 0.89427, 1.01136, 1.04955, -1.26158, 0.86898, -1.81556, 1.44825, 0.84153, -1.88631, 0.79073, 0.65723, -0.82228}};
	Double_t biasesL2_41[1] = {-3.73039};
	nets[41].SetWeightsL2(weightsL2_41);
	nets[41].SetBiasesL2(biasesL2_41);
	
	Double_t weightsL1_42[15][10] = {{0.15886, -0.37704, 2.75341, -0.57168, 0.79397, 0.05738, 0.29069, -0.31195, 0.04321, 0.29151}, {-0.09067, -0.05331, 2.25544, 0.11867, -1.3169, -0.027, -0.1001, -0.29393, 0.08802, -0.16887}, {-0.04475, -0.03041, -0.77697, -0.08048, -2.76413, 0.26005, 0.01002, -2.14157, -0.03323, 0.14762}, {-1.46012, -0.41134, -0.02659, 0.66346, 0.65618, -0.03622, 0.32008, -0.08779, 0.27542, 0.14576}, {-0.34453, -0.46564, 0.12102, -1.29853, 0.37159, -0.08195, -0.09303, 0.22386, -1.79472, -1.10483}, {0.49982, -0.10633, -0.10087, 1.33029, -0.06719, -0.17399, 0.58128, -0.09758, 2.62631, 0.00796}, {-0.1812, -0.00851, 2.82459, 0.24642, -1.53161, 0.04534, -0.11745, -0.85104, -0.10051, -0.18643}, {-0.05613, 0.49612, -0.10116, -0.83768, -0.58163, 0.12715, 0.38069, -1.00834, 2.78168, 0.5491}, {-0.17095, 0.02163, -0.25902, 0.78438, 0.0679, -0.00782, 0.16088, -0.22729, -0.00713, -0.57384}, {-0.15029, -0.1062, 1.20322, 0.1828, -2.67774, 0.12846, -0.15251, -0.04665, -0.17417, -0.02392}, {-0.13603, 1.05411, 0.22725, 0.47645, -0.46217, 0.02738, 0.27641, 0.68206, -0.47261, 1.22685}, {-0.07544, 0.13423, -0.12373, -0.09113, -1.29886, -0.02778, 0.03415, -0.40557, -0.24803, -0.06064}, {0.01552, -0.09127, -2.62105, -0.23001, 3.18695, 0.01163, 0.00348, -0.04838, -0.02512, 0.00783}, {-0.27206, 0.4454, -2.36364, 0.47158, 0.71202, -0.18497, -0.18536, 2.10391, 0.17883, 0.08714}, {-0.28005, 0.51031, 1.10257, 0.10909, -0.74936, 0.25021, -0.95986, -0.16096, 2.3815, 0.32927}};
	Double_t biasesL1_42[15] = {0.32389, 1.20515, 0.30139, -1.10809, 1.77921, 0.14641, 0.84591, -0.16236, -1.56495, 0.58878, -2.61792, -0.19011, 0.63233, 0.43375, 0.6007};
	nets[42].SetWeightsL1(weightsL1_42);
	nets[42].SetBiasesL1(biasesL1_42);
	
	Double_t weightsL2_42[1][15] = {{-0.63488, 2.92231, 1.03941, 0.71373, 0.56163, 0.97677, -1.6129, 0.89742, -1.5609, 1.30665, 0.513, -1.69869, 0.82628, 0.73538, -1.10354}};
	Double_t biasesL2_42[1] = {-3.33306};
	nets[42].SetWeightsL2(weightsL2_42);
	nets[42].SetBiasesL2(biasesL2_42);
	
	Double_t weightsL1_43[15][10] = {{0.35819, -0.38963, 2.72822, -0.60503, 1.25665, -0.04001, 0.0243, -0.34104, 0.45172, 0.61869}, {-0.05912, -0.08179, 1.90002, 0.1023, -1.03156, -0.0417, -0.11181, -0.26948, 0.07165, -0.12026}, {-0.18082, -0.25113, -0.84703, -0.14553, -3.3366, 0.30151, -0.0823, -2.34035, -0.23637, 0.08872}, {-1.004, -0.5764, 0.03505, 0.41281, 0.79457, 0.05083, 0.21015, -0.16297, 0.11698, 0.28501}, {-0.30761, -0.7472, -0.04059, -0.77704, 0.62039, -0.07294, 0.3679, -0.18479, -1.88742, -1.06423}, {0.53736, -0.11317, -0.00577, 1.45351, -0.1369, -0.08539, 0.52573, 0.10262, 2.87756, 0.20674}, {-0.09698, -0.01077, 2.51812, 0.1236, -1.29513, -0.02189, -0.09138, -1.03366, -0.1105, -0.23112}, {0.10225, 0.74207, 0.06468, -0.72334, -0.90774, 0.04463, 0.17997, -0.89833, 3.36418, 0.69165}, {0.00358, 0.1724, -0.12268, 0.79653, -0.17884, -0.13847, 0.16111, -0.19194, 0.19488, -0.44694}, {-0.12852, -0.18362, 1.09854, 0.13571, -2.62032, 0.12824, -0.16872, -0.08124, -0.15822, -0.07393}, {-0.26375, 1.12519, -0.05473, 0.43375, -0.64821, 0.17397, 0.42993, 1.19513, 0.00395, 0.54074}, {-0.26794, -0.09914, -0.21322, 0.01997, -1.61925, 0.11916, 0.07784, -0.54317, -0.37023, -0.23136}, {-0.0397, -0.07506, -2.94822, -0.22238, 3.73462, -0.06631, -0.02575, 0.01233, 0.07477, -0.12503}, {-0.45287, 0.986, -1.73942, 1.07533, -0.03415, -0.46569, -0.27174, 1.70008, -0.10056, -0.18396}, {-0.24217, 0.54418, 0.93858, -0.0143, -0.77436, 0.029, -0.70318, -0.40053, 1.96846, 0.2771}};
	Double_t biasesL1_43[15] = {0.51111, 1.1704, 0.17068, -1.1088, 1.50427, 0.28947, 0.60647, -0.25349, -1.67712, 0.5147, -1.82276, -0.18964, 0.90543, 0.81604, 0.61045};
	nets[43].SetWeightsL1(weightsL1_43);
	nets[43].SetBiasesL1(biasesL1_43);
	
	Double_t weightsL2_43[1][15] = {{-0.60637, 2.91863, 1.02558, 0.82738, 0.69401, 0.993, -1.68224, 1.07646, -1.84178, 1.35971, 0.60962, -1.55391, 0.77116, 0.50213, -1.06701}};
	Double_t biasesL2_43[1] = {-3.82189};
	nets[43].SetWeightsL2(weightsL2_43);
	nets[43].SetBiasesL2(biasesL2_43);
	
	Double_t weightsL1_44[15][10] = {{0.05445, -0.27207, 2.29886, 0.02077, 0.77885, -0.14152, -0.02057, -0.44894, 0.19205, 0.21617}, {0.00907, -0.06123, 1.90878, 0.08878, -1.088, -0.05821, -0.04752, -0.39855, 0.11978, -0.1477}, {-0.11018, -0.09505, -0.57604, -0.16896, -3.46844, 0.3576, -0.13218, -2.15688, -0.00764, 0.24968}, {-1.03982, -0.28714, -0.13656, 0.51399, 0.48897, -0.04369, 0.18831, -0.09945, 0.16164, 0.18107}, {-0.03022, -0.15218, 0.07928, -0.73465, 0.03843, -0.04059, 0.15768, -0.09316, -1.01276, -0.41604}, {0.46818, -0.1159, 0.04944, 1.20883, -0.16334, -0.09442, 0.28083, -0.06554, 2.48338, 0.16657}, {-0.06539, 0.0559, 3.0768, 0.20497, -1.74809, 0.03357, -0.07656, -1.46079, 0.00303, -0.09429}, {-0.2406, 1.01263, -0.07026, -0.63813, -0.85324, 0.1805, 0.22607, -1.0162, 2.47036, 0.76845}, {0.00418, 0.05666, -0.34387, 0.74643, 0.20751, -0.19435, 0.28725, -0.0382, 0.00726, -0.78245}, {-0.17121, -0.20531, 0.9107, 0.2579, -2.30792, 0.09046, -0.09324, -0.04933, -0.14685, -0.1424}, {-0.31478, 0.92755, -0.35337, 0.4507, -0.09416, 0.17083, 0.45393, 1.05185, -0.30958, 0.9301}, {-0.16577, 0.00453, -0.1081, 0.02113, -1.37962, 0.06987, 0.14976, -0.37723, -0.31616, -0.13644}, {0.10916, -0.13085, -2.20693, -0.10503, 3.14652, 0.03661, 0.04022, 0.0029, 0.08975, 0.14173}, {-0.30118, 0.80924, -1.36195, 0.63142, -0.15038, -0.16861, -0.08123, 1.74395, 0.08349, 0.0901}, {-0.44535, 0.68157, 0.96269, 0.12294, -0.63004, 0.06533, -0.94681, -0.47719, 2.2458, 0.37639}};
	Double_t biasesL1_44[15] = {0.61625, 1.24174, 0.36393, -0.86738, 1.06201, 0.03291, 0.76875, 0.35094, -1.77535, 0.31422, -2.53225, -0.17514, 0.91201, -0.01658, 0.6447};
	nets[44].SetWeightsL1(weightsL1_44);
	nets[44].SetBiasesL1(biasesL1_44);
	
	Double_t weightsL2_44[1][15] = {{-0.57902, 2.82983, 0.9193, 0.99718, 1.39223, 1.16939, -1.29307, 0.65032, -1.42194, 1.56057, 0.63275, -1.60816, 1.0962, 0.77882, -0.842}};
	Double_t biasesL2_44[1] = {-3.85596};
	nets[44].SetWeightsL2(weightsL2_44);
	nets[44].SetBiasesL2(biasesL2_44);
	
	Double_t weightsL1_45[15][10] = {{-0.00894, -0.13124, 2.95701, 0.24644, 1.46062, 0.04836, -0.17679, -0.45317, 0.67022, 0.689}, {-0.053, -0.10043, 2.14165, 0.11671, -1.20398, -0.0134, -0.08352, -0.58307, 0.13427, -0.12715}, {0.1875, -0.15737, -0.64236, -0.2387, -2.33627, 0.11443, 0.06635, -1.67043, -0.20974, 0.2281}, {-0.89597, -0.32506, -0.0253, 0.53249, 0.37129, -0.12613, 0.11323, -0.07552, 0.18736, 0.08458}, {0.00411, -0.29972, 0.12784, -0.84144, 0.14962, -0.0828, 0.05454, -0.01837, -1.19967, -0.46644}, {0.45785, -0.06551, 0.1419, 0.95584, -0.18997, -0.16277, 0.4021, -0.02557, 2.02302, 0.08624}, {-0.12457, 0.15867, 3.21935, 0.28846, -1.98434, 0.16263, -0.05978, -1.68981, -0.04415, 0.00062}, {-0.08286, 0.62113, 0.09234, -0.56375, -0.69362, 0.11526, 0.14212, -0.69549, 2.37203, 0.41374}, {-0.23121, 0.10383, -0.16385, 0.94295, -0.06827, -0.07099, 0.09022, -0.04626, -0.05372, -0.67024}, {-0.13859, -0.17909, 1.0562, 0.24178, -2.52988, 0.13103, -0.09026, -0.08878, -0.21124, -0.07474}, {-0.43834, 1.44762, -0.40871, 0.58555, -0.0678, 0.31752, 0.26612, 1.3055, -0.09105, 0.73006}, {-0.01942, -0.00113, -0.10055, -0.09176, -1.411, 0.0277, 0.1528, -0.43971, -0.44545, -0.05491}, {0.08016, 0.05426, -3.34155, 0.01132, 3.97798, 0.09279, 0.01591, -0.03529, 0.00221, 0.21686}, {-0.21228, 0.5343, -1.69791, 0.49295, 0.07193, 0.15372, 0.00759, 1.90013, -0.0022, 0.4634}, {-0.4264, 0.57452, 0.69944, -0.12629, -0.50332, 0.02004, -0.91575, -0.54031, 2.75001, 0.09622}};
	Double_t biasesL1_45[15] = {0.62949, 1.36002, 0.19303, -0.87932, 1.21384, 0.18653, 1.01807, -0.1789, -2.058, 0.4949, -2.70356, -0.12311, 1.12481, -0.00371, 0.7974};
	nets[45].SetWeightsL1(weightsL1_45);
	nets[45].SetBiasesL1(biasesL1_45);
	
	Double_t weightsL2_45[1][15] = {{-0.59172, 2.36217, 1.08868, 1.03517, 1.18708, 1.19626, -1.17176, 1.06456, -1.79572, 1.45923, 0.63729, -1.88347, 0.83625, 0.96339, -1.24468}};
	Double_t biasesL2_45[1] = {-3.66301};
	nets[45].SetWeightsL2(weightsL2_45);
	nets[45].SetBiasesL2(biasesL2_45);
	
	Double_t weightsL1_46[15][10] = {{0.15429, -0.42767, 2.88604, -0.29338, 1.21305, 0.30546, 0.3591, -0.32982, 0.3393, 0.49637}, {-0.10299, -0.07381, 2.15227, 0.13918, -1.21677, -0.06206, -0.10145, -0.42127, 0.12883, -0.14019}, {-0.23458, -0.08159, -0.74374, 0.01215, -2.27046, 0.12546, -0.063, -1.68739, -0.22962, 0.12131}, {-0.98104, -0.44522, 0.08233, 0.48183, 0.47459, -0.04681, 0.13331, -0.13795, 0.24297, 0.0521}, {-0.22042, 0.12985, 0.56859, -0.80132, -0.3248, 0.05456, 0.07468, -0.24716, -2.29973, -0.50501}, {0.48789, -0.15937, 0.07669, 1.12502, -0.05247, -0.08157, 0.56816, -0.07365, 2.23412, 0.06621}, {-0.09762, -0.01107, 2.43145, 0.04822, -1.28446, 0.00917, -0.10063, -1.21848, -0.01844, -0.17507}, {0.22993, 0.699, 0.22142, -0.59079, -0.7941, 0.17317, 0.02871, -1.11235, 3.33807, 1.07914}, {-0.20424, 0.21154, -0.2154, 0.8426, -0.18298, -0.01034, 0.11266, -0.1517, 0.04729, -0.46142}, {0.03611, -0.16872, 0.97298, 0.12856, -2.44503, 0.17532, -0.10018, -0.12043, -0.03501, 0.04476}, {0.01387, 0.90564, -0.03819, 0.09451, -0.36494, 0.29241, 0.55352, 0.63096, -0.16581, 0.71963}, {-0.1761, 0.00283, -0.21607, 0.01642, -1.67113, -0.01453, 0.0425, -0.74328, -0.36673, -0.10738}, {-0.03328, -0.22113, -2.41647, -0.26616, 3.38565, -0.03606, -0.00744, -0.07496, 0.10729, -0.10475}, {-0.34334, 0.96652, -2.25663, 0.87563, 0.45945, -0.54762, -0.3556, 2.31536, -0.00653, -0.05805}, {-0.14502, 0.67001, 0.63466, -0.07712, -0.53952, 0.06877, -0.57416, -0.29795, 2.37452, 0.40808}};
	Double_t biasesL1_46[15] = {0.83384, 1.41403, 0.06818, -0.96395, 2.24112, 0.24942, 0.64034, 0.08797, -1.70018, 0.40047, -1.76468, -0.31397, 0.80523, 0.83831, 0.0168};
	nets[46].SetWeightsL1(weightsL1_46);
	nets[46].SetBiasesL1(biasesL1_46);
	
	Double_t weightsL2_46[1][15] = {{-0.50403, 2.58406, 1.25099, 0.96235, 1.03852, 0.86958, -1.66834, 1.31407, -1.60651, 1.44581, 0.59619, -1.58974, 0.96577, 0.56629, -1.38798}};
	Double_t biasesL2_46[1] = {-3.98029};
	nets[46].SetWeightsL2(weightsL2_46);
	nets[46].SetBiasesL2(biasesL2_46);
	
	Double_t weightsL1_47[15][10] = {{0.2749, -0.3772, 2.96644, -0.01405, 1.58028, 0.01113, 0.08123, -0.18387, 0.41275, 0.48984}, {-0.03031, -0.08783, 2.39367, 0.12293, -1.28698, -0.03105, -0.0996, -0.24912, 0.11597, -0.12024}, {0.12225, -0.11977, -0.95136, -0.24031, -3.01734, 0.19213, 0.01513, -2.14847, -0.20101, 0.18988}, {-1.11202, -0.29474, 0.01049, 0.57417, 0.39753, -0.05327, 0.14706, -0.04878, 0.25385, 0.34152}, {0.19283, -0.35227, 0.10294, -0.89691, 0.31926, -0.08348, 0.10999, 0.02386, -0.87951, -0.5122}, {0.50766, -0.16696, -0.05845, 1.41159, -0.10103, -0.10571, 0.54005, -0.11172, 2.8161, 0.04326}, {-0.17979, 0.12749, 3.35302, 0.29778, -1.84175, 0.04183, -0.11464, -1.26829, -0.08584, -0.16424}, {-0.17792, 0.59442, -0.29642, -1.04414, -1.24449, 0.30147, 0.78504, -1.19995, 2.99947, 0.7037}, {-0.1045, 0.10174, -0.30954, 0.95068, 0.07802, -0.14252, 0.24219, -0.06843, 0.05246, -0.85544}, {-0.08529, -0.37029, 1.24153, 0.06792, -2.70189, 0.18842, -0.15461, -0.01761, -0.17027, -0.09931}, {-0.47393, 1.35038, -0.15754, 0.77364, -0.52017, 0.15456, 0.12434, 2.31195, -0.02374, 0.85588}, {-0.00339, -0.01556, -0.1246, -0.17184, -1.44044, 0.01319, 0.07781, -0.42973, -0.39104, -0.14956}, {0.01453, 0.0309, -2.81805, -0.03879, 3.6101, 0.03302, -0.08282, 0.07791, 0.00973, 0.16445}, {-0.21361, 0.719, -1.91775, 0.58746, 0.21704, -0.02069, -0.08996, 1.43887, 0.15772, 0.09288}, {-0.10684, 0.40678, 1.35576, -0.02927, -0.61413, 0.25412, -0.99211, -0.36551, 2.53189, 0.47888}};
	Double_t biasesL1_47[15] = {1.06763, 1.39954, 0.21742, -1.01696, 1.09486, 0.25569, 0.80102, -0.39129, -2.14125, 0.34139, -2.95857, -0.30666, 1.10938, 0.64087, 0.61042};
	nets[47].SetWeightsL1(weightsL1_47);
	nets[47].SetBiasesL1(biasesL1_47);
	
	Double_t weightsL2_47[1][15] = {{-0.59706, 2.20259, 0.77356, 0.91549, 1.14832, 1.03858, -1.08897, 0.55952, -1.39418, 1.22362, 0.55494, -1.40765, 0.83266, 0.68682, -0.66436}};
	Double_t biasesL2_47[1] = {-3.43051};
	nets[47].SetWeightsL2(weightsL2_47);
	nets[47].SetBiasesL2(biasesL2_47);
	
