#include <bnn_ttbar_discr_3t.hpp>


namespace ttbar_discr_3t{

std::string const taskName("ttbar_discr_3t");
std::list<std::string> inputVarNames;
std::list<std::string> sgnFileNames;
std::list<std::string> bkgFileNames;


void Initialize()
{
    inputVarNames.push_back("log(glb_PtJ1)");
    inputVarNames.push_back("glb_Sphericity");
    inputVarNames.push_back("log(glb_SqrtSHat)");
    inputVarNames.push_back("abs(thq_EtaLJet)");
    inputVarNames.push_back("thq_CosLepLJetTH");
    inputVarNames.push_back("log(thq_MassHiggs)");
    inputVarNames.push_back("log(thq_PtHiggs)");
    inputVarNames.push_back("tt_DeltaRLightJets");
    inputVarNames.push_back("log(tt_MassTopHad)");
    inputVarNames.push_back("log(tt_MassWHad)");
    inputVarNames.push_back("log(tt_MaxMassBHadQ)");

    sgnFileNames.push_back("../tuples/thq-nc_mu.root");
    sgnFileNames.push_back("../tuples/thq-nc_e.root");
    bkgFileNames.push_back("../tuples/ttbar-semilep_mu.root");
    bkgFileNames.push_back("../tuples/ttbar-semilep_e.root");
}


Transform0::Transform0()
{
    mean[0] = 4.80063; sigma[0] = 0.430492;
    mean[1] = 0.278614; sigma[1] = 0.207027;
    mean[2] = 6.77408; sigma[2] = 0.4521;
    mean[3] = 2.29304; sigma[3] = 0.955427;
    mean[4] = 0.031912; sigma[4] = 0.541525;
    mean[5] = 4.70999; sigma[5] = 0.196367;
    mean[6] = 4.69274; sigma[6] = 0.708648;
    mean[7] = 1.77875; sigma[7] = 0.761916;
    mean[8] = 5.28282; sigma[8] = 0.381937;
    mean[9] = 4.47539; sigma[9] = 0.370427;
    mean[10] = 4.97055; sigma[10] = 0.4031;
}

void Transform0::operator()(Double_t *vars) const
{
    for (unsigned iVar = 0; iVar < 11; ++iVar)
        vars[iVar] = (vars[iVar] - mean[iVar]) / sigma[iVar];
}


NN::NN()
{}


void NN::SetWeightsL1(Double_t const weights[15][11])
{
    for (unsigned n = 0; n < 15; ++n)
        for (unsigned np = 0; np < 11; ++np)
            weightsL1[n][np] = weights[n][np];
}


void NN::SetBiasesL1(Double_t const biases[15])
{
    std::copy(biases, biases + 15, biasesL1);
}


void NN::SetWeightsL2(Double_t const weights[1][15])
{
    for (unsigned n = 0; n < 1; ++n)
        for (unsigned np = 0; np < 15; ++np)
            weightsL2[n][np] = weights[n][np];
}


void NN::SetBiasesL2(Double_t const biases[1])
{
    std::copy(biases, biases + 1, biasesL2);
}


Double_t const * NN::Apply(Double_t const *vars) const
{
    std::copy(vars, vars + 11, bufferIn);
    
    for (unsigned n = 0; n < 15; ++n)
    {
        bufferOut[n] = biasesL1[n];
    
        for (unsigned np = 0; np < 11; ++np)
            bufferOut[n] += weightsL1[n][np] * bufferIn[np];
    }
    
    for (unsigned n = 0; n < 15; ++n)
        bufferIn[n] = TMath::TanH(bufferOut[n]);
    
    for (unsigned n = 0; n < 1; ++n)
    {
        bufferOut[n] = biasesL2[n];
    
        for (unsigned np = 0; np < 15; ++np)
            bufferOut[n] += weightsL2[n][np] * bufferIn[np];
    }
    
    for (unsigned n = 0; n < 1; ++n)
        bufferIn[n] = 1. / (1 + TMath::Exp(-bufferOut[n]));
    
    return bufferIn;
}


BNN::BNN(UInt_t netBegin_, UInt_t netEnd_)
{
    SetNetRange(netBegin_, netEnd_);
    
    Double_t weightsL1_0[15][11] = {{-0.07753, 0.05, 0.1785, 0.11319, 0.2493, -2.19507, 0.42943, -0.02431, -0.14774, -0.10425, 0.04364}, {-0.02372, 0.1174, 0.89092, 0.56817, 0.11981, 0.14234, -0.30825, -0.28197, 0.33581, -0.15919, 0.3987}, {-0.03318, -1.98139, 0.06426, 0.12608, 0.08578, 0.01385, -0.10095, -0.04226, 0.32015, -0.1036, -0.2053}, {0.1903, 0.18433, 0.37782, 0.04026, 0.63238, 0.12259, -0.33838, 0.52894, -0.41258, 0.56556, -0.07096}, {0.68353, -1.73079, 0.76654, 0.03779, -0.00058, 0.04312, -1.58501, 0.01052, -0.87191, 0.53839, -0.04758}, {-0.22709, -0.21027, 0.10635, -0.54682, -0.09037, -0.18837, 0.09245, -0.05062, 0.94718, -0.71907, -0.71416}, {0.43161, 0.43823, 0.80746, -0.75027, 0.43705, -0.24089, -0.81645, -1.34828, -0.2375, 0.86414, 0.08756}, {-0.03936, -0.05479, -0.08307, -0.2035, 0.05032, -0.04128, 0.06593, 0.10334, -3.47753, 1.49144, 0.27881}, {0.20065, 0.05954, -0.12327, 0.12624, -0.07446, -0.03661, 0.13811, -0.10389, -3.77159, 0.78073, 1.20055}, {-0.21954, -0.07223, 0.17844, -0.23829, -0.05847, -0.07593, -0.03493, -0.46894, 0.76943, -2.18778, -0.839}, {0.13184, 0.04361, 0.18524, -0.34193, 0.20559, -0.94452, -2.00874, -0.3989, -0.12621, 1.12221, -0.18735}, {0.90392, -1.95852, -0.76723, -1.01923, -0.33377, 0.00908, 0.04624, 0.94013, 0.73625, -1.17311, 0.39032}, {-0.62418, 0.44576, 0.26164, 1.20221, 0.44394, -0.0669, -0.85255, 1.1161, -1.01148, -0.45655, 1.2889}, {-0.04554, -0.0035, 0.09243, 0.02909, 0.07915, -0.05187, 0.00401, 0.10187, -0.8041, 1.47611, -0.07868}, {-0.43744, 1.22204, -0.2734, 2.63875, 0.42916, 0.0808, -0.177, 0.27992, 0.64249, 0.20225, -0.21732}};
    Double_t biasesL1_0[15] = {2.10352, 1.75299, -2.99977, 1.33153, 0.31558, 1.56801, -1.43676, -1.8645, -0.10675, 0.18091, 1.66317, -3.69101, -0.14881, 0.70994, -3.66933};
    nets[0].SetWeightsL1(weightsL1_0);
    nets[0].SetBiasesL1(biasesL1_0);
    
    Double_t weightsL2_0[1][15] = {{1.03722, 1.2095, 2.43542, 0.9085, 0.40615, -1.63361, -0.44994, 1.46448, -1.0115, -0.92371, -0.46188, -0.61898, -0.21807, -1.5674, -1.0664}};
    Double_t biasesL2_0[1] = {1.77762};
    nets[0].SetWeightsL2(weightsL2_0);
    nets[0].SetBiasesL2(biasesL2_0);
    
    Double_t weightsL1_1[15][11] = {{0.00557, 0.18571, -0.07652, 0.27666, 0.00645, -2.27129, 0.295, -0.08546, -0.52177, 0.1923, 0.31432}, {0.3483, 0.46868, 1.73932, 1.14263, 0.0991, 0.33547, -0.80439, -0.39637, 0.33521, 0.0479, 0.47817}, {-0.01848, -1.72725, -0.02788, 0.12955, 0.07488, -0.00356, -0.02477, 0.04848, 0.18614, -0.06042, -0.19314}, {-0.07709, 0.84898, 1.08081, -0.16105, 1.19696, 0.10768, -0.23904, 2.38175, 0.83018, -1.24921, 0.34182}, {0.4505, -1.66645, 1.32565, 0.15469, 0.07215, -0.05954, -1.46177, 0.23208, -0.47964, 0.30341, -0.35772}, {-0.51574, -0.29272, 0.13517, -0.93459, -0.13421, -0.18526, 0.09981, -0.13828, 0.32557, -0.34137, -0.41571}, {0.4767, 0.22378, 0.17047, -0.98734, 0.20055, -0.1629, -0.87001, -1.64909, -0.13101, 0.49832, 0.25495}, {-0.00585, -0.11733, -0.07343, -0.07302, 0.06653, 0.07904, 0.062, 0.01668, -3.46435, 1.63436, 0.29081}, {0.09511, 0.00859, -0.15331, 0.11625, -0.11132, 0.08263, 0.24572, -0.04764, -3.54969, 0.66064, 0.82529}, {-0.08932, -0.01433, 0.0771, -0.07915, -0.03793, -0.1104, -0.07699, -0.48093, 0.43319, -2.19067, -0.38899}, {0.0469, 0.29797, 0.38174, -0.10136, -0.10869, -0.87397, -1.609, -0.12114, -0.22142, 0.50757, -0.193}, {0.44642, -0.86988, -0.15212, -0.90374, -0.2788, -0.2458, 0.33471, 1.04446, 0.81606, -0.9638, 0.08591}, {-1.14478, -0.10406, -0.0025, 0.99989, 1.45045, 0.31154, -0.27181, 0.46766, 1.51817, 0.21209, -1.47991}, {-0.00952, -0.08505, 0.01145, 0.02827, -0.08914, -0.09318, 0.03446, 0.03387, -0.95286, 2.01505, 0.03031}, {-0.09999, 0.95899, -0.27446, 2.32657, 0.47046, 0.01537, -0.10794, 0.27139, 0.5137, 0.00312, -0.20933}};
    Double_t biasesL1_1[15] = {2.08853, 2.63447, -2.70504, 4.49611, 0.28355, 2.07357, -1.82838, -1.79981, -0.06873, 0.09706, 1.24395, -3.29699, -0.98019, 0.8264, -3.3182};
    nets[1].SetWeightsL1(weightsL1_1);
    nets[1].SetBiasesL1(biasesL1_1);
    
    Double_t weightsL2_1[1][15] = {{0.96989, 0.59122, 2.82683, 0.44447, 0.37087, -1.29229, -0.41321, 1.48418, -1.18725, -0.83858, -0.59315, -0.68801, -0.08589, -1.2408, -1.17377}};
    Double_t biasesL2_1[1] = {2.44183};
    nets[1].SetWeightsL2(weightsL2_1);
    nets[1].SetBiasesL2(biasesL2_1);
    
    Double_t weightsL1_2[15][11] = {{-0.06369, -0.02966, 0.1072, 0.11916, -0.07086, -2.09408, 0.31977, -0.1937, -0.73646, 0.32765, 0.21976}, {0.42336, 0.62886, 1.56987, 1.41444, 0.04831, 0.47396, -0.87829, -0.70891, 0.5524, -0.20119, 0.73351}, {0.04315, -1.94417, -0.0432, 0.22754, 0.05011, 0.04783, 0.00636, 0.01231, 0.09605, -0.06457, -0.17421}, {-0.32922, 1.02792, 1.4301, -0.56663, 1.10137, -0.26956, -0.30788, 0.05754, -7e-05, 0.09045, 0.39568}, {0.82242, -2.05, 0.86366, -0.05674, 0.02796, 0.04763, -1.1288, 0.70474, 0.00385, -0.03907, -0.77501}, {-0.47449, -0.28634, 0.33973, -0.77211, -0.03446, -0.09106, 0.0276, 0.01904, 0.62386, -0.15896, -0.53085}, {0.48475, 0.3723, -0.22488, -0.74782, -0.44975, -0.48841, -0.90674, -1.73368, 0.07915, 0.37114, -0.00481}, {-0.0545, -0.10829, -0.16286, -0.11638, -0.00319, 0.0356, 0.00647, 0.08102, -3.27683, 1.56225, 0.30182}, {0.04577, 0.13027, 0.00769, 0.08161, -0.02012, 0.04784, 0.26847, -0.02563, -3.84162, 0.68388, 1.21153}, {-0.06615, -0.11435, 0.0079, -0.14272, -0.01176, -0.00364, -0.09564, -0.40501, 0.86188, -2.28597, -0.68821}, {0.014, 0.54331, 0.31244, 0.25655, -0.22058, -0.80069, -1.23959, -0.49076, -0.12443, 0.36354, -0.26162}, {0.47735, -0.99794, -0.74343, -0.67824, 0.2099, -0.124, 0.44336, 0.78596, 0.30655, -0.74148, 0.42542}, {0.46256, -0.34289, -0.24718, 0.43654, 0.1264, 1.33122, -0.24902, -1.21121, -0.97716, -0.22044, 0.37491}, {0.05759, -0.03322, 0.06943, -0.01447, -0.01108, -0.05316, -0.08258, 0.05626, -0.69563, 1.67722, 0.00881}, {-0.05829, 0.92289, -0.35039, 2.04132, 0.34313, -0.09072, -0.0454, 0.10118, 0.04473, -0.00045, -0.02474}};
    Double_t biasesL1_2[15] = {2.01279, 2.66315, -3.11769, 1.89842, 0.22367, 1.37646, -2.2058, -1.68026, 0.01452, 0.24021, 1.22225, -4.03472, -1.40116, 0.77168, -2.64391};
    nets[2].SetWeightsL1(weightsL1_2);
    nets[2].SetBiasesL1(biasesL1_2);
    
    Double_t weightsL2_2[1][15] = {{0.89936, 0.83893, 3.19845, 0.50312, 0.32104, -1.64281, -0.5101, 1.4376, -1.26187, -0.90708, -0.52817, -1.95542, -0.11828, -1.49571, -1.33973}};
    Double_t biasesL2_2[1] = {1.57457};
    nets[2].SetWeightsL2(weightsL2_2);
    nets[2].SetBiasesL2(biasesL2_2);
    
    Double_t weightsL1_3[15][11] = {{-0.07934, 0.11694, 0.18304, 0.19572, -0.02313, -2.19409, 0.33256, -0.14393, -0.87023, 0.30657, 0.51821}, {0.42681, 0.38894, 1.26999, 1.18014, 0.0284, 0.8001, -0.63832, -0.55536, 0.50815, -0.20454, 0.49713}, {-0.06751, -1.69619, 0.0412, 0.20196, 0.12059, 0.03288, 0.00776, 0.10082, 0.17747, -0.05016, -0.08038}, {-0.57009, 1.26785, 1.9198, -0.32854, 1.63114, -0.59125, -0.42695, 0.09272, -0.23702, 0.00956, 0.43998}, {0.62131, -2.12798, 0.64645, 0.42637, 0.41623, 0.25876, -1.11271, 0.36012, -0.01906, -0.14594, -0.24078}, {-0.66957, -0.20659, 0.45698, -1.10063, 0.09131, -0.26976, 0.06371, 0.01164, 0.57114, -0.38684, -0.40178}, {0.96555, 0.38751, -0.40506, -0.97283, -0.21062, -0.61804, -1.00229, -2.40576, 0.38851, -0.02351, -0.03389}, {0.05888, -0.11441, -0.03544, -0.15806, 0.02758, -0.09677, -0.05654, 0.13022, -3.16958, 1.34836, -0.08165}, {0.04987, 0.00016, -0.13293, 0.14446, -0.00269, 0.14916, 0.27601, -0.03992, -4.05585, 0.81727, 1.12494}, {-0.07049, -0.04587, 0.2234, -0.21525, -0.00591, -0.08791, -0.08561, -0.29134, 0.97404, -2.05929, -0.89899}, {-0.07025, 0.30885, 0.17346, 0.07548, -0.18738, -0.77144, -1.03707, -0.40601, -0.08389, 0.23408, -0.03913}, {0.21257, -1.01629, -0.83877, -0.72831, 0.13433, -0.04856, 0.59104, 0.60945, 0.39985, -0.43904, 0.22417}, {0.08, -0.86903, -0.08282, 0.80684, 0.19486, 0.92686, -0.28047, -0.91171, -0.8227, -0.36084, -0.42413}, {-0.07737, 0.07844, 0.15279, -0.01028, -0.02235, -0.07251, -0.03206, 0.11804, -0.63706, 1.53833, -0.09013}, {-0.28866, 0.97953, -0.18836, 2.1623, 0.38617, 0.02248, -0.04568, 0.13298, 0.14084, 0.02265, 0.23339}};
    Double_t biasesL1_3[15] = {2.07054, 2.49929, -2.95398, 2.61591, 0.13377, 2.66791, -2.48082, -1.98403, -0.1251, 0.0291, 1.06629, -3.30285, -0.88721, 0.77921, -2.87281};
    nets[3].SetWeightsL1(weightsL1_3);
    nets[3].SetBiasesL1(biasesL1_3);
    
    Double_t weightsL2_3[1][15] = {{1.02733, 0.67315, 3.27537, 0.40549, 0.23102, -1.59316, -0.44885, 1.43815, -1.10425, -1.12009, -0.64443, -1.75912, 0.11583, -1.60615, -1.16003}};
    Double_t biasesL2_3[1] = {2.50644};
    nets[3].SetWeightsL2(weightsL2_3);
    nets[3].SetBiasesL2(biasesL2_3);
    
    Double_t weightsL1_4[15][11] = {{0.22908, 0.05075, -0.12313, 0.15771, -0.09102, -2.5646, 0.33845, -0.27636, -0.73141, 0.50432, 0.40942}, {0.08757, 0.23088, 0.67129, 0.62248, 0.06714, 0.16837, -0.41303, -0.2116, 0.82914, -0.36866, 0.13957}, {-0.06803, -1.33308, -0.03003, 0.20291, 0.01974, 0.07669, -0.0884, 0.01163, 0.11543, -0.00014, -0.10175}, {0.14196, 1.56933, 1.48291, -0.34481, 1.75235, -0.24283, -0.65032, 0.0608, 0.21308, -0.04293, 0.31032}, {0.72105, -1.91168, 0.73209, -0.18338, -0.01738, 0.51609, -1.33237, 0.3518, -0.90057, 0.48489, -0.48198}, {-0.55805, -0.33541, 0.18348, -0.94686, -0.11201, -0.13248, -0.2419, -0.11329, 1.10342, -0.42268, -1.07481}, {0.81723, -0.07843, -0.47109, -0.87973, -0.19867, -0.2489, -0.77921, -1.87126, 0.39705, 0.19035, -0.26994}, {0.22, -0.11196, -0.44184, -0.10371, -0.04541, -0.09096, 0.17625, 0.14077, -4.0415, 1.6157, 0.5373}, {-0.06584, 0.01937, 0.07762, -0.00713, -0.03507, 0.01911, 0.1515, 0.0036, -3.14304, 0.56039, 0.76854}, {0.20471, -0.00985, -0.38836, 0.11996, -0.10293, -0.02741, -0.10573, -0.50959, 0.13367, -1.79657, -0.51509}, {-0.13343, 0.4237, 0.38022, -0.13146, -0.06775, -1.89271, -1.39957, -0.24397, -0.24325, 0.10323, 0.07098}, {0.55573, -2.14811, -1.81796, -0.77826, -0.28447, -0.32231, 0.40072, 1.24768, 0.58688, -1.50605, 0.84322}, {-0.50339, -0.25142, -0.96766, -0.95478, 0.32985, -0.00774, 0.00233, 0.50473, 1.1195, -1.91761, -0.83785}, {0.05996, -0.02717, -0.23794, 0.16862, -0.09892, -0.16499, 0.01447, 0.188, -1.32009, 2.381, 0.09316}, {-0.36013, 1.21179, -0.29117, 2.53197, 0.37452, 0.05804, -0.12464, 0.17707, 0.93892, -0.16997, -0.42813}};
    Double_t biasesL1_4[15] = {2.07744, 1.64127, -2.42815, 2.88235, 0.20156, 1.94221, -2.14809, -2.10428, -0.12568, 0.2396, 0.89368, -3.73295, -0.09638, 1.25361, -3.59855};
    nets[4].SetWeightsL1(weightsL1_4);
    nets[4].SetBiasesL1(biasesL1_4);
    
    Double_t weightsL2_4[1][15] = {{0.92878, 1.40312, 3.67152, 0.36905, 0.35258, -0.79826, -0.53961, 1.46529, -1.10552, -0.7441, -0.40644, -0.41534, 0.27431, -1.04344, -1.16797}};
    Double_t biasesL2_4[1] = {2.34639};
    nets[4].SetWeightsL2(weightsL2_4);
    nets[4].SetBiasesL2(biasesL2_4);
    
    Double_t weightsL1_5[15][11] = {{-0.06231, -0.23143, -0.04764, 0.12012, -0.01702, -2.43134, 0.50555, -0.18348, -0.30098, 0.15177, 0.09466}, {0.26545, 0.26154, 1.33479, 1.0004, 0.1661, 0.61958, -0.74336, -0.6555, 0.5717, -0.14492, 0.77529}, {-0.06664, -2.00062, 0.12546, 0.29798, 0.1129, -0.01208, 0.04505, 0.01626, -0.15082, 0.07053, 0.07184}, {0.10113, 1.51938, 1.61594, -0.73862, 1.72421, -0.74754, -1.07046, 0.21677, 1.23649, -0.59499, 0.15918}, {1.03514, -2.42546, 1.72653, 0.22865, 0.51075, -0.25017, -1.76479, 0.65404, -0.9847, 0.58679, -0.56168}, {-0.89748, -0.60116, 0.66856, -1.19558, 0.04723, -0.33205, -0.05798, 0.01365, 1.7583, -0.42208, -1.84207}, {0.60834, 0.22065, -0.35073, -0.85794, -0.27828, -0.27834, -0.61078, -1.79507, 0.58176, 0.22516, -0.16824}, {0.09787, -0.07315, -0.10226, -0.10535, -0.06273, -0.06904, 0.02429, 0.0879, -3.87628, 1.7139, 0.58501}, {-0.02276, 0.00698, -0.19689, 0.12207, -0.02651, 0.13915, 0.27053, -0.06829, -3.37199, 0.31791, 0.99523}, {0.0141, -0.11495, 0.1488, -0.33908, 0.04635, -0.13396, -0.16797, -0.29901, 0.51679, -1.69634, -0.72679}, {-0.07521, 0.58307, 0.63819, 0.16951, -0.15991, -1.25574, -1.68491, -0.42298, -0.93925, 0.14423, 0.98592}, {0.46207, -1.08018, -0.84685, -0.82019, 0.12101, -0.1868, 0.83903, 0.83913, -0.21964, -0.6047, 0.76121}, {-1.2003, -0.09953, -0.93456, -1.29078, 0.31724, -0.49234, -0.00915, 0.66039, -0.44202, -2.5598, 0.74224}, {-0.00506, -0.08627, -0.00478, 0.05728, -0.04768, -0.10642, 0.00611, 0.1042, -1.21148, 1.91444, 0.18104}, {-0.39251, 0.95439, 0.02001, 1.77318, 0.35965, -0.23307, 0.08766, 0.07437, -0.41998, 0.18276, 0.60534}};
    Double_t biasesL1_5[15] = {2.19503, 2.46342, -2.82553, 3.18394, 0.52326, 2.19891, -2.13746, -2.13739, 0.14787, 0.06285, 1.07399, -3.748, -0.33026, 0.99188, -2.45582};
    nets[5].SetWeightsL1(weightsL1_5);
    nets[5].SetBiasesL1(biasesL1_5);
    
    Double_t weightsL2_5[1][15] = {{0.83661, 0.73199, 1.79769, 0.39358, 0.37431, -0.81446, -0.58934, 1.53117, -1.10047, -0.79891, -0.46946, -1.05943, 0.2745, -1.33459, -1.04332}};
    Double_t biasesL2_5[1] = {1.02227};
    nets[5].SetWeightsL2(weightsL2_5);
    nets[5].SetBiasesL2(biasesL2_5);
    
    Double_t weightsL1_6[15][11] = {{0.06741, 0.1872, 0.06189, 0.25845, -0.16772, -1.89805, 0.13477, -0.06513, -0.79996, 0.41657, 0.50935}, {-0.04216, 0.50393, 1.81708, 1.66363, 0.03071, 0.46468, -1.04519, -0.66053, -0.59474, -0.14531, 1.44494}, {-0.07093, -1.91549, 0.01834, 0.18156, 0.10033, -0.00869, -0.04163, 0.03733, 0.29469, -0.098, -0.05195}, {0.11638, 0.50608, 1.13214, -0.38862, 0.73919, -0.13539, -0.6203, -0.39231, -0.43835, 0.34029, 0.10204}, {0.69879, -1.35435, 0.96764, -0.05975, 0.21083, 0.11788, -1.34607, 0.38819, -1.39289, 0.86405, -0.17779}, {-0.25149, -0.46776, 0.0894, -0.55972, 0.17859, -0.00449, -0.2955, -0.13018, 0.73565, -0.49541, -0.70909}, {0.55483, 0.44487, -0.12886, -0.72854, -0.38316, -0.23092, -0.79258, -2.32976, -0.04061, 0.69043, -0.0865}, {0.05373, -0.09119, 0.00605, 0.03716, 0.06049, 0.00704, 0.04079, 0.06711, -3.33605, 1.58661, 0.14743}, {-0.03412, 0.03983, -0.14669, 0.03237, 0.00626, -0.0669, 0.13014, -0.07587, -3.55989, 0.63996, 0.91017}, {-0.11046, -0.13921, 0.08319, -0.23893, 0.01308, -0.06854, 0.03492, -0.63838, 0.86332, -2.29657, -0.88327}, {0.21532, 0.33366, 0.16155, 0.13377, -0.24528, -1.31656, -1.26046, -0.03224, -0.91113, 0.38023, 0.76975}, {0.46853, -1.76908, -0.54861, -1.02683, 0.36135, -0.71446, 0.65922, 0.71933, 1.37024, -1.1417, 0.12104}, {-0.30416, -0.69323, -1.83451, -0.45477, 0.46265, -0.63059, -0.01379, 0.32197, -1.73748, -1.17587, 0.87534}, {0.04012, -0.02578, 0.01099, -0.07337, -0.12248, -0.16664, -0.03781, 0.01992, -1.08585, 2.13433, -0.19424}, {-0.45515, 0.95768, 0.01265, 1.68438, 0.51048, -0.04833, 0.08328, 0.3047, 0.15103, -0.04254, -0.08745}};
    Double_t biasesL1_6[15] = {1.72225, 2.99813, -2.66918, 1.53212, 0.28347, 1.34095, -2.50119, -1.8732, -0.07721, 0.47847, 0.98367, -4.99282, 0.2068, 0.96416, -2.63674};
    nets[6].SetWeightsL1(weightsL1_6);
    nets[6].SetBiasesL1(biasesL1_6);
    
    Double_t weightsL2_6[1][15] = {{1.0827, 0.48672, 1.76311, 0.54927, 0.37988, -0.76954, -0.45431, 1.28844, -1.20588, -0.62471, -0.68565, -0.82524, 0.34535, -1.02102, -1.15997}};
    Double_t biasesL2_6[1] = {0.54509};
    nets[6].SetWeightsL2(weightsL2_6);
    nets[6].SetBiasesL2(biasesL2_6);
    
    Double_t weightsL1_7[15][11] = {{0.003, -0.04122, 0.00362, 0.24533, 0.02899, -2.03773, 0.28676, -0.11304, -0.39336, 0.2198, 0.23875}, {0.11668, 0.22165, 0.93555, 0.649, -0.07671, 0.27857, -0.72151, -0.40578, 0.1186, -0.08786, 0.54074}, {-0.06206, -1.74314, 0.04118, 0.06829, 0.08612, 0.04692, 0.06193, 0.02895, 0.1716, -0.07876, -0.0925}, {-0.30916, 0.8504, 1.44985, 0.00201, 1.21907, -0.01382, -0.70762, -0.28865, 0.10393, 0.335, -0.31312}, {-0.0993, -2.66691, 0.97855, -1.3633, 0.25124, 0.51771, 0.01012, 0.57221, -0.85444, 0.26928, 0.30623}, {-0.34735, -0.25408, 0.23283, -0.61465, 0.17312, -0.00408, -0.32622, -0.06265, 0.85328, -0.42927, -0.7915}, {-0.08929, 0.33834, -0.20517, -0.37309, -0.60561, -0.51313, -0.28831, -2.21663, 0.00232, 0.41936, 0.20042}, {-0.02764, -0.04673, -0.13781, 0.08934, 0.10469, 0.02391, 0.12279, -0.01334, -3.89926, 1.60294, 0.33764}, {0.08768, 0.0609, -0.12703, -0.0145, -0.00817, 0.1108, 0.12611, -0.00725, -2.60068, -0.31341, -0.01027}, {-0.00408, 0.01212, 0.09768, 0.00276, 0.07262, -0.06502, -0.0437, -0.41964, 0.61888, -1.01585, 0.04147}, {-0.14231, -0.08563, 0.35675, -0.40424, -0.05135, -0.97189, -1.22383, -0.20142, -1.34437, 0.58798, 1.0539}, {0.55175, -0.84285, -0.14307, -1.09453, 0.19781, -0.22209, 0.53868, 0.81354, 0.72319, -0.88896, 1.19724}, {-0.09565, -0.04052, -1.94236, -0.41365, 0.25676, -0.33049, -0.45929, 0.17428, 0.11929, -1.63542, -0.07587}, {-0.00914, 0.0492, -0.00879, 0.02357, 0.01664, 0.05166, 0.00863, 0.22951, -1.49809, 1.77711, 0.07989}, {-0.50113, 0.73942, -0.09277, 1.51966, 0.09734, 0.0322, 0.32072, 0.23037, 0.19285, -0.05191, 0.11211}};
    Double_t biasesL1_7[15] = {2.01924, 1.72091, -2.60514, 1.57936, 0.27433, 1.54288, -2.35219, -2.11557, 0.14027, -0.0543, 1.17796, -4.46715, 0.31163, 0.7288, -2.25254};
    nets[7].SetWeightsL1(weightsL1_7);
    nets[7].SetBiasesL1(biasesL1_7);
    
    Double_t weightsL2_7[1][15] = {{1.00508, 1.00547, 2.68871, 0.4969, 0.27351, -1.15309, -0.50658, 1.25354, -1.10155, -1.54679, -0.60919, -0.73031, 0.3085, -2.04158, -1.28772}};
    Double_t biasesL2_7[1] = {1.83274};
    nets[7].SetWeightsL2(weightsL2_7);
    nets[7].SetBiasesL2(biasesL2_7);
    
    Double_t weightsL1_8[15][11] = {{-0.04016, 0.09517, 0.13625, 0.05469, 0.04265, -2.16325, 0.22993, 0.01508, -0.34778, -0.00825, 0.25931}, {0.23201, 0.13475, 1.28678, 0.84101, 0.07217, 0.37979, -0.74137, -0.51131, -0.01539, 0.00336, 0.6364}, {-0.05321, -1.73806, 0.07181, 0.11609, 0.02023, 0.02613, -0.01902, -0.00306, -0.29155, 0.08194, 0.19619}, {-0.02913, 0.86901, 0.71525, 0.01874, 1.08812, -0.10238, -0.35945, 0.0774, 0.18509, 0.0183, -0.12063}, {0.41867, -2.4437, 1.55414, -0.08657, 0.07018, 0.11775, -1.50435, 0.28846, -1.85519, 0.75807, -0.16658}, {-0.60623, -0.421, 0.45631, -1.0331, -0.21323, -0.02183, -0.13053, 0.02549, 0.65376, -0.06983, -0.8536}, {0.29236, 0.60484, -0.15136, -0.45424, -0.30814, -0.49522, -0.48942, -1.64807, -0.05184, 0.5776, -0.07177}, {0.03096, 0.10071, -0.14449, 0.00928, 0.07303, -0.09985, 0.04214, -0.1097, -3.00894, 1.1975, 0.32294}, {0.11019, -0.06221, -0.017, -0.01134, -0.17906, 0.08267, 0.12178, 0.04467, -2.5894, -0.00828, 0.14171}, {-0.01, 0.00333, 0.01883, -0.06312, 0.13012, -0.13063, -0.03563, -0.41723, 1.01573, -1.18526, -0.2632}, {0.06465, -0.05136, 0.01969, -0.08597, 0.01758, -0.92716, -1.04427, -0.01595, -0.66941, 0.22421, 0.57877}, {0.03782, 0.4734, 0.14635, -0.14747, -0.2014, 0.15154, 0.1149, 0.34636, 0.16099, -1.0965, 1.3226}, {0.2915, -0.38502, -1.71761, -0.02536, 0.1921, -0.62385, -0.81501, 0.10421, -0.69585, -0.46121, 0.40085}, {0.012, -0.00052, 0.02542, 0.05271, 0.02367, -0.011, -0.03304, 0.16761, -1.6843, 1.59345, 0.41796}, {-0.32104, 0.98032, -0.22553, 1.97498, 0.38387, -0.0926, 0.12909, -0.01486, -0.14609, 0.25676, 0.18052}};
    Double_t biasesL1_8[15] = {2.02551, 2.01176, -2.50363, 1.66085, 0.11994, 2.01759, -2.17419, -1.63861, 0.00367, 0.09849, 1.01838, -2.50431, 0.18691, 0.5674, -2.56923};
    nets[8].SetWeightsL1(weightsL1_8);
    nets[8].SetBiasesL1(biasesL1_8);
    
    Double_t weightsL2_8[1][15] = {{1.12849, 0.87706, 2.32075, 0.71077, 0.36126, -1.10686, -0.53493, 1.58768, -1.26178, -1.8544, -0.83847, -0.61639, 0.25024, -2.36797, -1.11252}};
    Double_t biasesL2_8[1] = {2.0462};
    nets[8].SetWeightsL2(weightsL2_8);
    nets[8].SetBiasesL2(biasesL2_8);
    
    Double_t weightsL1_9[15][11] = {{0.03042, 0.05744, 0.11343, 0.14833, -0.02917, -1.70414, 0.03813, -0.14495, -0.21312, 0.18484, 0.0635}, {0.04701, 0.22835, 0.99677, 0.70206, 0.01343, 0.27902, -0.51671, -0.34184, 1.09246, -0.68074, 0.35877}, {-0.03009, -2.00851, 0.01593, 0.14806, 0.07671, -0.0736, -0.0169, -0.02174, 0.05757, 0.0524, -0.09739}, {-0.02453, 1.44019, 1.32877, -0.30252, 1.61156, -0.0443, -0.15059, 0.43521, -0.644, 0.30031, 0.62694}, {0.79349, -2.28539, 1.35248, -0.28703, 0.07633, 0.44249, -1.59379, 0.30244, -0.92348, 0.57076, -0.85879}, {-0.29808, -0.46936, 0.23085, -0.76057, -0.14819, 0.00675, -0.34076, -0.2319, 0.7512, -0.4089, -0.77489}, {0.28782, 0.46073, -0.02817, -0.82719, -0.38558, -0.34885, -0.7583, -2.08511, 0.0303, -0.13717, 0.09999}, {0.0126, 0.04082, -0.11027, -0.03023, 0.07747, -0.05737, 0.08442, -0.01289, -2.72977, 1.3159, 0.04856}, {0.07962, -0.07116, -0.00797, -0.14276, -0.0585, 0.04777, 0.12014, 0.08252, -3.23943, 0.0251, 0.37858}, {-0.00486, 0.08282, 0.07471, -0.03577, 0.09592, -0.06782, 0.00199, -0.49268, 1.41485, -1.84685, -0.2005}, {-0.06854, 0.3669, 0.36767, 0.09319, -0.18279, -1.26362, -1.08969, -0.28316, -0.18504, 0.19995, -0.06523}, {-0.2063, -0.4939, -0.52787, -0.56086, -0.25826, -0.12681, 0.84937, 0.85174, 1.37475, -1.45496, 1.24167}, {-0.11033, -0.14777, -1.4395, -0.49739, 0.34661, -0.45276, -0.2465, 0.57801, 0.52688, -1.76604, -0.19196}, {0.06566, 0.00041, -0.04637, 0.04117, 0.00498, -0.08132, -0.02243, 0.17102, -1.35053, 1.52568, 0.14127}, {-0.37323, 0.88534, -0.1471, 1.72201, 0.39757, -0.1707, 0.08359, 0.11516, 0.21758, 0.11279, -0.14263}};
    Double_t biasesL1_9[15] = {1.62482, 1.83489, -3.11844, 2.751, 0.02157, 1.34962, -2.2936, -1.4723, 0.08111, 0.29455, 1.24778, -2.99928, -0.24126, 0.4269, -2.33659};
    nets[9].SetWeightsL1(weightsL1_9);
    nets[9].SetBiasesL1(biasesL1_9);
    
    Double_t weightsL2_9[1][15] = {{1.36299, 1.11188, 3.05098, 0.37385, 0.34252, -0.9282, -0.44532, 1.70442, -1.25893, -1.32242, -0.78918, -0.65803, 0.25535, -2.36901, -1.22766}};
    Double_t biasesL2_9[1] = {2.47429};
    nets[9].SetWeightsL2(weightsL2_9);
    nets[9].SetBiasesL2(biasesL2_9);
    
    Double_t weightsL1_10[15][11] = {{-0.10684, 0.15849, 0.20913, 0.31375, -0.05039, -2.13233, 0.2237, -0.0699, -0.19516, 0.06737, 0.16865}, {0.18149, 0.38425, 1.05935, 0.98195, 0.10913, 0.59072, -0.60616, -0.39258, 0.19582, -0.17441, 0.71435}, {0.00038, -2.05414, 0.0253, 0.18093, 0.09973, 0.0284, -0.01965, -0.00224, 0.19967, -0.01916, -0.18357}, {-0.18063, 1.79549, 2.13091, -0.53816, 1.98965, -1.02411, -0.92296, 0.11636, 0.44434, -0.17039, 0.35278}, {0.8184, -2.24372, 1.18274, 0.15918, 0.34275, 0.16173, -1.51716, 0.24585, 0.16301, 0.80339, -1.98712}, {-0.3844, -0.27045, 0.36643, -0.71274, -0.07482, -0.23735, -0.04375, -0.08354, 0.76845, -0.17729, -0.83116}, {0.24358, 0.50051, -0.13041, -0.57056, -0.47944, -0.54406, -0.79618, -2.17522, -1.66657, 1.23451, 0.70411}, {0.01965, -0.0084, -0.08685, -0.10112, 0.06584, -0.05561, 0.03674, 0.14242, -3.51425, 1.74878, -0.2522}, {0.03647, 0.0133, -0.11389, 0.0781, -0.07916, 0.08061, 0.1574, -0.14714, -3.77966, 0.48609, 0.75041}, {-0.00649, -0.08115, 0.1194, -0.28042, 0.02636, -0.17394, -0.07861, -0.28118, 1.97667, -2.60803, -0.60954}, {0.10102, 0.15789, 0.26091, 0.0263, -0.05314, -1.32731, -1.32087, -0.16293, -0.09747, 0.12175, 0.08801}, {-0.29241, 0.09116, -0.00591, -0.48182, -0.29882, 0.10811, 0.27823, 0.20489, 1.53405, -1.02736, 0.50154}, {0.26743, -0.27549, -2.3972, -0.06343, 0.28031, -0.48522, -0.50993, 0.26331, -0.44231, -1.47399, 0.02948}, {0.09879, 0.11008, 0.05982, 0.10731, 0.02281, -0.0108, -0.05257, 0.08276, -1.07175, 1.76166, -0.11405}, {-0.16417, 0.76927, -0.42145, 1.8575, 0.32844, 0.06211, -0.00991, 0.16595, -0.00921, 0.09548, 0.09741}};
    Double_t biasesL1_10[15] = {1.91803, 1.91212, -3.02872, 3.80464, 0.02179, 1.57156, -2.69211, -2.04291, -0.01879, 0.41479, 1.14048, -2.61431, -0.24333, 0.56064, -2.46499};
    nets[10].SetWeightsL1(weightsL1_10);
    nets[10].SetBiasesL1(biasesL1_10);
    
    Double_t weightsL2_10[1][15] = {{1.18023, 0.86954, 2.31991, 0.45176, 0.39167, -1.59937, -0.48597, 1.18658, -1.13132, -0.96132, -0.61048, -0.29792, 0.22821, -1.47671, -1.37527}};
    Double_t biasesL2_10[1] = {2.00871};
    nets[10].SetWeightsL2(weightsL2_10);
    nets[10].SetBiasesL2(biasesL2_10);
    
    Double_t weightsL1_11[15][11] = {{0.03058, 0.01927, 0.23155, 0.0961, -0.06319, -2.20563, 0.35407, -0.16515, -0.12595, 0.21974, -0.19759}, {0.21696, 0.33543, 1.22044, 0.86957, 0.02137, 0.5921, -0.9049, -0.57763, 0.82443, -0.51404, 1.05231}, {-0.05633, -1.69046, -0.00707, 0.20711, 0.09386, 0.00172, -0.05665, 0.06059, 0.10424, -0.04279, -0.08189}, {0.25368, 0.83662, 0.96191, 0.07064, 1.09446, -0.26427, -0.70996, 0.01771, 0.47395, 0.36839, -0.53567}, {0.3094, -1.36144, 1.26403, 0.20758, 0.27299, 0.28161, -1.53868, 0.42862, -0.62987, 0.3881, -0.50954}, {-0.43742, -0.22125, 0.48518, -0.90128, -0.12517, -0.15597, -0.1114, -0.03621, 1.46207, -0.3253, -1.41258}, {0.40398, 0.55346, -0.24742, -0.6044, -0.2106, -0.2304, -0.64398, -1.79895, -1.2601, 0.85286, 0.87838}, {0.08496, -0.03743, -0.08358, -0.12348, 0.01135, -0.16342, 0.11525, 0.01715, -4.00825, 1.87057, 0.29099}, {-0.10514, -0.00748, -0.16259, -0.01899, -0.07152, 0.1109, 0.1609, -0.09178, -2.70605, 0.16625, 0.49189}, {0.14799, -0.20337, 0.08255, -0.12455, 0.10663, -0.1805, -0.03645, -0.40715, 1.00351, -1.56169, -0.35234}, {0.20262, 0.44859, 0.49527, 0.18529, 0.07344, -1.06046, -1.40054, -0.08766, -0.41377, 0.38272, -0.04062}, {0.83382, -1.44826, -0.33297, -1.32481, -0.12901, -0.47954, -0.29703, 1.24847, 0.37513, -0.63396, 0.92947}, {-0.53392, -0.52759, -2.13079, -1.29632, 0.08601, -0.66982, 0.10367, 0.39955, 0.08842, -2.03223, -0.3449}, {-0.05119, 0.09293, 0.02497, 0.0084, -0.03284, -0.0499, -0.06275, 0.19744, -1.81768, 2.56074, 0.33843}, {-0.04133, 0.51633, -0.28023, 1.46485, 0.27972, 9e-05, -0.03831, 0.0758, -0.43189, 0.11223, 0.50863}};
    Double_t biasesL1_11[15] = {2.18656, 2.29578, -2.9076, 1.48116, 0.55267, 1.64395, -2.12302, -2.19366, 0.10371, -0.1341, 0.79568, -3.87468, -0.56051, 1.12488, -2.24934};
    nets[11].SetWeightsL1(weightsL1_11);
    nets[11].SetBiasesL1(biasesL1_11);
    
    Double_t weightsL2_11[1][15] = {{1.04455, 0.80575, 3.92135, 0.51051, 0.43333, -1.52753, -0.53354, 1.48248, -1.30186, -0.99072, -0.55398, -0.37016, 0.32319, -1.40943, -1.96822}};
    Double_t biasesL2_11[1] = {3.15694};
    nets[11].SetWeightsL2(weightsL2_11);
    nets[11].SetBiasesL2(biasesL2_11);
    
    Double_t weightsL1_12[15][11] = {{-0.01581, 0.11209, 0.14926, 0.13646, -0.04744, -1.6852, 0.17086, -0.04403, -0.13745, 0.15496, -0.00982}, {0.1124, 0.22658, 0.77708, 0.70445, 0.0539, 0.26163, -0.46799, -0.32851, 0.3484, -0.10778, 0.35381}, {-0.04263, -1.6719, 0.04006, 0.08315, 0.00275, 0.01774, -0.08417, 0.0292, -0.04011, -0.0197, -0.04}, {0.38588, 1.25738, 0.87142, -0.22635, 1.3663, -0.23072, -0.46906, -0.16021, -0.68102, 0.58072, 0.59556}, {0.51269, -1.46274, 1.24067, 0.11674, 0.19466, 0.08778, -1.5351, 0.4726, -1.50098, 0.60621, -0.02756}, {-0.80236, -0.26321, 0.45797, -0.65648, -0.01764, 0.0044, 0.00821, -0.06976, 1.31427, -0.39774, -1.40217}, {0.41707, 0.91556, 0.10071, -0.7105, -0.82792, -0.58285, -1.09981, -2.23264, 0.11342, 0.36788, -0.21022}, {0.10354, 0.00966, -0.22754, -0.05628, -0.02773, -0.12531, 0.08408, 0.12417, -3.59637, 1.50826, 0.25357}, {0.02636, 0.03279, 0.04996, -0.00365, -0.0591, 0.142, 0.03556, -0.10226, -3.71592, 0.49883, 0.79142}, {0.11188, -0.10505, -0.0715, -0.16909, 0.02296, -0.16619, 0.04621, -0.31419, 1.32404, -1.93382, -0.26357}, {0.06987, 0.26863, 0.20134, 0.11265, -0.17816, -1.0995, -0.98885, 0.0152, -0.05207, -0.0425, 0.17771}, {0.97133, -0.47714, -0.48157, -0.85183, -0.24244, -0.15198, 0.11985, 0.22528, -0.38971, -0.01461, 0.86271}, {-0.56248, 0.64525, -1.20699, -0.24044, 0.59425, -0.4404, -0.11181, 0.33835, 0.17813, -2.12536, 0.03394}, {0.02353, 0.03358, 0.0959, 0.0387, 0.06997, -0.15567, -0.04124, 0.11445, -1.75821, 2.18706, 0.20609}, {-0.43961, 0.89299, -0.22009, 1.69282, 0.335, -0.12182, 0.04956, 0.11885, -0.55212, 0.39594, 0.27268}};
    Double_t biasesL1_12[15] = {1.52265, 1.58019, -2.3299, 2.45661, 0.47461, 1.52613, -2.53623, -1.98025, -0.06597, 0.39321, 0.91142, -3.5674, -0.39836, 0.66658, -2.4047};
    nets[12].SetWeightsL1(weightsL1_12);
    nets[12].SetBiasesL1(biasesL1_12);
    
    Double_t weightsL2_12[1][15] = {{1.30282, 1.06173, 2.04812, 0.58003, 0.39775, -0.722, -0.42892, 1.28587, -1.08145, -1.19244, -0.78126, -0.73568, 0.23435, -1.5094, -1.08121}};
    Double_t biasesL2_12[1] = {0.68858};
    nets[12].SetWeightsL2(weightsL2_12);
    nets[12].SetBiasesL2(biasesL2_12);
    
    Double_t weightsL1_13[15][11] = {{-0.07258, 0.08527, 0.19315, 0.12069, -0.03318, -1.84299, 0.21622, -0.14789, -0.16952, 0.12046, 0.03417}, {0.08369, 0.14261, 0.77029, 0.57779, 0.03664, 0.2844, -0.52761, -0.35602, 0.78903, -0.20706, 0.00387}, {-0.01242, -2.11965, 0.01656, 0.22202, 0.04945, 0.06942, -0.09128, -0.00589, 0.10079, -0.04627, -0.1749}, {0.22033, 1.2747, 1.47752, -0.2492, 1.48568, -0.03637, -0.79403, 0.06178, -0.68121, 0.35048, 0.67688}, {0.21025, -1.41871, 0.88186, 0.10336, 0.05421, 0.28492, -0.98443, -0.01691, -1.17161, 0.54991, 0.15349}, {-0.38144, -0.3362, 0.44305, -0.99163, -0.11352, 0.0613, -0.15517, -0.16458, 0.7822, -0.38495, -0.83941}, {0.05619, 0.06586, -0.21468, -0.33127, -0.20514, -0.10519, -0.12129, -1.53964, -0.06212, 0.43891, -0.03395}, {0.01513, 0.0116, -0.10113, -0.02799, -0.02713, -0.06674, 0.13851, -0.0104, -3.07775, 1.3243, 0.29609}, {0.11916, -0.00555, -0.05632, 0.036, -0.04321, 0.12743, 0.08728, -0.07226, -2.74526, 0.06946, 0.50927}, {-0.15867, 0.14438, 0.3064, -0.16001, -0.02092, -0.19467, -0.11215, -0.65691, 1.304, -1.92409, -0.14835}, {-0.14461, 0.0806, 0.39907, -0.12531, -0.0468, -1.31995, -1.08085, -0.20045, -0.47889, 0.34762, 0.21604}, {0.65247, -1.07458, -0.80285, -0.92124, -0.279, -0.6579, 0.5415, 0.6674, 1.48429, -1.06494, 0.06504}, {-0.3848, 0.26116, -1.60149, -1.2823, 0.61492, -0.47533, -1.02915, 1.10268, -1.52681, -0.85041, 1.06905}, {0.04488, 0.08025, 0.09754, 0.09241, -0.02535, -0.09057, -0.14428, 0.1722, -1.3591, 1.69721, 0.19405}, {-0.18246, 0.84908, -0.45534, 2.03057, 0.41317, -0.16284, 0.09155, 0.14989, 0.37157, 0.08613, -0.24774}};
    Double_t biasesL1_13[15] = {1.68671, 1.40558, -3.18791, 2.25834, -0.01801, 1.80693, -1.78333, -1.73659, 0.08963, 0.38022, 1.14917, -4.25289, -0.62555, 0.66224, -2.63935};
    nets[13].SetWeightsL1(weightsL1_13);
    nets[13].SetBiasesL1(biasesL1_13);
    
    Double_t weightsL2_13[1][15] = {{1.28883, 1.23021, 2.31411, 0.41761, 0.3428, -1.08898, -0.72777, 1.69674, -1.34703, -0.79493, -0.68534, -0.68539, 0.23036, -1.54276, -1.19983}};
    Double_t biasesL2_13[1] = {1.63744};
    nets[13].SetWeightsL2(weightsL2_13);
    nets[13].SetBiasesL2(biasesL2_13);
    
    Double_t weightsL1_14[15][11] = {{-0.07953, 0.0264, 0.07334, 0.20815, 0.04076, -1.94807, 0.28318, -0.16268, -0.30028, 0.09581, 0.1072}, {0.20123, 0.34391, 0.78902, 0.66658, 0.04522, 0.36076, -0.47175, -0.28034, 1.04397, -0.35916, 0.08462}, {-0.06547, -1.30445, 0.03019, 0.21477, 0.06434, 0.02375, -0.06653, 0.04978, -0.02356, -0.03002, -0.00371}, {0.23655, 0.81767, 0.84021, -0.21794, 1.23512, -0.15259, -0.41907, 0.19264, 0.01614, 0.13021, 0.14582}, {0.21596, -1.30007, 1.27136, 0.1089, 0.19522, 0.08894, -1.33088, 0.26305, -1.24534, 0.6179, 0.11803}, {-0.39039, -0.22343, 0.22982, -0.70486, -0.08012, -0.09965, -0.10314, -0.08962, 0.03182, -0.20576, -0.1954}, {0.31913, 0.17027, -0.2382, -0.63338, -0.37544, -0.36817, -0.56665, -1.54303, -0.20973, 0.34098, 0.32697}, {0.03333, -0.11056, -0.15109, -0.10837, 0.01964, -0.13825, 0.0956, 0.00951, -3.0835, 1.36403, 0.44165}, {0.07871, 0.05811, -0.0096, 0.06603, -0.00198, 0.09862, 0.07938, -0.02957, -2.20343, 0.02557, 0.18309}, {-0.01649, -0.10729, 0.23847, -0.26795, 0.10148, -0.32923, -0.09756, -0.62264, 1.44758, -2.52079, -0.306}, {-0.00502, 0.451, 0.32228, 0.09077, -0.12718, -1.59145, -1.86779, -0.36006, -0.20893, 0.33305, -0.1043}, {0.67138, -1.00413, -0.54548, -0.68913, 0.19752, -0.41738, -0.03312, 0.7068, 1.38482, -0.88778, -0.25982}, {-0.22693, 0.19148, -1.30243, -1.02516, 0.18262, -0.50881, -0.64239, 0.92842, -0.1618, -0.25998, 0.28183}, {-0.00773, -0.00191, 0.09789, 0.09595, 0.01929, -0.08675, -0.09331, 0.07131, -1.20818, 1.70574, 0.2329}, {-0.34796, 0.75951, -0.19506, 1.65517, 0.30778, -0.06872, 0.09166, 0.15799, 0.2301, 0.07581, 0.05964}};
    Double_t biasesL1_14[15] = {1.9146, 1.6366, -2.4606, 1.71314, 0.48274, 1.87989, -1.71309, -1.6227, 0.05619, 0.35681, 1.47982, -3.31715, -0.03889, 0.71161, -2.51382};
    nets[14].SetWeightsL1(weightsL1_14);
    nets[14].SetBiasesL1(biasesL1_14);
    
    Double_t weightsL2_14[1][15] = {{1.22466, 1.16551, 3.59164, 0.40157, 0.45134, -1.55736, -0.60607, 1.89842, -1.58415, -0.65498, -0.50931, -1.14064, 0.15536, -1.80355, -1.6323}};
    Double_t biasesL2_14[1] = {2.63048};
    nets[14].SetWeightsL2(weightsL2_14);
    nets[14].SetBiasesL2(biasesL2_14);
    
    Double_t weightsL1_15[15][11] = {{0.1024, 0.04603, 0.25209, 0.05237, 0.12505, -2.19497, 0.05609, -0.17378, -0.30798, 0.23908, 0.10107}, {0.16837, 0.41009, 0.90498, 0.70875, 0.0943, 0.34684, -0.5531, -0.40937, 0.32334, -0.01852, 0.49622}, {-0.05213, -1.82403, -0.00619, 0.18785, 0.12421, -0.06836, -0.06926, -0.01951, 0.07346, 0.04026, -0.07574}, {0.36955, 0.13249, 0.56808, -0.28868, 0.8013, 0.35789, -0.34999, 1.08858, 0.60679, -0.5462, 0.83787}, {0.3263, -1.85379, 1.05181, -0.16245, 0.32412, -0.05573, -1.16462, 0.08368, -1.41156, 0.76793, -0.14625}, {-0.46906, -0.42817, 0.22376, -0.93794, -0.19499, -0.00526, -0.0325, -0.21912, 1.23764, -0.34513, -1.20685}, {0.40537, -0.07301, 0.19297, -0.69573, 0.16958, -0.05438, -0.4493, -1.08354, -0.63387, 0.51777, 0.49676}, {0.05415, -0.14, -0.07077, -0.11784, 0.00633, -0.07104, 0.09634, 0.03688, -3.40263, 1.54562, -0.12969}, {-0.06288, -0.03576, -0.0982, -0.02332, -0.1399, 0.11955, 0.13857, -0.09561, -2.64145, -0.12245, 0.46331}, {0.09645, -0.10667, -0.03132, -0.02958, 0.09119, -0.13154, -0.03192, -0.40108, 1.57946, -2.2819, -0.23055}, {0.09841, 0.32396, 0.34999, 0.05564, -0.08978, -1.39387, -1.49417, -0.10392, -0.23644, 0.01356, 0.27169}, {-0.00279, -1.12007, -0.67016, -0.75402, -0.23623, -0.243, 1.14763, 0.64624, 0.17042, -0.51666, 0.31059}, {0.24582, 0.12079, -2.06295, -0.51985, 0.60874, -0.72549, -1.08875, 0.18909, 0.98938, -1.61339, -0.56119}, {0.04749, 0.04242, -0.00588, 0.01968, 0.01299, -0.01498, -0.04979, 0.09281, -1.23489, 1.661, -0.00241}, {-0.15658, 0.66016, -0.12475, 1.39, 0.39832, -0.16858, -0.01053, 0.16348, -0.10987, 0.02747, 0.28136}};
    Double_t biasesL1_15[15] = {1.93881, 1.67915, -2.81486, 2.93654, 0.08352, 1.5913, -1.20687, -2.29548, 0.11197, 0.3624, 1.29543, -3.37385, 0.1472, 0.38316, -2.02602};
    nets[15].SetWeightsL1(weightsL1_15);
    nets[15].SetBiasesL1(biasesL1_15);
    
    Double_t weightsL2_15[1][15] = {{1.07776, 0.95139, 2.3793, 0.63245, 0.4232, -1.16579, -0.61391, 1.66486, -1.15681, -1.01748, -0.75091, -1.19247, 0.27461, -1.84435, -1.63613}};
    Double_t biasesL2_15[1] = {0.92014};
    nets[15].SetWeightsL2(weightsL2_15);
    nets[15].SetBiasesL2(biasesL2_15);
    
    Double_t weightsL1_16[15][11] = {{-0.02733, 0.29754, 0.14353, 0.1377, 0.07269, -2.30166, 0.2091, -0.06768, -0.42617, 0.14137, 0.41933}, {0.41083, 0.20473, 0.94776, 0.77849, 0.0712, 0.20923, -0.59396, -0.42965, -0.37232, 0.21526, 0.81621}, {-0.11183, -1.80673, 0.03926, 0.25046, 0.11686, 0.02267, -0.02156, 0.00458, 0.08031, -0.01019, -0.12561}, {0.34205, 0.40151, 0.66877, 0.2233, 1.16476, -0.19798, -0.65212, 1.47371, 0.00448, -0.52413, -0.03241}, {0.41279, -1.85068, 1.01317, 0.19616, -0.06263, -0.10899, -1.30515, 0.41511, -1.35671, 0.82714, -0.12266}, {-0.7679, -0.05371, 0.1121, -1.08282, 0.11508, -0.08715, -0.28686, -0.07566, 0.3791, -0.26037, -0.48751}, {0.44551, 0.46176, 0.09283, -1.38108, 0.06587, -0.03418, -0.56705, -1.11594, -0.73059, 0.6575, 0.42012}, {-0.03765, 0.05485, -0.05939, -0.12275, 0.07223, 0.00966, 0.132, 0.06312, -3.01594, 1.03604, 0.22055}, {-0.03871, 0.0191, 0.00745, 0.06362, -0.08006, 0.05045, 0.11772, -0.18018, -2.95481, 0.3714, 0.3153}, {-0.09115, 0.02454, 0.20481, -0.188, 0.04905, -0.17671, 0.00909, -0.35526, 1.28062, -1.61452, -0.3243}, {-0.00027, 0.40686, 0.47798, 0.08393, -0.04579, -1.51507, -1.19198, 0.01733, -0.16522, 0.34366, -0.10338}, {0.50986, -0.77368, -0.81054, -0.63765, -0.17954, -0.14603, 0.34968, 0.75214, 0.27527, -0.35631, 0.22881}, {-0.49299, 0.73666, 1.00227, -0.00249, 0.3249, -0.65031, 0.42173, -1.40756, -0.91061, -0.5285, -0.6292}, {0.09917, 0.00186, -0.0797, 0.18645, -0.03692, -0.11618, 0.02655, 0.06625, -1.88928, 2.07557, 0.24439}, {-0.37132, 0.68848, -0.06637, 1.70424, 0.37063, -0.04153, 0.11507, 0.11384, -0.07668, 0.16526, 0.13747}};
    Double_t biasesL1_16[15] = {2.0174, 1.9066, -2.96091, 2.64513, 0.10844, 2.37172, -2.18931, -1.65225, -0.07717, 0.48245, 1.07556, -3.32941, 1.33555, 0.564, -2.39521};
    nets[16].SetWeightsL1(weightsL1_16);
    nets[16].SetBiasesL1(biasesL1_16);
    
    Double_t weightsL2_16[1][15] = {{1.10985, 0.89059, 2.79527, 0.48814, 0.36259, -0.73498, -0.52752, 1.45541, -1.41256, -1.33524, -0.63355, -1.17561, 0.36543, -1.41414, -1.18761}};
    Double_t biasesL2_16[1] = {1.14141};
    nets[16].SetWeightsL2(weightsL2_16);
    nets[16].SetBiasesL2(biasesL2_16);
    
    Double_t weightsL1_17[15][11] = {{0.03344, 0.16167, 0.18099, 0.05676, 0.0555, -1.93924, 0.0819, -0.10285, -0.11357, 0.05433, 0.11539}, {0.34477, 0.29861, 0.88454, 0.71616, 0.35052, 0.2424, -0.68296, -0.29413, -0.04798, 0.4798, 0.5003}, {-0.01737, -1.53813, 0.00502, 0.15136, 0.11351, -0.01128, -0.04215, -0.00068, 0.20615, -0.02917, -0.18577}, {-0.35006, 0.17371, 0.25251, -0.14854, 0.97556, -0.07917, 0.56611, 1.85049, -0.14501, -0.36733, 0.16879}, {0.51119, -1.09655, 0.68346, 0.16547, 0.41849, 0.18661, -0.99748, 0.31113, -0.88282, 0.51591, -0.43635}, {-0.81567, -0.46057, 0.33756, -1.2433, -0.06971, -0.02633, -0.19243, -0.1529, 0.75738, -0.69501, -0.64628}, {0.46003, 0.89927, 0.63885, -1.84422, 1.09232, -0.10176, 0.11204, -1.03409, 0.12364, 0.332, -0.30587}, {0.10959, -0.1246, -0.17378, -0.01018, 0.11384, 0.07535, 0.03016, -0.00559, -4.11492, 1.52519, 0.28306}, {-0.03451, 0.16691, 0.11337, -0.05494, -0.09212, -0.03422, 0.10131, -0.2757, -3.04527, 0.33277, 0.01087}, {0.01541, -0.06918, -0.02088, -0.09374, 0.06169, -0.10188, 0.01029, -0.35198, 1.58887, -2.17111, -0.22899}, {0.0687, 0.23642, 0.4358, 0.08301, -0.03109, -1.73381, -1.55492, -0.28558, -0.5086, 0.27911, 0.364}, {0.4017, -1.27183, -0.79927, -0.71437, 0.27069, -0.12763, 0.46052, 0.52345, 0.49983, -0.53486, 0.09461}, {-0.15448, 0.32513, 0.63043, 0.61768, 0.27882, -0.70985, -0.30078, -1.35302, -0.69589, -1.26611, -0.13493}, {0.05636, 0.00153, 0.0377, 0.08433, 0.01111, -0.03714, -0.0925, 0.06794, -1.2478, 1.38434, 0.15962}, {-0.2692, 0.83944, -0.08563, 1.68939, 0.31533, -0.16783, 0.19624, 0.33043, 0.35734, -0.03823, -0.1629}};
    Double_t biasesL1_17[15] = {1.70377, 1.80346, -2.57437, 2.20924, 0.46123, 2.51613, -2.88032, -2.39285, 0.07528, 0.65126, 1.29102, -3.09779, 2.25636, 0.23312, -2.38751};
    nets[17].SetWeightsL1(weightsL1_17);
    nets[17].SetBiasesL1(biasesL1_17);
    
    Double_t weightsL2_17[1][15] = {{1.24095, 0.95976, 3.26584, 0.40698, 0.38343, -0.96386, -0.28363, 1.11908, -1.06994, -1.48731, -0.59641, -0.93833, 0.32159, -2.14737, -1.23957}};
    Double_t biasesL2_17[1] = {2.00402};
    nets[17].SetWeightsL2(weightsL2_17);
    nets[17].SetBiasesL2(biasesL2_17);
    
    Double_t weightsL1_18[15][11] = {{0.03391, 0.10362, 0.24298, -0.05161, -0.07743, -2.50787, 0.34168, -0.0412, -0.4801, 0.1251, 0.418}, {0.23701, 0.45061, 1.22884, 0.85002, 0.08951, 0.67225, -0.51619, -0.66926, 0.55056, -0.25099, 1.02247}, {0.01269, -1.69392, -0.05848, 0.24631, 0.05958, 0.03496, -0.02018, -0.0649, -0.07343, 0.18759, -0.00949}, {0.2629, 0.59157, 0.58484, 0.3959, 0.81561, 0.291, -0.35606, 1.12592, 0.08441, -0.24027, -0.06188}, {0.46892, -1.10993, 0.63473, -0.25575, 0.31077, 0.19794, -0.86288, 0.41868, -0.25599, 0.0273, -0.4599}, {-0.6743, -0.2329, 0.61444, -0.6664, 0.03704, -0.30577, -0.29358, -0.0061, 0.51456, 0.04586, -0.67235}, {0.34083, 0.39463, 0.28119, -1.42159, 0.62492, 0.07499, -0.31091, -1.03955, -0.17155, 0.13978, 0.35386}, {-0.01868, -0.05675, -0.08606, -0.07736, 0.12708, -0.13659, 0.02676, 0.18367, -2.92217, 1.10474, 0.18469}, {0.13452, 0.08379, -0.00982, 0.02575, -0.08116, 0.129, 0.07565, -0.12461, -2.92174, 0.33039, 0.58089}, {-0.09213, -0.0872, 0.18566, -0.18075, 0.10193, -0.16242, -0.04464, -0.39184, 1.83254, -2.15757, -0.52965}, {-0.31871, 0.18534, 0.23015, 0.12934, -0.12323, -1.12611, -1.00205, -0.10388, 0.15423, -0.16181, -0.15489}, {0.43297, -1.02442, -1.09657, -0.52033, -0.01123, -0.20728, 1.13364, 0.53056, 0.44706, -0.37546, 0.14665}, {-0.58556, 0.29861, 0.66434, 0.76835, 0.62047, -2.05934, -0.79939, -0.67277, 1.11508, -0.43266, -1.07372}, {0.12085, 0.06079, -0.05458, 0.14663, -0.05408, -0.05831, -0.06734, 0.103, -1.47194, 1.77951, 0.24932}, {-0.2761, 0.8454, -0.37424, 1.8602, 0.29749, -0.13559, 0.03935, -0.01235, 0.28834, 0.09774, -0.14999}};
    Double_t biasesL1_18[15] = {2.10981, 2.35506, -2.45652, 2.35541, 0.4459, 1.83083, -1.94572, -1.77955, -0.06146, 0.49224, 1.08116, -3.89109, 3.32, 0.55329, -2.74773};
    nets[18].SetWeightsL1(weightsL1_18);
    nets[18].SetBiasesL1(biasesL1_18);
    
    Double_t weightsL2_18[1][15] = {{0.87065, 0.82898, 2.02893, 0.61793, 0.38396, -1.06987, -0.33707, 1.65986, -1.25905, -1.11177, -0.66208, -1.7338, 0.56239, -1.68787, -1.19642}};
    Double_t biasesL2_18[1] = {0.10248};
    nets[18].SetWeightsL2(weightsL2_18);
    nets[18].SetBiasesL2(biasesL2_18);
    
    Double_t weightsL1_19[15][11] = {{-0.04586, 0.14782, 0.12646, 0.18561, -0.03346, -1.77393, 0.13267, -0.11985, -0.26525, -0.01441, 0.21093}, {0.28322, 0.51299, 1.44587, 0.64023, 0.12332, 0.46144, -0.74451, -0.38065, 0.39998, -0.15783, 0.82188}, {-0.10825, -1.94306, 0.06883, 0.25879, 0.16607, -0.00238, -0.07529, 0.02764, 0.21823, -0.0349, -0.20048}, {0.272, -0.00339, -0.00438, -0.02272, 0.68481, -0.03183, -0.33432, 0.69942, 0.4951, 0.24206, -0.23338}, {0.5637, -1.25617, 0.94871, 0.29719, 0.21313, 0.12495, -1.49806, 0.29843, -0.9283, 0.48686, -0.14778}, {-0.27223, -0.2315, -0.04877, -0.57582, -0.00443, -0.15976, -0.12435, -0.23899, 0.31991, -0.30518, -0.2092}, {0.37333, 0.0653, -0.30599, -0.60395, -0.08856, -0.23483, -0.6371, -1.22975, -0.08157, 0.1741, 0.17285}, {0.08174, -0.20439, -0.20738, -0.08294, 0.08727, -0.05931, 0.09538, -0.09738, -3.79555, 1.61468, 0.25519}, {0.04777, 0.14959, -0.14235, 0.16554, -0.21694, 0.11743, 0.12835, -0.12127, -3.49826, 0.20859, 0.59939}, {0.02407, -0.05416, 0.0845, -0.14705, 0.06883, -0.09637, 0.06095, -0.42776, 1.58847, -1.94352, -0.41112}, {-0.10698, 0.4651, 0.47353, 0.09408, -0.06361, -1.16656, -1.23575, -0.25717, -0.47643, 0.22186, 0.25228}, {-0.95378, 0.58228, 1.25752, 0.11326, 1.94863, -0.41135, 0.46017, 0.42771, 0.30055, -0.29391, 0.19991}, {-0.25862, 0.07704, 0.14749, 0.30308, 0.57693, -0.03968, -0.54231, -1.06992, -1.77765, 0.57558, 0.35178}, {0.04253, -0.01767, -0.02673, 0.06094, 0.00575, -0.00369, -0.02592, 0.1476, -1.37884, 1.57216, 0.16445}, {-0.24265, 0.71606, -0.08295, 1.59052, 0.22509, -0.02479, 0.02017, 0.13016, 0.3597, 0.09418, -0.32734}};
    Double_t biasesL1_19[15] = {1.64823, 2.30331, -3.08932, 2.05273, 0.35689, 1.53357, -1.61834, -2.09564, 0.09322, 0.37091, 0.96601, -2.71759, 2.19878, 0.32409, -2.31267};
    nets[19].SetWeightsL1(weightsL1_19);
    nets[19].SetBiasesL1(biasesL1_19);
    
    Double_t weightsL2_19[1][15] = {{1.20375, 0.7691, 2.22873, 0.71585, 0.30346, -1.74949, -0.58829, 1.42492, -1.10392, -1.52904, -0.5754, -0.2294, 0.65168, -2.41435, -1.53195}};
    Double_t biasesL2_19[1] = {1.60412};
    nets[19].SetWeightsL2(weightsL2_19);
    nets[19].SetBiasesL2(biasesL2_19);
    
    Double_t weightsL1_20[15][11] = {{-0.00251, 0.09519, 0.17981, 0.00217, 0.08981, -2.12577, 0.19966, -0.08184, -0.09307, -0.01013, 0.13717}, {0.14008, 0.4516, 1.04792, 0.68564, 0.30227, 0.18114, -0.51118, -0.47375, -0.3382, 0.48847, 0.71256}, {0.00513, -1.51218, 0.01187, 0.13684, 0.0856, 0.02881, -0.07718, -0.01768, -0.11223, 0.06492, 0.0729}, {0.7316, 0.49104, 0.71492, 0.0446, 0.78974, -0.37675, -1.1451, 1.29624, 0.13712, -0.56388, 0.09807}, {0.38859, -1.37565, 0.91459, 0.82847, -0.13971, 0.29559, -1.48893, 0.07524, -0.61431, 0.62037, -0.96404}, {-0.39696, -0.52938, 0.21813, -0.87153, -0.11744, -0.19269, 0.09279, 0.01233, 0.77478, -0.2107, -0.79593}, {0.05999, 0.33205, -0.06003, -0.5797, -0.20209, -0.31602, -0.87439, -1.63519, -0.51847, 0.40472, 0.72589}, {-0.02404, 0.00259, -0.16516, -0.04126, -0.02729, 0.02777, 0.03754, 0.07907, -1.72697, 0.43748, -0.28139}, {0.13905, 0.02013, -0.06107, 0.07631, -0.04379, 0.01335, 0.06321, -0.10975, -3.80011, 0.89611, 0.64929}, {-0.00763, 0.02053, -0.01104, 0.0098, -0.03686, -0.04285, -0.01265, -0.24852, 1.7788, -2.11245, -0.48556}, {0.17177, 0.35648, 0.31611, 0.10322, 0.08087, -1.21048, -1.59509, -0.13235, -0.07969, 0.2201, -0.16356}, {-0.58352, 0.30824, 0.07374, -0.07319, 1.23799, -0.05327, 0.43719, -0.21492, -0.15503, 0.18485, 0.11687}, {-0.47119, 0.28464, 0.52897, 0.35705, -0.27316, -0.08445, 0.03502, -0.801, 0.49876, -2.88781, -0.60589}, {0.06095, 0.02316, 0.0427, 0.00337, -0.06779, 0.06663, -0.04842, 0.03953, -1.42601, 1.72017, -0.16574}, {-0.14853, 0.71429, -0.17366, 1.40077, 0.15718, 0.00755, 0.00051, 0.08315, -0.16198, 0.04453, 0.28628}};
    Double_t biasesL1_20[15] = {1.97992, 1.92299, -2.57783, 2.73301, 0.10431, 1.61807, -2.07733, -1.12882, -0.16721, 0.87597, 1.16411, -2.79822, 3.54331, 0.41726, -1.84409};
    nets[20].SetWeightsL1(weightsL1_20);
    nets[20].SetBiasesL1(biasesL1_20);
    
    Double_t weightsL2_20[1][15] = {{1.00239, 1.28346, 3.40077, 0.56532, 0.39357, -1.68349, -0.52145, 1.88092, -1.5607, -1.62477, -0.60672, -0.73265, 0.69926, -1.36524, -1.45123}};
    Double_t biasesL2_20[1] = {2.24513};
    nets[20].SetWeightsL2(weightsL2_20);
    nets[20].SetBiasesL2(biasesL2_20);
    
    Double_t weightsL1_21[15][11] = {{0.17502, 0.09107, 0.1574, 0.13298, 0.01727, -1.93777, 0.09464, -0.13885, 0.15847, -0.02874, -0.10425}, {0.16531, 0.30115, 0.86127, 0.784, 0.14758, 0.31432, -0.52348, -0.44552, -0.08559, 0.22618, 0.6771}, {-0.05325, -1.60043, -0.00781, 0.14363, 0.0981, 0.02919, -0.05902, 0.00472, 0.09566, -0.044, -0.02942}, {0.06806, 0.34307, 0.3809, 0.2695, 0.7996, 0.23713, -0.28455, 1.36804, -0.37542, -0.26034, 0.25672}, {0.28087, -1.06122, 1.47337, -0.03471, 0.51987, 0.02154, -1.35904, 0.36973, -0.70677, 0.21052, -0.15499}, {-0.38884, -0.22566, 0.18047, -0.75378, -0.22066, -0.09687, -0.14222, -0.03774, 0.31479, -0.36939, -0.34446}, {0.61149, 0.13559, -0.14944, -0.92961, 0.1073, -0.46518, -0.41563, -1.15947, -0.22717, 0.01041, 0.17805}, {0.12588, -0.10503, -0.15505, -0.03143, 0.08477, -0.1228, 0.17571, -0.03659, -3.31322, 1.4129, 0.17385}, {0.01468, 0.02643, -0.0788, 0.05489, -0.0494, 0.16803, -0.07086, -0.04356, -2.55714, 0.02242, 0.16756}, {0.10469, -0.05528, -0.01664, -0.08504, -0.00333, -0.08288, 0.01734, -0.32396, 0.9451, -1.4624, -0.09337}, {0.05817, 0.06703, 0.46221, -0.05341, -0.17388, -1.28935, -0.91703, -0.16224, -0.43754, 0.13797, 0.26925}, {-0.14688, 0.3819, 0.46086, 0.16526, 1.01212, -0.0869, 0.27935, -0.03403, -0.36352, 0.29008, 0.30895}, {-0.04849, -0.06094, -0.01339, 0.10925, 0.01971, -0.02964, -0.00386, -0.73522, -0.76176, -1.24516, 0.28553}, {0.03192, 0.02816, 0.0281, 0.05413, -0.04901, -0.03756, -0.0425, 0.07209, -1.34954, 1.5514, 0.16872}, {-0.15148, 0.58825, -0.33197, 1.4425, 0.20176, -0.07392, 0.05138, 0.15618, 0.24688, 0.04004, -0.02026}};
    Double_t biasesL1_21[15] = {1.77334, 1.74439, -2.66482, 2.47007, 0.29426, 1.756, -1.82028, -1.84929, 0.30093, 0.52726, 0.90501, -1.82782, 1.94991, 0.30078, -1.9504};
    nets[21].SetWeightsL1(weightsL1_21);
    nets[21].SetBiasesL1(biasesL1_21);
    
    Double_t weightsL2_21[1][15] = {{1.17501, 1.06852, 2.97849, 0.61587, 0.31846, -1.64588, -0.28943, 1.41096, -1.25692, -2.3646, -0.52393, -0.88056, 0.86147, -2.37999, -1.58701}};
    Double_t biasesL2_21[1] = {2.31272};
    nets[21].SetWeightsL2(weightsL2_21);
    nets[21].SetBiasesL2(biasesL2_21);
    
    Double_t weightsL1_22[15][11] = {{0.07385, 0.18729, -0.01122, 0.25024, 0.01973, -1.78957, 0.25067, -0.06047, 0.03637, -0.16225, -0.04227}, {0.07159, 0.30194, 1.09459, 0.80785, -0.04034, 0.22226, -0.47833, -0.49526, 0.33335, -0.14893, 0.45406}, {-0.01308, -1.93441, 0.07265, 0.22081, 0.17679, 0.04118, -0.04355, 0.01847, 0.17421, -0.08225, -0.1509}, {-1.05391, 0.76988, 0.67101, 0.79669, 0.20767, -0.04352, -1.20529, 0.63008, -0.90719, -0.0268, -0.33269}, {0.66991, -1.52733, 0.90089, 0.05307, 0.24266, 0.26497, -1.35701, 0.30185, -0.9739, 0.43913, -0.16694}, {-0.60205, -0.40156, -0.0826, -1.01714, 0.04225, -0.27596, -0.17249, -0.10695, -0.12942, 0.01478, -0.28486}, {0.11883, 0.55574, -0.12634, -0.65389, -0.65347, -0.35557, -0.8771, -1.62579, -0.12537, -0.08985, 0.5173}, {-0.03365, 0.03041, -0.1237, 0.15971, 0.16478, -0.04003, 0.27429, 0.01389, -3.33168, 1.15698, 0.23453}, {0.0348, -0.00581, -0.01712, -0.05411, -0.1174, 0.06013, -0.05549, -0.11254, -2.75452, 0.12883, 0.28218}, {-0.02006, -0.01321, 0.0663, -0.02153, -0.02633, -0.10534, 0.07946, -0.2958, 1.12404, -1.42737, -0.23562}, {-0.00632, 0.27398, 0.22928, 0.15508, -0.34402, -1.11321, -1.18905, -0.36201, 0.17795, -0.00783, -0.11325}, {-0.31845, 0.59543, 0.89777, 0.35828, 1.4471, 0.15204, 0.04601, -0.12947, -0.02698, 0.13605, -0.3258}, {-0.2065, 0.05805, 0.05476, 0.22901, -0.21295, -0.16742, 0.19168, -1.03152, -0.62049, -1.96359, -0.04175}, {0.07472, -0.08283, -0.0387, 0.04865, -0.0079, -0.03108, 0.0454, 0.15447, -1.64224, 1.65186, 0.22762}, {-0.38729, 0.87864, -0.32065, 2.03541, 0.11796, 0.01187, 0.10334, 0.14077, 0.78831, -0.25086, -0.37075}};
    Double_t biasesL1_22[15] = {1.71929, 1.7962, -2.90371, 3.90043, 0.15157, 2.80059, -1.96381, -1.9864, 0.24547, 0.58134, 1.29672, -2.08601, 2.97242, 0.41708, -2.62092};
    nets[22].SetWeightsL1(weightsL1_22);
    nets[22].SetBiasesL1(biasesL1_22);
    
    Double_t weightsL2_22[1][15] = {{1.19934, 0.87147, 2.07507, 0.35723, 0.46239, -1.14481, -0.51058, 1.29615, -1.36139, -1.98793, -0.57812, -0.55635, 0.76039, -2.00053, -1.06246}};
    Double_t biasesL2_22[1] = {2.07874};
    nets[22].SetWeightsL2(weightsL2_22);
    nets[22].SetBiasesL2(biasesL2_22);
    
    Double_t weightsL1_23[15][11] = {{-0.08093, 0.20582, 0.1865, 0.23441, -0.01777, -2.1918, 0.29825, -0.0703, 0.06984, 0.0022, -0.14788}, {0.09266, 0.3341, 0.91392, 0.81012, 0.0155, 0.42702, -0.56569, -0.43549, 0.46434, -0.10723, 0.28947}, {-0.07902, -1.55689, 0.05269, 0.15194, 0.14559, 0.0438, -0.11546, 0.00777, 0.08348, 0.05838, -0.17604}, {-0.49488, 0.33002, -0.25844, 1.70256, 0.58546, 0.01061, -0.23397, 0.7317, -0.48533, 0.1722, 0.07188}, {0.58367, -1.54897, 1.12528, 0.20266, 0.42381, 0.11503, -1.56128, -0.26608, -1.85322, 1.32739, 0.24548}, {-0.51889, -0.8461, -0.67128, -1.87584, -0.54971, -0.51388, -1.15274, -0.07606, 0.42886, -0.81644, -0.57186}, {0.16681, 0.26115, -0.58794, -0.08228, -0.27265, -0.28733, -0.21687, -1.95253, -0.08532, 0.29059, 0.18183}, {0.02361, 0.00261, -0.03587, -0.13129, 0.14733, -0.07248, 0.15399, -0.0695, -3.09356, 1.22104, 0.23214}, {-0.05469, -0.00661, -0.12435, 0.01508, -0.09095, 0.11298, 0.07354, -0.14042, -2.05232, 0.12017, 0.24734}, {-0.00676, -0.05224, 0.09539, -0.07493, 0.02425, -0.12962, 0.01131, -0.34623, 1.27624, -1.76847, -0.26709}, {-0.20142, 0.4791, 0.43619, 0.27924, -0.11695, -1.73715, -1.34505, -0.37839, 0.07439, 0.3744, -0.351}, {-0.28778, 0.44403, 0.83022, -0.01738, 0.97478, -0.07707, 0.00363, -0.03304, -0.20862, 0.19263, 0.12041}, {-0.3179, 0.11058, 0.27739, -0.02204, -0.01742, -0.07903, 0.09803, -0.78545, -1.37118, -0.6371, 0.35382}, {0.03028, -0.03682, 0.02442, 0.03281, -0.08342, -0.05639, -0.03962, 0.05622, -1.23343, 1.38096, 0.13298}, {-0.33672, 0.8706, -0.01983, 2.09051, 0.51861, 0.02365, -0.07618, 0.09553, 0.31861, 0.16993, -0.43435}};
    Double_t biasesL1_23[15] = {1.98839, 1.64032, -2.68462, 2.0888, 0.34448, 4.48001, -1.80684, -1.79893, 0.21666, 0.78285, 1.33569, -1.2267, 1.67826, 0.45426, -3.23611};
    nets[23].SetWeightsL1(weightsL1_23);
    nets[23].SetBiasesL1(biasesL1_23);
    
    Double_t weightsL2_23[1][15] = {{1.13758, 0.87596, 2.96361, 0.30003, 0.38341, -0.50493, -0.4581, 1.62189, -1.84563, -1.47386, -0.53224, -0.57668, 0.94187, -1.98673, -1.05341}};
    Double_t biasesL2_23[1] = {2.66986};
    nets[23].SetWeightsL2(weightsL2_23);
    nets[23].SetBiasesL2(biasesL2_23);
    
    Double_t weightsL1_24[15][11] = {{-0.13037, 0.0905, 0.12715, 0.13009, 0.02826, -2.15375, 0.25894, -0.20055, 0.29523, 0.03178, -0.26867}, {0.21011, 0.22246, 0.81413, 0.52344, 0.05786, 0.23528, -0.48998, -0.42287, -0.75857, 0.52352, 0.75142}, {-0.00992, -2.03135, 0.09347, 0.21524, 0.11281, 0.06034, -0.05748, -0.01675, 0.26528, -0.06786, -0.27374}, {0.45783, 0.05501, -0.55758, 0.14939, 1.03624, 0.30957, -0.23009, 0.08024, 1.11645, 0.35023, -0.34746}, {0.38959, -1.97816, 1.55743, 0.03277, 0.26113, 0.05366, -1.62403, 0.43427, -1.05936, 0.75431, -0.45699}, {-0.45608, -0.3692, 0.25778, -0.8585, -0.12443, -0.11624, -0.04121, -0.02912, 0.80307, -0.10224, -0.95299}, {0.52954, 0.02325, -0.56563, -0.92365, -0.41052, -0.19121, -0.55468, -1.41784, -0.52593, 0.25093, 0.09657}, {0.00877, -0.02896, -0.16407, -0.10372, 0.08321, -0.01496, 0.10595, -0.02196, -1.91678, 0.4191, -0.39169}, {0.07319, -0.06992, -0.02865, 0.00203, -0.08195, 0.02396, 0.03951, -0.20021, -3.68502, 0.86804, 0.89492}, {-0.04085, -0.00907, -0.03314, -0.10112, -0.02007, -0.11124, 0.05672, -0.24969, 1.72601, -2.02259, -0.35549}, {-0.04689, 0.22618, 0.47656, 0.08034, -0.10126, -1.66359, -1.33754, -0.16658, -0.37375, 0.46588, -0.01339}, {-0.25335, 0.7311, 0.92477, 0.16784, 1.03404, -0.05449, -0.25409, -0.14613, -0.35664, 0.21109, 0.3241}, {-0.51819, 0.22417, 0.69578, -0.1157, 0.06144, -0.15737, -0.03297, -1.16774, -0.34641, -2.46641, -0.31561}, {0.07375, 0.12594, 0.06797, 0.08859, -0.06069, 0.01242, 0.00024, 0.01848, -0.99661, 1.76521, -0.49225}, {-0.05791, 0.80864, -0.31813, 1.78852, 0.25603, 0.0015, 0.01936, 0.13794, 0.01393, -0.09294, 0.05658}};
    Double_t biasesL1_24[15] = {1.96656, 1.49542, -3.37817, 4.12367, -0.14233, 1.81358, -2.11904, -1.38672, -0.17704, 0.79001, 1.43634, -1.93854, 3.52659, 0.20413, -2.51603};
    nets[24].SetWeightsL1(weightsL1_24);
    nets[24].SetBiasesL1(biasesL1_24);
    
    Double_t weightsL2_24[1][15] = {{1.13566, 1.38508, 3.14447, 0.58477, 0.28385, -1.97711, -0.55883, 1.67371, -1.59022, -1.84872, -0.52659, -0.71237, 0.67664, -1.40297, -1.62848}};
    Double_t biasesL2_24[1] = {1.89275};
    nets[24].SetWeightsL2(weightsL2_24);
    nets[24].SetBiasesL2(biasesL2_24);
    
    Double_t weightsL1_25[15][11] = {{0.00951, 0.20625, 0.17468, 0.25159, 0.15444, -2.53199, 0.28937, -0.0077, 0.00146, -0.04887, 0.05786}, {0.134, 0.29626, 0.95627, 0.64935, 0.07622, 0.30552, -0.50875, -0.37592, 0.46827, -0.25948, 0.66033}, {-0.00378, -1.53461, 0.03354, 0.14752, 0.13351, -0.00666, -0.07714, 0.0038, 0.29567, -0.08887, -0.28287}, {-0.69132, 0.20533, 0.47495, 1.28079, -0.23037, 0.02358, 0.27697, 1.03376, -0.51212, 0.01031, 0.26595}, {0.3962, -1.42215, 1.22952, -0.37063, 0.32938, 0.32963, -1.47616, 0.2843, -0.43768, 0.33239, -0.72195}, {-0.4489, -0.41526, 0.10626, -0.76762, -0.20221, 0.04052, -0.22921, -0.0481, 0.70745, -0.40645, -0.76398}, {-0.05934, 0.26106, -0.20282, -0.24698, -0.6887, -0.58598, -0.69705, -1.81874, -0.48682, 0.10541, 0.95057}, {0.05789, 0.09928, -0.13016, 0.08432, 0.13109, -0.0881, 0.15968, 0.06607, -2.51843, 0.93395, -0.16726}, {0.0548, 0.01174, -0.00243, -0.01431, -0.23753, 0.07286, 0.07207, -0.14053, -3.38701, 0.04321, 0.62288}, {0.00783, 0.02785, 0.0464, -0.05785, 0.07701, -0.11394, 0.02062, -0.3205, 1.75095, -1.7204, -0.48336}, {-0.27199, 0.30688, 0.5295, -0.03202, -0.1978, -1.32058, -1.13043, -0.21542, -0.49925, 0.58376, 0.07444}, {-0.29543, 0.91939, 1.04967, 0.38712, 1.61375, -0.1152, -0.10636, -0.09753, -0.80562, 0.12983, 0.74343}, {-0.1902, 0.17195, 0.42443, 0.32236, -0.23921, -0.14262, -0.02704, -0.97004, -0.91695, -1.38868, 0.29069}, {0.11948, -0.05326, -0.10191, 0.05634, -0.06039, -0.01913, 0.03517, 0.17768, -1.63698, 1.86977, -0.02881}, {-0.2641, 0.81076, -0.18134, 1.75764, 0.30927, -0.09821, 0.10862, 0.11008, -0.15037, 0.16508, 0.18128}};
    Double_t biasesL1_25[15] = {2.13852, 2.1225, -2.81037, 2.07409, 0.30953, 1.77636, -2.49146, -1.99902, 0.11666, 0.56051, 1.05469, -2.63711, 2.49198, 0.37772, -2.52477};
    nets[25].SetWeightsL1(weightsL1_25);
    nets[25].SetBiasesL1(biasesL1_25);
    
    Double_t weightsL2_25[1][15] = {{0.90334, 0.93914, 3.91785, 0.33739, 0.40763, -1.19357, -0.38079, 1.57656, -1.20111, -1.54925, -0.53895, -0.52883, 0.60024, -1.67207, -1.29626}};
    Double_t biasesL2_25[1] = {3.5422};
    nets[25].SetWeightsL2(weightsL2_25);
    nets[25].SetBiasesL2(biasesL2_25);
    
    Double_t weightsL1_26[15][11] = {{-0.13916, 0.27671, 0.16106, 0.31887, 0.14765, -2.82992, 0.52509, -0.05005, 0.13511, -0.19153, -0.134}, {-0.02919, 0.44999, 1.36223, 0.62735, 0.02943, 0.1565, -0.40679, -0.37898, -0.26609, 0.20202, 0.79958}, {-0.01585, -1.49926, 0.0839, 0.20757, 0.11063, 0.04459, -0.10996, 0.0451, 0.12331, -0.0567, -0.17863}, {0.91087, 0.44787, 0.60646, -0.54203, 0.40103, -0.87599, -1.14863, 1.86383, -0.107, -0.77509, 1.4605}, {0.66477, -1.99309, 1.48426, 0.26185, 0.28128, -0.11098, -1.27023, 0.73007, -0.78047, 0.45057, -0.89035}, {-0.50015, -0.20862, 0.06151, -1.36405, -0.2185, -0.39539, -0.35311, -0.06884, 0.69819, -0.28192, -0.95554}, {0.27104, 0.12134, -0.36493, -0.60008, -0.64915, -0.44442, -0.5367, -1.66934, -1.22121, -0.05309, 1.40701}, {0.13585, -0.03642, -0.21045, -0.06015, 0.12744, 0.05525, -0.00427, 0.0613, -2.32409, 0.61978, 0.02013}, {-0.00233, 0.06547, 0.1509, 0.07714, -0.09677, -0.01357, 0.15646, -0.10694, -4.11954, 0.96564, 0.86776}, {0.07762, -0.05218, -0.07006, -0.05477, -0.04043, -0.01658, 0.00279, -0.30217, 1.31882, -2.00938, -0.16174}, {-0.26809, 0.54019, 0.60784, 0.37557, -0.08792, -1.55671, -2.00871, -0.20483, -0.28376, 0.04623, 0.15444}, {-0.80321, 0.62654, 1.21153, -0.04605, 1.53189, -0.05147, 0.05932, -0.19156, -0.40243, 0.18316, -0.03366}, {-0.17965, 0.09812, 0.27887, 0.42645, -0.00658, -0.12189, -0.26099, -0.61748, 0.00709, -1.73349, -0.26485}, {0.10737, -0.00749, 0.08479, -0.07687, -0.00042, -0.04472, -0.09006, 0.0892, -1.32959, 1.85081, -0.18285}, {-0.30547, 0.8154, -0.10109, 1.88633, 0.27291, 0.04883, -0.05938, 0.30096, 0.3089, -0.14724, -0.12761}};
    Double_t biasesL1_26[15] = {2.49038, 1.68996, -2.6799, 4.46127, 0.46171, 2.89975, -2.12691, -1.73765, 0.11584, 0.74432, 1.5068, -2.00377, 2.75044, 0.42988, -2.71269};
    nets[26].SetWeightsL1(weightsL1_26);
    nets[26].SetBiasesL1(biasesL1_26);
    
    Double_t weightsL2_26[1][15] = {{0.8703, 1.01992, 3.15804, 0.76708, 0.28976, -0.803, -0.48343, 1.65628, -1.03779, -1.54335, -0.39419, -0.34322, 0.52713, -1.31992, -1.39228}};
    Double_t biasesL2_26[1] = {2.136};
    nets[26].SetWeightsL2(weightsL2_26);
    nets[26].SetBiasesL2(biasesL2_26);
    
    Double_t weightsL1_27[15][11] = {{0.01536, 0.12481, 0.13818, 0.13129, -0.01022, -1.93862, 0.21069, -0.05386, -0.59958, 0.12745, 0.51693}, {0.21734, 0.31965, 0.98346, 0.78337, 0.13102, 0.2514, -0.44597, -0.32399, 0.13517, 0.1059, 0.33874}, {-0.08473, -1.64361, 0.16749, 0.17166, 0.15591, -0.0572, -0.10072, -0.01392, 0.29052, -0.09324, -0.20314}, {0.66761, -0.07651, -0.1046, 0.37738, 0.46866, -0.32379, -0.63506, 1.16356, 0.98563, -1.41934, -0.11907}, {0.77472, -1.65974, 0.65195, -0.05587, 0.07379, 0.01118, -1.37939, 0.347, -0.83267, 0.23369, -0.34583}, {-0.46939, -0.35777, 0.10496, -0.98496, -0.09414, -0.12974, -0.12774, -0.08124, 0.53561, -0.5327, -0.42839}, {0.63878, 0.22872, -0.66829, -0.43131, -0.22099, -0.2497, -0.54591, -1.67887, 1.22531, -0.36477, -0.96726}, {0.01952, 0.04862, -0.04417, -0.05936, -0.00283, -0.05182, 0.00644, 0.08399, -2.34802, 0.7817, 0.0897}, {0.11712, -0.07917, -0.0882, 0.037, -0.09564, 0.02646, 0.11276, -0.10362, -2.98014, 0.63675, 0.53706}, {0.05654, 0.11233, 0.06904, -0.02614, -0.00287, -0.11209, -0.07347, -0.26438, 1.09254, -1.66452, -0.25291}, {0.24724, 0.10027, 0.22654, 0.04334, -0.15071, -1.02826, -1.4261, 0.15816, -0.92908, 0.55095, 0.65385}, {-0.34164, 0.74895, 1.34775, 0.46311, 1.18617, -0.0264, -0.21262, -0.33443, -0.11054, 0.22548, -0.26387}, {-0.21201, 0.23205, -0.00252, 0.44911, -0.43712, -0.29061, 0.01678, -1.41216, -0.09045, -3.11914, -0.07781}, {0.12907, 0.04889, 0.11579, -0.001, -0.03946, -0.01668, -0.14642, 0.16101, -1.40122, 1.70691, 0.09321}, {-0.59497, 1.08798, -0.11549, 1.90512, 0.18571, -0.14476, 0.2435, 0.13826, 0.47235, 0.10766, -0.22925}};
    Double_t biasesL1_27[15] = {2.05867, 1.75609, -2.82002, 2.34809, 0.06405, 1.88244, -1.80184, -1.35604, -0.13513, 0.70259, 1.09926, -2.76491, 4.18129, 0.64794, -2.30459};
    nets[27].SetWeightsL1(weightsL1_27);
    nets[27].SetBiasesL1(biasesL1_27);
    
    Double_t weightsL2_27[1][15] = {{1.09116, 1.14505, 2.37531, 0.44622, 0.34503, -1.27085, -0.42988, 1.90636, -1.45416, -1.5735, -0.56512, -0.46733, 0.58207, -1.44087, -1.04652}};
    Double_t biasesL2_27[1] = {2.16903};
    nets[27].SetWeightsL2(weightsL2_27);
    nets[27].SetBiasesL2(biasesL2_27);
    
    Double_t weightsL1_28[15][11] = {{-0.1248, 0.07591, -0.0728, 0.33632, -0.06972, -2.81261, 0.40188, -0.04692, -0.17763, -0.01044, 0.11454}, {-0.07565, 0.41609, 1.31216, 0.97081, 0.068, 0.23626, -0.69535, -0.28053, 0.23189, -0.21937, 0.41627}, {-0.12214, -2.11976, 0.18216, 0.26354, 0.22312, -0.01006, -0.09283, 0.14784, 0.03344, -0.07986, -0.08579}, {-0.80082, 1.23764, 0.0353, 0.99052, 0.8811, -0.3054, 0.33023, -0.72415, -0.56436, 0.83397, -0.22658}, {0.90815, -2.42108, 1.20719, -0.0097, 0.52592, 0.0598, -1.37295, 0.83938, -0.4963, 0.18331, -0.12174}, {-0.99506, -0.94877, 0.09744, -1.74078, -0.20179, 0.06551, -0.03164, -0.34355, -0.82542, -0.40057, 0.22878}, {0.23338, 0.83019, 0.06273, -1.12564, -1.01682, -0.59445, -1.20365, -3.52321, 0.18953, 0.61818, -0.16272}, {0.15352, -0.04568, -0.06215, 0.05919, 0.11779, 0.06265, 0.07114, 0.04274, -3.48143, 1.18779, 0.37157}, {-0.02702, -0.08697, -0.11848, -0.04709, -0.08267, 0.00297, 0.14724, -0.05771, -2.83303, 0.30063, 0.47255}, {-0.06111, -0.0623, 0.06128, -0.0724, -0.08743, -0.12729, 0.00965, -0.30598, 1.33868, -2.34672, -0.03562}, {-0.41574, 0.39062, 0.66482, -0.05708, -0.21362, -1.57417, -1.32087, -0.29156, -0.237, 0.35618, -0.07952}, {-0.52766, 0.58254, 1.52731, -0.25396, 1.46235, -0.07409, 0.1433, -0.06455, -0.08937, 0.28419, 0.05216}, {-0.20507, 0.09152, 0.11653, 0.40714, -0.0938, -0.36758, 0.22165, -0.92046, -1.01294, -1.48811, 0.31068}, {0.1013, 0.01755, -0.01578, 0.09814, -0.06862, -0.07772, 0.04189, 0.01555, -1.65142, 2.06441, -0.06669}, {-0.31442, 1.09671, -0.14019, 2.38213, 0.51589, -0.07706, -0.0939, 0.35477, 0.26368, 0.15848, -0.18579}};
    Double_t biasesL1_28[15] = {2.45777, 1.77339, -3.11887, 4.31569, 0.03828, 4.291, -3.74476, -2.03518, 0.04077, 0.98177, 1.45175, -2.49026, 2.37134, 0.51955, -3.24544};
    nets[28].SetWeightsL1(weightsL1_28);
    nets[28].SetBiasesL1(biasesL1_28);
    
    Double_t weightsL2_28[1][15] = {{0.93907, 0.76412, 1.57154, 0.29484, 0.32457, -0.69807, -0.38806, 1.34584, -1.24207, -1.20203, -0.53857, -0.40808, 0.50673, -1.17022, -1.0953}};
    Double_t biasesL2_28[1] = {1.30113};
    nets[28].SetWeightsL2(weightsL2_28);
    nets[28].SetBiasesL2(biasesL2_28);
    
    Double_t weightsL1_29[15][11] = {{-0.21725, 0.12133, 0.0822, 0.28594, 0.11844, -2.25173, 0.42959, -0.12123, -0.13895, 0.02327, 0.04526}, {0.53008, 0.14009, 1.64803, 0.76025, -0.14585, 0.43297, -0.79716, -0.85357, 0.29945, -0.26966, 0.94039}, {-0.05292, -1.86438, 0.07222, 0.07544, 0.09615, 0.03469, 0.01608, 0.05683, 0.14554, -0.14046, -0.07472}, {-0.01234, 0.77823, 0.79869, 0.75795, 0.04348, 0.01851, -1.35283, -0.46591, -0.14648, 0.28331, -0.19026}, {-0.32215, -1.80031, 0.90716, -1.07617, 0.75118, 0.15064, -0.09523, 0.66385, -1.12911, 0.25254, 0.21835}, {-0.52201, -0.38947, -0.06259, -1.0172, -0.13704, -0.20796, 0.24002, -0.20807, -0.11756, -0.31122, 0.04461}, {0.38563, 0.0052, -0.64286, -1.0419, -0.60428, -0.64272, 0.1729, -2.37378, -0.18927, 0.22225, 0.48177}, {-0.10452, -0.00811, 0.10747, 0.05139, 0.27981, 0.05002, 0.08468, -0.06746, -2.90238, 1.12805, 0.00815}, {0.26025, 0.05299, -0.20341, 0.07174, -0.26875, 0.07398, 0.0362, -0.04165, -3.3297, 0.15286, 0.69487}, {-0.09657, -0.09205, 0.0556, -0.12454, 0.0775, -0.08284, 0.02903, -0.34289, 1.43213, -1.56262, -0.47408}, {-0.26395, 0.13772, 0.27471, -0.16407, 0.01313, -0.68298, -1.03294, 0.05482, 0.12096, 0.23778, -0.13137}, {-0.40813, 0.52371, 0.95794, 0.52323, 1.04701, 0.07039, -0.13402, -0.39677, -0.5313, 0.44568, 0.20143}, {0.46649, 0.05302, -0.13466, 0.52214, -0.17519, 0.02233, 0.05505, -0.72588, -0.8748, -1.91213, 0.16653}, {-0.04982, -0.04606, 0.05192, -0.08788, -0.03289, 0.03579, 0.03956, 0.09283, -1.43241, 1.69292, 0.04518}, {-0.47471, 1.24487, 0.04755, 2.23401, 0.32947, 0.05955, 0.03899, 0.5308, 0.43224, -0.28573, 0.01968}};
    Double_t biasesL1_29[15] = {2.25255, 2.64076, -3.15727, 3.07207, -0.14224, 2.59563, -3.01936, -2.03361, 0.20369, 0.49072, 1.39375, -1.86712, 2.58173, 0.50581, -3.55676};
    nets[29].SetWeightsL1(weightsL1_29);
    nets[29].SetBiasesL1(biasesL1_29);
    
    Double_t weightsL2_29[1][15] = {{1.00365, 0.54995, 3.61783, 0.93995, 0.38766, -0.81183, -0.4736, 1.41002, -1.26432, -1.66021, -0.76226, -0.62523, 0.53367, -1.74431, -1.03989}};
    Double_t biasesL2_29[1] = {3.17172};
    nets[29].SetWeightsL2(weightsL2_29);
    nets[29].SetBiasesL2(biasesL2_29);
    
    Double_t weightsL1_30[15][11] = {{-0.10156, 0.22801, 0.08034, 0.33108, 0.00962, -2.29574, 0.28115, -0.09141, -0.30666, 0.23247, 0.33934}, {0.27254, 0.39486, 1.53445, 1.34172, 0.11066, 0.26586, -0.92523, -0.56574, -0.53805, 0.56454, 1.15823}, {-0.17198, -2.39501, 0.05942, -0.02198, 0.19082, 0.03801, 0.10931, 0.01116, 0.31954, -0.134, -0.09295}, {-0.3514, 1.58099, 1.14932, 1.28595, -0.29063, 0.35683, -1.36405, -1.18929, -1.38449, 1.07806, -0.14989}, {0.69126, -2.71404, 1.25625, -0.67419, 0.49746, 0.47649, -0.69813, 0.62133, -1.15773, 0.54667, 0.60312}, {-0.9109, -0.04449, 0.22408, -1.38818, -0.05198, -0.16125, -0.49213, -0.20528, 0.36511, -0.68896, -0.30373}, {0.35838, 0.29175, -0.25742, -1.27891, -0.52901, -0.55117, -0.67131, -2.07403, -0.96767, 0.2516, 0.75453}, {-0.00661, 0.01021, -0.02159, -0.01941, 0.08468, 0.04909, 0.06248, 0.05577, -1.76949, 0.43344, -0.27538}, {0.00433, 0.07256, 0.05023, -0.10488, -0.12905, -0.01441, 0.16819, -0.10224, -4.10411, 0.86035, 0.88247}, {0.10889, -0.11296, -0.24715, 0.05391, -0.03576, -0.0471, 0.05003, -0.21986, 1.72844, -2.07973, -0.38019}, {-0.05893, 0.18484, 0.26611, 0.18848, -0.36004, -1.20152, -0.78049, -0.18168, -0.3504, 0.24683, 0.04241}, {-0.59006, 0.40888, 0.92951, -0.12903, 1.22266, 0.09495, 0.3168, 0.10685, -0.14453, 0.70403, -0.58837}, {-0.11022, 0.10596, 0.07749, 0.10592, 0.00701, -0.1823, 0.14855, -0.77677, -0.49875, -2.06784, 0.21691}, {-0.1001, 0.05723, 0.10307, -0.01185, -0.00697, 0.02986, 0.04649, 0.01327, -1.41671, 1.79535, -0.23328}, {-0.34469, 1.15752, -0.54871, 2.1964, 0.27837, -0.04978, -0.03509, 0.26271, 0.92933, -0.38275, -0.48051}};
    Double_t biasesL1_30[15] = {1.86403, 2.57593, -3.00111, 5.32386, -0.15237, 3.13396, -2.58924, -1.28592, -0.05933, 0.84195, 0.95191, -1.65065, 2.52833, 0.39302, -3.04699};
    nets[30].SetWeightsL1(weightsL1_30);
    nets[30].SetBiasesL1(biasesL1_30);
    
    Double_t weightsL2_30[1][15] = {{0.99916, 0.66697, 1.23964, 1.0025, 0.28361, -0.53359, -0.46072, 1.72638, -1.20115, -1.84453, -0.65422, -0.51583, 0.75023, -1.42445, -0.85021}};
    Double_t biasesL2_30[1] = {0.40717};
    nets[30].SetWeightsL2(weightsL2_30);
    nets[30].SetBiasesL2(biasesL2_30);
    
    Double_t weightsL1_31[15][11] = {{-0.10465, 0.12383, 0.03556, 0.04583, -0.0125, -2.04903, 0.33581, 0.12017, -0.27599, -0.14449, 0.3987}, {0.14788, 0.36984, 0.98325, 0.69554, 0.18533, 0.09131, -0.51393, -0.44102, -0.51772, 0.46309, 0.56409}, {-0.10109, -1.55399, 0.01059, 0.1545, 0.13718, 0.00254, -0.04462, 0.04246, 0.32004, -0.09326, -0.22136}, {-0.64028, 0.29345, 0.92685, 0.35501, 0.46404, -0.30954, -1.38229, 0.70118, 0.30047, -0.24157, 0.16203}, {0.45264, -1.74518, 0.95366, -0.79646, 0.4634, -0.26718, -0.74866, 0.60564, 0.27255, -0.53749, -0.65702}, {-0.59258, -0.25971, -0.57877, -1.19336, 0.26343, -0.40437, -0.79495, -0.25738, 0.42617, -0.90177, -0.49864}, {0.40044, 0.22168, -0.53052, -0.88293, -0.01641, -0.77278, -0.59362, -2.07855, -0.56845, 0.31866, 0.48527}, {0.04285, -0.07689, 0.01232, -0.11893, 0.03612, 0.03169, 0.07919, 0.07939, -2.56892, 0.61737, 0.17248}, {0.12833, 0.03065, -0.13288, 0.17402, -0.04515, 0.04806, 0.09679, -0.07301, -3.49913, 0.90735, 0.57907}, {0.02115, 0.04428, 0.08679, -0.09156, -0.07421, -0.13187, -0.04064, -0.3084, 1.47989, -1.97192, -0.36669}, {-0.70079, 0.52486, 0.59718, -0.14742, -0.07261, -2.00722, -2.20585, -0.36739, -0.38661, 0.71999, -0.15835}, {-0.70399, 0.95718, 1.48511, -0.89786, 2.35274, 0.01446, -0.00114, 0.67349, -0.14956, 0.29796, 0.18667}, {-0.11655, 0.48819, 0.24298, 0.50725, 0.15807, -0.15225, 0.1198, -1.02278, -0.51365, -1.57566, 0.01459}, {-0.13789, -0.07806, 0.31025, -0.1822, -0.08637, -0.106, -0.0384, 0.17862, -1.48194, 2.15181, -0.20057}, {-0.52287, 0.87508, -0.246, 2.20971, 0.27947, 0.00448, 0.08747, 0.15689, 0.22185, 0.10542, 0.08718}};
    Double_t biasesL1_31[15] = {2.07816, 1.62598, -2.48765, 2.95605, 0.42478, 4.01188, -2.23743, -1.39039, -0.21197, 0.73589, 2.12697, -3.15751, 2.47127, 0.61571, -3.10523};
    nets[31].SetWeightsL1(weightsL1_31);
    nets[31].SetBiasesL1(biasesL1_31);
    
    Double_t weightsL2_31[1][15] = {{1.01486, 1.06251, 2.41567, 0.39741, 0.21023, -0.58011, -0.42478, 1.53221, -1.45783, -1.54895, -0.46061, -0.27686, 0.57643, -0.99468, -0.95026}};
    Double_t biasesL2_31[1] = {1.38287};
    nets[31].SetWeightsL2(weightsL2_31);
    nets[31].SetBiasesL2(biasesL2_31);
    
    Double_t weightsL1_32[15][11] = {{-0.10913, 0.25471, 0.03341, 0.35754, 0.13221, -2.45672, 0.44361, 0.00906, 0.28936, -0.05601, -0.25051}, {-0.18643, 0.00808, 0.68056, 0.65274, 0.09051, 0.06571, -0.05661, -0.53463, -0.30502, 0.35582, 0.49215}, {-0.1145, -1.87575, 0.06303, 0.074, 0.10817, 0.01043, 0.02761, -0.10813, -0.0504, 0.18161, 0.02242}, {0.29878, 0.32828, 0.54552, 0.25766, 0.60647, 0.12307, -0.49192, -0.00531, -0.22303, 0.59, -0.00124}, {0.80553, -1.95742, 0.66127, 0.08096, -0.03415, 0.61249, -0.79965, 0.19599, 0.02731, 0.27788, 0.22106}, {-0.66937, -0.56623, 0.06325, -1.27385, -0.19965, -0.12353, -0.39137, -0.17753, 0.91509, -0.41361, -0.37869}, {0.44469, 0.31523, -0.44946, -0.49804, -0.2525, -0.3513, -0.85323, -1.28196, -0.65351, 0.25405, 0.61946}, {-0.00206, 0.02252, -0.10489, -0.08584, -0.07412, 0.0428, 0.01883, 0.09206, -2.09092, 0.47706, 0.09156}, {0.0289, 0.06566, 0.07508, 0.05097, -0.00668, 0.03472, 0.02063, -0.13339, -2.89256, 0.74253, 0.55349}, {-0.03282, -0.06217, -0.06932, -0.03198, -0.09742, -0.08906, 0.10457, -0.20692, 1.93165, -2.32137, -0.44934}, {-0.33043, -0.01999, 0.19712, -0.08347, 0.02003, -1.43829, -1.4148, -0.22403, -0.61697, 0.42989, 0.22429}, {-0.75349, 0.3977, 0.66282, -1.08139, 0.916, -0.31616, 0.66812, -0.46153, -0.0311, 0.71154, 0.38972}, {-0.14133, 0.30842, 0.12335, 0.08458, -0.22598, -0.05464, -0.02102, -0.95042, -0.71558, -3.08665, 0.37276}, {0.04935, 0.09224, 0.07112, 0.02117, 0.04243, 0.05175, -0.00083, 0.07159, -1.18348, 1.679, -0.18396}, {-0.38925, 1.14451, -0.22858, 2.0245, 0.37096, -0.01416, 0.1579, 0.06343, -0.13492, 0.18478, 0.0792}};
    Double_t biasesL1_32[15] = {2.15825, 1.63788, -2.87768, 1.30937, -0.54306, 2.81462, -1.81668, -1.16726, -0.0558, 0.83639, 1.36267, -2.07496, 3.66803, 0.21805, -2.48822};
    nets[32].SetWeightsL1(weightsL1_32);
    nets[32].SetBiasesL1(biasesL1_32);
    
    Double_t weightsL2_32[1][15] = {{0.8837, 1.05378, 2.9061, 1.08329, 0.12596, -0.83186, -0.50296, 1.86549, -1.729, -1.78821, -0.4274, -0.30951, 0.6046, -1.63558, -0.93451}};
    Double_t biasesL2_32[1] = {2.07638};
    nets[32].SetWeightsL2(weightsL2_32);
    nets[32].SetBiasesL2(biasesL2_32);
    
    Double_t weightsL1_33[15][11] = {{0.04606, 0.15426, 0.01378, 0.3041, 0.05662, -2.8269, 0.25923, -0.19519, -0.54454, 0.20768, 0.56418}, {-0.0542, 0.41667, 1.14647, 1.08573, -0.07388, 0.1552, -0.50809, -0.41643, 0.17587, 0.05532, -0.02581}, {-0.07345, -1.57339, -0.03187, 0.27898, 0.04923, 0.0039, 0.03096, 0.0402, 0.02395, -0.02911, 0.04785}, {0.42907, 0.432, 0.67794, 0.64796, 0.76389, -0.01621, -0.72302, -0.04035, -0.82276, 1.1998, 0.29472}, {-0.99726, -0.71319, 0.28171, -0.67114, 0.39882, -0.15361, -0.10905, -0.55331, -0.30143, 0.53282, -0.94899}, {-0.92548, -0.02114, -0.01738, -1.25616, 0.16469, -0.32868, -0.24609, 0.03069, 0.30589, -0.49579, -0.42838}, {-0.01882, 0.15192, -0.08444, -0.39017, -0.53722, -0.08313, -0.35225, -1.9659, -0.50518, 0.67168, 0.24478}, {-0.03282, 0.02231, 0.03278, -0.13385, 0.02152, 0.05821, 0.02278, -0.00165, -1.85143, 0.23846, 0.02804}, {0.09694, 0.08284, -0.0995, 0.12287, -0.04912, -0.05252, 0.16758, -0.04233, -3.40553, 0.68174, 0.69853}, {-0.10649, -0.00171, 0.06483, -0.12447, -0.0441, -0.02601, 0.01759, -0.32857, 1.84884, -2.11244, -0.29153}, {-0.33024, 0.395, 0.59504, 0.18161, -0.2112, -1.62871, -1.33019, -0.50555, -0.45942, 0.52625, 0.083}, {0.13761, 0.68489, 1.22304, -1.15059, 1.36918, -0.05142, -1.0037, -0.1258, -0.10625, 0.1331, -0.76653}, {-0.23754, 0.18752, 0.13066, 0.17594, 0.06787, -0.14745, 0.01696, -0.7463, 0.07528, -2.17681, -0.33461}, {-0.05647, 0.10068, -0.00312, 0.12069, -0.0268, 0.04393, 0.00449, 0.02615, -1.58627, 1.77839, -0.2688}, {-0.47185, 0.89071, -0.08033, 2.22975, 0.38755, -0.14109, 0.00747, 0.31388, 0.79446, 0.08406, -0.5323}};
    Double_t biasesL1_33[15] = {2.36772, 1.77154, -2.65109, 1.67314, -2.21773, 3.27812, -1.8563, -1.2833, -0.07464, 1.06353, 1.18975, -1.41143, 2.56047, 0.23877, -3.01053};
    nets[33].SetWeightsL1(weightsL1_33);
    nets[33].SetBiasesL1(biasesL1_33);
    
    Double_t weightsL2_33[1][15] = {{0.8393, 0.90785, 2.88393, 0.56414, 0.32271, -0.68711, -0.48682, 1.88993, -1.56469, -1.86695, -0.51961, -0.3063, 0.83413, -1.19014, -1.03209}};
    Double_t biasesL2_33[1] = {2.92125};
    nets[33].SetWeightsL2(weightsL2_33);
    nets[33].SetBiasesL2(biasesL2_33);
    
    Double_t weightsL1_34[15][11] = {{-0.03229, 0.03981, 0.05243, 0.1022, 0.24175, -2.05343, 0.21421, 0.1398, -0.2717, 0.01862, 0.30004}, {0.26694, 0.25095, 0.82069, 0.911, -0.19232, 0.25001, -0.58028, -0.22791, -0.50731, 0.00215, 0.74715}, {-0.04439, -1.27595, -0.12614, 0.29416, 0.04114, 0.02003, 0.03036, 0.02705, -0.30423, 0.10417, 0.26815}, {0.03671, 0.58447, 0.79538, -0.07001, 0.80943, -0.00238, -0.51685, -0.2887, -0.21161, 0.31401, 0.02888}, {-1.13211, -0.66592, 0.67647, -0.86478, 0.01529, -0.10907, -0.28234, 0.21613, 0.942, 1.4974, -1.87701}, {-1.04337, 0.34056, 0.18848, -1.19474, 0.38041, 0.05557, -0.32124, -0.18817, 0.72496, -0.4796, -1.11877}, {0.5373, -0.01571, -0.22753, -1.05254, -0.50397, -0.27774, 0.08953, -1.74316, -0.60489, 0.44596, 0.66077}, {0.00341, -0.22167, 0.01941, -0.00503, 0.11226, 0.06304, 0.07429, 0.09419, -2.30553, 0.75295, -0.29042}, {0.06457, 0.16269, -0.09765, 0.01725, -0.08464, 0.14051, 0.08188, -0.23656, -4.48209, 0.93761, 0.97522}, {-0.15049, -0.10847, 0.09301, -0.05417, 0.02059, -0.056, 0.0006, -0.30935, 1.78089, -2.28739, -0.51095}, {-0.17147, -0.0647, 0.68222, -0.44938, 0.33615, -1.44893, -1.87436, 0.1024, -0.49298, 0.57083, 0.3327}, {1.19308, -0.7235, -0.41435, -1.66717, -0.19691, 1.57267, 1.73737, 1.15706, -0.37485, 0.8518, 0.20053}, {-0.01896, 0.03495, 0.04746, 0.30439, 0.00207, -0.03729, 0.10042, -0.7117, -0.19026, -1.78988, 0.07719}, {-0.0349, 0.05344, 0.13262, -0.07598, -0.02426, -0.0775, -0.01767, 0.08646, -1.12831, 1.88778, -0.403}, {-0.32911, 0.97927, -0.34687, 2.26629, 0.46667, -0.24353, 0.05421, 0.13614, -0.01421, 0.12956, 0.01927}};
    Double_t biasesL1_34[15] = {1.9107, 1.70036, -2.04731, 1.45593, -1.38904, 3.70214, -2.85545, -1.83384, 0.07626, 0.95017, 1.82347, -0.38289, 2.1628, 0.43373, -3.00417};
    nets[34].SetWeightsL1(weightsL1_34);
    nets[34].SetBiasesL1(biasesL1_34);
    
    Double_t weightsL2_34[1][15] = {{0.96141, 0.83971, 2.04161, 0.65472, 0.36336, -0.39785, -0.45941, 1.5021, -1.20234, -1.53866, -0.40063, 0.25431, 0.99415, -1.28076, -0.92025}};
    Double_t biasesL2_34[1] = {1.51932};
    nets[34].SetWeightsL2(weightsL2_34);
    nets[34].SetBiasesL2(biasesL2_34);
    
    Double_t weightsL1_35[15][11] = {{0.09506, 0.25685, 0.12864, 0.29708, 0.09588, -2.46053, 0.31184, -0.00839, -0.36676, 0.20083, 0.2732}, {-0.02266, 0.25679, 1.10299, 0.75645, 0.02974, 0.22501, -0.4437, -0.29049, 0.26159, 0.04968, 0.31361}, {-0.09133, -1.32872, 0.04757, 0.1938, 0.08174, -0.01352, -0.03685, -0.01719, 0.21459, 0.00571, -0.1903}, {0.57795, 0.52529, 0.42928, 0.11559, 1.01222, -0.14646, -0.34583, -0.27946, -0.20931, 0.71435, 0.11208}, {-0.58021, -0.65765, -0.16307, -0.8044, -0.28342, 1.16624, -0.2811, 0.27703, -0.80553, -0.42668, -0.1953}, {-0.84644, -0.68474, -0.18992, -1.62577, -0.66273, -0.37625, -0.77584, -0.07487, -0.11034, -0.62034, -0.35267}, {0.40589, 0.46533, 0.03994, -0.34516, -0.3581, -0.3515, -0.69271, -1.67768, 0.37406, 0.439, -0.42916}, {0.09628, -0.08516, -0.12054, -0.05486, 0.03622, -0.10777, 0.06577, -0.03116, -2.31763, 0.71689, 0.03078}, {-0.01821, 0.09809, 0.02016, 0.03714, -0.05336, 0.07618, 0.09079, -0.05911, -3.2943, 0.67948, 0.71236}, {0.00657, -0.0583, -0.02742, -0.01772, 0.05174, -0.1427, 0.0408, -0.27807, 1.33073, -1.73025, -0.45809}, {0.04134, 0.45972, 0.15878, -0.05441, -0.1622, -1.4822, -1.48407, -0.36553, -0.15403, 0.60912, -0.17022}, {-0.08859, 0.27349, -1.29867, 2.22634, -0.07182, -0.54468, -0.22332, 1.20479, 1.36966, -0.37627, 0.14609}, {-0.06869, -0.08395, 0.23824, 0.21041, -0.17765, -0.12421, -0.24443, -0.75886, -0.04889, -1.65919, -0.55223}, {-0.01525, -0.01018, 0.07076, -0.06307, 0.04046, -0.09008, -0.00776, -0.04034, -1.45964, 1.89208, 0.05046}, {-0.35976, 0.82617, 0.10397, 1.7857, 0.48897, -0.13774, -0.07351, 0.14515, 0.54783, -0.03954, -0.23645}};
    Double_t biasesL1_35[15] = {2.22436, 1.7908, -2.40002, 1.67657, -2.04295, 4.08606, -2.02073, -1.55498, -0.10821, 0.63251, 1.39855, 1.08885, 2.79161, 0.58119, -2.63163};
    nets[35].SetWeightsL1(weightsL1_35);
    nets[35].SetBiasesL1(biasesL1_35);
    
    Double_t weightsL2_35[1][15] = {{1.19334, 1.14535, 3.32633, 0.63608, 0.4656, -0.48236, -0.44974, 1.7387, -1.31988, -1.48409, -0.50261, 0.07348, 0.5933, -1.31062, -1.13808}};
    Double_t biasesL2_35[1] = {2.63707};
    nets[35].SetWeightsL2(weightsL2_35);
    nets[35].SetBiasesL2(biasesL2_35);
    
    Double_t weightsL1_36[15][11] = {{0.20976, 0.12565, 0.06095, 0.19473, -0.07247, -2.12878, 0.19055, -0.00283, 0.10099, -0.08394, -0.08788}, {0.13464, 0.41833, 1.14193, 0.99995, 0.1619, 0.22424, -0.5944, -0.47296, -0.56022, 0.29567, 0.65987}, {-0.09524, -1.48453, -0.01136, 0.20083, 0.07267, 0.03385, 0.04541, 0.01972, 0.29334, -0.04097, -0.22488}, {0.48726, 0.89952, 0.72164, 0.02031, 1.45551, -0.26215, -0.64934, -0.43544, 0.67704, 0.2674, -0.28437}, {-0.32523, -0.58005, -0.07403, -0.55663, 0.0294, 0.23383, -0.44246, -0.15644, 0.58665, 0.25258, -1.1044}, {-0.40419, -0.3099, 0.17486, -0.88855, -0.12445, 0.10661, -0.07841, -0.11158, -0.49695, -0.16074, 0.24291}, {0.30671, 0.38447, -0.12652, -0.69365, -0.39077, -0.42117, -0.80207, -2.19291, 0.45386, 0.37656, 0.04942}, {0.16406, -0.08091, -0.10309, 0.15484, 0.02475, 0.05054, 0.05471, 0.11841, -3.26373, 1.06248, 0.57146}, {0.06979, 0.04089, -0.08617, -0.01847, -0.05416, 0.01351, 0.16936, -0.14359, -3.38308, 0.39953, 0.40575}, {-0.06552, -0.07997, 0.0522, -0.05568, 0.02848, -0.09922, -0.14645, -0.45278, 1.71219, -2.27542, -0.14566}, {0.1068, 0.31346, 0.36249, 0.08305, -0.11097, -2.10791, -1.63915, -0.18837, -0.51197, 0.37837, 0.49165}, {-1.03431, -0.72135, -1.15947, -1.51277, -0.25065, -0.5194, -0.54759, 0.78939, -0.7406, 0.38224, -0.15269}, {-0.55054, 0.2291, 0.45808, 0.33868, -0.0792, 0.01867, 0.15193, -1.08618, -1.31635, -0.69673, 0.37216}, {0.03233, 0.00943, 0.02105, 0.02605, -0.07864, -0.07294, -0.03479, -0.01094, -1.37993, 1.76489, -0.13735}, {-0.14569, 0.66082, -0.22807, 1.40924, 0.19458, -0.08418, 0.1563, 0.18661, 0.70167, -0.05465, -0.37589}};
    Double_t biasesL1_36[15] = {1.80566, 1.64912, -2.29105, 2.36938, -1.09699, 1.94648, -2.16086, -1.8846, 0.27086, 0.98385, 1.2861, -0.85301, 2.36949, 0.40951, -2.03685};
    nets[36].SetWeightsL1(weightsL1_36);
    nets[36].SetBiasesL1(biasesL1_36);
    
    Double_t weightsL2_36[1][15] = {{1.127, 0.94431, 2.29609, 0.29744, 0.38322, -1.71957, -0.48539, 1.25089, -1.21121, -1.17469, -0.49023, 0.16216, 0.57646, -1.38465, -1.85744}};
    Double_t biasesL2_36[1] = {2.51101};
    nets[36].SetWeightsL2(weightsL2_36);
    nets[36].SetBiasesL2(biasesL2_36);
    
    Double_t weightsL1_37[15][11] = {{-0.06711, 0.11598, 0.11342, 0.06197, -0.01535, -1.99992, 0.25955, -0.14127, 0.00857, -0.03316, -0.06912}, {0.33747, 0.33555, 1.06878, 0.96882, -0.16495, 0.36931, -0.73631, -0.48532, -0.07251, 0.10214, 0.43117}, {0.00487, -1.64068, -0.044, 0.18536, 0.05696, 0.06887, -0.03865, -0.00252, 0.16418, -0.08949, -0.17217}, {0.01408, 0.83923, 1.13948, 0.06166, 0.82896, -0.12368, -0.89451, -0.2262, 0.47956, 0.078, -0.45811}, {-0.82912, -0.96001, 0.25831, -0.93308, 0.33933, -0.36736, -0.91503, -0.63811, -0.35027, 0.97199, -0.16264}, {-0.4604, -0.18401, -0.12827, -0.92953, 0.27787, -0.30939, -0.35323, -0.2408, 0.49339, -0.44404, -0.53609}, {0.08354, 0.36292, -0.02184, -0.70302, -0.32432, -0.33873, -0.77333, -1.76186, 0.12587, 0.32811, 0.30699}, {0.0398, -0.13006, -0.09423, -0.01014, 0.03737, -0.03887, 0.21676, 0.2155, -2.99862, 1.03388, 0.32359}, {-0.03506, 0.15749, -0.12172, 0.09353, -0.04339, 0.1479, 0.10706, -0.18567, -2.72703, 0.37829, 0.30562}, {0.01214, -0.06695, 0.122, -0.15408, 0.00799, -0.11359, -0.04241, -0.29807, 1.69925, -2.23085, -0.47718}, {-0.08057, 0.22238, 0.35612, -0.06812, -0.09728, -1.32203, -0.8769, -0.14641, -0.73033, 0.05223, 0.6535}, {1.29003, -1.38797, -2.94192, 0.17665, -0.40892, -0.51257, -0.50705, 0.29678, 0.39986, -1.28592, -0.4994}, {-0.48994, -0.36282, 0.10855, 0.32732, 0.17156, -0.22705, 0.51936, -0.5412, -1.07365, -1.09221, 0.05143}, {0.11387, -0.02626, -0.10857, 0.11486, -0.02832, -0.05264, -0.03048, 0.09806, -1.51489, 1.90508, 0.0328}, {-0.4022, 0.93125, -0.2455, 1.93602, 0.21755, 0.01755, 0.06028, 0.19133, 0.08903, -0.0114, 0.0881}};
    Double_t biasesL1_37[15] = {1.90292, 1.87986, -2.71029, 1.39544, -2.28005, 2.70087, -1.9128, -1.90018, 0.18962, 0.59801, 0.79587, 0.91291, 2.41059, 0.49104, -2.74242};
    nets[37].SetWeightsL1(weightsL1_37);
    nets[37].SetBiasesL1(biasesL1_37);
    
    Double_t weightsL2_37[1][15] = {{1.14257, 0.91184, 2.9992, 0.60675, 0.46447, -0.81117, -0.54129, 1.58134, -1.27836, -1.26303, -0.68392, 0.24891, 0.35293, -1.50979, -1.03695}};
    Double_t biasesL2_37[1] = {3.20048};
    nets[37].SetWeightsL2(weightsL2_37);
    nets[37].SetBiasesL2(biasesL2_37);
    
    Double_t weightsL1_38[15][11] = {{-0.01732, 0.03924, 0.0129, 0.26391, 0.06132, -2.02078, 0.29568, -0.09094, -0.29539, 0.10419, 0.08103}, {0.35281, 0.33825, 0.97513, 0.63768, 0.09393, 0.27861, -0.80509, -0.37691, 0.20911, -0.00936, 0.34245}, {-0.12895, -1.3202, -0.00835, 0.1234, 0.06553, -0.07857, 0.11198, -0.03745, 0.1981, 0.03765, -0.20762}, {-0.04152, 0.92137, 1.35954, -0.38431, 1.58486, -0.49911, -0.29098, -0.09285, -0.1029, 0.26487, 0.17098}, {-0.0226, -0.39588, -0.07114, -0.10426, -0.19708, 0.39819, -0.37322, 0.0232, -0.50383, 0.23105, 0.38675}, {-0.86774, -0.22857, 0.46881, -1.24382, -0.13232, 0.01079, -0.18258, -0.04891, 0.55053, -0.17724, -0.7553}, {0.31375, 0.2111, -0.06877, -0.78184, -0.34324, -0.32349, -0.71395, -1.49047, -0.24582, 0.0593, 0.44547}, {-0.02157, -0.11649, 0.05966, -0.08275, 0.12428, 0.01541, 0.06128, 0.09656, -2.82486, 1.17851, 0.05494}, {0.01142, 0.03038, -0.19483, -0.03958, -0.10061, 0.05269, 0.14869, -0.13627, -2.95213, 0.34762, 0.31596}, {0.00731, -0.07783, 0.04439, -0.0911, 0.08756, -0.00361, -0.08017, -0.43827, 1.56163, -2.36679, -0.23215}, {0.09269, 0.05155, 0.14484, 0.17385, 0.1066, -1.61411, -1.11619, -0.2299, -0.41845, -0.06739, 0.40414}, {0.82991, -0.40241, -2.43619, 0.01255, 0.29232, -0.59092, -0.7857, 0.45464, -0.87115, -1.99795, 0.03179}, {-0.17112, 0.40139, 0.22253, 0.47167, -0.05493, 0.09033, 0.00086, -1.15158, -0.54119, -0.96507, -0.34078}, {-0.00998, 0.02347, 0.0516, -0.02275, -0.02878, -0.07372, 0.02018, 0.09736, -1.29036, 1.60883, 0.09471}, {-0.34962, 0.99631, -0.19759, 2.08241, 0.35651, -0.1876, 0.05302, 0.10261, 0.68092, -0.20714, -0.21533}};
    Double_t biasesL1_38[15] = {1.78675, 1.57204, -2.35275, 2.45647, -1.28988, 2.26015, -1.86758, -1.72651, 0.09845, 0.71456, 0.96212, 0.15611, 2.36803, 0.36737, -2.7817};
    nets[38].SetWeightsL1(weightsL1_38);
    nets[38].SetBiasesL1(biasesL1_38);
    
    Double_t weightsL2_38[1][15] = {{1.24444, 0.88041, 3.54666, 0.45472, 1.02549, -0.72939, -0.56701, 1.47201, -1.34016, -1.27104, -0.60255, 0.24366, 0.3911, -1.85922, -1.26032}};
    Double_t biasesL2_38[1] = {3.76784};
    nets[38].SetWeightsL2(weightsL2_38);
    nets[38].SetBiasesL2(biasesL2_38);
    
    Double_t weightsL1_39[15][11] = {{-0.15744, 0.25744, 0.04148, 0.19421, -0.02512, -1.77784, 0.28165, 0.00743, -0.25756, 0.04922, 0.25514}, {0.13669, 0.25278, 1.13985, 1.03546, -0.14286, 0.24392, -0.55158, -0.6258, -0.01328, 0.12185, 0.43225}, {-0.09844, -1.26585, -0.03632, 0.39728, 0.06259, -0.02787, 0.02623, 0.00781, 0.0268, 0.13079, -0.09574}, {-0.04814, 1.02385, 1.21542, -0.28314, 1.13116, -0.23134, -0.5804, -0.46938, -0.14364, 0.42751, 0.01368}, {0.07738, -0.43558, 0.11627, -0.25186, -0.04046, 0.6628, -0.36898, 0.01289, 0.10276, -0.28553, 0.04983}, {-0.72591, -0.32627, 0.73363, -1.1644, 0.17456, -0.18025, -0.22007, 0.33277, 0.32491, -0.22644, -0.56073}, {0.39958, -0.03375, -0.58281, -0.40456, -0.66882, -0.10763, -0.22434, -1.4676, -0.30022, 0.15576, 0.50885}, {0.09362, -0.21772, -0.21874, -0.02196, 0.05399, 0.09874, 0.03422, 0.11098, -2.43311, 0.653, 0.13071}, {-0.07441, 0.11384, 0.07555, -0.04918, -0.02035, 0.06518, 0.06486, -0.15187, -3.11201, 0.76126, 0.4534}, {-0.00961, -0.04626, 0.00196, -0.00254, -0.00818, -0.01612, -0.00594, -0.28127, 1.58671, -1.91173, -0.29715}, {-0.24181, 0.15684, 0.08635, 0.08573, -0.11968, -1.19459, -0.81414, -0.15433, -0.6665, 0.29811, 0.44875}, {0.214, 0.25598, -0.66538, -0.53176, -0.16308, -0.22419, -1.23331, 0.47108, 0.31646, -0.14629, -0.27524}, {-0.14941, -0.40696, -0.34944, 0.47703, 0.14221, -0.24481, 0.29359, -0.83775, -0.23212, -1.5957, -0.10639}, {0.07748, 0.04789, -0.03583, 0.09441, 0.02557, -0.03061, -0.08157, 0.13898, -1.51691, 1.82437, 0.06215}, {-0.25094, 0.91123, -0.58497, 2.37792, 0.32115, -0.03347, 0.12286, 0.0087, 0.57009, 0.01386, -0.35615}};
    Double_t biasesL1_39[15] = {1.70803, 2.00101, -2.20062, 1.79892, -1.05937, 2.34142, -1.93967, -1.54677, -0.06662, 0.60105, 1.05318, -0.47457, 2.51309, 0.21241, -3.14152};
    nets[39].SetWeightsL1(weightsL1_39);
    nets[39].SetBiasesL1(biasesL1_39);
    
    Double_t weightsL2_39[1][15] = {{1.60365, 1.01477, 2.30733, 0.43198, 0.78677, -1.00512, -0.60574, 1.71756, -1.37817, -2.04066, -0.79792, 0.18349, 0.54856, -1.67052, -1.2893}};
    Double_t biasesL2_39[1] = {2.17437};
    nets[39].SetWeightsL2(weightsL2_39);
    nets[39].SetBiasesL2(biasesL2_39);
    
    Double_t weightsL1_40[15][11] = {{0.09659, -0.00754, 0.15469, -0.04255, -0.07797, -1.94889, 0.21394, -0.13383, 0.21225, -0.0476, -0.20572}, {0.26599, 0.2435, 0.84908, 0.93423, -0.09356, 0.32467, -0.55778, -0.34206, -0.05226, 0.3156, 0.22933}, {0.01354, -1.57805, -0.06292, 0.1617, 0.0728, -0.01364, -0.04032, 0.04675, 0.21307, -0.07765, -0.14053}, {0.33725, 0.79047, 1.25022, -0.14816, 1.1285, -0.08569, -0.57904, -0.16244, 0.05943, 0.2459, 0.0027}, {-0.31263, -0.01454, -0.18368, 0.2742, 0.25238, 1.23755, -0.14573, 0.60355, -1.37031, -0.24085, 1.37495}, {-0.546, -0.29456, -0.2009, -0.94663, -0.0689, -0.18538, -0.3238, 0.03679, 1.04486, -0.74694, -0.59888}, {0.19947, 0.09928, -0.40549, -0.37523, -0.48798, -0.31947, 0.10493, -1.82612, -0.12417, 0.85777, -0.11551}, {-0.07158, -0.08336, -0.07359, -0.07547, 0.06968, -0.09263, 0.12135, -0.01074, -2.37001, 0.79895, 0.05007}, {0.15542, 0.15007, -0.10115, 0.16379, -0.06725, 0.15567, 0.04577, -0.11818, -3.19057, 0.61497, 0.61128}, {0.03397, -0.05826, -0.00876, -0.09992, 0.05167, -0.06457, 0.03696, -0.27073, 1.26833, -1.53799, -0.35865}, {-0.32211, 0.43641, 0.61641, 0.2931, -0.16271, -1.66553, -1.0154, -0.47373, -0.25811, 0.04707, 0.05008}, {-1.00624, -0.50558, 0.38032, -0.57102, -0.3759, 0.45421, 0.23314, -0.2932, 0.75112, -1.4047, 0.43129}, {-0.05602, 0.09902, -0.07147, 0.24559, 0.03146, -0.16284, 0.04151, -0.67204, -0.44666, -0.46225, -0.1035}, {-0.08605, 0.02028, 0.16336, -0.04608, -0.02539, -0.01606, -0.05502, 0.14103, -1.77328, 2.06705, 0.22759}, {-0.47194, 0.97038, -0.15128, 1.93953, 0.3815, -0.07317, 0.10141, 0.1887, -0.19013, 0.1095, 0.12275}};
    Double_t biasesL1_40[15] = {1.83186, 1.67442, -2.55028, 1.73364, -2.05776, 2.31508, -2.6791, -1.62011, -0.05, 0.30622, 1.0235, -0.83689, 1.39102, 0.42673, -2.7746};
    nets[40].SetWeightsL1(weightsL1_40);
    nets[40].SetBiasesL1(biasesL1_40);
    
    Double_t weightsL2_40[1][15] = {{1.51964, 1.13501, 2.87743, 0.46687, 0.82814, -0.90883, -0.82262, 1.81756, -1.33535, -2.23935, -0.59846, 0.2165, 0.8788, -1.77082, -1.24549}};
    Double_t biasesL2_40[1] = {2.39533};
    nets[40].SetWeightsL2(weightsL2_40);
    nets[40].SetBiasesL2(biasesL2_40);
    
    Double_t weightsL1_41[15][11] = {{0.01411, 0.13134, 0.02013, 0.23972, -0.02705, -2.01556, 0.3121, -0.01941, -0.107, 0.03417, 0.02705}, {0.10734, 0.3256, 0.80925, 0.79912, -0.01248, 0.19306, -0.49344, -0.37696, -0.11462, 0.05684, 0.56339}, {-0.05172, -1.4479, 0.01802, 0.17878, 0.02096, 0.0512, -0.00624, -0.05018, -0.03911, -0.04641, 0.04195}, {0.47558, 0.53905, 0.5969, 0.04955, 1.03525, -0.11586, -0.45068, 0.28873, -0.22447, 0.1765, -0.02926}, {-0.12638, -0.58282, -0.17801, -0.40424, 0.00449, 0.43022, -0.72975, -0.03997, 0.16839, 0.31029, -0.15666}, {-0.6069, -0.25856, 0.66168, -0.7977, -0.25364, -0.07648, 0.09311, -0.19064, 0.70206, -0.32104, -0.92313}, {0.46132, -0.01132, -0.39786, -0.94427, -0.03359, -0.46025, -0.66724, -2.0747, -0.10182, 0.23804, 0.10312}, {0.08102, -0.13032, -0.1678, -0.07449, 0.06419, -0.08544, 0.11285, 0.10365, -2.26376, 0.67889, 0.0127}, {0.09469, 0.1345, -0.06529, 0.09747, -0.20076, 0.06314, 0.01632, -0.10635, -3.23628, 0.65734, 0.86902}, {-0.00017, -0.01644, -0.02772, -0.04946, 0.03525, -0.05205, 0.00994, -0.27225, 1.28315, -1.76666, -0.22997}, {-0.16463, 0.21635, 0.23936, 0.08889, 0.00876, -1.34213, -0.85426, -0.13483, -0.25727, -0.04874, 0.276}, {0.4108, 0.33402, 0.07614, 0.00853, -0.12404, -0.56969, -0.86595, -1.7363, -0.75829, -0.16057, -0.19229}, {-0.31761, 0.20065, 0.52767, 0.11971, -0.17447, -0.07152, -0.02743, -0.81361, -0.59977, -1.67209, 0.11065}, {0.06123, 0.05113, 0.06798, 0.07499, 0.0652, -0.0225, -0.05628, 0.11506, -1.20201, 1.70425, 0.00392}, {-0.19117, 0.82734, -0.57863, 1.75723, 0.29413, -0.03123, -0.01845, 0.19138, -0.01743, 0.25512, -0.01084}};
    Double_t biasesL1_41[15] = {1.88173, 1.5939, -2.30832, 1.92912, -1.55763, 1.44759, -2.3986, -1.50329, 0.03648, 0.47864, 1.02554, 0.20128, 2.74898, 0.31048, -2.16127};
    nets[41].SetWeightsL1(weightsL1_41);
    nets[41].SetBiasesL1(biasesL1_41);
    
    Double_t weightsL2_41[1][15] = {{1.24193, 1.3291, 2.31537, 0.74636, 0.53585, -0.95088, -0.55109, 1.8024, -1.42866, -2.20167, -0.63277, 0.10512, 0.75106, -2.06839, -0.98069}};
    Double_t biasesL2_41[1] = {1.90669};
    nets[41].SetWeightsL2(weightsL2_41);
    nets[41].SetBiasesL2(biasesL2_41);
    
    Double_t weightsL1_42[15][11] = {{0.25973, -0.0515, -0.08453, 0.11054, 0.0449, -2.38885, 0.24679, -0.10409, -0.19934, 0.07154, 0.0493}, {0.04351, 0.24894, 0.87256, 0.56949, 0.10072, 0.17635, -0.52183, -0.23096, 0.19699, 0.10988, 0.25441}, {-0.05675, -1.10805, -0.02642, 0.2493, 0.08443, 0.02059, -0.01568, 0.08836, -0.00398, -0.03282, 0.0072}, {0.18958, 0.24191, 0.38632, -0.3412, 0.57319, -0.08452, -0.24215, 0.08606, -0.26597, 0.27609, 0.09225}, {-0.65337, -0.29093, 0.39321, -1.11986, 0.08652, -0.08678, -0.28144, -0.73095, 0.3925, -0.3093, -0.83382}, {-0.59319, -0.12892, -0.57884, -1.31951, 0.32135, -0.56641, -0.8678, -0.28198, 0.16355, -0.71939, -0.21962}, {0.0137, 0.07909, 0.04964, -0.77773, -0.0248, -0.08688, -0.40511, -0.97894, 0.08545, 0.05565, 0.20294}, {0.26098, -0.00154, -0.45636, 0.31553, 0.08492, -0.09871, 0.26376, 0.20538, -3.36751, 1.37891, 0.21133}, {-0.03784, 0.09225, 0.10756, -0.0885, -0.06839, 0.1127, -0.01833, -0.2423, -2.88268, 0.18674, 0.49678}, {0.09148, 0.01046, -0.05406, 0.11461, -0.04316, -0.08996, -0.0046, -0.32877, 1.39993, -1.90981, -0.30735}, {-0.34182, 0.18429, 0.60952, -0.10593, -0.11641, -1.66021, -1.32156, -0.17576, -0.46048, 0.14515, 0.26039}, {0.81013, -0.54819, -0.46807, -1.07969, -0.67208, 0.049, 0.42249, -0.88098, 0.5571, 0.13663, -0.01879}, {-0.06858, 0.23514, 0.19626, 0.13934, -0.12586, -0.13562, -0.00664, -0.77028, -0.55516, -0.81788, -0.04613}, {0.01889, 0.05739, 0.02555, 0.0933, 0.00354, -0.06922, 0.05447, 0.06364, -1.06926, 1.40084, 0.03896}, {-0.30395, 0.87382, -0.31819, 2.04686, 0.57787, -0.07595, 0.08923, 0.31171, 0.26177, -0.12076, -0.12366}};
    Double_t biasesL1_42[15] = {2.23987, 1.51495, -2.43481, 1.5788, -1.58246, 4.34411, -1.2876, -2.10837, 0.2457, 0.59673, 0.97765, 0.4916, 1.3343, 0.23032, -3.09665};
    nets[42].SetWeightsL1(weightsL1_42);
    nets[42].SetBiasesL1(biasesL1_42);
    
    Double_t weightsL2_42[1][15] = {{1.06477, 1.58421, 5.62175, 0.98726, 0.48479, -0.59095, -0.91997, 1.55967, -1.47239, -1.65519, -0.43567, 0.16892, 0.83618, -2.16474, -1.45919}};
    Double_t biasesL2_42[1] = {3.81472};
    nets[42].SetWeightsL2(weightsL2_42);
    nets[42].SetBiasesL2(biasesL2_42);
    
    Double_t weightsL1_43[15][11] = {{0.04072, 0.00206, 0.08851, 0.00511, -0.0216, -1.96252, 0.24232, -0.05281, -0.1086, -0.03519, 0.04475}, {0.12802, 0.30993, 0.87657, 0.94378, 0.07869, 0.22101, -0.50605, -0.18693, -0.23288, 0.22682, 0.35411}, {-0.11031, -1.48801, -0.03414, 0.14838, 0.06103, 0.01237, 0.08867, -0.09791, -0.06039, 0.13102, -0.06464}, {0.20716, 0.62409, 1.1481, -0.80184, 1.85462, -0.39847, -0.53042, 0.32815, 0.37106, 0.46594, 0.10194}, {-0.33721, -0.14331, -0.01428, 0.1326, -0.11783, 0.27797, -0.43268, 0.40157, -0.34762, -0.05348, 0.84308}, {-0.58207, -0.22676, -0.19047, -1.21675, 0.07665, -0.25378, -0.10468, -0.14489, 0.09095, -0.5911, 0.01285}, {0.26627, 0.05925, 0.18563, -0.85811, -0.16521, -0.16068, -0.38746, -1.64276, -0.10662, 0.17994, 0.10858}, {0.02737, -0.10873, 0.02553, -0.16569, 0.05071, 0.04359, 0.00418, 0.01643, -1.5931, 0.40564, -0.12799}, {0.0371, 0.11708, 0.006, 0.09607, -0.04017, 0.04094, 0.10234, -0.1555, -3.19332, 0.69245, 0.77559}, {-0.10493, -0.04877, 0.13992, -0.08044, 0.07384, -0.04416, 0.06137, -0.30676, 1.67244, -1.99531, -0.40932}, {0.10405, 0.06058, 0.12878, -0.15243, -0.17568, -1.26751, -1.23386, -0.29556, -0.32621, 0.48839, 0.00787}, {0.42008, 0.74214, 0.45587, -0.56004, -0.5849, 0.62635, 0.01906, -0.52054, -0.03352, 0.75161, 0.20731}, {-0.18122, 0.14865, 0.39662, 0.35419, 0.2595, -0.02259, 0.26375, -0.76749, -0.78931, -0.72409, 0.23922}, {-0.01798, 0.03319, 0.15722, -0.00271, 0.02858, 0.00648, -0.09648, 0.08549, -0.95446, 1.39655, -0.1919}, {-0.51712, 0.91904, -0.27498, 1.8292, 0.17372, -0.03402, 0.30169, 0.06789, 0.52132, 0.05326, -0.21639}};
    Double_t biasesL1_43[15] = {1.83311, 1.39339, -2.29715, 2.43729, -1.49609, 2.79585, -1.93299, -1.33192, -0.05198, 0.72851, 1.33407, 0.32757, 1.39213, 0.31304, -2.44905};
    nets[43].SetWeightsL1(weightsL1_43);
    nets[43].SetBiasesL1(biasesL1_43);
    
    Double_t weightsL2_43[1][15] = {{1.01322, 1.13065, 2.6268, 0.3943, 0.48986, -0.65637, -0.57285, 2.26259, -1.59015, -1.89119, -0.51318, 0.11491, 0.92278, -1.73112, -0.98566}};
    Double_t biasesL2_43[1] = {3.10418};
    nets[43].SetWeightsL2(weightsL2_43);
    nets[43].SetBiasesL2(biasesL2_43);
    
